//Numpy array shape [256]
//Min 0.000000000000
//Max 0.000000000000
//Number of zeros 256

#ifndef B45_H_
#define B45_H_

#ifndef __SYNTHESIS__
bias45_t b45[256];
#else
bias45_t b45[256] = {-0.4794771075, -1.5590691566, 2.2533411980, -0.9295845032, 2.6818499565, -3.3810887337, 7.0531349182, -0.6246767640, 0.9236558676, -0.7576023936, -1.5303236246, -0.2655921578, -0.4068579078, 1.1381633282, -0.6402955651, -0.0417798758, 2.2054841518, 0.1978689283, -1.2648313046, 0.7189906836, 4.5988140106, 4.0389161110, -0.2345158607, -0.3481646478, -0.4056167305, 5.9807410240, -0.8996610641, -0.5092367530, 3.0752162933, 4.5933065414, -0.8257131577, 3.0365996361, 1.5232920647, 1.4105694294, -1.4083712101, 0.2496179938, -0.9279441833, 3.4584512711, -1.1040662527, -1.7469441891, 2.1208267212, 1.3824388981, -2.0012516975, 0.5983598232, 5.1308283806, 2.6928958893, 3.3298349380, -2.9077057838, -1.5434141159, 1.9177031517, 0.4063287079, 1.3704952002, -1.9370082617, 0.9889098406, 1.2131019831, 4.2294926643, 0.0636124462, -0.8959889412, 2.4000825882, -1.0401763916, 0.2179117352, -2.3880023956, -0.1704623699, -3.8326845169, -0.6305021644, 2.2577071190, -1.1628726721, 0.1522658467, 5.6189880371, 0.6121979952, 3.9745039940, -0.2384634912, -2.2151434422, -1.5979804993, 1.1228425503, 0.2248540372, 1.0668044090, -0.4549995065, -0.4126832485, -0.9563689232, -2.3084018230, -0.1405442804, 1.8559799194, -0.2575289011, -0.6428117156, 1.2704973221, -0.2146938443, 0.1099930406, -0.8376908302, 2.5605797768, -0.3090755641, -0.3855030239, 0.4903795719, 1.8938226700, -1.6148194075, 1.8999041319, -1.0555409193, -0.5209062696, 0.3019435406, -0.4460826814, -0.1005461216, 0.6039255261, -0.9331355095, 0.3073457181, 4.7813153267, -0.0740661919, -0.7473264933, 0.9561578035, -1.8642370701, -1.0311502218, -0.1666648239, 5.1916584969, -0.8899141550, 0.5191739202, 0.1189122871, -1.0985060930, -0.2557296753, -1.0133594275, 3.7699780464, 3.3929171562, -2.3287520409, 2.2748110294, -0.2354108393, -0.7167366743, 1.2422813177, -1.5532739162, 0.8635162115, -1.0270640850, -0.3544309139, 2.7540428638, -0.6001375914, 2.1839993000, -1.1085193157, -0.7952073812, -2.2786705494, -3.1452665329, -1.5863127708, -0.6361319423, -0.5673821568, 2.7767975330, 0.4039871097, 1.6577751637, 2.8492369652, -0.9787328839, 11.1358976364, -1.3978624344, -0.4357970953, 1.8122626543, -0.7932426929, 1.1823374033, 2.6946406364, -0.9036080241, -3.4808230400, 2.5831217766, 0.5211774111, 0.6536846757, -1.0650732517, -1.1189185381, 2.2102556229, 0.4538405538, -0.9074603915, -0.5989363790, -0.7759809494, 0.6042014956, -0.9649249911, 0.3074475527, 2.3199520111, -0.1940574944, -0.3446000814, 9.6378889084, 0.1388089210, 2.5316743851, -2.1914689541, 0.3275968432, 0.0160506070, 0.3327388167, 0.3192037046, 0.8424000740, -1.5359659195, -0.7795947790, 0.4091182947, -0.4433494806, 1.5911688805, -1.7864706516, 0.1165536046, -1.6163636446, -2.1821198463, -0.1481411457, 2.0841987133, 0.0140499026, -0.9160377979, -1.0050781965, 0.6545666456, -1.0693800449, -0.5458959937, -0.1206934303, -0.8129414320, -0.3639433384, 0.7110052109, -0.6634812355, 1.7465726137, -1.0055041313, -1.8264746666, -1.0395915508, -0.6179081202, -1.3903585672, -0.2019236535, 1.9948837757, -1.9738708735, -2.2071535587, 1.6093263626, -0.3879081905, -0.1530471444, 0.9039183855, -0.5780200958, -1.6190625429, -0.7233948112, -3.4221131802, -0.5961599946, -1.0826712847, -1.9576115608, -0.8340550065, 0.7036862373, 2.7823314667, 0.6098532677, 1.4759945869, 1.0017892122, -0.2258549035, -1.3286392689, -0.7762306929, -0.9658489823, -2.5436191559, 1.4341226816, -0.2952569723, 0.3445222974, -0.8804396987, -1.5816500187, -0.8608354330, -0.7297496200, 0.0917741507, 3.2287106514, 0.4033601582, -0.2725830972, -0.1781303585, 3.2953441143, -0.0005140230, 0.0134861469, 4.1140165329, -0.1584391743, -0.7800883055, -1.1262807846, 1.3186397552, -0.1135871187, 1.8508925438, -0.2461072206, 0.9266591072};
#endif

#endif
