//Numpy array shape [3, 3, 32, 32]
//Min -0.395920008421
//Max 0.278884172440
//Number of zeros 0

#ifndef W13_H_
#define W13_H_

#ifndef __SYNTHESIS__
model_default_t w13[9216];
#else
model_default_t w13[9216] = {-0.0102289040, 0.0291241277, 0.0181725342, 0.0191896465, 0.0226820558, 0.0076297214, 0.0018949599, 0.0102173854, 0.0003276457, 0.0053249155, 0.0343326181, 0.0003351666, -0.0004700069, 0.0130197108, 0.0090305861, -0.0157583859, 0.0237280149, 0.0355590321, -0.0040520048, 0.0056406292, 0.0175576787, -0.0037165920, -0.0076714610, 0.0306401867, -0.0068791793, 0.0116746109, -0.0034269367, 0.0137809003, 0.0291523915, 0.0114477510, -0.0024317296, 0.0343449861, -0.0072742295, 0.0250136778, 0.0157463923, 0.0210923366, 0.0213152058, -0.0289312731, 0.0026027025, -0.0254361443, -0.0367444828, -0.0014994961, 0.0068792515, -0.0008829071, 0.0328794830, 0.0058929138, 0.0063350527, 0.0037218735, 0.0301032178, -0.0024582846, -0.0028379732, -0.0074433582, 0.0055500213, 0.0170012210, -0.0114365267, 0.0027957198, 0.0071689622, -0.0222269762, 0.0207106173, 0.0054802904, -0.0014522073, -0.0079524098, -0.0290491786, 0.0161688253, 0.0284656566, -0.0036738487, 0.0092224069, -0.0090845339, 0.0166956708, -0.0006268666, 0.0018569980, 0.0156500470, -0.0236176010, -0.0142748803, 0.0057124528, 0.0388086103, -0.0172647908, 0.0084710661, -0.0188631210, 0.0133236637, -0.0111604389, 0.0158218537, -0.0091140652, -0.0089355502, 0.0218481421, -0.0209059548, 0.0051194532, 0.0273700431, 0.0137039097, -0.0006949531, -0.0013566804, 0.0118889688, 0.0146367289, -0.0215881318, -0.0040779281, 0.0140649397, -0.0472480580, 0.0006105065, 0.0370514356, 0.0005642500, 0.0175766107, 0.0096351495, -0.0424537882, -0.0202103909, 0.0022919015, 0.0543791577, 0.0183833968, 0.0150378058, 0.0001849360, 0.0063710394, 0.0069277016, -0.0281827226, -0.0115305586, 0.0212922134, -0.0073230327, 0.0043192375, 0.0057506640, 0.0133605804, -0.0388863459, 0.0112582790, 0.0207480304, -0.0236618165, 0.0080798985, 0.0013872390, 0.0329942517, 0.0129699539, 0.0071755922, 0.0393327661, -0.0329813659, -0.0055641076, 0.0302854963, -0.0135766594, 0.0238741972, 0.0225531459, 0.0065718191, 0.0028875426, -0.0058309403, 0.0152446823, 0.0218603536, -0.0103248004, -0.0237978678, -0.0227902625, -0.0131161772, -0.0380545035, -0.0041959137, 0.0101826014, -0.0266967434, -0.0222889762, 0.0083341114, 0.0047472054, -0.0315040238, 0.0115650659, -0.0203688107, -0.0051391851, 0.0019738339, 0.0029138909, 0.0056124413, -0.0003726393, 0.0194952954, 0.0175040998, -0.0092333080, -0.0057400051, 0.0440591201, -0.0326603949, 0.0287755802, 0.0160111003, -0.0257701837, -0.0210680086, 0.0027818512, 0.0240915269, -0.0158025883, 0.0138343610, -0.0055976748, -0.0092262048, 0.0055782134, -0.0282673277, -0.0061688372, 0.0096819168, -0.0052977428, 0.0074650887, -0.0068545984, 0.0090040108, -0.0223750323, 0.0174919870, -0.0029732431, 0.0061775083, -0.0282162447, 0.0455851033, 0.0055941730, -0.0041072913, 0.0035689063, 0.0062839407, -0.0245073959, 0.0091323508, 0.0327368975, -0.0237767436, 0.0050262846, 0.0150166107, -0.0039703161, 0.0055041495, 0.0030557823, -0.0102338316, 0.0041020541, -0.0104092332, -0.0127271255, 0.0073012994, -0.0114390766, -0.0115476074, -0.0011180579, 0.0080126598, -0.0315027721, 0.0285091046, 0.0038912327, -0.0074693938, -0.0395254344, 0.0303691514, -0.0127953887, 0.0147236250, -0.0054276912, 0.0147619052, 0.0332056582, -0.0202850327, 0.0138843833, 0.0079259668, -0.0211012885, 0.0020645615, 0.0077459393, -0.0503272861, -0.0266615525, -0.0206322148, -0.0119708385, -0.0214107521, 0.0203728359, -0.0224257596, 0.0026562484, 0.0091485893, -0.0246145334, 0.0152002545, 0.0102376845, -0.0295501165, -0.0071261213, 0.0134230824, -0.0257880501, 0.0007925546, 0.0151732164, 0.0005765968, -0.0271857604, 0.0281501040, -0.0034793827, -0.0067033507, 0.0002153328, 0.0031908122, 0.0173884630, 0.0062881964, 0.0058048344, -0.0132836960, -0.0087969899, -0.0186127182, 0.0293191709, 0.0016266803, -0.0199267380, -0.0161952432, -0.0025168455, -0.0216359682, 0.0274569858, -0.0092473244, 0.0049432246, 0.0026837070, -0.0172945671, 0.0108338529, -0.0268697552, 0.0032706566, -0.0032589505, 0.0251089875, -0.0110725844, 0.0061182198, 0.0208345409, 0.0129188923, -0.0076215034, 0.0256513599, 0.0110988654, 0.0288120583, 0.0201348308, 0.0132864658, 0.0208635218, 0.0170346312, 0.0166578405, -0.0178108327, -0.0969765335, 0.0079987720, -0.0124154575, 0.0159280002, 0.0810872018, -0.0744847953, -0.0143132042, 0.0320533998, -0.0848255083, -0.0337135084, -0.0491045974, -0.1933666915, -0.1449204087, -0.1127656102, 0.0072732777, 0.0110484911, 0.0924963802, 0.0440163948, -0.0055411370, 0.0606879033, -0.0766199231, -0.0051474459, -0.0823043287, -0.0429078639, 0.0089916615, -0.1786731780, -0.0137444455, -0.0058997162, -0.0589757264, -0.0106175700, -0.0406693481, 0.0912567005, 0.0232383385, 0.0288280770, -0.0393953212, 0.0074486653, -0.0144672450, -0.0442098603, 0.0544153675, -0.0825946555, 0.0529069714, -0.0487643257, -0.1704628319, -0.0585783310, -0.0335214697, 0.0270660538, 0.1047681049, -0.0286025684, 0.0555228777, -0.0357707255, -0.0336085074, -0.1109835356, -0.1287836879, -0.0917290673, -0.0874982774, 0.0977725983, -0.0954494029, -0.0552317388, -0.0284693744, 0.0591754504, -0.0652655959, 0.0181612186, 0.0425768979, 0.0123596191, 0.0770497918, 0.0979017690, 0.0474482030, -0.0071209851, 0.0239967238, 0.1178221330, -0.0023698392, 0.1219394803, -0.0896962360, -0.0094680861, -0.0122428108, -0.1336463243, 0.1202585772, 0.0812217519, 0.1635525376, -0.0426949300, 0.0106177395, -0.0205873102, -0.0003133104, -0.0592566244, -0.1037771329, -0.0485384986, -0.1235666126, 0.0172464419, -0.1056262180, -0.0512241572, 0.0361276828, -0.1388558894, -0.0231720433, 0.0486939363, 0.1871576458, 0.0687358156, 0.1081544757, 0.0082437070, -0.0188133307, -0.0263187028, 0.1668121964, 0.0094670719, -0.0135622574, -0.0277075469, 0.0009552558, 0.1439900100, -0.0178731829, -0.0425522365, -0.1917285621, 0.0082999673, -0.0638668910, 0.0060588978, -0.0565481819, -0.0872790217, -0.1058781072, 0.0073046945, -0.1490367502, 0.0029555010, -0.0567956939, -0.0645108968, 0.0244157389, 0.0398087204, -0.0566469282, 0.0449652597, 0.0314511172, -0.0662000328, 0.1238683164, 0.0761497691, 0.0995240584, -0.0586824603, -0.0044940724, -0.0218240321, 0.1080168709, -0.0078895101, 0.0628626570, -0.0154871764, 0.0568797700, 0.0306845754, -0.0203835983, -0.0605506115, -0.0298522040, -0.0832468569, -0.0919732377, -0.1299558133, -0.1036487818, -0.0291458573, -0.0284639131, 0.0427503549, -0.1021382585, 0.0335932784, 0.0223591682, 0.0296716355, -0.1983366013, -0.1142518669, -0.0347429328, 0.1154401153, -0.0193142537, -0.0820128843, 0.0170478038, 0.0597900301, 0.0136132566, 0.1020418555, -0.0441431776, -0.0391439535, 0.1080705449, 0.0612462312, -0.0166318417, 0.0821013972, -0.0899356306, 0.2555302978, -0.1194295511, -0.1201097891, -0.0182812084, 0.0514426120, 0.0916182175, -0.0565856919, -0.0772030130, -0.0443908051, -0.0109099392, -0.0627311468, -0.2667163908, -0.0439310409, -0.0541606173, 0.0733865872, 0.0341595933, -0.0898101404, 0.2105649561, -0.0737901181, 0.1249547973, -0.0003338970, 0.0776906237, 0.0492776595, 0.1179487184, -0.0265095700, 0.0311870463, 0.0407618396, 0.0441497415, -0.0060439631, -0.1086570844, 0.0031336383, -0.1152951568, 0.0557813495, 0.0274294931, -0.0534993000, -0.1486042291, 0.0005931443, -0.0750878453, -0.0339869931, 0.0700013340, -0.0353257097, 0.2081830949, 0.0568011254, -0.0634966791, 0.0148118865, 0.0595429465, -0.0047306470, 0.1034501418, -0.0092661185, -0.0114697339, 0.1333444566, 0.1056195199, 0.0360404737, -0.0251507908, -0.1441550255, -0.0273442548, -0.0017518991, -0.1507488936, -0.0364648364, -0.1504569799, -0.1144274697, -0.0016501017, 0.0083254920, 0.0844301730, -0.0996946394, -0.0016831837, 0.1408070177, 0.0142131848, 0.1352432966, -0.1480393112, 0.0057734619, -0.0941781625, -0.0578761213, 0.0845832378, -0.0023605637, -0.0045217453, -0.1716430634, 0.0455364548, -0.0603655204, -0.1137566194, -0.0979084522, -0.0183872320, 0.1869313419, -0.1600628197, -0.0466837808, -0.0282537565, 0.0410158038, -0.0283726938, 0.0130144786, 0.0836415216, -0.0791360885, -0.1098147780, 0.0309656654, -0.1058496162, -0.0030635726, -0.1345774233, 0.1607956886, 0.0552574806, -0.0903889462, 0.0330535099, 0.1613730341, -0.0246902499, -0.0353441946, -0.1461078376, -0.0090758158, 0.1083830893, -0.0223448891, -0.0631224737, 0.0023001628, 0.0262885746, 0.0108477958, 0.0602477677, 0.0036504040, -0.0569548532, 0.0148198074, -0.0350369178, 0.1296944767, -0.0106221549, -0.0657215342, -0.0015067103, 0.0466439277, 0.0147604579, 0.0012603308, 0.0322136469, 0.0053381766, 0.0006211107, -0.0046357489, 0.0223408826, -0.0078082457, -0.0293272864, -0.0036434445, 0.0110228630, -0.0673493519, 0.0064206421, 0.0026587306, 0.0287455898, -0.0170412809, 0.0373756811, -0.0105149103, 0.0790154561, -0.0199997909, -0.0282760188, -0.0200939961, -0.0267185401, 0.0027744472, 0.0190383717, 0.0202929061, -0.0465012342, 0.0392347500, 0.0366873071, 0.0516026504, -0.0570634268, 0.0439829603, -0.0021346002, -0.0314867198, 0.0814947188, -0.0044305157, -0.0031161779, 0.0119339544, 0.0471777916, -0.0618519671, 0.0489601828, -0.0054366258, -0.0012851476, -0.0087957336, -0.0207236931, -0.0240799095, 0.0274277851, -0.0328556262, -0.0297948327, -0.0240124762, 0.0616147220, -0.0413089879, -0.0220366158, -0.0187976882, 0.0250344668, 0.0237223618, -0.0143112428, -0.0003445862, -0.0199115761, 0.0082425494, 0.0146321896, 0.0359693244, -0.0441921875, 0.0397540964, 0.0339674018, -0.0396454148, 0.0327703394, 0.0430001952, 0.0089549068, 0.0515975580, -0.0061901878, -0.0290899575, -0.0076961447, 0.0924205557, 0.0198011640, 0.0059102923, -0.0242924821, -0.0354456604, -0.0088146729, 0.0068147178, 0.0021489360, -0.0006337542, 0.0283153169, 0.0168586224, -0.0150843551, 0.0126114674, -0.0478940643, -0.0074945530, 0.0294343736, 0.0798951089, -0.0475656502, -0.0002914920, -0.0505339690, 0.0004790934, -0.0678541958, 0.0610129423, 0.0089683309, -0.0628104284, 0.0080634765, 0.0216945279, -0.0275880322, -0.0674795434, 0.0241307542, -0.0228609592, 0.0363567322, -0.0202535111, 0.0174045861, -0.0165095665, 0.0368611030, -0.0295708235, -0.0243118405, 0.0198502913, -0.0630995557, 0.0566853583, 0.0012225058, -0.0670680925, -0.0473599955, 0.0172731094, 0.0281719510, 0.0405883640, 0.0099866902, 0.0333434381, -0.0089274328, 0.0522136576, 0.0175306685, -0.0319460258, -0.0539791919, 0.0347544402, 0.0297723543, -0.0341233909, 0.0971020311, 0.0286831502, 0.0256024636, -0.0135144936, 0.0252673216, -0.0238249134, -0.0230692849, -0.0130433608, -0.0048388038, -0.0276069026, -0.0175927226, -0.0456962250, 0.0029352924, -0.0015018362, -0.0266976543, 0.0127315503, -0.0428482741, -0.0250979830, -0.0416006483, 0.0220747050, -0.0237438176, -0.0048006177, 0.0059471917, 0.0306528639, -0.0061865849, 0.0117652072, -0.0201198850, -0.0075973230, -0.0574696064, 0.0182691645, 0.0151498187, -0.0415498801, -0.0227517541, 0.0091257477, -0.0190347172, -0.0526672825, 0.0085146828, -0.0342722982, 0.0235503763, 0.0619388744, 0.0236600693, 0.0214774236, 0.0057156081, -0.0238496102, -0.0111469580, 0.0025205419, -0.0396364890, -0.0411732681, 0.0015677073, 0.0267952215, -0.0988127440, 0.0819103718, -0.0013345871, 0.0453223772, 0.0215983186, 0.0082258321, -0.0327097140, -0.0116463313, 0.0642886311, 0.0215244628, -0.0684250742, 0.0151611054, 0.0037866165, -0.0099621061, -0.0206785873, -0.0158415511, 0.0043663708, -0.0050141057, 0.0514108837, -0.0501135066, -0.0247255415, -0.0067833043, 0.0086728185, -0.0332060196, 0.0439616814, -0.0117726680, -0.0192792490, 0.0363680869, -0.0232423339, 0.0336366668, 0.0034702111, 0.0289818980, -0.0296465699, 0.0176356435, -0.0045793671, -0.0278530810, 0.0235539116, 0.0184996501, -0.0010176244, 0.0400997885, 0.0278586950, -0.0209979042, -0.0769193694, -0.0188882146, 0.0106575331, 0.0210082848, 0.0441672727, 0.0199007150, 0.0127330068, 0.0194440316, -0.0118717747, -0.0486883447, 0.0468205921, -0.0184272770, 0.0270207003, 0.0137646366, -0.0304750726, -0.0650440007, 0.0064343004, 0.0084198173, -0.0223504920, -0.0049909130, -0.0774321407, 0.0139476238, -0.0078572389, 0.0277867541, -0.0151432706, 0.0557176434, 0.0041610613, 0.0121939322, 0.0070146588, 0.0170300938, 0.0196977686, 0.0184495598, -0.0826679990, 0.0005895542, 0.0224602148, 0.0137283541, 0.0000786188, -0.0310835540, -0.0031121639, 0.0685968921, -0.0326959379, -0.0033967660, 0.0104389274, -0.0373855457, -0.0331238471, -0.0168016832, -0.0351912454, -0.0728589222, -0.0179931093, 0.0345868021, 0.0026915029, -0.0215991326, -0.0332003050, 0.0139596844, -0.0152551150, 0.0554017201, -0.0110285059, -0.0105642648, 0.0661177710, 0.0567907766, 0.0288406946, -0.0239291824, 0.0239071269, -0.0280714501, 0.0625202432, 0.1199937463, 0.0083121592, 0.0171704944, 0.1928750873, -0.0280902255, -0.0453083515, -0.0118728839, -0.0323272906, -0.0601990893, -0.0135953482, 0.1287225932, -0.0466945730, 0.0529527366, 0.0738904923, -0.0545334853, 0.0732019320, -0.0073351194, -0.1008181944, 0.1008484364, -0.0125026675, -0.0378570557, 0.0532350019, -0.0258178469, 0.0966676995, -0.0738964975, 0.0341386385, -0.0460611694, -0.0240033381, -0.0643288046, -0.0199668668, 0.1038776115, -0.1012107208, 0.0787764937, 0.0642651916, 0.0054475763, 0.0985847935, 0.0311823487, -0.0866236463, 0.0465977602, -0.0514980443, -0.1319944412, -0.0106013622, 0.0199602097, -0.0464895852, 0.0610839427, -0.0213906337, -0.0417925641, 0.0014194491, 0.0496590100, -0.1042322889, 0.1391745210, 0.0734960139, 0.0088107409, -0.0407345966, -0.0270669311, 0.0185322519, 0.0301866829, 0.0061635482, -0.0639334098, -0.0277596302, 0.0832095072, 0.0736036003, 0.1064149141, 0.0381854661, 0.0673233196, 0.0291779507, 0.0066378657, 0.0047893436, -0.0982812271, -0.0804438218, 0.0126065584, 0.1185165569, 0.0525073484, -0.0092623215, 0.0475976951, -0.0473754741, -0.0107206944, -0.0275040567, 0.0692270473, 0.0256596338, -0.0227939170, 0.1974537671, -0.0300922766, 0.0407321528, -0.0641485378, -0.0542139597, 0.0121938298, 0.0403183214, -0.0272203032, 0.0052439296, 0.0137544163, -0.1251644790, -0.0305135939, 0.0757989138, 0.0437436700, 0.0754725039, 0.1720418334, 0.0456051938, 0.1040929258, 0.0798486546, 0.0533666573, 0.0043950113, 0.0278102681, 0.0208347309, 0.0744564682, -0.1099279150, 0.0132606737, -0.0222340766, -0.0824928805, 0.0914078057, 0.0266004670, 0.0645083040, 0.0166193713, 0.0858567804, 0.0015393728, 0.0423828624, -0.0227920152, -0.0458719321, -0.0017674682, -0.0310452972, -0.0610804185, -0.0154073099, 0.0063359728, -0.0274598487, 0.0576223135, 0.0264026150, -0.0031349850, 0.0544609614, 0.0578320660, -0.0058189910, 0.0072002788, -0.1046908572, -0.1386804730, -0.1194783822, 0.0374899693, 0.0236210730, 0.0183367059, -0.0523566045, 0.0591259077, 0.0269202068, -0.0368647687, 0.0434337184, -0.1652899683, 0.0276380889, -0.0734074116, 0.0438555591, -0.1167964041, 0.0437210314, -0.0153469751, -0.0535865054, -0.0686393604, -0.0795429796, 0.0430024154, 0.0182313994, -0.0003053162, -0.0149276480, 0.0513802171, 0.0094022788, 0.0957882181, 0.0684257597, 0.0572418235, 0.0521648750, 0.0367828608, -0.1232884526, 0.0099085448, 0.0015102678, 0.0285253301, -0.0593411028, 0.1082796603, -0.0320439823, 0.0021712277, -0.0564994626, -0.0285956673, 0.0323220827, -0.0135002937, -0.0139258998, 0.0381514840, 0.0086372523, -0.2126439214, -0.0211256314, 0.0078969104, -0.0495665409, 0.0618251748, -0.0789830908, -0.0081023751, -0.0092069171, -0.0853051841, -0.0164121632, 0.1011675373, -0.0366407000, 0.0767497495, 0.0335645117, 0.0532051772, -0.0207114331, 0.0260101873, 0.0963171944, -0.0601680018, -0.1220806614, -0.0363057889, 0.0004453157, -0.0418487415, 0.0300997365, 0.0168035310, -0.0940480381, 0.0277277399, -0.0145036541, -0.1139380410, -0.0362035781, -0.0086948015, -0.0100493720, 0.0311647337, -0.0926022530, -0.0006639839, 0.0324558094, 0.0209160391, 0.0047091306, -0.0177605879, -0.0121181021, -0.0142485881, 0.0438836291, -0.1400507838, -0.0238168370, 0.0038945202, -0.0902998596, 0.0304216463, -0.0266724266, -0.0702627078, -0.0114600258, 0.0772551224, -0.1162633747, -0.0939892009, 0.0811377913, -0.0581948869, -0.0862841457, -0.0150373438, -0.0963075906, 0.0294144992, -0.1031469405, -0.2560569644, -0.0472045243, -0.0380370133, 0.0061338013, -0.1208558828, -0.0093587348, 0.0051476653, 0.0003535707, -0.0495489836, 0.0584745221, -0.0054933885, -0.0102125574, 0.0298694223, 0.0168904494, -0.1081726328, 0.0772563145, -0.0069641448, -0.0419866666, 0.0639159456, -0.0181681626, 0.0085206982, 0.0484461077, -0.0469033867, -0.0962794870, -0.0350782722, 0.0593201108, 0.0829403549, -0.0746942386, 0.0111148655, -0.1048449576, 0.1050907746, -0.1720258445, -0.0189082529, -0.0336086564, 0.0365701653, 0.0606826618, -0.0903296322, -0.1423106939, -0.0448435359, -0.1281637400, 0.0856212154, -0.0155312410, -0.0991010070, -0.0236216336, 0.0362687036, -0.0112178894, -0.1113226339, 0.1585896164, -0.0162551794, 0.0447592922, -0.0068258871, -0.1476922631, 0.0634866208, 0.1295573711, -0.0718251616, -0.0319865607, 0.0387576297, 0.1085733548, -0.0492481776, -0.0420077741, -0.0374492668, 0.0314178802, -0.0018588840, 0.0738492608, 0.0089399405, -0.0612735450, 0.0085020550, -0.0334454812, 0.1520765573, 0.0051434734, -0.1058796346, 0.0777183324, -0.0219050627, -0.0508583710, 0.0143317888, 0.0050704004, 0.1245533302, 0.0046818675, 0.1129198521, 0.1063380316, -0.0043119951, 0.0408648364, 0.0002641522, -0.1095710173, -0.0126565397, -0.0540760830, -0.1116442755, -0.1477401257, -0.0054249768, 0.2242273390, -0.1071363688, -0.0704407096, 0.0653822869, 0.1073968038, -0.0246936250, 0.0883093551, -0.0429605469, -0.0504627675, -0.0553409122, 0.0504259206, 0.1111245528, 0.2157529742, 0.0558668710, 0.0896386653, 0.0711016804, 0.0078264317, 0.0031584702, 0.0665556937, 0.0086315023, -0.0087236613, -0.1784617603, 0.0863434598, -0.0430456065, -0.0042066975, 0.1446886957, -0.1078704968, -0.0846980587, -0.0590587370, 0.0030201424, -0.0673487410, -0.0276189335, 0.1296478957, -0.1846920848, -0.0816370770, -0.1029472500, 0.0496776849, 0.1301508397, -0.0860732496, 0.0378168561, -0.1160589755, -0.1626676470, 0.0318874270, 0.1152569577, 0.0667196214, 0.0656663999, 0.2112108618, -0.0653727651, -0.0632413849, -0.0886510238, -0.0788828954, -0.0283449925, -0.0271294061, -0.0629718006, 0.1826919913, -0.0588116013, -0.1237121224, -0.1259395480, 0.0581848025, 0.0546384007, 0.1743488014, -0.1268936843, 0.0397205353, 0.0864084214, 0.0131699471, 0.0906533301, -0.1726008505, -0.1464378238, -0.1245929524, 0.0980731994, 0.1673286557, 0.0321827084, 0.0448215678, 0.0049899342, -0.0362684727, -0.0121523859, -0.0134470854, -0.1410996914, 0.0966371074, -0.0536634102, -0.0684250444, -0.0153437424, -0.0844442621, 0.0470751002, -0.0124661522, 0.1763336211, -0.1926997155, 0.0801483616, 0.1346822828, -0.0395292379, -0.0837650746, -0.0426415130, 0.0074699917, -0.0559052378, 0.0058039529, 0.0431929678, 0.0140947029, -0.0935983136, -0.0130425021, 0.0512336679, -0.0630985200, -0.0223725829, 0.0747523978, 0.0030839776, 0.1121288687, 0.0356611796, -0.0057331738, 0.1007103398, -0.0962634832, -0.0703491643, 0.0437088087, 0.1264452785, 0.0298073348, -0.1286251247, -0.0969057679, 0.0691044182, 0.0475282557, -0.2505783737, -0.0799536034, -0.1008334085, -0.0424337909, -0.0175981019, -0.0313843042, -0.0784544945, 0.1038909405, -0.1266008466, -0.0256153233, 0.0100606484, -0.0930843577, -0.1868076324, 0.0014127021, 0.1515830904, 0.0028293687, -0.0171001833, 0.2520696521, 0.0769434497, -0.0650129914, -0.0578498319, 0.1003659070, -0.0526140817, 0.2005130500, -0.0551277027, 0.0615103394, 0.0378559977, -0.0799989104, -0.1030814201, -0.1299544424, -0.0208555330, -0.1324776411, -0.1532196701, -0.0193749499, -0.0438258387, 0.0992433503, -0.0145075517, 0.1416903138, 0.1306643635, 0.1643501371, 0.0049718753, 0.0097116083, 0.0608508810, 0.0394478589, 0.0757353008, -0.0882128105, 0.0093061877, -0.0504094101, 0.0401718542, -0.0009557035, -0.0084111597, -0.0305469651, 0.0111575639, 0.1009762660, -0.0026704783, 0.0266584530, -0.0530820265, 0.1166915968, 0.0077000964, 0.0252753440, -0.0046874681, -0.0687728599, 0.1374325901, 0.0228710212, 0.1845364273, -0.0812335536, -0.0011589247, 0.1815987676, -0.0757698417, 0.0138542978, 0.0935607627, 0.1012393236, 0.1882869899, -0.0863445178, 0.1096076965, 0.0918529034, -0.0356925614, -0.0440823883, 0.0087629808, -0.0938402861, -0.0987269282, -0.1122242734, 0.0072972970, 0.1998923570, 0.1088047475, 0.0906400234, 0.0351848453, 0.1185017228, -0.0226631574, 0.0392589606, 0.0097185597, -0.0059344633, 0.0694774017, -0.0728146657, 0.0567987375, 0.0224665161, 0.0065819025, -0.0472412519, -0.0059422860, -0.0881320834, -0.0158859473, 0.0294858236, 0.0600378737, 0.0857639387, -0.0356863253, 0.0491587818, 0.0048206481, 0.0655720010, -0.0203709323, 0.0162994228, 0.0273262877, 0.0899684802, -0.0945344269, -0.0801975131, -0.0269676466, 0.2241388410, 0.1165092289, 0.0110640014, 0.0606122054, 0.0088043511, 0.1203814149, 0.0378958136, -0.0453985445, -0.0173948519, 0.2416109294, -0.0719367564, -0.1188493222, -0.0726429746, 0.0042349328, 0.0276152175, -0.0796458051, 0.0087611349, -0.0209197197, -0.0177181736, 0.0576782003, -0.0662446544, 0.0497619398, 0.0320910737, -0.0656676888, -0.0005903756, 0.0245967098, -0.0442545936, -0.0269749835, 0.0184622556, -0.0247007795, -0.0083695576, 0.0106679006, -0.0171148237, -0.0317993239, 0.0130389240, -0.0663573369, -0.0581942014, -0.0027335652, -0.0299398303, -0.0537917465, 0.0384518616, 0.0013357932, -0.0159277059, 0.0050742384, -0.0101088183, -0.0093760202, -0.0298049189, 0.0508231074, 0.0333553851, 0.0152890617, -0.0194649734, -0.0479144827, -0.0599160306, 0.0189744141, -0.0147814136, -0.0029118098, -0.0013598824, 0.0491257310, -0.0679326132, -0.0007213021, -0.0162922181, 0.0366988033, -0.0004920453, -0.0338036641, -0.0504653752, 0.0275004022, 0.0154418377, -0.0307687689, -0.0926804021, -0.0055299266, 0.0175150800, -0.0298887957, -0.0013871469, -0.0006545862, -0.0090965247, -0.0226159208, -0.0120570399, 0.0212328210, -0.0067330236, -0.0220985096, -0.0267326757, -0.0460527539, 0.0056362851, -0.0257074889, -0.0509148501, 0.0266281199, -0.0596017502, -0.0097708022, 0.0706173256, -0.0240916740, -0.0292683672, -0.0073222499, 0.0617130622, -0.0201480426, 0.0855740309, -0.0113147385, -0.0411508903, -0.0242357384, 0.0100509105, -0.0232859980, -0.0279947128, 0.0348152258, 0.0226865280, -0.0052508474, 0.0238090660, -0.0063002137, 0.0588206202, -0.0498782992, -0.0290319230, -0.0091379229, -0.0021225733, -0.0368469320, -0.0427549742, 0.0033143028, -0.0638875440, 0.0301764179, -0.0528901927, 0.0316530541, 0.0663719624, -0.0629584864, -0.0263543632, 0.0132839354, 0.0123164784, -0.0252750255, -0.0137959812, -0.0618058592, 0.0226638280, 0.0016930526, -0.0235289652, 0.0060101543, -0.0222944524, -0.0251847357, -0.0417948887, 0.0099013783, -0.0580568016, -0.0319000185, 0.0344162919, -0.0077300202, 0.0343302749, -0.0567692332, -0.0342576467, -0.0588345043, 0.0007721751, -0.0254212823, -0.0813777670, -0.0465036891, -0.0244033616, -0.0027634383, -0.0209301841, 0.0107060000, 0.0441183783, 0.0236518197, -0.0657327175, 0.0143089481, -0.0575595833, -0.0201728884, 0.0332379118, -0.0145759461, 0.0909501314, -0.0177321676, 0.0091773318, 0.0035023605, -0.0387752391, -0.0523107685, -0.0416794419, -0.0001292135, -0.0482223555, -0.0638130456, -0.0021264430, -0.0283223074, -0.0331479758, -0.0257217549, -0.0470971428, -0.0456579328, -0.0009967207, 0.0050498559, -0.0471480601, -0.0588335022, 0.0044849031, 0.0127835413, 0.0002993120, 0.0143771749, 0.0075122761, -0.0107691735, -0.0272857454, 0.0281953160, -0.0174905639, -0.0666192099, 0.0060419501, 0.0464243293, 0.0306963883, -0.0220605843, -0.0102024553, 0.0239265114, 0.0163214393, -0.0149276238, -0.0271860585, -0.0039358973, -0.0099704871, 0.0096060326, 0.0170107502, 0.0210770145, 0.0231187381, -0.0087157190, -0.0318384096, -0.0365626551, -0.0090799350, -0.0224513486, 0.0262313690, 0.0893695727, -0.0489684008, 0.0116351377, -0.0182745475, 0.0170352552, 0.1047159955, 0.0097444979, 0.0018332277, -0.0422978252, -0.0181553978, -0.0201164149, -0.0215522852, -0.0634923801, 0.0533855371, 0.0002598177, -0.0321498699, -0.0112359114, -0.0210882798, -0.0010519939, -0.0620935708, -0.0107028838, -0.0217865463, 0.0186835844, 0.0093554985, -0.0356232151, 0.0317765325, 0.0210077856, -0.0108312871, -0.0264128093, -0.0289271791, -0.0617479309, 0.0272567142, -0.0069798334, -0.0488274321, 0.0386320204, 0.0083521521, 0.0184908845, 0.0805241838, -0.0243849568, -0.0388209485, 0.0247316472, -0.0577579848, -0.0389804617, -0.0304511003, 0.0408747606, 0.0072044809, -0.0376963802, 0.0140694985, -0.0351206139, -0.0499769896, -0.0091504892, -0.0026341733, -0.0265423805, -0.0347758383, 0.0448888391, 0.0221818294, -0.0431233086, -0.0035617866, -0.0517101809, -0.0391079076, 0.0555291586, -0.0807013139, -0.0779805556, -0.0133000193, -0.0434120931, -0.0292106159, 0.0076405769, -0.0144841680, -0.0135303698, -0.0394479893, -0.0414507352, 0.0623388402, 0.0393091142, -0.0074653002, 0.0225076899, -0.0119641088, -0.0200891457, -0.0021237985, 0.0056402949, 0.0353940092, -0.0015358587, -0.0105749983, -0.0110759102, -0.0007002847, 0.0416476801, -0.0086064609, 0.0796853602, -0.0011868409, -0.0161042828, 0.0280408245, -0.0685101673, -0.0508378968, 0.0010670855, -0.0482472293, -0.0469454490, -0.0472161286, 0.0013541857, -0.0281945057, -0.0086807478, -0.0195744764, -0.0000066325, 0.0247533359, -0.0260395817, 0.0047157449, -0.0124462405, -0.0109877978, 0.0500334650, -0.0541967899, -0.0454749614, 0.0115064867, 0.0070594484, 0.0190834291, -0.0375430174, -0.0049193408, 0.0210555848, 0.0147907585, 0.0225061513, 0.0098579284, -0.0005050218, 0.0518694334, -0.0271517802, 0.0050630067, 0.0051786732, -0.0352141298, -0.0085944580, -0.0106409695, -0.0218963996, -0.0470607392, -0.0080659278, -0.0365941748, -0.0150794070, -0.0201718099, 0.0188864991, 0.0424282700, 0.0068614208, 0.0437513217, -0.0283872653, -0.0427780785, 0.0433046669, -0.0224548001, -0.0212650206, -0.0006412235, -0.0291845836, -0.0103228018, 0.0004390589, -0.0304417368, 0.0010445151, -0.0049187518, 0.0524367318, 0.0117781470, 0.0163545012, 0.0672531724, 0.0118688839, 0.0120957643, -0.0197537690, -0.0351387076, 0.0197015982, 0.0080922022, -0.0308857411, -0.0471969284, -0.0020084833, -0.0344707705, 0.0049766661, -0.0234959181, 0.0292128343, 0.0022380780, 0.0203074608, 0.0547809191, -0.0153572392, -0.0153908841, 0.0268671922, -0.0223290231, 0.0607969537, 0.0220980924, -0.0165574737, -0.0359226428, -0.0287496988, -0.0134357968, 0.0116007244, 0.0085886735, 0.0145611363, -0.0087634213, 0.0300576966, -0.0012506791, -0.0137240589, -0.0222083647, -0.0095325839, 0.0065996405, -0.0090784533, -0.0013108895, 0.0156786088, -0.0119984644, -0.0325720236, -0.0242239498, 0.0398383029, -0.0007373480, 0.0273766648, 0.0562671721, 0.0032434408, 0.0306403879, -0.0028455446, -0.0087569365, -0.0005656636, -0.0282415450, -0.0283564441, -0.0265972242, -0.0094851526, -0.0165983271, -0.0278150681, -0.0019538854, 0.0343772285, 0.0335904583, -0.0026636594, 0.0179416724, -0.0409794040, 0.0057638879, -0.0089231264, 0.0170889124, 0.0029892891, -0.0393932648, -0.0009260408, 0.0250172950, -0.0332921185, -0.0148543306, -0.0129519170, -0.0435573421, 0.0215668492, -0.0082383864, 0.0317618176, 0.0198873412, 0.0009726986, 0.0067822789, -0.0035381455, -0.0526878685, 0.0049054786, 0.0242607724, 0.0084430231, 0.0063014133, 0.0001922695, -0.0219250917, 0.0025663818, -0.0131956125, 0.0247283112, 0.0126199434, 0.0283155814, -0.0111331530, 0.0112429904, 0.0109924246, -0.0287368987, -0.0090093976, -0.0189192239, -0.0205215160, 0.0114403712, 0.0005948381, -0.0213402323, -0.0131621799, -0.0018121130, 0.0017697702, 0.0517534465, -0.0066107623, -0.0053301309, 0.0402692445, 0.0355505720, 0.0340497307, -0.0390430540, -0.0292929448, -0.0048092590, 0.0269150268, 0.0241303109, 0.0111417947, -0.0144015327, -0.0232715718, -0.0141107868, -0.0379326791, 0.0103944130, -0.0040062936, 0.0326339975, 0.0047829356, 0.0008916868, -0.0219249018, -0.0079441704, -0.0153190354, 0.0024564969, -0.0477278195, -0.0316837467, 0.0355186276, 0.0175183453, 0.0045065559, 0.0157473311, -0.0258359164, -0.0083270837, -0.0390174948, 0.0115043465, 0.0611306019, 0.0095129274, 0.0135453148, 0.0119228009, -0.0645699278, -0.0065546390, 0.0198211242, -0.0365025178, -0.0380418673, 0.0179303307, -0.0289761331, -0.0181819052, -0.0019245505, 0.0167491660, -0.0045609511, 0.0319395810, 0.0081550516, -0.0053340211, 0.0074018501, 0.0211485270, 0.0126728434, -0.0179611314, -0.0419380143, -0.0256572291, -0.0327914767, -0.0211130846, 0.0216292720, 0.0261536967, 0.0128807584, 0.0111037679, -0.0294521246, 0.0067904489, -0.0218334086, 0.0108680651, 0.0285661928, -0.0084080854, 0.0233460534, -0.0442374460, -0.0110718524, 0.0218470804, 0.0187071040, 0.0241700690, -0.0018229698, -0.0549242869, 0.0012512038, -0.0048107873, 0.0097867372, 0.0007442679, 0.0414061993, 0.0051248027, -0.0215091463, 0.0151908528, 0.0103874421, -0.0435026176, -0.0279478282, 0.0476710200, -0.0118288007, -0.0488524847, 0.0109261516, 0.0448548719, -0.0273626130, 0.0026054473, 0.0126983086, 0.0177214723, 0.0093774665, 0.0272930525, 0.0393217392, -0.0499475710, -0.0201465972, 0.0386559479, -0.0281608049, 0.0058943960, -0.0064065084, 0.0288256165, -0.0373439044, -0.0544666275, -0.0084094340, 0.0103386790, -0.0296978299, -0.0063509420, -0.0268636700, 0.0004542184, -0.0092625106, -0.0072764168, -0.0077368864, 0.0050775972, -0.0443756953, 0.0288208872, -0.0151995206, -0.0127389189, 0.0172267538, 0.0220965501, -0.0073384787, -0.0223740749, -0.0161762983, 0.0322891884, 0.0057997415, -0.0144846505, 0.0050796662, 0.0321059451, -0.0367601030, 0.0195882618, -0.0163645614, -0.0037715891, 0.0101328054, 0.0296064280, -0.0126320506, -0.0204899888, -0.0225407779, 0.0249276422, 0.0172772221, 0.0076695471, 0.0391145907, -0.0035151420, 0.0195340849, 0.0070634396, -0.0102084707, -0.0198650472, -0.0001560500, 0.0015156370, 0.0014100185, -0.0033413093, -0.0151283629, -0.0116899172, -0.0321154445, 0.0048853718, 0.0191075634, 0.0071337083, 0.0393944830, -0.0476647653, 0.0249548405, 0.0260327719, -0.0189870521, 0.0129389875, -0.0178545602, -0.0088750459, 0.0281714480, 0.0129033001, -0.0024253596, -0.0064566545, -0.0097835036, 0.0134088770, 0.0253223386, 0.0246272273, -0.0106388405, 0.0117801549, 0.0492707454, 0.0173363946, 0.0214413311, -0.0298545565, -0.0080660740, 0.0110938577, 0.0395403877, -0.0152839096, 0.0012365087, -0.0037256817, -0.0775137916, 0.0398659930, -0.0006030866, 0.0125082470, 0.0149481818, -0.0090271682, -0.0064964928, -0.0163529478, -0.0637482777, -0.0171512105, -0.0220444500, 0.0103234043, -0.0231662951, 0.0080042602, 0.0057075471, -0.0065975725, 0.0048481366, 0.0432696901, -0.0006621124, 0.0202374924, 0.0050488994, -0.0210412405, 0.0418475866, 0.0270277951, 0.0088014957, -0.0355552435, -0.0038941593, 0.0118687470, 0.0112828026, -0.0369921252, 0.0148064150, 0.0086580720, -0.0132268453, 0.0337816924, -0.0021190576, -0.0035029699, 0.0094874911, 0.0066361651, 0.0015870581, 0.0004842549, -0.0128307519, 0.0192793254, 0.0051182611, -0.0225290693, 0.0078461645, -0.0215448439, 0.0018221437, -0.0325569361, 0.0120551698, 0.0351633802, 0.0100726467, 0.0139239840, 0.0189061426, -0.0339234509, 0.0189282298, 0.0021519368, -0.0105746519, -0.0094266608, 0.0055842823, 0.0059122723, 0.0067823334, -0.0147304917, -0.0055418187, -0.0221327040, -0.0460829698, 0.0123038990, -0.0102174627, 0.0343492627, 0.0348228998, -0.0042873132, 0.0004183991, 0.0014679660, -0.0234309677, 0.0203577410, -0.0363811776, -0.0007582052, 0.0154695250, 0.0063102008, -0.0464402027, -0.0400527529, 0.0167321209, -0.0024850995, 0.0266355779, -0.0097986860, -0.0056504356, -0.0224966854, 0.0377211161, 0.0000409601, -0.0206152461, 0.0109370742, -0.0033797426, -0.0030929430, -0.0135310357, -0.0381951258, 0.0135207130, -0.0169192385, -0.0373896025, 0.0241375230, -0.0066297627, 0.0359018296, -0.0067794602, 0.0046871300, 0.0164882131, 0.0042749597, -0.0020060553, 0.0007991685, 0.0120498603, 0.0178956259, 0.0109317293, -0.0208344087, -0.0468322262, -0.0274858251, -0.0100034699, 0.0106794108, 0.0050358311, 0.0476936549, 0.0093516614, -0.0397557169, -0.0032481833, -0.0137289446, -0.0263722818, -0.0251187682, 0.0078680534, -0.0163163282, -0.0025061399, -0.0219314750, 0.0128676360, -0.0064299242, 0.0052971272, 0.0213844739, -0.0118261985, 0.0020839453, -0.0087857218, -0.0273781698, 0.0041993973, 0.0061743930, -0.0250550192, 0.0003444981, -0.0222845431, -0.0332273766, 0.0035642947, 0.0236125551, -0.0241288599, -0.0135687469, 0.0210861880, 0.0131771350, -0.0124459323, 0.0286620278, 0.0092874356, 0.0146890571, 0.0195910931, -0.0296095237, 0.0126299653, -0.0188924186, -0.0122752050, -0.0271550305, 0.0121472469, -0.0265405737, 0.0008775184, -0.0051103760, -0.0278153215, -0.0062110433, -0.0116485935, 0.0068374574, 0.0158121549, 0.0120589454, -0.0295116492, -0.0253176726, -0.0122800656, 0.0057156156, -0.0280565917, 0.0058095166, 0.0151860388, 0.0027268035, 0.0041196449, -0.0156889241, 0.0165284984, -0.0103093088, 0.0167929884, -0.0015772105, 0.0107695563, 0.0330039226, 0.0159426033, -0.0145960310, -0.0049520922, -0.0030813715, -0.0224486887, -0.0237508547, -0.0357685909, -0.0050222096, -0.0052219424, -0.0256204735, -0.0344616100, 0.0268268418, -0.0311026312, -0.0121962149, 0.0098626828, -0.0048918007, 0.0088118715, -0.0287837517, 0.0168672930, -0.0038745231, 0.0035551172, -0.0347026512, -0.0313382149, -0.0038190286, -0.0175185651, -0.0288275834, 0.0103553105, -0.0066944016, 0.0028807777, -0.0035626595, 0.0127013093, -0.0072290665, -0.0035944905, -0.0227113292, -0.0172629245, -0.0115360515, -0.0360635072, -0.0575131215, 0.0024911757, 0.0024641496, 0.0037769480, -0.0699077174, -0.0756007507, 0.0356048681, 0.0339274444, 0.0447392464, 0.0112772444, 0.0217730571, 0.0220920295, -0.0068411878, -0.0073059681, -0.0073691248, -0.0592448115, 0.0182066038, -0.0274448507, 0.0107072163, 0.0130947772, 0.0476738624, -0.0270629246, -0.0233258381, 0.0753429458, -0.0413728505, 0.0168589652, -0.0119419433, 0.0115338415, -0.0421351679, -0.0474562086, 0.0118276021, -0.0557540357, 0.0183997862, 0.0259869434, -0.0560120121, 0.0014540947, -0.0696941912, -0.0616838709, -0.0038706821, -0.0172944292, 0.0043245098, 0.0379576683, -0.0342937000, 0.0263803396, -0.0390618145, 0.0120036658, 0.0290432870, -0.0429530628, -0.0057862499, 0.0381361321, -0.0137171075, 0.0041840542, -0.0007205066, 0.0418801270, 0.0976428539, 0.0175276902, -0.0213144552, 0.0681257099, -0.0214529447, 0.0309149027, -0.0292056836, -0.0204514079, 0.0054597226, -0.0277839322, 0.0007804419, 0.0005738866, -0.0500639454, 0.0167989954, -0.0020446745, -0.0483798608, 0.0031260825, 0.0543500185, -0.0386099555, 0.0741764680, -0.0222921669, 0.0096136741, -0.0485191420, -0.0311150104, -0.0209132377, -0.0343623608, -0.0046898215, -0.0133035472, -0.0181297790, -0.0355325826, 0.0448401161, 0.0537969209, 0.0646774396, 0.0360254310, 0.0052337637, 0.0511263162, 0.0121212164, 0.0476899780, 0.0110090394, -0.0645431057, -0.0294455178, -0.0355120040, -0.0028235805, 0.0206279699, -0.0213882793, -0.0075778309, -0.0209908374, 0.0031251893, 0.0105538052, -0.0021328684, -0.0052867457, -0.0200135484, -0.0078715179, -0.0039637475, 0.0038734111, 0.0364450961, 0.0239160564, -0.0149281826, -0.0068565626, -0.0041404413, 0.0112530747, 0.0264304746, 0.0269664377, 0.0338569209, -0.0364704169, 0.0063145966, 0.0241781957, -0.0024454275, 0.0108223595, -0.0300040524, 0.0290700905, 0.0091350274, 0.0373841822, -0.0346478671, 0.0687863976, 0.0307049025, -0.0225820635, -0.0260897093, 0.0065799584, -0.0048144250, 0.0129594347, -0.0375616811, 0.0396294184, 0.0086546699, 0.0251982156, -0.0294292420, 0.0144558512, 0.0216149818, 0.0333716497, -0.0128137413, -0.0332375281, 0.0241280664, -0.0054937364, -0.0045133159, -0.0032269475, 0.0265092645, 0.0005882444, -0.0229513552, 0.0451488458, 0.0279011279, -0.0085119912, 0.0293086916, 0.0934446603, 0.0639183596, 0.0131001314, 0.0099943243, -0.0293065831, 0.0004628716, -0.0348085202, 0.0115700727, 0.0353953019, -0.0548202693, 0.0490554869, 0.0078002466, -0.0186211877, -0.0337080136, 0.0052037365, -0.0143033052, -0.0316985138, -0.0127575863, 0.0262748450, 0.0284671113, 0.0504235961, -0.0313830003, 0.0113613103, 0.0163391624, 0.0280446094, -0.0205116011, 0.0095790867, -0.0220691748, -0.0022452215, 0.0149579896, 0.0093473643, 0.0827112868, 0.0371831320, 0.0009674656, 0.0242056381, -0.0380626135, -0.0130578801, 0.0141647272, -0.0366161801, -0.0502514914, -0.0094088009, 0.0091715781, 0.0106131323, -0.0228887070, 0.0115666278, -0.0045099673, -0.0185626298, -0.0109587088, -0.0017809792, 0.0081046047, -0.0043600034, -0.0172481984, 0.0135452216, -0.0432083793, -0.0030512498, -0.0232955832, 0.0179889929, 0.0151632689, -0.0304042585, 0.0303579215, 0.0331440344, -0.0074043991, 0.0224538706, -0.0300230552, -0.0033586989, -0.0078983009, 0.0186487362, -0.0303927604, 0.0168035664, 0.0178655777, 0.0437609777, -0.0271714274, -0.0043368395, -0.0084593203, -0.0213903300, -0.0508468263, 0.0120190140, 0.0482635200, -0.0023677459, 0.0180518683, 0.0519725494, -0.0224850141, 0.0443128124, -0.0018083542, 0.0422044620, -0.0204274375, -0.0109384591, 0.0818318501, -0.0037412313, 0.0197271295, 0.0227560420, 0.0288933050, 0.0344628803, 0.0276555046, -0.0355516970, -0.0148105463, 0.0320239775, 0.0086960252, 0.0786091313, 0.0835359544, 0.0032587268, 0.0263049826, -0.0409193672, -0.0338087939, 0.0093349759, 0.0097688045, -0.0250184350, -0.0168552622, 0.0186576247, -0.0240081102, 0.0340467729, 0.0794963464, 0.0325344205, 0.0237046313, -0.0303031243, 0.0043808203, 0.0378356017, 0.0187369958, 0.0325199217, 0.0164325275, -0.0216591153, -0.0025332533, -0.0065016537, 0.0048957272, 0.0181364175, 0.0348472334, 0.0019352625, -0.0154845547, -0.0040808022, -0.0385929085, 0.0351260565, -0.0483063124, -0.0531946979, 0.0373504274, -0.0303657465, -0.0564575605, 0.0473431684, 0.0184438322, -0.0536095239, 0.0189074334, 0.0018859626, 0.0349540859, -0.0339445770, -0.0284175240, 0.0634114593, -0.0166387297, 0.0095959948, 0.0404001549, -0.0722785294, 0.0277028959, -0.0199637432, 0.0767027289, -0.0028563272, -0.1170574576, -0.0569783561, -0.0827395916, 0.0668102503, 0.1047235504, 0.0533553138, 0.0769858062, 0.0505829528, 0.1291878521, 0.0306281317, -0.0345436260, 0.0740043744, 0.0280514006, 0.0238138903, -0.0222185440, -0.0015238804, 0.1078756079, 0.0523243360, -0.0335564427, -0.0202561729, -0.0351601727, 0.0578295514, 0.0499153063, -0.1533767134, 0.0334309191, 0.0228818879, -0.0815805793, -0.0048584528, -0.0044369209, -0.0454230644, 0.0526612550, -0.0723623484, 0.0039945659, -0.0311394688, -0.0311400164, 0.0771915838, -0.0710142329, -0.0765941963, 0.1488684714, 0.0588384680, -0.0009360072, -0.0358987302, 0.0224926230, 0.0619788803, 0.1082859188, -0.0076731648, -0.0521877110, -0.0284168143, -0.0473441668, 0.0061510773, -0.0236800388, 0.0754981264, 0.0995042399, -0.0156270396, 0.1079263985, 0.0218176190, 0.0239946600, 0.0072429553, -0.0040417588, 0.0839873552, 0.0512222834, -0.0308836754, 0.0367072448, -0.0747798160, -0.0260817464, -0.0260540545, -0.0590238944, 0.1371994019, -0.0298258699, 0.0321435221, 0.0272101462, 0.0974766687, 0.0514742918, 0.0269123092, 0.0144479135, -0.0077034598, 0.0568998531, 0.0962532759, -0.0436935723, 0.0500177853, -0.0515216365, -0.0829187036, -0.0452103801, -0.0685349256, -0.0217936933, 0.0549090281, 0.0043323133, -0.0773881897, 0.0188031849, -0.0654610544, 0.0544995405, -0.1245134100, 0.0525546968, -0.1860648543, -0.0779642239, -0.0248794518, 0.0275743660, -0.0378662683, -0.1708601415, 0.0485491492, -0.1010926813, -0.0043615806, 0.0336491913, 0.2073235363, 0.0207617264, 0.1293557882, -0.0266094841, 0.0806961656, 0.0292616300, -0.0060832193, -0.0560809858, -0.0350359567, -0.0931819230, -0.0188172907, -0.0131253628, -0.0313323922, 0.1233139634, -0.0614917055, -0.0050737089, 0.0157334972, -0.0665345043, 0.1026529670, 0.0029683306, 0.0472322218, -0.0082724988, -0.0964849815, -0.0236226153, 0.1207729205, 0.0276650600, 0.0360741019, -0.0399193466, 0.0783231184, -0.0801021531, -0.0281129889, -0.0226158388, 0.0434800535, 0.0560989492, 0.0761983171, -0.0109716216, -0.0686619952, -0.0466263667, -0.0928127095, -0.0606721863, -0.0820775032, 0.0309126079, -0.0280261543, -0.0327190347, -0.0343995132, 0.0317622609, -0.0670750067, 0.0127459187, -0.0345267393, 0.0312051233, 0.1163993031, -0.1060356498, -0.0608144365, -0.0104047926, 0.0081144972, -0.1093244776, 0.0414557233, -0.0428212769, -0.0256852098, -0.0616932511, 0.0198491402, -0.1223243997, 0.0328674950, 0.1039491221, 0.1200494692, -0.0388399065, 0.0743266940, -0.0180291925, 0.0357873216, 0.0426673405, -0.0161781758, -0.0497462861, -0.0759188458, -0.0215771664, -0.0654330328, 0.0441989973, -0.0430592112, -0.0172783285, 0.0442783199, 0.0390598774, -0.0150651298, -0.0333637446, -0.0742045045, 0.0077519743, 0.0703956485, -0.0533787720, -0.0475891680, -0.0487044714, 0.0225808788, -0.0649001151, 0.1017977819, -0.0201578178, 0.0760664791, -0.1012229174, 0.0711530522, -0.0258928780, -0.0210241452, 0.0821517035, 0.1486874670, 0.0049739433, 0.0734480768, 0.0261461753, 0.0000710831, -0.1418411583, -0.1301598549, -0.0339933001, -0.0705896839, -0.0159151386, -0.0668883696, 0.0423257053, -0.0840216205, 0.0362718292, -0.0905916169, -0.0178152006, 0.0506351180, -0.0666852593, 0.0867607743, -0.0049756579, -0.0743191317, 0.0215597916, 0.0352014303, -0.0602713712, 0.0511096939, 0.0967123955, 0.0907289758, -0.0826141611, -0.0544506684, -0.0155373197, -0.0751250312, 0.0482276529, -0.0127683692, 0.0388759635, 0.0482523702, 0.0571951307, 0.0173704475, -0.0243432224, -0.2107527405, 0.0168564226, -0.0187218431, -0.1247244552, 0.0356450677, -0.0025707106, -0.0950087905, 0.1347008049, -0.0684783980, -0.0316228941, 0.0600015856, -0.0813908651, -0.0347710475, 0.0879292414, -0.0444728732, -0.0786489621, 0.0598268472, -0.1011413634, -0.0759211630, 0.1416311860, 0.0738590658, -0.0469445586, 0.0597555228, 0.0507730804, 0.1352501810, -0.0083623407, 0.0529747382, -0.0340287089, -0.0166734252, -0.0656701177, 0.0387092195, -0.0278825350, -0.0475145616, -0.0029741433, -0.0075262943, 0.0059998413, -0.0141019998, -0.0215130579, -0.0117813274, -0.0006467006, -0.0185198914, -0.0056955451, 0.0050389473, 0.0134287039, -0.0136556402, -0.0167891141, -0.0173905119, 0.0030635600, -0.0144291213, -0.0021837649, 0.0106518734, -0.0133430557, -0.0302970242, -0.0171396080, -0.0159184262, -0.0073819617, -0.0023159413, 0.0136041436, 0.0172920227, -0.0054533533, -0.0254973304, 0.0115770223, -0.0039867195, -0.0019803802, -0.0379780009, 0.0073003396, -0.0185192451, -0.0128043955, 0.0121782944, -0.0000066243, -0.0163257625, -0.0025367790, -0.0296970103, 0.0296453312, -0.0209513344, 0.0288107544, -0.0063422485, -0.0128583675, -0.0379194841, 0.0120767541, 0.0011250969, -0.0202726908, -0.0271736607, -0.0137773594, -0.0156028541, -0.0423058495, 0.0102714458, 0.0035830103, -0.0105700754, 0.0395265520, 0.0089494558, -0.0033323548, 0.0007509046, -0.0083830077, -0.0085324459, -0.0004417750, -0.0257912427, 0.0148830265, -0.0052040839, -0.0112884752, 0.0041552810, -0.0539346784, -0.0253092144, 0.0129344892, -0.0500100553, 0.0275411829, 0.0000225027, -0.0008618981, -0.0137520377, 0.0085921977, -0.0268428046, 0.0386120528, -0.0015984040, -0.0055589811, 0.0012279645, -0.0267224163, 0.0081200590, -0.0130951656, 0.0125555331, -0.0071397754, 0.0054739472, 0.0211559031, 0.0253940634, 0.0038509846, -0.0309456699, -0.0173041094, 0.0076729641, -0.0430190898, -0.0244943835, 0.0232070871, 0.0167008936, 0.0112329014, -0.0060386346, -0.0012499918, 0.0116550010, 0.0225012247, -0.0564066954, 0.0286620539, 0.0047637257, 0.0102479747, -0.0157202650, -0.0315729827, -0.0003437777, -0.0019562112, -0.0118256854, 0.0232061483, -0.0195322894, 0.0051891436, -0.0147060184, -0.0673716888, -0.0136643117, 0.0033414860, 0.0074776239, -0.0109626679, 0.0088551752, 0.0212197825, -0.0343046524, 0.0127223646, -0.0146435732, -0.0254617948, 0.0104886927, 0.0125566563, -0.0210234262, -0.0035212808, -0.0149335992, 0.0270167403, -0.0086121112, 0.0049491897, -0.0284969453, 0.0346715637, -0.0133625241, 0.0049184575, 0.0226882752, -0.0119769480, -0.0275621489, -0.0341732129, -0.0029928884, -0.0022715768, -0.0402526818, -0.0132273901, -0.0270398315, -0.0008884799, 0.0235981736, -0.0192449000, 0.0480916388, 0.0054366379, 0.0336832702, -0.0313979313, -0.0062284740, 0.0232534315, -0.0272148121, -0.0444399230, -0.0197348725, -0.0084101493, 0.0104785105, -0.0214342456, -0.0318744704, 0.0058401446, -0.0063541112, 0.0046526478, -0.0535929203, 0.0045378250, 0.0242508650, -0.0558472015, -0.0050094184, 0.0177696105, -0.0014217248, 0.0092086112, 0.0146889919, -0.0269072168, -0.0202057175, 0.0191544928, -0.0236130431, -0.0198510122, 0.0282734372, 0.0158804152, -0.0098571330, 0.0087962365, 0.0306223631, 0.0057783611, -0.0438553318, -0.0030770213, 0.0022096196, -0.0253061689, 0.0170612913, 0.0069074496, -0.0059294556, -0.0175618343, -0.0442473069, -0.0322575383, 0.0027920238, 0.0225518215, -0.0384627692, 0.0016182765, 0.0063036690, 0.0183888376, 0.0008255641, -0.0119421622, -0.0293113701, -0.0055944645, 0.0303254332, -0.0380999185, -0.0066618216, -0.0112392027, 0.0233477149, -0.0018499440, 0.0156595409, -0.0171569511, 0.0281807575, 0.0032144177, -0.0226507224, 0.0386355817, -0.0493079461, 0.0167115498, 0.0102412095, -0.0383328944, -0.0069615794, 0.0078238249, -0.0212638807, -0.0139307771, -0.0201233365, 0.0106868567, -0.0056973854, 0.0042514219, -0.0486963391, 0.0308193527, 0.0392941460, 0.0104198195, -0.0080947997, 0.0404631644, -0.0102735674, 0.0210634880, -0.0025083786, -0.0255041961, 0.0081460783, 0.0033193314, -0.0328060314, -0.0188540705, 0.0145786190, -0.0064192545, 0.0478481911, -0.0069803894, 0.0035475441, 0.0328345932, -0.0226768162, 0.0181505103, -0.0214353260, -0.0254039336, -0.0262744166, 0.0136519875, 0.0062098671, 0.0174383149, -0.0239850227, 0.0043101199, -0.0175737981, -0.0249014907, -0.0459493026, 0.0360346921, 0.0102447458, 0.0149213681, -0.0287537407, -0.0191429388, -0.0079738647, -0.0004340719, -0.0063674413, -0.0086736055, -0.0195796881, 0.0080466615, 0.0045432472, -0.0059427726, 0.0196121577, -0.0013761170, 0.0426433012, -0.0136839859, -0.0144231543, 0.0212454256, -0.0445139483, -0.0035932611, 0.0078026787, 0.0146757113, -0.0146018909, 0.0069109634, -0.0162004996, -0.0272447914, 0.0107132085, 0.0267611146, 0.0432728417, -0.0408499315, 0.1113140807, 0.0311591141, -0.0094063105, -0.0699090138, 0.0423784852, -0.0283426791, 0.0474505723, -0.0404527895, -0.1084354594, 0.0416014865, -0.0087042423, -0.1096170917, -0.0272251647, 0.0864147693, 0.0341336466, -0.0746809319, 0.0015234998, 0.0300171897, -0.0533925109, -0.0546949431, 0.1024006382, -0.0103906589, 0.0093084788, 0.0627379566, 0.0299090333, 0.0299126524, -0.0082201371, 0.0342628919, -0.0658801571, -0.0412376598, 0.0115471501, -0.0547659136, 0.1034956798, -0.0174874458, 0.0016574358, -0.0165402815, 0.0154781966, -0.0259670671, 0.0055277380, 0.0172496811, 0.0088753682, 0.0047612288, -0.1391322762, -0.0387615412, -0.0357214995, 0.0733404532, -0.0679766461, -0.0624341555, -0.0259303655, 0.0856484026, 0.0238095038, -0.0362556130, 0.1040834710, -0.0790567771, 0.0024341037, 0.0683792755, -0.0707237571, -0.0037128837, -0.0429923385, -0.1702577472, -0.0244587529, -0.0319321938, 0.0494241565, -0.0160770454, 0.1078830808, -0.0198452994, -0.0722042322, 0.0273729526, -0.0105682844, -0.0797042921, 0.1354907304, -0.0230999049, -0.1208681539, 0.0281820036, 0.0164330248, -0.0431897640, -0.0656897724, 0.1083921343, -0.0384489149, -0.0779124349, -0.0039217798, -0.0215343870, -0.0966475233, -0.0011588428, 0.0961247161, -0.1623686552, -0.0218409803, 0.0178653654, 0.0207075756, -0.0455054976, -0.0352363214, -0.0381055921, -0.0078070681, -0.0006193442, 0.0156663414, -0.0704523399, 0.0562194437, 0.0126343854, -0.0422341451, 0.0360677652, 0.0164628737, 0.0688998997, 0.0355698876, -0.1627560556, -0.0149444398, -0.0384746604, -0.0215946436, -0.0412343182, 0.0428641364, -0.0020803961, -0.0250720028, 0.0246405639, -0.0196107775, -0.1250913888, 0.0131579470, -0.0744196177, -0.0736366436, 0.0766375810, -0.0604356602, -0.0632556826, 0.0396762639, -0.0519527271, 0.0110013457, -0.0128560364, -0.0088606151, 0.0410700180, -0.0486521050, -0.1641922444, 0.0114252325, 0.0607604645, -0.0684471503, -0.0173931066, -0.0854245573, -0.0420607962, -0.0217513200, -0.0630375892, -0.0514899567, -0.0606639758, -0.0226988271, 0.0749074444, -0.0525161177, -0.0057442947, -0.0327389464, -0.0660398304, -0.0984386951, -0.0524822101, -0.1197540909, -0.0269706957, -0.0688807964, -0.0155272726, 0.0228521731, -0.0666406974, -0.0361648016, 0.0505451635, 0.0083764037, -0.0186649319, -0.0700501204, -0.0755038634, 0.0039095464, -0.0656332150, 0.0495853573, -0.0368053764, 0.0271008294, 0.0017382331, -0.0592433326, -0.0323196277, -0.0084079420, -0.0537021309, -0.0329685137, -0.1096869707, -0.0200911574, -0.0099391723, -0.1012431830, 0.0385288969, -0.0683470815, -0.0345033668, -0.1001251340, 0.0216715429, -0.1354711503, -0.0250628963, 0.0051870220, 0.0208812822, -0.0455688126, 0.0973643884, 0.0856263116, -0.0476729721, -0.0520763546, -0.0507672802, 0.0085736765, 0.0195228532, 0.0622186251, -0.0685330257, 0.0469360910, -0.0588424727, 0.0057594553, 0.0430567935, -0.1045660228, -0.1364282817, 0.0342088602, 0.0294800326, -0.0688292533, 0.0501738749, -0.0145678502, 0.0649918392, -0.0394563749, 0.0572454222, -0.0753516331, -0.0800932348, -0.0270911399, -0.0330683254, 0.0197853763, -0.0584241375, 0.0575302280, 0.0024426132, 0.0011274532, 0.1098606810, 0.0087175500, 0.0741576627, 0.0033825377, -0.0090673398, -0.0432924032, 0.0125307608, -0.0201801583, -0.1550609171, 0.0870918781, 0.0701064542, 0.0974190906, 0.1187959984, 0.0294955652, -0.0418805219, 0.0377580300, 0.0140011525, -0.1021784395, -0.0100447861, -0.0469683670, 0.0110504348, 0.0640679672, -0.0247134063, -0.0735603273, 0.0540303588, -0.0356832854, 0.0108568445, -0.0339024663, -0.0806545839, 0.1229820177, -0.0112144230, 0.0443787426, 0.0662864223, 0.0043553598, -0.1139496490, 0.0775329769, 0.0074688550, -0.0925070047, -0.1028218791, 0.0255064182, 0.0143879820, 0.1310073286, 0.0128000230, 0.0782890767, -0.0004991749, 0.0222359486, -0.0938340500, 0.0507432036, 0.0136105241, 0.0275782757, 0.0150592607, 0.0467257872, 0.0318470448, -0.0862008706, -0.0249285139, -0.1248254478, 0.0314189792, 0.0941134766, -0.0278323535, -0.0229553413, -0.0356723145, 0.0262024030, 0.0020058954, -0.0061047105, -0.0148107968, -0.0362377837, 0.0416210108, -0.0698457733, 0.0004334048, 0.0084570693, -0.0344174244, -0.0150023689, -0.0195500664, 0.0021941494, 0.0291532651, -0.0289463121, -0.0008983164, 0.0042201076, 0.0214588735, -0.0068798270, 0.0128197065, 0.0174866468, -0.0113685746, -0.0053388951, -0.0331168696, -0.0077078082, -0.0040927492, -0.0221438445, 0.0278395247, -0.0049063335, 0.0043111281, 0.0223961081, 0.0226591993, -0.0097275050, 0.0484084040, 0.0358523838, -0.0486313887, -0.0591790527, 0.0295315515, -0.0304822326, -0.0243466012, 0.0143511603, -0.0277090929, -0.0212894510, -0.0164957568, -0.0252277832, 0.0093103088, -0.0227625016, 0.0150501076, 0.0156463720, 0.0155611383, 0.0023003425, 0.0130290408, 0.0323273391, -0.0143492706, -0.0170326587, -0.0180077367, 0.0263445228, -0.0364629403, 0.0273316447, 0.0167646166, -0.0018953851, 0.0497554839, -0.0026622622, 0.0218804218, -0.0073236786, 0.0181117877, 0.0420718305, -0.0113320984, -0.0034763147, 0.0433422290, -0.0170389879, 0.0312879644, -0.0063624522, 0.0146410801, 0.0074918107, 0.0144058950, -0.0012925271, -0.0156797636, -0.0367299914, -0.0160953645, -0.0326131880, 0.0009838650, -0.0054034120, -0.0333385281, 0.0250929762, 0.0039539589, 0.0122817019, -0.0060005966, 0.0053128013, -0.0133924764, 0.0289273709, 0.0026784479, -0.0046717860, 0.0258869100, 0.0116886282, 0.0396626443, -0.0448681861, -0.0022823084, 0.0014347461, -0.0006067033, 0.0078563243, 0.0106780799, 0.0015668257, 0.0077873738, -0.0192982908, 0.0083008725, 0.0116671147, 0.0084750317, -0.0493788794, 0.0236675590, -0.0345969349, -0.0052300924, -0.0343436636, -0.0067936550, -0.0534582809, -0.0087213758, 0.0378434770, 0.0258308109, 0.0061003608, 0.0233843196, 0.0030704038, -0.0482595861, 0.0085974820, -0.0186595302, 0.0056415731, 0.0249871649, 0.0273430925, -0.0094042504, 0.0168747846, 0.0671841577, -0.0018448430, -0.0290502589, -0.0356744565, 0.0309727024, -0.0120302597, -0.0107398406, 0.0158485509, -0.0185247362, -0.0069736722, 0.0019478002, -0.0079789143, 0.0123443212, 0.0135933030, 0.0289362259, 0.0413562022, -0.0244729389, -0.0060447059, -0.0069995667, 0.0144899478, -0.0066572758, -0.0100497175, -0.0219184365, 0.0363611020, -0.0243982803, 0.0459652208, -0.0137914969, 0.0445415787, -0.0057490016, 0.0188489668, 0.0095294220, 0.0036384431, 0.0601405650, 0.0083300713, -0.0247373879, 0.0351437107, 0.0532490388, -0.0174614340, 0.0029660107, -0.0229816306, -0.0158977713, -0.0243449975, -0.0064497511, -0.0309386756, -0.0126465708, 0.0485535413, 0.0354476050, 0.0195556246, -0.0267981552, 0.0166348405, -0.0188158881, -0.0171269793, -0.0006619180, -0.0239475556, -0.0018523346, -0.0014394671, -0.0100895017, -0.0180400908, 0.0013753951, 0.0162669253, 0.0158189088, -0.0075513618, 0.0491292365, -0.0248225871, 0.0289451089, 0.0100330887, -0.0161196757, 0.0054782326, 0.0225234274, -0.0377067514, 0.0194529127, -0.0050119292, -0.0071742437, -0.0357011072, -0.0074833226, -0.0021053883, 0.0088499682, 0.0089502176, -0.0050720004, 0.0258459486, 0.0297090970, -0.0182422549, -0.0117139695, 0.0269435067, -0.0174615402, 0.0074975318, 0.0058483630, -0.0239626002, -0.0566826388, -0.0033620768, -0.0028113862, 0.0378527679, 0.0047781221, 0.0207435880, 0.0204669964, 0.0178886894, 0.0044494164, 0.0324049629, -0.0257870834, -0.0068497206, -0.0127130086, -0.0464350618, -0.0148702208, 0.0015333339, -0.0342184193, -0.0167965200, 0.0047528441, -0.0050028595, -0.0275011379, 0.0073931850, -0.0221772175, -0.0036754848, -0.0089762863, -0.0155924279, -0.0004781673, 0.0457915477, -0.0327737220, 0.0031205371, -0.0603073463, 0.0084816124, -0.0347709097, 0.0388540290, -0.0089521511, -0.0112136034, -0.0372412503, -0.0238067806, -0.0014126253, 0.0119299795, 0.0102629261, 0.0352536254, -0.0120226834, 0.0442109667, 0.0188360196, -0.0733991265, 0.0116698686, 0.0158350915, -0.0616139658, -0.0001430592, 0.0101488847, -0.0066650049, 0.0055936282, -0.0094261449, -0.0248381495, 0.0037841513, 0.0019334760, -0.0343902409, 0.0021323967, 0.0441390574, -0.0147782331, -0.0121105658, -0.0203167107, 0.0204583295, -0.0226262733, 0.0279422104, 0.0241087414, 0.0227389336, 0.0368437394, 0.0185609888, 0.0303485394, 0.0036884451, 0.0381947458, 0.0216503646, 0.0002046156, -0.0028730200, -0.0157772638, -0.0091484394, 0.0159210879, 0.0283325557, 0.0231405720, -0.0114933895, -0.0370643064, 0.0036055180, -0.0120115494, 0.0223758593, 0.0217171535, -0.0337620489, -0.0005801497, 0.0052842442, 0.0227168296, -0.0143338367, -0.0497907400, -0.0118023669, -0.0030003828, -0.0165113881, -0.0310150404, -0.0404025950, -0.0412556417, 0.0076656942, 0.0077371122, 0.0171223599, 0.0269304216, -0.0141542545, -0.0117032528, -0.0293569397, -0.0384010412, 0.0222852118, -0.0098646814, -0.0250940174, 0.0204611197, -0.0118703991, 0.0341347791, -0.0192269217, -0.0144955823, -0.0045173224, 0.0236220639, 0.0186724421, -0.0129276346, -0.0001368410, 0.0186659396, 0.0042007412, 0.0287764594, 0.0351732112, -0.0543072522, -0.0288259555, 0.0123799210, -0.0049347673, -0.0408062860, -0.0193928089, -0.0143295797, 0.0216602776, 0.0089145917, 0.0380237065, -0.0141145652, -0.0239827428, 0.0018326280, -0.0031013701, -0.0355645567, 0.0275193118, -0.0099747861, 0.0056232596, 0.0332608484, -0.0006237446, 0.0220068526, -0.0339990482, -0.0280682649, 0.0069448086, -0.0144874863, -0.0092370892, -0.0229821838, 0.0220875032, -0.0051939050, 0.0059756045, 0.0239974614, 0.0033419868, -0.0194958933, -0.0297209192, -0.0143824024, 0.0167175997, 0.0229689889, 0.0158809852, -0.0263153929, -0.0340847671, 0.0258455314, 0.0212967973, -0.0012829446, -0.0227126423, -0.0037098459, -0.0094295945, 0.0199325494, 0.0152400900, 0.0343050100, -0.0486104935, 0.0285052974, -0.0263191815, -0.0293201040, -0.0264726579, 0.0073533277, 0.0161046218, 0.0278789364, 0.0218243878, 0.0250203833, -0.0221408810, 0.0039006593, 0.0187914800, 0.0151934782, -0.0333709456, -0.0050598811, -0.0285414327, 0.0253677033, -0.0031892871, 0.0105237821, 0.0108528994, -0.0164335705, 0.0029048745, -0.0102774678, 0.0000480972, -0.0063895173, -0.0188647937, -0.0317249559, 0.0030035789, -0.0505108163, 0.0201012362, 0.0134364953, -0.0041931239, 0.0425739959, -0.0218998343, 0.0028838716, -0.0171842165, -0.0046815393, -0.0129480241, 0.0341724493, 0.0068051345, 0.0079844231, 0.0019614410, 0.0151419751, -0.0351528823, 0.0110957958, 0.0055300095, -0.0274419896, 0.0098847654, 0.0298090130, 0.0021012169, -0.0337622799, 0.0295634847, -0.0097258994, 0.0063329311, 0.0078361239, 0.0031220734, -0.0093899732, -0.0461268611, 0.0198609438, -0.0263152327, 0.0071941474, 0.0463432260, 0.0184126776, 0.0018704942, 0.0145588070, -0.0165424850, -0.0258999616, -0.0492422469, -0.0045631863, 0.0231696982, 0.0046071038, 0.0164803602, -0.0059607066, 0.0028076032, -0.0081678908, -0.0256887451, 0.0344021693, -0.0300092287, -0.0114611611, 0.0021133344, -0.0098505532, -0.0114019699, -0.0114051849, 0.0351554565, -0.0452561006, 0.0041307583, -0.0299057681, 0.0117681148, 0.0083145406, 0.0237546191, 0.0266533922, -0.0085626636, -0.0312435646, 0.0440192111, 0.0178627558, -0.0114499507, 0.0214388706, -0.0271210112, -0.0112614706, 0.0023992672, 0.0075111245, -0.0265735183, 0.0260344055, -0.0149166444, 0.0115202162, 0.0140896393, -0.0007460443, -0.0138659533, 0.0144924549, -0.0089268442, -0.0302067045, 0.0138407499, -0.0142604383, -0.0077927141, -0.0142504470, 0.0316565186, 0.0434871167, -0.0152557576, 0.0118788593, 0.0272834878, -0.0065741022, 0.0127005652, -0.0092592826, 0.0213439930, -0.0634934679, -0.0043940675, 0.0020593393, -0.0073568863, 0.0213820599, -0.0145809464, 0.0070739347, -0.0442815125, 0.0300879441, 0.0143399397, 0.0219904911, 0.0297285523, -0.0090508843, -0.0039744587, -0.0317497812, -0.0318306834, -0.0079138419, -0.0368808769, -0.0356247611, 0.0185010955, 0.0167152043, -0.0008761628, -0.0679403245, 0.0382237621, 0.0176370814, -0.0328038745, 0.0124959983, -0.0081694992, -0.0139880404, -0.0015123185, -0.0164085515, 0.0480944850, -0.0352351405, 0.0377019905, -0.0247074720, -0.0300883912, 0.0051408843, -0.0005814597, 0.0241440386, -0.0082504628, 0.0089104939, -0.0380600095, -0.0065977904, -0.0135561768, 0.0026979435, 0.0135330744, -0.0321130753, 0.0178342480, 0.0026747745, -0.0132005326, -0.0605015308, -0.0074843871, -0.0150905801, -0.0204528272, -0.0647113472, 0.0174919795, 0.0341433287, 0.0148865180, 0.0024638798, 0.0071642958, 0.0097047277, 0.0372381285, 0.0023890601, 0.0452473648, 0.0263259672, -0.0096179023, 0.0465521142, 0.0523285009, -0.0243096370, 0.0282358602, -0.0156546440, -0.0141226519, -0.0034747720, 0.0142380986, -0.0052090390, -0.0675692782, -0.0308604613, 0.0308596846, 0.0116315549, -0.0062947087, -0.0291047022, 0.0355306901, -0.0176197737, -0.0056715105, -0.0189717989, 0.0519418977, -0.0280773882, -0.0569736846, 0.0563533641, -0.0093955314, 0.0153674185, 0.0024018020, -0.0003796084, 0.0095341373, 0.0232761465, -0.0483980849, -0.0379990973, -0.0200478658, -0.0059790192, 0.0396219753, -0.0824234486, 0.0206824485, 0.0219457094, -0.0077836281, 0.0273386557, -0.0687605366, -0.0297404341, -0.0340234302, -0.0423109271, 0.0027479292, -0.0216739159, -0.0194292553, -0.0196829997, 0.0345160179, 0.0312283579, 0.0285757557, 0.0062269117, 0.0258171931, 0.0233801082, 0.0082591120, -0.0046829204, 0.0554557256, 0.0278229192, -0.0133404303, 0.0001051899, -0.0259218998, 0.0395891368, -0.0054228352, -0.0051259208, -0.0187447872, -0.0300001595, -0.0186212957, -0.0745831877, 0.0037284424, -0.0612397790, -0.0507814586, 0.0082389805, -0.0239668321, -0.0349699482, -0.0119163096, 0.0121114692, 0.0147603303, -0.0074366708, -0.0258624163, -0.0249296632, -0.0168602280, 0.0024843926, 0.0435770042, -0.0511161014, 0.0547210611, 0.0151324850, -0.0064252336, 0.0191593058, 0.0025623804, -0.0357448906, 0.0497290678, 0.0287230741, -0.0325152799, -0.0547474697, -0.0038157995, 0.0469723567, -0.0255683456, 0.0161951799, 0.0353368185, -0.0324476026, 0.0317861624, 0.0024730484, -0.0103643220, -0.0030280275, -0.0138146970, -0.0053404504, -0.0526600815, -0.0229657087, 0.0046672062, -0.0036004526, -0.0014298995, 0.0111882342, 0.0145946098, 0.0006112098, -0.0362823568, -0.0089242570, 0.0376652591, 0.0039582690, -0.0359627791, -0.0185229871, -0.0096825212, 0.0102167549, -0.0097581511, 0.0092907473, 0.0274635032, 0.0093061896, -0.0287760161, -0.0474410504, -0.0292437561, 0.0044967490, -0.0029973655, -0.0446293801, 0.0031907244, -0.0201200880, -0.0054252478, 0.0694251955, -0.0424529165, -0.0139027499, -0.0044394908, -0.0121359024, -0.0140016088, 0.0349985287, 0.0095764939, -0.0461454913, 0.0016476181, -0.0463465229, -0.0242868122, 0.0191827770, -0.0166050009, -0.0232896879, -0.0315016843, 0.0510112271, -0.0323787294, -0.0125912055, -0.0163335204, 0.0102095408, -0.0234949142, -0.0129054347, -0.0254526027, -0.0582601838, 0.0023685801, -0.0186972320, 0.0041384138, -0.0265063737, 0.0046687233, 0.0025415893, -0.0097674048, 0.0228325091, -0.0127533535, -0.0028859423, -0.0405369028, 0.0108883670, -0.0141787641, 0.0184767451, -0.0282597132, -0.0581349246, 0.0008345710, 0.0120129604, -0.0073217042, -0.0318002813, 0.0170086324, 0.0443581492, -0.0001835814, -0.0112617221, 0.0185402930, -0.0483591370, -0.0116380304, -0.0046970844, -0.0248032324, -0.0110510979, 0.0250781886, 0.0326343924, -0.0282158945, -0.0254900735, 0.0032782648, -0.0956164151, 0.0320406109, 0.0341048390, 0.0010903043, -0.0039958577, -0.0384180062, -0.0384912416, -0.0263377372, -0.0244120639, -0.0125561720, 0.0638086051, -0.0135268411, -0.0055042156, -0.0242192131, 0.0058240527, 0.0406021699, 0.0514615253, 0.0165568050, -0.0526649654, -0.0811620578, 0.0064097885, 0.0181073844, -0.0185316019, 0.0151491705, 0.0309752300, 0.0351041332, 0.0292747822, -0.0053991019, -0.0821174309, -0.0143744452, -0.0580489226, -0.0404425487, -0.0322677083, 0.0236809142, -0.0203693137, -0.0156400353, 0.0200658385, -0.0215046834, -0.0352157541, 0.0127129136, -0.0299089402, 0.0164211784, 0.0190620571, 0.0427879319, -0.0141556235, 0.0003854330, -0.0037305146, 0.0027790398, -0.0366199426, 0.0550432242, -0.0565530621, -0.0488253571, 0.0100407787, 0.0261508729, 0.0529434606, 0.0158760566, -0.0604180880, -0.0176349897, -0.0053762752, -0.0233683195, 0.0241051503, -0.0031930974, -0.0136645949, -0.0046236864, -0.0018193814, 0.0249426886, 0.0058809547, 0.0098639820, 0.0201077759, -0.0030417882, -0.0352688394, -0.0536869466, 0.0120928148, -0.0347826108, 0.0330604166, -0.0078631220, -0.0686853305, -0.0155202299, 0.0219057202, 0.0029553878, -0.0224489663, 0.0233134162, 0.0165728405, -0.0286734365, -0.0209883880, -0.0038020520, 0.0152041335, 0.0261441320, -0.0644973591, -0.0077331215, 0.0604465269, -0.0028918048, 0.0182202123, 0.0097684441, -0.0385838300, 0.0067657037, -0.0059518800, -0.0091641434, -0.0037939106, 0.0029113633, 0.0230743568, -0.0134642804, -0.0643303618, 0.0059960089, -0.0650572255, 0.0062644435, -0.0149006471, 0.0042804154, 0.0229607020, -0.0001775653, -0.0066282596, 0.0048929318, -0.0208309256, -0.0477312952, -0.0381482802, -0.0189787205, 0.0345581397, 0.0041898717, -0.0467105471, 0.0101613449, 0.0352375321, -0.0048567238, -0.0070349239, 0.0077594202, -0.0191958379, -0.0146507788, -0.0154494448, 0.0121070929, -0.0274602696, 0.0122305974, -0.0211724918, -0.0067583369, -0.0412600264, -0.0296831876, -0.0281977691, -0.0113167902, -0.0235109404, -0.0039704004, -0.0080013033, -0.0085261008, 0.0246019345, 0.0140892100, -0.0136955800, 0.0301514249, -0.0248596072, 0.0202497449, -0.0147691937, -0.0359789878, 0.0427897833, -0.0183962770, 0.0357449614, -0.0417219661, -0.0180160310, -0.0089919940, -0.0222332012, -0.0150810285, -0.0151410410, -0.0019246975, -0.0153961536, -0.0109368153, -0.0060157455, -0.0174640063, 0.0057636099, 0.0265892930, -0.0404190831, -0.0651995763, -0.0333386287, -0.0038073387, -0.0466493517, 0.0354577452, -0.0065759816, -0.0206722841, -0.0225600861, 0.0164743550, 0.0114598889, 0.0390671454, 0.0225502197, 0.0076170918, -0.0176087525, -0.0098842634, 0.0153915267, -0.0072929407, 0.0253360868, -0.0167736951, 0.0411241278, 0.0274144635, -0.0113080330, 0.0284924451, 0.0488183796, -0.0039493768, -0.0200550258, 0.0329617634, -0.0192948114, 0.0151094943, -0.0019647984, -0.0122002363, 0.0256002117, 0.0212986749, -0.0174415968, -0.0259102918, -0.0102433749, -0.0180669054, 0.0021694540, -0.0102866208, -0.0066218670, -0.0095135653, -0.0082555283, 0.0138740335, -0.0150485290, -0.0000533085, 0.0204574466, -0.0513241440, -0.0084661609, -0.0236691106, -0.0008743458, -0.0229140632, -0.0284234807, -0.0195423178, -0.0271325558, -0.0579650812, 0.0073297410, 0.0072574997, -0.0332386084, 0.0137090227, -0.0540036820, 0.0135500692, 0.0084639499, -0.0118489759, 0.0396895632, 0.0105634509, -0.0508996285, 0.0316943526, -0.0015605316, -0.0219722539, 0.0064882580, -0.0244397819, 0.0170326382, 0.0178375319, 0.0426496863, -0.0021156294, -0.0307742786, -0.0196605232, 0.0206692684, -0.0238411687, 0.0293136258, -0.0330057777, 0.0276717637, -0.0465445220, -0.0127605395, 0.0042782049, -0.0221426990, -0.0106127318, 0.0039386721, -0.0012587876, -0.0184979402, 0.0408581756, -0.0338534787, -0.0033553308, -0.0333470404, 0.0062730457, -0.0042023654, 0.0461775213, -0.0157674588, -0.0234421548, -0.0019313938, -0.0061085396, 0.0146710211, 0.0036811826, -0.0191572718, 0.0051441556, 0.0104215341, 0.0181195959, 0.0023419932, 0.0095361918, 0.0057644635, -0.0200796444, 0.0308932923, -0.0140998075, 0.0212055519, -0.0369460173, 0.0296138395, -0.0112198303, -0.0165897794, -0.0019477970, -0.0118853347, 0.0010776189, -0.0081813820, 0.0137160942, -0.0187403020, 0.0489085540, -0.0286502894, 0.0102212708, 0.0065175826, 0.0103918295, -0.0323162675, 0.0212253481, -0.0432609841, 0.0005198308, -0.0238428414, -0.0001696371, 0.0618789345, 0.0022555618, -0.0160103701, 0.0153790005, -0.0285248160, -0.0256816801, -0.0126669621, 0.0169682745, -0.0151568009, -0.0100616384, -0.0210840814, 0.0006554483, -0.0009296065, -0.0043055802, 0.0119332643, -0.0091685867, -0.0158682242, 0.0303694569, -0.0170412567, 0.0121294903, -0.0656396002, 0.0340720713, 0.0213776883, 0.0084185693, 0.0079977894, 0.0233243927, -0.0259140991, -0.0006370654, 0.0184429139, -0.0162128359, -0.0099474490, -0.0301948860, 0.0277213510, 0.0017646739, 0.0399530642, -0.0054207193, 0.0016538356, 0.0331554711, 0.0131346257, -0.0182023775, 0.0386039466, -0.0191898458, 0.0250418726, -0.0386840478, 0.0081480751, 0.0263558365, -0.0178456157, 0.0032167474, 0.0214067753, 0.0389420763, -0.0029701272, 0.0206866283, -0.0423502997, 0.0106231226, 0.0077255503, -0.0170445088, -0.0189117696, 0.0169792529, -0.0168745033, 0.0086586615, -0.0126269618, -0.0087219002, -0.0146743273, 0.0039690537, 0.0110301608, -0.0098093329, -0.0342712924, -0.0104883155, 0.0001660650, 0.0003616933, 0.0004545221, -0.0177856572, 0.0363989435, -0.0262356158, -0.0084244031, -0.0246973913, 0.0441217721, -0.0225395896, 0.0263722409, -0.0066286004, -0.0315164365, -0.0131867202, -0.0359965451, 0.0232698191, -0.0209569447, 0.0213602763, 0.0337978639, 0.0112471338, 0.0214165393, -0.0046710013, -0.0509051792, -0.0005429114, -0.0314401463, -0.0172895361, 0.0118152425, 0.0458291695, -0.0228782371, -0.0308120102, -0.0154828783, -0.0058518862, 0.0470170118, -0.0050078239, 0.0474465601, -0.0156518985, 0.0213407110, 0.0268205181, 0.0175243765, 0.0156891886, -0.0266718734, -0.0416997820, 0.0133442087, -0.0227239840, 0.0125435768, -0.0152597046, -0.0202259850, 0.0064112712, 0.0226376448, -0.0032547140, 0.0273318142, -0.0055120862, 0.0106714293, 0.0106328949, -0.0311738085, 0.0084136715, -0.0173307545, 0.0374666229, 0.0138622057, -0.0046874820, 0.0135961371, -0.0271319896, 0.0099443253, 0.0234834775, -0.0010123368, -0.0367440507, -0.0208174177, -0.0123148328, 0.0255378988, -0.0184492357, 0.0039524669, 0.0014506734, 0.0045591844, 0.0276313964, 0.0005643011, -0.0091756387, -0.0068848152, 0.0142799309, -0.0267796852, -0.0146655515, -0.0333434306, 0.0086448658, -0.0089519611, 0.0039858231, 0.0374203101, -0.0069276490, -0.0441443026, -0.0282413252, 0.0027328797, 0.0646228194, 0.0042015552, 0.0397313125, -0.0081994282, -0.0387051813, -0.0213435888, -0.0042995354, -0.0267642532, -0.0099436175, 0.0035402961, 0.0127150510, -0.0197646748, -0.0051281592, 0.0068053179, -0.0606910475, 0.0044478043, 0.0110730166, 0.0197117068, 0.0111216567, 0.0201893412, 0.0256183315, -0.0305598937, 0.0250549484, 0.0296200048, 0.0151826162, 0.0573541634, 0.0170615409, 0.0220009536, 0.0046637170, -0.0274468139, 0.0156312454, -0.0026706210, -0.0194851924, 0.0052751661, -0.0056430725, 0.0187796988, -0.0385220796, -0.0017085507, -0.0158736166, 0.0601750948, 0.0285013430, 0.0189743489, -0.0324332528, -0.0217759367, -0.0084826834, -0.0359733254, -0.0126289465, -0.0213844981, -0.0025009695, -0.0027979875, -0.0491901785, 0.0340613015, -0.0287541263, 0.0394635946, 0.0162134916, -0.0226952583, 0.0013470915, 0.0531830899, 0.0650947988, -0.0105462652, -0.0087873833, 0.0186219085, 0.0245748349, -0.0244284049, -0.0453731380, 0.0245227478, 0.0373247638, -0.0072028195, -0.0316598564, -0.0020923712, -0.0225961339, -0.0039029415, -0.0005972287, 0.0094875256, 0.0023341628, 0.0001238198, -0.0251674876, 0.0549003854, -0.0207522716, -0.0038672499, 0.0110886758, -0.0175583772, 0.0027794212, 0.0239241235, 0.0395671837, 0.0285195038, 0.0070011052, 0.0006814785, 0.0144406967, 0.0091135502, -0.0250822771, 0.0323635861, 0.0139946761, 0.0021178478, 0.0064294790, 0.0003724932, 0.0096537238, 0.0043538818, 0.0032985345, -0.0177249033, -0.0543152876, 0.0281966794, -0.0112239681, 0.0121154487, 0.0016637422, -0.0045791864, -0.0594054833, -0.0162463225, -0.0334417336, -0.0427946299, -0.0306128953, -0.0183014926, -0.0206523966, 0.0328871645, -0.0118116522, -0.0435766727, -0.0207690448, -0.0317796655, 0.0335935801, -0.0147530977, 0.0072047836, 0.0576314218, 0.0476179905, 0.0063836332, -0.0035325401, -0.0570354573, -0.0143839009, -0.0180446021, -0.0431977250, -0.0050090756, -0.0006829730, -0.0105057815, -0.0420413651, -0.0579280034, -0.0211639237, 0.0139462370, -0.0347886719, 0.0261690821, -0.0283449609, -0.0052695475, -0.0173175596, -0.0358988047, 0.0002498330, -0.0247521251, 0.0000671951, 0.0326971374, -0.0041296165, -0.0241723824, 0.0325077325, -0.0303719230, 0.0313330814, -0.0093743391, 0.0452782214, 0.0580270067, 0.0134406509, -0.0034673130, 0.0229681954, -0.0086264564, -0.0439749546, -0.0350630097, -0.0296886507, 0.0036008365, 0.0281381737, -0.0418318622, -0.0241652839, -0.0139055159, 0.0101697212, -0.0402117223, 0.0000156778, 0.0214689411, -0.0078205802, 0.0209526289, -0.0479479954, 0.0097929705, -0.0245159809, 0.0344630964, 0.0317275338, -0.0009581809, 0.0388826281, -0.0014912564, 0.0150437662, -0.0187446643, 0.0400241241, -0.0095454473, 0.0101900529, 0.0692570284, -0.0002256621, -0.0124904113, -0.0001219757, -0.0665207878, -0.0043764743, -0.0389843173, -0.0174565110, -0.0267921071, -0.0054954942, -0.0580648482, -0.0131271137, 0.0105078630, 0.0153699163, 0.0016812755, 0.0029783554, 0.0203741286, -0.0053108451, 0.0341526307, -0.0336201899, -0.0169350635, -0.0285927709, -0.0454152934, -0.0205864273, -0.0171493646, -0.0182897784, -0.0897869468, -0.0013899597, -0.0344727375, 0.0284724869, 0.0482253321, 0.2002225965, -0.0157666244, -0.0118132513, 0.0009638653, -0.0159201957, 0.0803654119, 0.0163116455, 0.0124343168, 0.0820288882, 0.0946374461, -0.0049792659, 0.0569683574, -0.0200595520, -0.0040759258, -0.0103876321, -0.0922743753, 0.0447462015, 0.0169307869, 0.0687670261, 0.1714583635, 0.0501214601, 0.0508221425, -0.0510914512, -0.0246362556, -0.0627646819, 0.0572442226, -0.0033317693, 0.0246176776, -0.0847210065, -0.0208665896, -0.0541376770, -0.0081234388, 0.1890567094, 0.0451145470, -0.0738919452, -0.0603794381, 0.0126194730, 0.0924255475, -0.0729009509, 0.0263571423, -0.2361994535, -0.0146569787, 0.0539905392, 0.0044100718, 0.0822726339, -0.0321625918, -0.0187971983, -0.1408147961, 0.1115990281, -0.0455337465, 0.0074202018, 0.1410254687, 0.1291777641, -0.0569319911, 0.0582610257, -0.0242819991, 0.0926657915, 0.0358930342, 0.0599633902, 0.0592590123, -0.0354167335, 0.0264132693, -0.0105547030, 0.0814461708, 0.2305743545, 0.0239368752, -0.0377451591, 0.0875445977, -0.0278029628, 0.0956835821, -0.0091600772, -0.0109701296, 0.0687732026, 0.1969922334, -0.0502505638, 0.1016087681, 0.0356129445, -0.0092370007, 0.0661370903, -0.0354882888, -0.0236272588, 0.0648549944, 0.0557109304, -0.0143734394, 0.1172862798, 0.0624159388, 0.1740492135, -0.0662328005, 0.0473440699, 0.0666078106, -0.0102237742, -0.0562548488, -0.0618514307, -0.0236405563, -0.0806037337, 0.0053468980, -0.0876225531, 0.1052329242, -0.0736191273, -0.0307954438, 0.0462164283, 0.0222374871, 0.0061026402, -0.0339648537, -0.1306078434, 0.0035209425, -0.0673788488, -0.0422014706, -0.0079631712, 0.0012842137, -0.0422465578, 0.1855105013, 0.1077120677, -0.0499417521, 0.0074505773, 0.0317517444, 0.0238853265, 0.1157911271, 0.1937659532, -0.2114687711, 0.0903150812, -0.0627536476, 0.0693872720, -0.1891821176, -0.0581870191, 0.0662152395, 0.0428285711, 0.1229395047, 0.0863000304, 0.0514981449, -0.0478968471, -0.0679334849, -0.2657929063, 0.0463739559, 0.0368869565, -0.0566971451, -0.0454666764, -0.0399988443, -0.0454735495, -0.1292540282, -0.0686182752, -0.0283867195, 0.0950062498, 0.1296268851, 0.1000841036, -0.0278497972, -0.0746680275, 0.1079983488, -0.0972870067, -0.1299606711, 0.0260004271, -0.1124893427, 0.0008480474, 0.0637859777, -0.0093530053, -0.0705685690, -0.0732655153, 0.1101303026, 0.0016417572, -0.0630469024, 0.0971166566, -0.0305558387, 0.0083662709, 0.1110959426, -0.1552174687, -0.0275553912, -0.0930952653, 0.0221903212, 0.0004581704, 0.0926324651, -0.0626402199, -0.1613712460, -0.0085656876, -0.0733633041, -0.0979805738, -0.1136981472, -0.0087292260, -0.0810661539, 0.1162951291, -0.0709493756, 0.0895726904, 0.1429222226, 0.0878996179, -0.0325890221, -0.0290620308, 0.0918995887, 0.0486478992, -0.1146195382, -0.0751396939, -0.1052471250, -0.0218337029, 0.1141482741, 0.0552508906, 0.0423313007, -0.1280503869, 0.1085200533, -0.0107258949, 0.0277639795, 0.0596032925, 0.0020656167, 0.0172649696, 0.0146591254, -0.0658680722, 0.0825980231, 0.0506393909, -0.0966353789, -0.0622904561, 0.0378354266, 0.1691953540, -0.1774227023, 0.0165852699, 0.1193475425, 0.1473191381, 0.1150904447, 0.0439169481, 0.0612793416, -0.1162050813, 0.2880491018, -0.1140840724, -0.1685585976, 0.0323781930, -0.0242271852, -0.0522746257, 0.0914049223, 0.0403724313, 0.0069132186, -0.1896015108, 0.0842413902, -0.1588189155, -0.0032591436, -0.0094844364, -0.0069691106, -0.0895098671, 0.0203910768, 0.0753714517, 0.0902736261, 0.1605528742, 0.0062943776, 0.0331669338, 0.0713203326, 0.1877078712, -0.0344197825, -0.1365653872, 0.0299944095, 0.1896273494, 0.0380586646, 0.0024920013, -0.0778807327, 0.0151932286, 0.1958785206, 0.0793359876, -0.0767677575, -0.0508287959, 0.0134250214, -0.0275699757, 0.0786529854, 0.0134101752, 0.1339710653, -0.1618558764, -0.0111698145, -0.1612050980, 0.0649042428, -0.0189857017, 0.0407362655, 0.0212045610, -0.0716310963, -0.0469542593, -0.0211828966, 0.0800734386, -0.0246325918, 0.1771603376, -0.0994015709, 0.0917388275, -0.1348238140, 0.0525464416, 0.0220628791, 0.2911068499, 0.1462650001, -0.0197890941, -0.0457031280, -0.1423460692, 0.0237097610, -0.0420262255, 0.0316617452, 0.0457166806, 0.0372961946, -0.0563453846, 0.0211453140, 0.0669698492, 0.0818063542, -0.0712873712, 0.0039698314, -0.0505605526, -0.0115624284, -0.0442458354, -0.0216274802, 0.0948614925, 0.1296597868, 0.0334686488, 0.1059332043, 0.0772854090, -0.0018985652, 0.0250814725, -0.0882154629, 0.0147595899, 0.0108268969, -0.0411416292, 0.0205260348, -0.2261290103, 0.0197783243, -0.0373503603, 0.0690404400, -0.0119370520, 0.0350957252, -0.0850104317, -0.0254137609, 0.0524725094, 0.0784635693, -0.1012739837, 0.0395917147, 0.0807395726, -0.1191354394, -0.0556820296, -0.0244448949, 0.0242397320, -0.0804616213, 0.0252738874, -0.0461514778, 0.1640187800, 0.0173819996, 0.0132562257, 0.0712478459, 0.0481685549, 0.0126974089, 0.1108103916, -0.0198377427, 0.0676675811, 0.0913540274, 0.1166776195, 0.0649249032, -0.0279376339, -0.0116281686, 0.2045414448, 0.0465647243, -0.0549252816, 0.0664706528, -0.0593505539, 0.1107270643, -0.0458276831, 0.0937137678, -0.1056891009, -0.0848003551, 0.0370031223, -0.0850023255, -0.1242849231, 0.0127642602, -0.0792004317, -0.0535234995, 0.0681616515, -0.0496844873, 0.0606176257, 0.0108948369, 0.0142129138, 0.1668086350, 0.0186321251, -0.0106680105, 0.1985078156, 0.1466479599, 0.0919268653, 0.1367078274, -0.0586019754, -0.0855089054, -0.0643193796, -0.0063875574, 0.0754464120, 0.0809704959, 0.0755326822, 0.0624806732, -0.0958947986, 0.0994770005, -0.0124718184, 0.0086080721, 0.1587412804, -0.0676124245, 0.1136616692, 0.0091004493, -0.0069137141, 0.0598240979, -0.0947762355, 0.1345911026, 0.0093614850, -0.0411572307, -0.1135957614, -0.0054940893, 0.0861919746, -0.1469562054, -0.0525036603, 0.0732971951, 0.0002639290, 0.1150252223, 0.0753903911, 0.0068149017, 0.0290288087, 0.1234971061, 0.0605398566, 0.1189252138, -0.0043721790, 0.0706567243, 0.1212136596, -0.0575211868, 0.0332899466, 0.0977649093, 0.0024237894, 0.0696370825, 0.1150809377, 0.0464680083, 0.0517741367, -0.0703220740, -0.0335129127, 0.1406891495, -0.1198530793, 0.0612715185, 0.0748920366, 0.0159028489, -0.0589807332, 0.1295734495, 0.0836735964, -0.1940696388, 0.0504596047, 0.1215305775, 0.0661047772, -0.0049783434, 0.0334298015, 0.0508512966, -0.0151456641, 0.0312993787, 0.1145372316, 0.1231504828, 0.0203169510, -0.0428364500, -0.0098059857, 0.1273771971, -0.0012350534, 0.0062999320, -0.0888265595, 0.0998721495, 0.0344900861, -0.0541578047, 0.1026458368, -0.1523921341, -0.0719050765, 0.1023054644, -0.1278709620, 0.0459832959, 0.0187169127, 0.0481105410, -0.0657193437, -0.0047789589, 0.0764117688, -0.0659998357, 0.0617390126, 0.0265829954, -0.0671796277, 0.0932895914, 0.1175295115, 0.0776721388, -0.0182254203, -0.0215678476, 0.0368580334, 0.0477589108, -0.0844009519, 0.0772680864, -0.0186816994, 0.0874082893, 0.0075098583, -0.0289661400, -0.0589228980, -0.0482725762, 0.1751616597, 0.0182527732, -0.0338079184, 0.1323551089, 0.0492311046, 0.0715631917, -0.1185023338, -0.0589110255, -0.0134284468, -0.2134582698, -0.0065262890, -0.0124526210, 0.1323238760, -0.2383278310, 0.0367144942, -0.0127389198, -0.0027171439, 0.0715251565, 0.0283035375, 0.0829922333, 0.0428280421, -0.0077571892, 0.1027937084, -0.0449412838, -0.0275818128, -0.0436015055, 0.0315516815, 0.1730924994, -0.0026727687, 0.0257206876, -0.1231170446, -0.0212731548, 0.0650106966, -0.0066387318, -0.1151796803, 0.0312156249, 0.0840133205, 0.0729647651, -0.1381671280, -0.0130960699, -0.0717567801, -0.0859115496, 0.0237682965, 0.0371305719, 0.0433671921, -0.1131703332, -0.0744198784, -0.0172231235, 0.0857218653, 0.0399217568, -0.0485318489, 0.0259733181, 0.0162974373, 0.1236809269, 0.0106047746, 0.0275427531, 0.0828778744, -0.0693869814, 0.0073444676, 0.1324550956, 0.0856885687, -0.1358253211, -0.1823869795, 0.0605725758, 0.0664435774, 0.1051800027, -0.0082132826, 0.1144693345, 0.0098978234, 0.1164085343, -0.0451743007, -0.0919913128, -0.0750208050, -0.0064783101, 0.0703218952, 0.0630783364, 0.0174509659, -0.0450565629, -0.0421601310, 0.0381901152, 0.0195325147, 0.1117627323, 0.0807445794, -0.0487094223, -0.0342414603, -0.0044104191, 0.0995755643, -0.0081441002, -0.0304610766, 0.0899715945, -0.0330989920, 0.0827564225, -0.0105323363, -0.0655113384, -0.0060022278, -0.0325349197, -0.1176182777, -0.0355750099, 0.0465191752, -0.0990568548, -0.0209479500, -0.0381785966, 0.0052915346, 0.0903691575, -0.0716281980, -0.0506814197, -0.1162374094, 0.0665670410, 0.0277696215, 0.1849581450, 0.0118342629, -0.0460781530, -0.0516985357, -0.0908143371, 0.0510573722, 0.0239037871, 0.0688126162, 0.1693708599, 0.0246542525, 0.0249523055, -0.0462320186, -0.1275121868, 0.0592644773, 0.0196932834, -0.0813876987, -0.0076717427, 0.0024453744, -0.0818485543, -0.0212967210, -0.0486433432, 0.0694383681, -0.0591972321, 0.0707973838, 0.0129767228, -0.0842886344, -0.0074767279, -0.0666781738, 0.0027886075, 0.0290107001, 0.0900186226, 0.0136677092, 0.0589607656, 0.0523422174, 0.1460631639, -0.0999171808, -0.1158807501, 0.0210435838, -0.0410548374, -0.0612462573, 0.0745728910, 0.0041864533, 0.1104696691, -0.1128511727, -0.0882367417, 0.0064347954, -0.0304170325, -0.0183590427, 0.1316709816, -0.0361920074, 0.0967312902, 0.1024867296, -0.2092145830, -0.0739740208, -0.1053492501, 0.0474270396, -0.0038364739, -0.0359403491, -0.0245289654, -0.1555412263, -0.0105663147, 0.0178683158, 0.1239412501, -0.0461490341, -0.0243535079, 0.0372066349, 0.0146596897, -0.0913845971, -0.1622552127, 0.0767128319, 0.0177424718, 0.0352003761, 0.0916317403, 0.0527955033, 0.0843537003, -0.1345123798, 0.0851001740, 0.1533413529, -0.0124684218, 0.0929877684, 0.0192948673, -0.1057850718, 0.0014223122, 0.0671951398, 0.0069335164, -0.0434007943, 0.0327736326, -0.0898118541, -0.0046183174, 0.0184361506, 0.0300387014, -0.1122742146, 0.0731912926, -0.0327955112, -0.0586716495, -0.0257737152, -0.1126958877, -0.1373740882, 0.0299129263, -0.0281198658, -0.1573356539, 0.1305247992, 0.0144162532, -0.0405380651, 0.1573077738, -0.0762913525, 0.1296845973, -0.0803878307, 0.0489636362, -0.0318084769, 0.0320033208, -0.0461722091, 0.0059462008, -0.0576115623, -0.0327882469, -0.0165862534, -0.0228505973, -0.0387414545, -0.1265240461, -0.0003047650, -0.1991065443, 0.0180327259, -0.0412998274, -0.0500534400, 0.0830212161, -0.0672923848, -0.0611984432, -0.1531134099, -0.0316152126, 0.0397005528, -0.1434515268, -0.0345271081, -0.1548925340, 0.0038678912, 0.0485075638, -0.0536384732, 0.1076086983, -0.0269592423, -0.0537755676, -0.0610837489, -0.0390630923, -0.0684055313, 0.0129831638, 0.0205736030, -0.0186734069, -0.0096689928, -0.0463121608, -0.0655876175, 0.0213231463, 0.1471773535, -0.2117941976, 0.0297123194, 0.0126469433, -0.1911760569, 0.0092441160, -0.1259366721, 0.1431324333, 0.0826192498, 0.0191445015, -0.1341002285, 0.0333427750, 0.0309089199, -0.1514205188, -0.1055768207, -0.1223535538, 0.0444694683, -0.1562321186, 0.0336489789, 0.0010389930, 0.0182384569, -0.0013966367, -0.0956279263, 0.0269933138, -0.0486577637, -0.0419446267, 0.0106379967, -0.1233421341, -0.1933587939, -0.1764474213, -0.0843510851, -0.1601034850, -0.0129623627, 0.1482520700, -0.0805994347, 0.0164181888, -0.0124146678, -0.0532760322, 0.0346573479, -0.1588046700, -0.0538490899, 0.1240109503, -0.0669280440, -0.1705147773, -0.2314773202, -0.0908704400, -0.0691493377, 0.0193423778, 0.1603121012, -0.1251421869, 0.0548121072, 0.0187479015, -0.0782101154, 0.0322979577, -0.0185450371, -0.0923042297, -0.0315340012, 0.0140890880, 0.0645409375, -0.0056361598, -0.1234072894, -0.1077777892, -0.0555805936, 0.0854603797, -0.0800430104, 0.0330199040, -0.1377404928, 0.0345091335, -0.0842829272, 0.0491528511, -0.1149171814, -0.0014126940, 0.0544805452, -0.0657581612, 0.0352745727, -0.1636748016, -0.1705790460, -0.0526765250, -0.0198673420, 0.0117507866, 0.1930505931, -0.0817314610, -0.0573243499, 0.0774298087, -0.0208894517, 0.0423317030, -0.0619803146, -0.0775588080, -0.1484787762, 0.0315599851, -0.1500740051, -0.1380312890, 0.0392106324, -0.0606639348, 0.0491945371, -0.0440409333, -0.0662213862, -0.0019978518, -0.0258770287, -0.0282858517, -0.0001066880, -0.0850387141, -0.1114568189, 0.0459933840, -0.0890479237, -0.0473463200, -0.1556032002, -0.0484100245, -0.1215218529, -0.0515006259, -0.0840081424, -0.0302119125, 0.0301897544, -0.1012631059, 0.0670245066, -0.0824398994, 0.0405978747, 0.0513692945, -0.1286419630, 0.0419358276, 0.1035810187, 0.0105304457, 0.0073913392, -0.0221884903, 0.0191058349, 0.0136061804, -0.0106129562, 0.0398958884, -0.0348146744, -0.0340002775, -0.0268795174, 0.0421467386, 0.0120831048, -0.0202887394, -0.0812548473, -0.0483638458, 0.0936087221, -0.0334948897, 0.0599881448, 0.0166364014, 0.0133626182, -0.0066615669, -0.0292335209, -0.0331051908, -0.0509795658, 0.0529027991, 0.0657906458, -0.0057753068, -0.0202971958, 0.0412336588, -0.0463616028, 0.0421767272, 0.0560189970, -0.0374509878, 0.0178901590, -0.0309893489, 0.0149338068, -0.0224201102, -0.0267368928, 0.0406768434, 0.0185719449, -0.0336899459, -0.0910162032, 0.0029036761, -0.0031246156, -0.0166557580, -0.0125602903, -0.0846018642, 0.0876562074, -0.0025310062, 0.0282554794, -0.0675632730, 0.0679504648, 0.0095841335, -0.0234422814, 0.0394791849, -0.0387019254, 0.0193859003, -0.0291364081, 0.0562712215, -0.0396511033, 0.0172125027, -0.0242033619, 0.0125854919, -0.0205741636, -0.0249412060, 0.0688948557, 0.0801399425, 0.0278589688, 0.0028868320, -0.0701223090, 0.0803336874, -0.0375537984, -0.0807415396, -0.0444668457, -0.0123938154, -0.0585006550, 0.0342980400, 0.0050618825, -0.0149600003, 0.0722678825, -0.0092426315, 0.0360960439, 0.0188699514, 0.0107134944, 0.0332413390, -0.0285298731, -0.0151620703, 0.0508941747, 0.0019090156, 0.0159466714, -0.0186697617, 0.0131562436, -0.0288532376, 0.0317885242, 0.0082588252, -0.0192398261, 0.0302818343, -0.0045588273, 0.0205761902, -0.0335945748, 0.0068204869, 0.0103896605, -0.1160326824, -0.0040823016, -0.0138291596, -0.0266537964, -0.0154186543, 0.0053020073, 0.0257478841, -0.0234458186, 0.0424987897, 0.0349510200, 0.0259157959, 0.0477361754, -0.0086105382, -0.0383264422, 0.0388111733, 0.0215467922, 0.0589705482, -0.0454024002, 0.1121022701, -0.1119302735, -0.0565855391, 0.0033177785, -0.0527738109, -0.0195361339, 0.0254769046, 0.0089503359, -0.0357055441, 0.0111395353, 0.0799834803, -0.0205716472, -0.0315606594, -0.0602879636, -0.0898600668, 0.0464386493, -0.0209545922, 0.0255464148, 0.0137207489, 0.0119475676, -0.0178199019, 0.0297950637, 0.0849076062, 0.0443886034, 0.0105761969, 0.0547972359, -0.0278061014, -0.0278557222, 0.0742253736, 0.0049634818, 0.0508935675, -0.0437046215, 0.0978997797, -0.0218185261, -0.0113056432, 0.0092709418, 0.0144096278, -0.0517205410, -0.0065951557, -0.0596768074, -0.0361368135, -0.0011437300, 0.0468654856, 0.0150531549, 0.0003960987, -0.0097935535, -0.0211861301, 0.0309864152, -0.0315565355, 0.0067411098, 0.0335256197, 0.0197914466, -0.0373677611, -0.0779216215, -0.0008221799, -0.0992100388, 0.0259816274, 0.0009757911, 0.0460183583, -0.0160173438, 0.0957732573, 0.0964859873, 0.0084081925, 0.0275717191, 0.0454013497, -0.0284112319, 0.0202514380, -0.0018872113, 0.0438912995, 0.0077659292, 0.0317990594, 0.0044114147, 0.0105027212, -0.0211697109, -0.0105927093, -0.0523280390, -0.0673049912, 0.0225454979, -0.0205907300, 0.1284800917, -0.0036252947, 0.0399765894, -0.0044522062, 0.0226639677, 0.0100206472, 0.0432003066, 0.0041278917, -0.0478470847, -0.0431968421, -0.0361939333, 0.0676226392, -0.0097376537, 0.0467282645, 0.0331232734, 0.0836222693, -0.0065535363, 0.0222238563, -0.1013335139, 0.0804832429, -0.0133446241, -0.0403731689, 0.0343652964, -0.0381413773, -0.0171994083, 0.0204032175, -0.0111479908, -0.0543009602, -0.0358328447, -0.0757770985, -0.0227123015, -0.0958740637, 0.0727939680, 0.0355685316, 0.0645056441, -0.0059457831, 0.0435511172, -0.0299508534, 0.0556572191, -0.0389107578, 0.0688243285, -0.0546464659, -0.0511855073, 0.0836362913, 0.0508158542, 0.0503530987, 0.0390335731, 0.0477272272, 0.0090472018, 0.0123530701, -0.0179010313, 0.0625943840, 0.0210284870, 0.0277702715, -0.0296569057, 0.0115242638, -0.0608187355, 0.0302169472, 0.0187281296, -0.1133668795, -0.0206217635, -0.0255643744, -0.0098232711, -0.0155023849, 0.0915871561, -0.0936640948, 0.0358479470, 0.0145430053, -0.0364892334, -0.0952996090, 0.0238770954, -0.0496295169, 0.0187299605, -0.0166893136, -0.0216204412, 0.0603927411, -0.0196004324, 0.0831012055, 0.0311839320, -0.0024687964, 0.0476976521, -0.0201361924, -0.0146138705, 0.0892481506, -0.0273279399, 0.0061054807, -0.0316241048, 0.0260088164, 0.0089278072, 0.0934067741, -0.0442539640, -0.0247044284, 0.0464979671, 0.0266856980, -0.0514221713, 0.0347797908, 0.0308895241, 0.0098270178, -0.0276820138, 0.0288431738, 0.1393140256, -0.0685082376, 0.0184328370, -0.0791019872, -0.1283964664, -0.0414090119, -0.0505818650, -0.0138561102, -0.1027019322, -0.0232729129, 0.0355286784, 0.1382970959, -0.0210781097, -0.0966100320, -0.0827435330, 0.0082002552, -0.0377653353, 0.0379299931, -0.1032510921, 0.0205681585, 0.0084955012, -0.0182447005, 0.0273388699, 0.0891959518, -0.0043834941, -0.0325929895, -0.0034968501, -0.0482429154, -0.0053490829, 0.0570155382, -0.0433164611, 0.0035096221, 0.1041137129, 0.0199542716, -0.0503220670, -0.0572066195, -0.0818481669, -0.0177290309, 0.0280436780, -0.0796462893, -0.0529131703, 0.0492274836, 0.0362257697, -0.0320094042, -0.0140233673, 0.0404830240, 0.0374532714, 0.0673008934, -0.0300525576, -0.0174239334, -0.1356912255, -0.0065819034, -0.0197340418, -0.0292868633, 0.0877535343, 0.0815407708, -0.0080832541, -0.0218720045, -0.0461652614, -0.0494943410, 0.0508409403, 0.0880863592, 0.0144400820, 0.0679492578, 0.0955912843, -0.0613944046, -0.0407220945, -0.0577235855, -0.0088197552, -0.0379138999, -0.0378094539, -0.0517608672, -0.0964486077, -0.0302141476, -0.0573770553, 0.0179527141, 0.0444739126, 0.0232162550, -0.0363475494, 0.0331859775, -0.0540371127, -0.0180443451, -0.0151545312, -0.0424426794, 0.0152174924, -0.0521781966, -0.0023083333, 0.0452752709, -0.0310372971, -0.0631157532, 0.0189150181, 0.0232704915, -0.0111662345, 0.0290640928, -0.0196850672, -0.0987642929, -0.0358709097, -0.0493368842, -0.0027498077, -0.0257194731, -0.0718971938, -0.0357539915, -0.0185177885, -0.0435970910, -0.0271298066, 0.0615000799, -0.0437381044, -0.0538750775, -0.0412844196, 0.0714883730, 0.0251624957, -0.0247145258, -0.1079738587, -0.0996315852, -0.1460152566, 0.0487188399, -0.0087078558, 0.0165771190, 0.0073722810, -0.0204247367, 0.0633477345, -0.0556558929, -0.0180622730, -0.0458936393, -0.0339948572, 0.0352505520, 0.0101841539, -0.0705301389, 0.0122679258, -0.0024734053, 0.0386778228, 0.0367105752, -0.0197951980, -0.0497769453, 0.0549834482, -0.0746850446, -0.0164485108, 0.0287740082, -0.0870884657, -0.0144125586, 0.0207406655, -0.0324256159, 0.0218725875, -0.0287573952, -0.0709994659, -0.0203393176, -0.0154169435, 0.0179861542, -0.0690403655, -0.0629791915, 0.0014932739, 0.0007446361, 0.0164138339, 0.0132012470, -0.0474046431, 0.0154224765, -0.0256993212, 0.0933855325, -0.0097800456, -0.0978984386, -0.0219207462, -0.0841552466, -0.0057235011, -0.0684723407, 0.0083992137, -0.0589324757, 0.0168992672, -0.0553346537, -0.0338454507, 0.0278529637, -0.0854285434, -0.0479523130, -0.0570736192, -0.0299220644, 0.0118157389, -0.0020484398, -0.0625909567, -0.0614398010, -0.0305290017, -0.0370251052, -0.0043484345, -0.0656670481, 0.0688622594, -0.0286123455, 0.0781134069, -0.0267009716, 0.0236894228, 0.0528851338, 0.0995357037, 0.0155702233, 0.0012450770, 0.0325040631, -0.0585538410, -0.0480317995, 0.0338272750, -0.0214849301, -0.1071182266, -0.0966907740, 0.0290196631, -0.0170402974, -0.0875907466, -0.0526096001, -0.0205599144, 0.0380921960, 0.0036417830, 0.0192548744, -0.0173918940, 0.0232431069, 0.0001656857, 0.0057739890, 0.0290284008, -0.0701801181, -0.0279099438, -0.0592648946, -0.0015767692, 0.0441257432, -0.0047707558, -0.0583507009, -0.0323587805, 0.0294795353, 0.0199723281, 0.0118808066, -0.0319638029, -0.0830857232, 0.0032126312, 0.0208497848, -0.0441524424, -0.1280091703, -0.1376541406, -0.0285257138, 0.0588242188, -0.0409242772, -0.0121183023, -0.0909098238, -0.0358063169, 0.0047766846, -0.0917501003, -0.0307333525, -0.0533830114, -0.0458558910, -0.1154856756, -0.0473138131, -0.0251135845, 0.0034421491, 0.0334076062, -0.0476462953, 0.0585674830, 0.0340506099, 0.0077266009, -0.0501953810, 0.0430491678, 0.0060836799, -0.0422058143, 0.0520359315, -0.0114900349, -0.0477895439, 0.0334707238, -0.0978865549, -0.0605696887, -0.0599366352, -0.0311940238, -0.0137494374, 0.0108164791, -0.0382947586, -0.0984965786, 0.0204062387, 0.0885627344, 0.0315479897, -0.0216824282, -0.0462231971, -0.0862606838, -0.0087891156, -0.0647994131, -0.0370414332, -0.0901452005, 0.0549805872, 0.0209102146, 0.0589132272, -0.0484819338, -0.0030113675, 0.0307045840, -0.0129953958, -0.0035432612, 0.0305003505, -0.0175255928, -0.0058871843, -0.0183266737, 0.0048294039, -0.0141325649, -0.0030350792, 0.0173810422, -0.0036259945, 0.0022303173, -0.0107238134, 0.0071010506, 0.0180541538, 0.0092830956, -0.0059234169, -0.0121255210, -0.0123235723, -0.0031875176, -0.0285096932, -0.0033094382, 0.0105991326, -0.0252205841, 0.0053585288, 0.0014237211, 0.0186021868, 0.0097425748, 0.0032326162, -0.0119473943, -0.0095072184, -0.0052198102, 0.0111773824, 0.0077574220, 0.0092435963, -0.0003991471, 0.0058481558, -0.0101449732, -0.0184268970, 0.0267471820, -0.0312943198, -0.0102528622, 0.0088803666, -0.0089740204, -0.0019714632, -0.0271694604, 0.0007452460, 0.0023593456, 0.0081366990, -0.0093303295, -0.0123920739, 0.0071386723, -0.0389292389, -0.0009112367, 0.0005415015, -0.0021242441, 0.0074891686, -0.0011835796, 0.0270916708, -0.0065701716, -0.0038201422, -0.0207813866, 0.0224819947, -0.0167116486, 0.0088553661, -0.0042082239, -0.0078453906, -0.0205053780, -0.0008099055, -0.0199010819, 0.0075528384, 0.0219719186, 0.0417555869, 0.0161824431, -0.0037512863, 0.0114154071, 0.0002726129, -0.0284821335, 0.0026203860, 0.0112045323, -0.0018066925, -0.0231833532, 0.0190481320, 0.0107984692, -0.0220012087, -0.0271936562, -0.0402861759, 0.0011044615, 0.0052744644, -0.0167438667, 0.0080346093, -0.0197219662, -0.0180691835, 0.0020477676, -0.0192433503, 0.0469667725, -0.0168223977, -0.0348069035, 0.0112390881, -0.0221977793, -0.0257484186, -0.0352857634, 0.0122855585, -0.0019826281, -0.0177400634, 0.0395711884, -0.0166428462, -0.0100433761, 0.0072555849, -0.0284882654, -0.0105220359, -0.0159857832, -0.0519167408, -0.0160006024, 0.0211264323, 0.0038563050, -0.0428607725, 0.0595885888, 0.0074132327, 0.0098235486, 0.0201122556, -0.0072501493, 0.0105766812, -0.0304050837, -0.0084295096, -0.0003156407, -0.0436669067, 0.0420472734, -0.0301393010, -0.0642089173, 0.0085889641, 0.0014551606, 0.0034418537, -0.0725641996, -0.0290064774, 0.0027677221, 0.0228734333, 0.0109037980, -0.0048927581, 0.0197137985, 0.0079198284, -0.0295326877, 0.0177798104, 0.0041209888, -0.0124675957, 0.0066723325, 0.0006135668, -0.0017348428, -0.0370512493, 0.0368760787, -0.0144049460, 0.0082415203, 0.0129191615, -0.0297654457, 0.0192124490, -0.0063016419, -0.0053440435, 0.0098531712, -0.0285948664, 0.0224333405, 0.0218071416, -0.0437606089, -0.0237145964, -0.0327406749, -0.0091890553, -0.0642579421, -0.0217646118, 0.0044906111, 0.0194735602, 0.0118356561, 0.0067970082, 0.0102995522, 0.0095416363, -0.0164376833, 0.0230273847, 0.0006272405, -0.0068460735, -0.0385688655, 0.0199879985, 0.0056759464, -0.0534931272, 0.0136746187, -0.0072098454, 0.0352328308, 0.0057457881, -0.0052905437, -0.0130900899, -0.0078003444, 0.0029283406, 0.0049593630, -0.0165062342, -0.0055803051, 0.0113243647, -0.0417536236, 0.0074147461, -0.0199568681, -0.0074429847, -0.0253140982, 0.0262513049, -0.0226643663, 0.0071672900, 0.0376858711, -0.0192205962, 0.0095177116, -0.0161593650, -0.0255928840, 0.0128315715, -0.0024599822, -0.0184720661, -0.0093574887, 0.0135854604, 0.0001958401, -0.0291548017, 0.0266238321, -0.0057919328, -0.0114010312, 0.0104312906, 0.0042895493, 0.0160733946, -0.0149012599, 0.0158228632, -0.0168850217, -0.0429802537, 0.0010401906, -0.0018730897, -0.0978711098, -0.0106317578, 0.0080835996, 0.0176104475, -0.0236232132, 0.0184532832, -0.0051546791, 0.0073081274, 0.0071637491, -0.0252690222, 0.0076289303, -0.0019553408, -0.0094898110, -0.0058212625, -0.0134674646, -0.0055005332, -0.0059393961, -0.0004395722, -0.0282474216, -0.0258217826, 0.0367945023, 0.0134109454, -0.0189402439, 0.0101459268, 0.0076060621, 0.0487804264, -0.0204202086, -0.0163861662, -0.0040430827, -0.0491097681, 0.0171878710, -0.0194260590, -0.0601677820, 0.0085412320, -0.0083090039, -0.0126808146, -0.0127349822, 0.0323430374, -0.0752068013, 0.0264425203, -0.0145934112, -0.0271194521, 0.0116112977, -0.0173412114, 0.0008665601, 0.0153541472, 0.0148197804, -0.0312971547, -0.0152784754, -0.0088030137, 0.0201488193, -0.0350581966, 0.0364722162, -0.0058260011, 0.0163512081, 0.0058604321, 0.0218440592, -0.0030487007, -0.0642843097, -0.0033370368, 0.0283693150, -0.0689651296, -0.0035721899, -0.0665420964, -0.1165775284, -0.0052489829, -0.1370353252, -0.0922020152, -0.1016680300, 0.1541911066, 0.0987636074, -0.0012923909, 0.1330393851, 0.1303713471, -0.1506175548, 0.0855554417, 0.0451780818, 0.2566214800, -0.1096054465, 0.0895095095, 0.0769787878, -0.0357333086, -0.0464538373, 0.0391553901, 0.0444598198, -0.0787052661, 0.0482494608, 0.0201785639, -0.1501204520, 0.0604204498, -0.1107650325, -0.1072585955, -0.1087064967, 0.1554904729, -0.0820035413, -0.1299454272, -0.1463775933, -0.1070400700, -0.0104281856, -0.1283142418, -0.2240369618, 0.0912528932, -0.0748217925, -0.0713469461, 0.0775160491, 0.0765794739, -0.0308394600, 0.0160278324, 0.0124290818, -0.0208151452, 0.0411587581, -0.0629524961, -0.0524579473, -0.1936279982, 0.0048565045, -0.0708140656, 0.0184250735, -0.0629013181, 0.0969777405, 0.0359016582, 0.0515942648, 0.0222373530, -0.2101495266, -0.1839665473, -0.1099204943, -0.1549372375, -0.0222456101, -0.0341792591, -0.1723177433, -0.1203962192, -0.1101462469, -0.1405458599, -0.1022678316, 0.0827236623, -0.1652881354, 0.0082990211, 0.1902142018, -0.0028621757, -0.0871652439, 0.0905355588, 0.0762359798, -0.0871433318, 0.0681782067, -0.0246310700, -0.0195686948, -0.2302224934, -0.1096049175, 0.0488681644, -0.1524082124, -0.0727045387, 0.0032161789, -0.0657981932, -0.1034737527, 0.0458095819, -0.0689992607, -0.0658644065, 0.0017736648, 0.1284211576, 0.0915810019, -0.0421645604, 0.0404429249, 0.2328732163, -0.1158822030, -0.0350433253, -0.0212591197, 0.0205129348, -0.0876774788, -0.0572820604, -0.0053494428, -0.0187360011, 0.1207667440, -0.2268773615, -0.0165206473, 0.0798881352, -0.0592141114, 0.1273204088, 0.0895305350, 0.0476714484, 0.0143386554, -0.0941334590, -0.0253015235, -0.0916054174, 0.0707694069, 0.0306489021, -0.1905879229, 0.0949112847, 0.0568726324, -0.1105512530, -0.0528441519, 0.1188106090, -0.0374376737, 0.0083810799, 0.0198592246, -0.1880108416, 0.0511788055, 0.0195523500, -0.0665736496, -0.0859849900, -0.1083135158, -0.0666174367, 0.0249787513, -0.0673402771, -0.0341218375, -0.1733300388, 0.1180993840, -0.1274357140, -0.0783839226, -0.0096500041, -0.0603891835, -0.0665078983, 0.0981734172, -0.0642359778, 0.0427589081, -0.1226443648, 0.0297157541, -0.0996847376, 0.0618289337, -0.0055020233, -0.0811598822, -0.1204432175, -0.0957466364, 0.2413381338, 0.0184815656, -0.1211776435, -0.0829706341, -0.0142912539, -0.1629166603, 0.0865350217, 0.0319072306, -0.0453271270, -0.0081105456, -0.0021688861, 0.1572771817, -0.1155765653, -0.1389180273, -0.0773890838, -0.0050170207, -0.1248934641, 0.0076449295, -0.0118400212, -0.0934934691, 0.0369745307, 0.0559937395, 0.0035902217, -0.0100598717, 0.0227692351, -0.0065066572, 0.0444817543, -0.0012875096, -0.0524056777, -0.0432102419, -0.1114505678, -0.0351240486, 0.0116736339, 0.0149478838, -0.0878965706, 0.1345916092, 0.1573711783, -0.0667578653, -0.0266649295, 0.1685995907, -0.0366591737, -0.0344334729, -0.2400526553, 0.0681973249, -0.2118761241, -0.0464242697, -0.0968251005, -0.1205262095, -0.1135253087, 0.0005660188, 0.0728570446, -0.0702101514, -0.0379120559, -0.0984451994, 0.0621330403, -0.1539587975, -0.1012361497, -0.1067392603, -0.0211283080, 0.0363076776, 0.0481333919, -0.0475201719, -0.0549117848, -0.0684402883, -0.0434148349, -0.0468506999, 0.0056007821, 0.0225623567, 0.0856426060, -0.1175343096, 0.0315567106, 0.0079114474, 0.0572240874, 0.0894513950, 0.0072434833, -0.0254669338, -0.0164176077, 0.0463564210, -0.2214199156, -0.0147562483, -0.0231432989, 0.1790369451, 0.0036135903, 