//Numpy array shape [3, 3, 64, 64]
//Min -0.342507362366
//Max 0.297118186951
//Number of zeros 0

#ifndef W22_H_
#define W22_H_

#ifndef __SYNTHESIS__
model_default_t w22[36864];
#else
model_default_t w22[36864] = {-0.0043928688, 0.0019361759, -0.0220599566, 0.0102044698, -0.0324242115, -0.0178292245, -0.0421336256, -0.0277070627, -0.0343305618, -0.0041296477, 0.0047071511, 0.0107780062, -0.0252428576, -0.0219147205, -0.0476907827, -0.0112156058, -0.0237581041, 0.0213540066, 0.0819446743, -0.0209259763, -0.0177423023, -0.0217111148, -0.0780744553, 0.0044124015, 0.0583958291, 0.0083123436, -0.0146297738, 0.0220386107, -0.0347720496, -0.0183134302, 0.0311441626, -0.0465917848, 0.0102901720, -0.0659713149, 0.0006447119, -0.0080356384, -0.0512426682, -0.0282761976, 0.0265808459, -0.0937449709, -0.0112700742, 0.0067885858, 0.0208026748, 0.0416210070, 0.0118187927, 0.0412675962, -0.0165369920, 0.0073796110, -0.0005021919, 0.0035976218, -0.0170663949, 0.0200481564, -0.0470785946, 0.0159704257, -0.0345688574, 0.0170800462, -0.0148441503, 0.0336785987, -0.0318351537, 0.0274107326, -0.0234724302, -0.0123209022, -0.0029032105, 0.0029826756, -0.0182516333, -0.0183099788, -0.0625124574, -0.0026575774, -0.0288342219, 0.0646174848, 0.0216648020, -0.0013314843, -0.0313471667, -0.0069681988, -0.0135118915, -0.0327856801, -0.0149164861, -0.0927426964, -0.0170560814, 0.0239429288, -0.0088387420, -0.0017121795, 0.0868085921, 0.0045043118, -0.0471843332, -0.0451724567, -0.0464158282, -0.1029066443, 0.0119335083, -0.0327904932, -0.0090618702, 0.0302735176, 0.0067540659, -0.0294929929, 0.0024536205, 0.0213496163, 0.0391025916, 0.0112101976, 0.0432970375, 0.0163097270, 0.0712760612, 0.0255930126, 0.0152041828, -0.0374919176, -0.0025863436, 0.0037662520, -0.0424399711, 0.0193010513, -0.0270591937, 0.0082888864, 0.0049009006, 0.0003174279, -0.0117391665, -0.0262198336, 0.0248020701, -0.0504626855, -0.0099821808, 0.0022317311, 0.0108874887, 0.0586030185, -0.0649435595, 0.0769685209, 0.0112569509, -0.0013322015, 0.0735302791, -0.0037578875, 0.0320801660, -0.0085112946, 0.0005915106, -0.0019584659, -0.0094753094, 0.0008947160, -0.0399142131, -0.0463461727, 0.0607065819, -0.0246120989, 0.0624101609, 0.0059673963, 0.0008669854, -0.0065272772, 0.0070100613, -0.0077461540, 0.0252505671, -0.0470197797, -0.0413955636, 0.0196530819, 0.0139611838, 0.0545064583, 0.0015142837, -0.0121716876, 0.0297290422, -0.0061323140, -0.0493735038, -0.0200995076, -0.0478707291, 0.0094726589, -0.0397347510, -0.0187231470, -0.0073972731, 0.0801269263, 0.0005494849, 0.0071781846, 0.0093101701, 0.0312941484, 0.0163255259, 0.0205830764, 0.0153726721, 0.0150001626, 0.0382716991, -0.0056569958, -0.0287188906, 0.0128137888, 0.0029761845, 0.0058672000, -0.0216334276, 0.0065255896, 0.0051095746, -0.0556099489, 0.0222660881, -0.0110612474, -0.0398399606, 0.0105280951, -0.0360331684, 0.0235981625, -0.0075741331, -0.0117432671, 0.0401261039, 0.0887719989, 0.0280301925, -0.0194586404, 0.0075804796, -0.0247377958, -0.0076475269, -0.0354313962, -0.0841515362, 0.0210209824, -0.0699628219, -0.0003145575, 0.0491750352, 0.0173545666, -0.0308972038, 0.0409439243, -0.0266876761, 0.0299813244, -0.0182226077, 0.0009923954, -0.0358000994, 0.0390256047, 0.0463706143, -0.0064152931, 0.0093834158, -0.0196047984, 0.0403050147, -0.0127334148, -0.0612498224, -0.0932196528, 0.0343306772, 0.0496152416, -0.0047598225, -0.0508355759, -0.0069270087, -0.0367867835, -0.0584525689, -0.0149197178, -0.0003086259, -0.0123050446, 0.0028244043, -0.0573285893, -0.0624351390, 0.0545664839, -0.0282368585, -0.0437856391, -0.0201267898, -0.0247194059, 0.0142298387, 0.0173878744, -0.0019482012, -0.0135941785, -0.0516005345, -0.0270003527, -0.0218856353, 0.0071346853, 0.0388853252, -0.0381568186, -0.0718599781, -0.0184527710, 0.0207864102, -0.0586956143, 0.0385396592, 0.0092949737, 0.0153711345, -0.0728926063, -0.1001233533, -0.0553237759, -0.0075745187, -0.0354685299, -0.0086777005, -0.0277189091, -0.0159655027, -0.0302073676, 0.0287354030, 0.0227456093, 0.0151080778, 0.0921252668, -0.0248272605, -0.0074430308, -0.0499056876, 0.0039479807, -0.0054458850, -0.0040317341, 0.0155683551, 0.0635873601, 0.0246319547, -0.0309982244, 0.0255934838, -0.0104612587, -0.0546760187, -0.0349395983, -0.0421470180, -0.1114106253, 0.0591671020, 0.0221809484, -0.0356321856, -0.0232053380, 0.0324744172, 0.0028902194, -0.0108757718, -0.0547446422, 0.0066236197, 0.0194206871, 0.0091407262, 0.0162434224, -0.0655512288, -0.0215729605, 0.0519184917, -0.0480810590, -0.0120907025, -0.0085797664, -0.0545156300, -0.0183034614, -0.0343310907, 0.0307234991, 0.0613939576, 0.0048865965, 0.0493438654, -0.0423076078, 0.0083144624, 0.0157175437, -0.0228383560, 0.0296076685, 0.0862932131, 0.0266098641, -0.0105395326, -0.0486843139, -0.0099077700, -0.1125889719, -0.0023330506, 0.0094079198, 0.0516336001, -0.0453335345, 0.0003717702, -0.0206002425, -0.0662623271, -0.0061696218, 0.0021830169, -0.0117142620, 0.0759146959, 0.0534287058, 0.0061240471, 0.0098229907, -0.0770524889, -0.0286669359, -0.0041469079, 0.0027915435, -0.0027608294, 0.0381949805, -0.0025266472, 0.0236833990, 0.0326288715, -0.0349367261, -0.0525100157, 0.0321177281, -0.0048546945, -0.1000007018, 0.0278583746, 0.0107978852, 0.0038719231, 0.0132269450, 0.0265905801, -0.0064462549, 0.0026002910, -0.0559024923, 0.0669922307, 0.0421392545, -0.1108580157, -0.0075637116, 0.0105972942, 0.0164550394, 0.0652674735, 0.0034251260, -0.0344909616, -0.0083839800, -0.0088524558, -0.0199564304, 0.0010216406, 0.0522372574, 0.0220023375, 0.0149523513, 0.0104627414, 0.0363800228, -0.0256882589, -0.0017667651, 0.0744251162, 0.0280735977, 0.0427272543, 0.0516874641, 0.0369675644, -0.0221620221, -0.0090527125, -0.0499150679, -0.0550128631, 0.0111646596, 0.0076553994, 0.0060464847, 0.0145426057, -0.0311675202, -0.0130304052, 0.0543989837, 0.0000023280, -0.0524665676, 0.0724727064, -0.0090845767, 0.0543327406, -0.0081012659, 0.0399970934, 0.0009311987, -0.0129130129, -0.0117324814, 0.0108741764, 0.0069386801, -0.0259254053, -0.0846379921, -0.0015533353, -0.0569629632, -0.0246824976, 0.0316415466, 0.0262208432, -0.0592317060, -0.0883701593, 0.0426549502, 0.0096279336, -0.0076639676, -0.0193908624, -0.0150805423, 0.0015115209, 0.0022614682, -0.0250668637, 0.0213003699, -0.0438186899, 0.0158596020, 0.0163722802, 0.0003251863, -0.0113426587, -0.0100422017, 0.0244095009, 0.0093254661, 0.0294439606, -0.0117761130, 0.0175122377, -0.0610757805, -0.0548405088, -0.0362193249, -0.0202864874, 0.0016812213, 0.0145599879, 0.0040099537, -0.0527674370, 0.0224595778, -0.0117137227, -0.0572831742, -0.0466922633, 0.0678158626, 0.0323392525, -0.0378172584, -0.0666192248, -0.0693871379, -0.0428299457, -0.0055804448, -0.0657314360, 0.0040535787, 0.0284264814, 0.0326507613, -0.0233411752, -0.0265358426, -0.0430598818, 0.0611023158, 0.0109554986, -0.0434882380, 0.0082168803, -0.0045448416, 0.0020135657, 0.0424514785, -0.0131004443, -0.0576231293, -0.0405054428, -0.0753381029, 0.0304645058, 0.0196757037, 0.0062444112, 0.0639078021, -0.0209172480, -0.0027159266, -0.0739121661, -0.0124162193, -0.0098877298, -0.0042532985, -0.0231451355, 0.0662126318, -0.0198899526, 0.0558072962, 0.0245985594, 0.0597368032, -0.0455951206, -0.0262068696, 0.0001116718, 0.0333288014, 0.0133364834, 0.0398872569, 0.0288765356, 0.0174307376, 0.0285804160, -0.0125783179, 0.0342559628, -0.0669796839, -0.0152982567, -0.0510770939, 0.0206297915, -0.0477162264, 0.0151103809, -0.0359276272, -0.0008458347, -0.0171853714, 0.0023390562, -0.0284871180, -0.0104826540, -0.0105037447, 0.0245162752, 0.0396127775, 0.0715548247, -0.0295760836, 0.0274606291, -0.0329950266, 0.0166393723, -0.0101512978, 0.0541611984, 0.0698705167, -0.0347428061, -0.0622626282, -0.0002258459, 0.0758065209, -0.0021242783, -0.0323261470, 0.0103803147, 0.0163176171, 0.0322600268, -0.0249029305, 0.0315632857, 0.0422167331, -0.0502490364, -0.0821895450, 0.0129965069, -0.0437534861, 0.0050714146, -0.0033846477, -0.0013158346, -0.0042397822, 0.0213397220, -0.0362536758, -0.0059166551, 0.0354318433, 0.0145427594, 0.0273792725, -0.0151404366, 0.0313354433, 0.0208506677, 0.0804030448, -0.0620676316, -0.0568232425, 0.0107729780, 0.0237757377, 0.0026812402, 0.0201151855, -0.0161381941, -0.0155994408, 0.0404409915, 0.0031156847, -0.0222264212, -0.0209790282, 0.0220811013, -0.0358305201, 0.0313716009, 0.0044302493, -0.0075727114, 0.0161946621, 0.0097274547, 0.0390175879, -0.0084125875, 0.0115598533, 0.0186284631, -0.0599044003, 0.0106380237, -0.0252849311, 0.0241173059, -0.0748231038, 0.0350088850, 0.0854770467, -0.0207616594, -0.0550990701, 0.0244824961, 0.0127935577, -0.0134941991, 0.0120872194, -0.0503518097, 0.0012871760, 0.0066563333, -0.0243715085, -0.0154996831, -0.0223611258, 0.0030327716, 0.0011315850, -0.0159415323, -0.0115135778, -0.0224804077, -0.0026347933, -0.0220078100, -0.0007716094, 0.0035673471, 0.0196190123, 0.0155024854, -0.0274662003, -0.0072117522, -0.0028944104, 0.0104495063, -0.0605408587, 0.0001359520, -0.0116241481, -0.0207546651, -0.0161431637, -0.0120588588, 0.0081870118, -0.0289127473, -0.0005112117, 0.0080455532, -0.0721078068, 0.0070005725, 0.0084958449, -0.0600019433, -0.0271583572, -0.0317123756, 0.0101096649, -0.0375280455, 0.0285520218, -0.0140036847, -0.0168594755, -0.0107276430, 0.0260038991, -0.0041014929, -0.0423877612, -0.0115555879, -0.0305964034, -0.0431212522, 0.0181652345, -0.0071343626, 0.0127567817, 0.0106375907, -0.0270009208, -0.0332647152, 0.0330298766, -0.0156771149, -0.0121426387, -0.0767334998, -0.0295709614, -0.0082172388, -0.0143268062, 0.0279246047, -0.0111969141, 0.0001176365, 0.0062390356, -0.0007315708, 0.0119677018, -0.0057098153, -0.0211342480, -0.0374406800, -0.0095863063, -0.0153062465, -0.0453485809, 0.0016911390, 0.0301853530, 0.0217834171, -0.0267213471, 0.0019653935, -0.0130035421, -0.0751351863, 0.0183162875, 0.0342791080, 0.0066607976, 0.0064453469, -0.0585210994, -0.0023371393, 0.0219930373, 0.0037481403, 0.0116470950, -0.0139557207, -0.0142038278, 0.0057934420, -0.0280760732, 0.0003453873, 0.0208258145, 0.0016123300, 0.0092104441, -0.0194326825, -0.0107311755, -0.0754927173, 0.0162301492, 0.0459137894, 0.0384327769, -0.0059061423, -0.0017922038, 0.0105227968, 0.0049548242, -0.0093681999, -0.0011255521, -0.0049556722, -0.0045922073, -0.0409318954, -0.0191777926, -0.0141985575, -0.0141734378, -0.0191665757, -0.0424024984, -0.0241886340, 0.0054501644, 0.0425366536, -0.0041401968, -0.0276659392, 0.0300109647, 0.0534898005, -0.0365967564, -0.0186144672, -0.0049104136, 0.0062349043, 0.0242508594, 0.0021766645, -0.0032723695, -0.0001224487, 0.0049594631, -0.0298769046, 0.0116895298, 0.0202106182, 0.0209087469, -0.0060632965, -0.0206614453, -0.0122726578, 0.0057999725, 0.0182804130, -0.0272298716, -0.0336139202, -0.0073949471, 0.0421682000, -0.0238597468, -0.0005884726, -0.0125143165, -0.0006886583, 0.0568144657, 0.0001456116, 0.0023956865, 0.0244369544, 0.0300002266, 0.0155775547, 0.0147831598, -0.0045804563, 0.0224521328, 0.0253245216, 0.0140098399, 0.0112673528, -0.0097293509, -0.0844226480, -0.0244274326, 0.0278682578, -0.0015845245, -0.0060184048, -0.0028801830, 0.0125529412, -0.0127899237, -0.0056205988, 0.0234253462, 0.0012630213, 0.0398996696, -0.0221379027, 0.0415360890, 0.0052560396, -0.0307874866, -0.0012565862, -0.0461782143, -0.0076137115, 0.0182756167, 0.0003951563, -0.0062594791, -0.0355029479, -0.0259658135, 0.0099913226, 0.0349018835, 0.0394703709, 0.0678119212, 0.0176681727, -0.0196679216, -0.0859523192, 0.0106036961, -0.0348965228, 0.0021908542, -0.0079853702, -0.0061553665, 0.0405980907, 0.0192862563, 0.0089151124, -0.0378055535, 0.0063651302, 0.0338158794, 0.0079946751, -0.0261656847, -0.0075479751, -0.0039017589, -0.0068468540, -0.0046808929, 0.0444494709, -0.0148662999, -0.0358609483, 0.0897804722, -0.0007222742, 0.0174439196, -0.0602106079, -0.0315850265, -0.0102235731, -0.0384715497, -0.0615724176, 0.0241608806, -0.0004024146, 0.0151034584, -0.0392737575, -0.0085845822, -0.0440004282, 0.0484447293, -0.0147278262, -0.0008740543, 0.0015693151, 0.0241526254, 0.0041506146, -0.0119997812, 0.0143218944, 0.0113038914, 0.0484744646, -0.0169683062, 0.0396464579, 0.0291831829, -0.0086914301, 0.0021257424, -0.0028660439, -0.0559398122, 0.0139701450, 0.0394561179, -0.0006533092, 0.0260086395, -0.0028912518, -0.0146314325, -0.0288730878, 0.0408178605, 0.0016021653, 0.0631005466, -0.0052974662, 0.0160189532, -0.0585052706, 0.0030970324, -0.0705774501, 0.0354102775, 0.0000228575, 0.0278264787, 0.0211701412, -0.0030139002, -0.0292870644, -0.0418155491, 0.0190573670, 0.0475125127, 0.0186683089, -0.0043952777, -0.0260042027, 0.0166483559, -0.0266615190, 0.0032229715, 0.0046829446, -0.0021315175, -0.0274709966, 0.0451124460, -0.0020887146, -0.0115232682, -0.0289527122, -0.0169747546, -0.0253300667, -0.0137114385, 0.0253156666, 0.0077171177, -0.0223003980, -0.0010145517, -0.0223157629, 0.0092770401, 0.0240843799, 0.0080430405, -0.0371272825, -0.0344695747, 0.0079103699, 0.0287977252, -0.0184331667, 0.0405243970, 0.0104837371, -0.0138308434, 0.0317093059, 0.0035057999, 0.0067302822, -0.0315400735, -0.0063941390, -0.0121457800, 0.0279542264, -0.0254227240, -0.0205498282, -0.0133404015, -0.0059088091, 0.0302750822, -0.0080781747, -0.0043121232, 0.0039861752, -0.0330393426, 0.0041418206, -0.0171545241, 0.0089700641, 0.0244079474, -0.0465423875, 0.0061358269, -0.0333787017, -0.0023522433, 0.0128051704, -0.0267422907, 0.0133405039, 0.0519134887, -0.0166718513, -0.0056815618, 0.0036598353, 0.0337718576, 0.0497666597, -0.0319713317, 0.0124748908, -0.0000235865, 0.0043651178, -0.0104530668, 0.0100596575, 0.0091458485, -0.0152035598, 0.0159871578, 0.0042559304, -0.0026975849, 0.0299810898, -0.0055607050, -0.0021819179, -0.0188358780, 0.0829534307, -0.0494405590, -0.0128487935, -0.0028121159, -0.0028350228, 0.0159473866, 0.0013780935, 0.0244554449, 0.0018219720, 0.0047499575, -0.0172943976, 0.0529454574, -0.0022774357, 0.0083279908, 0.0013977031, 0.0442755483, 0.0213336498, 0.0189070180, 0.0290364325, 0.0097552314, 0.0315136649, 0.0129731111, -0.0208619628, -0.0424121358, 0.0308937188, -0.0151871536, 0.0039674551, -0.0086288974, 0.0074106343, -0.0154935317, -0.0035441245, -0.0094858864, 0.0601358786, 0.0639104992, -0.0227165334, 0.0274447594, -0.0034736311, 0.0116519583, 0.0095335422, 0.0221821051, -0.0328638405, 0.0247731768, 0.0143860737, -0.0286131334, -0.0199287180, 0.0161580183, -0.0304679144, 0.0369385555, 0.0104954690, 0.0390782170, -0.0278953258, 0.0162442457, 0.0284691676, 0.0198777895, 0.0304049980, -0.0175400581, -0.0182843842, -0.0107654240, -0.0241177715, 0.0320432521, 0.0069076107, -0.0112134116, 0.0211158879, 0.0778056756, -0.0318794437, 0.0199370068, -0.0433063209, -0.0283315200, -0.0081049157, 0.0097947717, 0.0023887292, 0.0425792523, -0.0108888373, -0.0080579799, -0.0233356487, -0.0615461059, -0.0013457242, 0.0133358333, 0.0055142404, 0.0077296253, -0.0311156157, 0.0309575181, -0.0058097802, -0.0134083061, -0.0220599603, 0.0668209866, 0.0103876581, 0.0212685037, -0.0280972533, 0.0334382318, -0.0236307625, 0.0207670350, 0.0110180741, -0.0076865018, -0.0057200403, 0.0129242782, -0.0135677587, 0.0276829544, 0.0035233125, 0.0127117075, -0.0232345592, 0.0028511400, -0.0188102871, -0.0113249123, 0.0072633759, 0.0164649989, 0.0079258895, -0.0398402624, -0.0564157777, -0.0576972850, -0.0470220633, 0.0120185651, -0.0609093271, 0.0133118294, 0.0228114929, -0.0061613959, -0.0131546771, 0.0562382005, -0.0156110665, -0.0097389827, 0.0067654867, 0.0144351684, -0.0088861650, 0.0052375626, -0.0334709920, -0.0141685968, 0.0135177569, 0.0038583567, 0.0719127655, -0.0074399239, -0.0285629407, -0.0087809535, 0.0130597129, -0.0095943455, 0.0024605002, 0.0193377063, 0.0365263484, -0.0289591271, 0.0020365235, -0.0767614543, 0.0057644844, 0.0093874689, -0.0169440079, -0.0129722944, -0.0153983356, 0.0288758352, 0.0167809390, -0.0401890948, 0.0036034107, 0.0679967850, -0.0100844456, -0.0134857856, 0.0208286550, 0.0041021197, 0.0371563435, 0.0043752645, -0.0320999026, 0.0131520033, -0.0184432156, -0.0434932150, -0.0222772434, -0.0214819219, -0.0299084987, 0.0199318808, -0.0121969441, -0.0322419666, -0.0235391557, -0.0072823195, 0.0084686410, 0.0111142313, 0.0466293693, -0.0056187510, -0.0026856933, -0.0337741114, -0.0059643039, -0.0124842552, -0.0254708529, -0.0185734015, 0.0708190948, -0.0408900566, -0.0053132074, -0.0137912659, 0.0211787559, -0.0260447357, 0.0333764404, 0.0079799239, -0.0102534154, 0.0009202327, -0.0408497863, 0.0053792004, -0.0041340920, 0.0201811716, -0.0209711827, -0.0092432788, -0.0097809490, 0.0198426433, -0.0054190732, 0.0026835438, -0.0437820032, 0.0308929123, 0.0431877039, -0.0287452284, -0.0061505353, 0.0304581020, 0.0001554055, -0.0067244591, -0.0088955294, -0.0147059280, -0.0005900248, -0.0142269479, -0.0157896336, -0.0279121418, 0.0172031522, 0.0069095725, 0.0188970193, -0.0251702871, -0.0112543255, 0.0157414544, -0.0204193648, 0.0380668044, 0.0446130298, -0.0140538989, 0.0269427467, -0.0063787154, 0.0021062267, -0.0279292297, -0.0125098843, -0.0109566059, -0.0360870995, 0.0064477725, 0.0302391015, 0.0268272310, -0.0615282580, -0.0196287166, -0.0146812303, -0.0243168771, -0.0083868382, 0.0490690097, -0.0236427598, -0.0267448928, 0.0311715379, 0.0184226874, 0.0030565748, 0.0266423058, -0.0647899434, -0.0387630090, -0.0022292284, -0.0112964995, -0.0000783236, -0.0168532003, 0.0372477099, -0.0432407036, 0.0362067372, -0.0280262846, -0.0194971021, -0.0758325309, 0.0180494264, -0.0062801759, 0.0262445118, 0.0498124361, 0.0300859641, -0.0068432852, -0.0554962568, -0.0256089643, 0.0318846591, 0.0212775450, 0.0378796831, -0.0042382786, -0.0342876576, 0.0084373048, -0.0398436375, -0.0100895148, 0.0489019901, -0.0322250538, 0.0027210959, 0.0604653396, 0.0275011901, -0.0231291819, -0.0183569286, -0.0369275920, -0.0550545342, -0.0005938247, -0.0058897971, -0.0146808885, -0.0023239355, 0.0025753912, 0.0050267498, 0.0245831050, -0.0054481244, -0.0033213431, 0.0273775607, -0.0465469323, -0.0117418393, 0.0249316674, -0.0355585590, -0.0037451177, -0.0207157526, -0.0457319804, 0.0106135802, -0.0191762224, 0.0340858288, 0.0107967556, -0.0355067961, 0.0458128303, -0.0127062397, 0.0376157761, -0.0345203429, 0.0020966805, 0.0175785907, -0.0229629856, -0.0370967835, -0.0197409857, -0.0189371910, 0.0030619593, 0.0288475864, -0.0068063168, -0.0077675502, 0.0190602727, -0.0205749739, -0.0174342170, 0.0081855962, -0.0037433405, 0.0146702006, -0.0486254171, 0.0059601394, -0.0008916297, -0.0376409478, -0.0160308369, -0.0356636234, 0.0430297740, 0.0176240783, -0.0208417531, -0.0045142993, -0.0006285664, -0.0138481334, -0.0328499340, 0.0128676323, -0.0004743379, 0.0006423828, 0.0312590711, 0.0181516893, -0.0335532352, -0.0085348533, -0.0611804500, 0.0056876424, 0.0218583122, -0.0209419057, 0.0025673693, -0.0337016173, -0.0279977154, 0.0034589595, -0.0373719856, 0.0157690309, -0.0399366468, -0.0214914139, -0.1326802224, 0.0268131085, -0.0424429402, 0.0076171788, 0.0125230765, -0.0558155105, -0.0105356127, -0.0108234445, -0.0289944820, -0.0329491310, -0.0256554559, -0.0106081795, -0.0338708051, 0.0352085158, -0.0358457379, -0.0208699927, 0.0162216835, 0.0210062414, -0.0016750518, 0.0201465786, -0.0000717835, 0.0117228990, -0.0408076681, 0.0071437671, -0.0389334150, 0.0203312319, 0.0233435631, -0.0027009980, -0.0179806892, 0.0308730118, -0.0317512266, 0.0160474051, -0.0458467603, -0.0048896275, -0.0193394180, -0.0541371256, -0.0285749361, 0.0089981146, 0.0509648733, 0.0004866811, 0.0025114368, -0.0162230991, 0.0092840586, -0.0720447004, 0.0083971294, -0.0026395048, -0.0111619206, -0.0168851987, 0.0013252023, 0.0089178011, -0.0671553984, 0.0404950492, -0.0602466203, 0.0370431840, -0.0013269290, -0.0074968645, -0.0294891428, -0.0052382774, -0.0124832243, -0.0091985278, 0.0058660568, -0.0036864271, -0.0534262583, 0.0324359946, -0.0272128172, 0.0293758102, 0.0012504873, 0.0308808200, 0.0481692441, -0.0470423885, 0.0227724854, 0.0180299189, 0.0412002616, -0.0001363753, 0.0453479104, -0.0746686608, -0.0069812918, 0.0028535493, 0.0323455334, 0.0237918980, 0.0209266152, -0.0351348147, -0.0451470800, 0.0303418655, -0.0296259932, 0.0042261449, 0.0159053206, 0.0363811664, 0.0093047116, 0.0220362339, -0.0399658717, 0.0471310094, 0.0282862578, -0.0315526985, -0.0460252054, -0.0373900309, 0.0373122916, 0.0198590476, -0.0070516872, 0.0059983116, -0.0183083434, -0.0140264994, -0.0129915802, 0.0404356085, 0.0524760596, -0.0133117018, 0.0522682667, -0.0184318367, 0.0477391854, -0.0701930001, 0.0268603656, 0.0123247681, 0.0203467701, 0.0848878101, -0.0467863195, 0.0245703347, 0.0143338442, -0.0171048567, -0.0297539085, -0.0397409573, -0.0150780361, -0.0066168495, 0.0120717259, 0.0078555448, 0.0481844842, -0.0392145589, 0.0067032608, 0.0433581658, -0.0028470575, -0.0025957336, -0.0062642316, 0.0257788915, 0.0098161148, 0.0335841700, -0.0573015511, 0.0739311948, 0.0031099210, 0.0096171126, 0.0005151029, 0.0270153228, 0.0410019159, 0.0245440342, -0.0338844731, 0.0001339998, -0.0084064994, -0.0451807640, 0.0166243985, 0.0232640635, 0.0002151919, -0.0378134325, 0.0153776892, 0.0169837587, 0.0335390344, -0.0039987806, -0.0064195134, 0.0981943980, -0.0147483787, 0.0331167988, -0.0076814052, -0.0009881281, -0.0235294793, 0.0182279386, 0.0091130286, -0.0315609649, 0.0545225814, 0.0231872927, -0.0019895597, 0.0059392415, 0.0516602881, -0.0342139117, 0.0018718119, 0.0357789062, 0.0012598910, -0.0306896120, -0.0132792033, 0.0522687398, 0.0580742061, 0.0570942871, 0.0048838877, 0.0200032387, -0.0252418220, 0.0545370169, 0.0323085114, -0.0270156320, -0.0166760702, 0.0449514650, -0.0108856838, 0.0106367012, 0.0129905529, 0.0090361405, 0.0063524381, 0.0205742307, -0.0436987653, 0.0376317203, 0.0209163800, 0.0471487269, -0.0091475453, -0.0323658064, -0.0337465890, -0.0215782039, 0.0002808800, 0.0451407172, 0.0044984911, -0.0108231418, 0.0313168652, 0.0413783118, -0.0126796765, -0.0341969877, -0.0236339439, -0.0330144763, -0.0241412055, 0.0288094096, -0.0003980580, -0.0080207968, -0.0231833477, -0.0048865937, 0.0155632468, -0.0074124052, -0.0086227283, 0.0410650708, -0.0011037361, 0.0347334146, 0.0059985025, -0.0013038251, -0.0307335015, -0.0344442241, 0.0104791597, -0.0668918714, 0.0027630173, 0.0815007836, -0.0189168118, -0.0087214774, 0.0064019817, -0.0085522002, -0.0055304188, -0.0127035137, 0.0272220876, -0.0263782758, -0.0005772354, -0.0223219171, -0.0369700082, 0.0142572839, -0.0296258610, -0.0662668720, -0.0152998846, -0.0242237616, 0.0374037623, 0.0268174484, -0.0200789236, -0.0599708743, 0.0441069566, -0.0541665368, -0.0083007934, -0.0229061414, -0.0018545060, -0.0503773205, 0.0313407257, 0.0394182988, -0.0477131009, 0.0512277149, 0.0309021138, -0.0497607850, -0.0080697034, -0.0416824929, 0.0023161166, -0.0085388618, 0.0096901860, -0.0392722227, -0.0677494779, -0.0068568420, -0.0224357750, 0.0082005644, 0.0557534136, -0.0201653838, -0.0142756337, 0.0257000476, 0.0145719573, 0.0029503307, 0.0164605230, 0.0238603149, 0.0098263454, 0.0175400842, -0.0486524366, 0.0203171615, -0.0483928360, 0.0324084498, -0.0177812818, 0.0082024280, 0.0292399731, -0.0036996454, 0.0185205787, -0.0982889161, 0.0178688262, 0.0318723358, 0.0120040532, 0.0238710027, 0.0283036157, -0.0173758864, 0.0224513952, -0.0113541400, 0.0121613005, -0.0406443179, -0.0101901824, 0.0293387752, -0.0138292769, 0.0029969916, 0.0527906083, 0.0188750178, 0.0102504278, -0.0570299923, 0.0357578807, -0.0424274653, -0.0149112465, 0.0334996916, 0.0439552069, -0.0148750981, 0.0474984013, -0.0642939955, 0.0402397662, 0.0057723704, 0.0146630369, 0.0178907625, -0.0019686203, 0.0146633955, 0.0027980376, 0.0253526550, -0.0130012166, -0.0035831851, 0.0244467966, 0.0480169356, 0.0459518768, 0.0255458243, 0.0089288689, -0.0349444672, -0.0013455478, -0.0008347501, 0.0344290547, -0.0517957956, 0.0289292037, 0.0140892509, -0.0175898410, 0.0242855605, 0.0292576123, 0.0116412630, -0.0141171878, 0.0035509625, -0.0147958780, 0.0191752836, -0.0217857733, 0.0522863977, 0.0116291624, -0.0041900449, -0.0093946382, 0.0155796297, -0.0026715691, -0.0186069943, 0.0067616748, 0.0097440332, -0.0161435977, 0.0351092853, 0.0250704326, -0.0290193763, -0.0303646605, 0.0403659083, -0.0034493287, -0.0409615338, 0.0152866943, 0.0317552723, -0.0385996029, 0.0075746765, -0.0080304760, -0.0353623442, 0.0041302154, -0.0128835430, 0.0334396884, 0.0678651556, -0.0008556060, 0.0384839363, 0.0143730147, 0.0299301054, 0.0217006058, 0.0147054158, -0.0154486811, -0.0061590918, 0.0031470286, 0.0279829055, 0.0104446933, 0.0197646674, 0.0380888507, -0.0432815999, -0.0112717841, -0.0118070031, 0.0088272439, 0.0164750647, 0.0136230290, 0.0226579662, -0.0176084060, 0.0020081114, 0.0041108434, -0.0004238260, 0.0150373019, -0.0662773103, -0.0206900518, 0.0237993952, 0.0254099686, 0.0393030904, -0.0070357225, 0.0000547882, -0.0569501854, -0.0056059118, -0.0032645944, -0.0315764584, -0.0285785291, 0.0281179026, -0.0122811981, 0.0094390158, 0.0331412405, -0.0169183947, 0.0154283708, -0.0222659558, -0.0220529716, 0.0536184870, 0.0174434073, 0.0567436926, 0.0242571943, 0.0563445650, -0.0175334532, -0.0045287600, 0.0351827480, -0.0517011918, -0.0190370735, 0.0109816650, -0.0492231548, -0.0420685224, 0.0224666949, 0.0125319865, 0.0415502079, -0.0451493375, -0.0508394279, -0.0164490771, -0.0332484543, 0.0507722236, -0.0102146138, 0.0316422097, -0.0288109742, 0.0189280957, 0.0002348972, -0.0135064870, 0.0133477813, 0.0038905172, -0.0141555434, -0.0056556207, 0.0190496594, -0.0242987685, -0.0018900081, 0.0047404817, -0.0110033629, 0.0023152172, 0.0043224697, -0.0180789698, -0.0094299894, -0.0044433479, -0.0223301407, 0.0341935977, 0.0109766750, -0.0142163355, -0.0069748089, -0.0053398567, 0.0177535228, 0.0125233615, -0.0143586462, 0.0186404828, 0.0035454100, -0.0067987568, -0.0124395378, 0.0045691263, 0.0161986034, -0.0208268631, -0.0135636497, -0.0112755205, 0.0206804238, 0.0148228183, 0.0361010954, 0.0026484549, -0.0058867536, -0.0134041607, -0.0260783732, 0.0079729659, -0.0095616840, -0.0077806320, -0.0047320495, -0.0025789044, 0.0074325013, 0.0286232214, 0.0095354058, -0.0161969457, -0.0325369127, -0.0044927443, 0.0035348793, -0.0135211153, 0.0007163257, 0.0032870884, -0.0068925354, -0.0006422339, -0.0003776626, 0.0130392611, 0.0080118254, 0.0403901301, 0.0003398783, -0.0005694474, 0.0023327868, -0.0457750037, 0.0059768618, -0.0164265633, -0.0348103419, -0.0008422031, 0.0070658517, 0.0104946857, -0.0218701307, 0.0043192389, -0.0134442234, -0.0079841595, -0.0199062955, -0.0294038467, 0.0094791632, -0.0134586124, -0.0226338580, 0.0132978996, 0.0021024162, -0.0129977083, -0.0141193448, 0.0066508627, 0.0015503211, 0.0118742343, -0.0084418766, -0.0004477636, -0.0126209799, -0.0297174938, -0.0276948642, -0.0010661887, 0.0295794476, -0.0278081410, -0.0149635635, -0.0376873724, 0.0069961040, 0.0024675285, -0.0016428876, 0.0104495781, -0.0021637504, -0.0072442563, -0.0295963157, -0.0128839482, -0.0507206209, 0.0102804070, -0.0264991447, -0.0072475695, -0.0098993173, 0.0101048425, 0.0160532370, -0.0261827782, -0.0179040115, -0.0046969126, -0.0103006512, 0.0026119244, -0.0231170170, 0.0055813086, 0.0160346441, -0.0027503327, 0.0056758118, 0.0343632437, 0.0117558120, 0.0299248602, -0.0040993690, -0.0092852674, -0.0040831347, -0.0447497331, 0.0292337686, -0.0148894079, -0.0139998654, -0.0014622104, 0.0216231626, 0.0018476138, 0.0141231865, -0.0167000722, 0.0042789979, -0.0236317571, -0.0022829843, -0.0115887569, -0.0055963034, -0.0090317298, -0.0237550233, 0.0176908374, 0.0187444370, -0.0346948691, 0.0003257176, 0.0138100861, 0.0174285471, 0.0173308514, -0.0121964710, -0.0177534278, 0.0361053422, -0.0008793617, 0.0161922164, -0.0131631652, 0.0318970308, -0.0079447320, 0.0006126832, -0.0128561808, -0.0150427129, 0.0083940998, 0.0202585813, 0.0049451776, 0.0033867043, 0.0014269531, -0.0376627445, 0.0204264820, -0.0413960144, 0.0099513764, -0.0042394446, -0.0001708530, 0.0002209471, 0.0140987849, 0.0260889567, 0.0056904186, -0.0208336450, 0.0199676603, -0.0002059786, 0.0033544165, 0.0003623617, -0.0106004775, 0.0270349067, 0.0048614666, 0.0064705689, 0.0160741247, 0.0129270256, 0.0150192613, -0.0098938532, 0.0175312571, -0.0036825116, -0.0101039540, -0.0174999107, -0.0005346165, 0.0136098349, -0.0063922624, 0.0123436814, -0.0192155931, -0.0142031908, 0.0049316208, -0.0085260263, 0.0119963987, 0.0106304502, 0.0039145825, -0.0272150803, -0.0118451333, -0.0261439253, 0.0250838585, -0.0264448561, 0.0303476192, -0.0059932899, -0.0146991666, 0.0103942826, 0.0078505864, -0.0243499037, 0.0182984136, -0.0050974134, 0.0247599389, 0.0030756856, -0.0048666121, 0.0094905645, 0.0108038150, -0.0006289540, -0.0098667732, 0.0028710889, 0.0505757853, 0.0034678769, 0.0013307426, -0.0143762510, 0.0092215016, -0.0027554731, -0.0041830405, 0.0296710320, 0.0116377035, -0.0209137574, -0.0316871330, -0.0047261403, 0.0075652045, 0.0008464258, 0.0063188253, 0.0204543769, -0.0054802536, 0.0060574105, -0.0099213021, -0.0182724111, 0.0084655676, 0.0102649657, -0.0095922155, 0.0118105169, -0.0043652747, 0.0056070490, 0.0018203194, 0.0044944040, 0.0057084914, -0.0175549835, -0.0009017260, -0.0266471487, 0.0069954046, 0.0197933465, 0.0067714532, -0.0118900491, -0.0375456139, -0.0330277383, -0.0369425677, -0.0178554989, -0.0048043495, -0.0076127984, 0.0377630480, -0.0402494855, 0.0040340810, -0.0184641816, -0.0002260468, -0.0156321246, 0.0136369998, -0.0237814859, -0.0124635212, -0.0011059841, 0.0053913863, -0.0279533733, -0.0133085372, -0.0007911844, 0.0303661935, 0.0029136981, -0.0107005993, 0.0012362181, 0.0154608712, 0.0156168370, -0.0024820592, 0.0029237529, 0.0151490951, 0.0038893207, -0.0066027106, 0.0071577420, 0.0073224353, -0.0171662457, -0.0206512921, 0.0269811004, 0.0054356763, 0.0113265701, -0.0238722991, -0.0118178781, -0.0124506028, -0.0156705081, -0.0060945898, 0.0295774359, -0.0071769785, 0.0225551445, -0.0100766066, 0.0001176055, 0.0111147230, 0.0223884806, 0.0369935632, -0.0140990783, -0.0025315101, 0.0182238109, 0.0196281150, 0.0038001931, 0.0023941502, -0.0203771349, 0.0078823082, -0.0066054440, 0.0000552218, 0.0153913358, 0.0021567694, 0.0061548161, -0.0078861602, -0.0013129378, 0.0163675956, -0.0121789221, -0.0083539067, -0.0069687786, 0.0206845384, -0.0153309526, 0.0072075576, 0.0044799005, 0.0020924914, -0.0042931642, 0.0314680897, -0.0163885448, 0.0010810165, -0.0018742810, 0.0340833850, -0.0262783337, -0.0056867567, -0.0192001034, 0.0000841207, 0.0271280501, 0.0019047441, -0.0307615791, 0.0173079632, -0.0007808517, 0.0017281832, -0.0279909689, 0.0210455172, 0.0067597521, -0.0107450178, -0.0084281424, -0.0139444452, 0.0115810800, -0.0103876982, 0.0264368970, 0.0071669314, 0.0259452276, 0.0021179374, -0.0045941281, -0.0232219528, 0.0014197279, -0.0353474207, 0.0338781215, -0.0392510109, 0.0158173628, -0.0011858499, 0.0126571218, 0.0040191128, 0.0311484132, 0.0341420583, -0.0050660777, -0.0143857328, -0.0071265167, -0.0046043820, 0.0190833006, -0.0028687750, -0.0253242608, -0.0135828620, 0.0391626209, -0.0049510822, -0.0061265775, -0.0262669530, -0.0204865392, 0.0036287375, -0.0117364405, -0.0142908795, -0.0147593291, 0.0013691226, -0.0003722813, 0.0094129266, 0.0085222507, -0.0138370842, 0.0027354525, -0.0279550143, -0.0345742702, 0.0185087509, 0.0024880103, -0.0169416200, -0.0065999413, -0.0088744983, 0.0002105486, 0.0169716906, 0.0125480397, 0.0008537192, 0.0030368897, 0.0124470666, -0.0417959280, 0.0002079190, 0.0130468989, -0.0007798251, -0.0089499177, -0.0000061389, 0.0003001800, -0.0303237420, 0.0010373668, -0.0274262559, 0.0035679080, 0.0074888617, -0.0210577324, 0.0064399671, -0.0181109104, 0.0068790731, -0.0134337498, 0.0027335826, 0.0030713067, 0.0066706995, 0.0251424257, -0.0072205421, -0.0025884963, -0.0100113163, -0.0419347771, -0.0032376014, -0.0021551680, 0.0017694865, 0.0031775062, -0.0038594797, 0.0055624158, -0.0132105378, 0.0234944560, -0.0012011090, -0.0114583001, -0.0101380507, 0.0178387426, -0.0139750624, -0.0065005957, -0.0293063521, -0.0061905207, 0.0296162181, -0.0252855942, -0.0135263652, 0.0046505751, -0.0133935325, -0.0251163617, 0.0078676092, 0.0015643691, -0.0242130477, 0.0119650988, -0.0147004817, -0.0102474391, 0.0295737833, -0.0109334728, -0.0248627439, 0.0313617289, 0.0078661013, 0.0156618264, -0.0048951744, 0.0034088511, 0.0230727643, 0.0043218387, -0.0054485919, -0.0487822406, -0.0281742737, 0.0003557648, -0.0068814266, -0.0050724125, -0.0053345878, -0.0059715756, -0.0140931718, -0.0081722811, -0.0184803512, 0.0007686911, -0.0052218945, 0.0127616748, -0.0071421675, -0.0137839699, -0.0169805735, -0.0207352731, 0.0085304901, -0.0095259808, -0.0211182535, -0.0022167915, 0.0090186149, 0.0021334919, -0.0147366170, -0.0279517937, 0.0122707793, 0.0022804025, -0.0439908803, 0.0070690950, 0.0071732788, -0.0096109118, 0.0161218774, 0.0189571381, -0.0053324187, -0.0298048574, -0.0087293331, 0.0175747927, -0.0154554546, 0.0011924099, -0.0389951058, -0.0060664234, 0.0284046233, -0.0039662612, -0.0054888576, 0.0202505589, -0.0199158564, 0.0084878877, 0.0257667881, 0.0035523970, -0.0226161238, -0.0083212126, -0.0316203646, -0.0164847579, 0.0089024082, -0.0146219889, -0.0204782933, 0.0292700417, -0.0228592698, 0.0051968442, -0.0187166631, -0.0009460860, 0.0088082841, -0.0101409163, 0.0149014909, -0.0326662175, -0.0190182999, -0.0050209309, 0.0229324903, -0.0188101232, 0.0207803249, -0.0158610754, 0.0124353468, -0.0153031172, -0.0127122309, 0.0178901125, 0.0127053987, -0.0134877050, -0.0074389242, -0.0313667804, 0.0096575702, 0.0089171613, -0.0077129230, -0.0005201477, -0.0053658215, 0.0032805903, -0.0133603970, -0.0179293249, -0.0256931372, -0.0253837779, 0.0084147546, 0.0148270056, -0.0118222954, 0.0187983587, -0.0227673594, 0.0247960724, -0.0005903908, 0.0010844895, -0.0140226930, -0.0027689321, -0.0035830741, 0.0147824567, -0.0100844689, -0.0038679363, -0.0199518856, 0.0180809889, -0.0031638644, -0.0052475887, 0.0068384451, 0.0052629835, -0.0113288835, -0.0028644491, -0.0016418739, -0.0145455962, 0.0057396344, 0.0004907328, -0.0121537996, -0.0009881736, -0.0053102328, -0.0020993180, -0.0079561519, 0.0192633774, 0.0102750324, -0.0011861777, 0.0120506948, -0.0058054542, 0.0114877624, -0.0094191777, -0.0219257176, 0.0028957969, -0.0146607785, -0.0018181591, 0.0034438546, 0.0058687171, 0.0058615492, 0.0107065886, -0.0180907138, 0.0009109857, -0.0042550704, 0.0087725837, 0.0204823948, 0.0060221092, 0.0153216375, -0.0040616221, -0.0122361658, 0.0106736822, 0.0017885918, 0.0036548756, 0.0072379499, 0.0155596305, -0.0056992150, -0.0067346590, 0.0023244175, 0.0056535853, -0.0029465829, 0.0116584366, -0.0077559007, 0.0052462853, -0.0147822145, 0.0221541449, -0.0035586667, 0.0051991357, -0.0042498782, 0.0064884620, 0.0009034441, 0.0032350610, -0.0150780948, 0.0042170566, -0.0078308750, 0.0026227643, 0.0127024874, -0.0178344324, -0.0026440097, 0.0113689955, 0.0002523948, 0.0000660783, -0.0061393152, -0.0034403610, -0.0077922470, 0.0011458816, -0.0095088491, -0.0088144140, 0.0073965634, 0.0058171903, -0.0019103283, 0.0158422533, 0.0042762249, 0.0046083154, -0.0023134074, -0.0040276493, 0.0150035257, -0.0115487520, -0.0218386352, 0.0006592152, -0.0144153237, -0.0025707071, -0.0013501287, -0.0199670661, 0.0088007711, 0.0188361965, -0.0001409554, 0.0004860197, 0.0036360214, 0.0072396128, 0.0169183034, 0.0164541081, 0.0133029455, -0.0198927447, -0.0214211140, 0.0009701094, -0.0021394028, 0.0109958416, -0.0066717449, 0.0011518793, 0.0019736751, -0.0013130223, 0.0027974604, -0.0205860771, 0.0066644633, 0.0006213434, 0.0112551590, -0.0022595390, -0.0245496761, 0.0259604845, 0.0162129607, -0.0050994181, -0.0042123944, 0.0068086237, -0.0142589770, 0.0149199776, 0.0064153681, -0.0065571298, -0.0315450244, 0.0040489305, 0.0001273705, -0.0027358744, -0.0025552027, -0.0009463178, 0.0039136340, 0.0018053590, 0.0003844374, 0.0018785599, -0.0100819347, 0.0023470013, -0.0161656346, -0.0056585111, -0.0051196893, -0.0008209065, -0.0137751754, 0.0196872260, 0.0088712070, 0.0122246305, 0.0186218899, 0.0043052435, 0.0091840215, -0.0010106636, -0.0095015373, -0.0039871079, 0.0197056178, 0.0055639856, 0.0055798101, -0.0051980577, 0.0277859177, 0.0109127956, 0.0097621512, 0.0045762742, 0.0055837808, 0.0100992713, 0.0183311813, -0.0010042334, 0.0221732669, -0.0080237305, -0.0113376239, 0.0244620796, 0.0054321662, 0.0144014144, 0.0052041356, 0.0030628305, 0.0032677855, 0.0058534383, 0.0009333290, -0.0258293841, -0.0067889509, 0.0090973433, -0.0067061717, 0.0021471367, 0.0063330443, 0.0214339923, -0.0053636455, -0.0075960145, -0.0258998293, 0.0032934071, -0.0096136071, 0.0108834766, -0.0033265990, -0.0068278587, 0.0054534809, 0.0109269097, -0.0014630724, -0.0161993485, -0.0020735723, -0.0020437513, 0.0029447209, -0.0020483471, -0.0002623422, 0.0058440883, -0.0095127169, -0.0082439855, -0.0078138346, 0.0069462629, -0.0009020414, 0.0112634078, 0.0073256386, 0.0077844546, 0.0143826855, -0.0144146904, 0.0052365139, 0.0052930596, -0.0023056699, -0.0045348299, -0.0019842638, 0.0008156369, -0.0131211514, -0.0051315012, -0.0091519514, -0.0041148276, 0.0097372215, 0.0150001878, 0.0032879771, 0.0184767656, -0.0010081427, -0.0066298521, 0.0272842944, -0.0186380967, 0.0199854448, -0.0016434968, -0.0086973803, -0.0011296041, -0.0056346990, 0.0224613622, -0.0028444384, 0.0027378567, 0.0072323596, -0.0101087457, 0.0081447717, 0.0117286593, 0.0176635087, 0.0000843668, -0.0020823840, -0.0117955543, 0.0016809651, 0.0249403026, 0.0013250279, -0.0038460896, -0.0050998158, 0.0063174954, -0.0042220908, 0.0009583041, -0.0052600750, 0.0071973340, -0.0040362636, 0.0041432981, -0.0027652339, -0.0006211863, 0.0122263059, -0.0033617073, 0.0056835734, -0.0098578613, 0.0060347635, 0.0069880085, 0.0016895444, -0.0042596604, -0.0134808812, -0.0002205274, 0.0038242976, 0.0004876368, 0.0053272285, 0.0125281587, 0.0033905713, -0.0011484784, -0.0017024486, -0.0054054745, -0.0026254600, -0.0064573125, 0.0086414963, -0.0081324941, -0.0029735728, 0.0013737107, 0.0069902665, -0.0026927083, 0.0186246708, 0.0051208092, 0.0063840873, 0.0122325523, 0.0075126230, -0.0096848039, 0.0183039028, -0.0096415179, 0.0133046797, -0.0076486804, 0.0040700100, -0.0042672367, 0.0105214687, 0.0195023175, -0.0040694675, -0.0071630375, 0.0033119216, 0.0005767816, 0.0103278151, -0.0082097752, 0.0004382933, 0.0028465530, -0.0093292529, 0.0026358813, -0.0151145915, 0.0158064812, 0.0254756715, 0.0000143237, 0.0032198122, 0.0054854020, -0.0155950058, 0.0025806765, -0.0101523707, -0.0141469557, -0.0142027168, 0.0083786827, -0.0136546902, 0.0024700258, -0.0004712982, -0.0100197522, -0.0056619667, -0.0031067512, -0.0002254507, 0.0061768694, 0.0095794229, -0.0013410107, 0.0003018996, -0.0037023665, 0.0064964797, -0.0089215944, -0.0024173872, 0.0233828947, 0.0052765193, -0.0092824940, -0.0024132940, -0.0094737709, 0.0076049464, -0.0020015871, 0.0052616438, -0.0093858559, -0.0031997145, 0.0013572915, 0.0053076316, 0.0153216515, 0.0169654991, 0.0186588112, 0.0069492194, -0.0033303460, -0.0035470815, 0.0085411817, 0.0234094430, -0.0148011362, 0.0099341683, -0.0055899853, 0.0020323775, 0.0115094585, 0.0104220547, 0.0098046577, -0.0045839986, -0.0072902618, -0.0096149705, 0.0027547001, -0.0038381636, 0.0034042867, 0.0078163622, 0.0080438172, 0.0106332926, -0.0083120000, 0.0109850019, 0.0112917796, 0.0211765803, 0.0025161752, -0.0078900782, -0.0028770827, -0.0062711528, -0.0051049278, -0.0047677974, -0.0145987635, 0.0104192095, 0.0020433352, -0.0087524606, -0.0028083192, -0.0014185003, 0.0018139502, -0.0017581135, 0.0033664701, 0.0076251999, 0.0004508766, -0.0084744599, 0.0005560886, 0.0171828680, -0.0050092917, -0.0029123467, 0.0006985171, -0.0044624768, -0.0019284635, -0.0037360932, -0.0130266016, -0.0128804212, 0.0067750579, -0.0010373682, -0.0117541179, 0.0111310575, 0.0070183431, 0.0162380412, -0.0133989993, -0.0149091808, 0.0029415644, 0.0133308899, 0.0107418969, 0.0187217500, -0.0066238497, 0.0082334001, -0.0191784389, 0.0150066642, -0.0108076157, 0.0035461157, -0.0015410561, -0.0115525862, 0.0136075914, 0.0131913899, 0.0164906457, 0.0114754261, -0.0157686844, -0.0166734327, -0.0000530165, -0.0014989214, -0.0006556578, -0.0238181613, 0.0065721748, -0.0036047522, 0.0055315946, 0.0056915148, 0.0129893888, 0.0165345650, -0.0097133461, -0.0076371441, 0.0031075436, -0.0007029834, -0.0128980391, 0.0106541207, -0.0079753287, 0.0135744009, -0.0017531360, 0.0096465359, -0.0018691464, 0.0061264248, -0.0168144740, -0.0042744717, 0.0171338655, -0.0054250653, -0.0029236097, -0.0027137883, -0.0018443912, 0.0100109838, 0.0135257561, 0.0050898944, 0.0006173958, -0.0144722648, 0.0008225648, -0.0027777776, -0.0131253870, 0.0015625771, 0.0058677113, 0.0028225826, 0.0076292194, 0.0090641463, 0.0134440409, 0.0107816868, -0.0043174494, 0.0049037854, 0.0095260981, 0.0081973542, 0.0020819760, 0.0005753079, -0.0006275396, 0.0155012812, -0.0097659472, 0.0088980021, -0.0129725421, 0.0115794279, 0.0051069623, -0.0029209412, 0.0114087760, 0.0079011209, 0.0243518129, 0.0083719743, -0.0252502449, -0.0163955260, 0.0078890147, 0.0007744842, -0.0020199630, 0.0060784612, -0.0015919665, -0.0025093493, -0.0168744568, 0.0115541648, 0.0144505827, 0.0269839950, -0.0013435385, 0.0015871177, -0.0025890714, -0.0043513202, -0.0109584033, 0.0049330182, -0.0073698326, -0.0021505374, -0.0020246694, -0.0020164635, 0.0028129413, -0.0005652268, -0.0155880768, 0.0012204768, 0.0074838898, -0.0112260953, 0.0000673568, -0.0044655600, -0.0093687680, 0.0133049246, -0.0105622206, -0.0002288970, 0.0055505396, -0.0170159619, 0.0066866432, 0.0043961215, 0.0035512680, 0.0028230115, 0.0154196341, 0.0116736870, 0.0049193325, -0.0103786588, 0.0005304983, 0.0294202231, -0.0139597021, 0.0046333415, 0.0016760564, 0.0150929419, 0.0142843882, 0.0138349310, -0.0104050413, 0.0069392133, -0.0109445630, -0.0160840582, -0.0127040306, -0.0000659235, 0.0123780854, -0.0001244095, 0.0146752084, 0.0069565317, 0.0064266585, -0.0148786316, 0.0045416574, -0.0028052269, -0.0057040267, 0.0102822687, -0.0035811428, -0.0101372497, 0.0091082929, 0.0091357594, 0.0028412319, -0.0166264661, -0.0034776952, -0.0070508406, -0.0189077109, -0.0004629930, -0.0446308404, -0.0038712078, -0.0212752037, 0.0546734817, 0.0128623694, 0.1030331105, -0.0159524418, 0.0582740344, -0.0240115132, -0.0029127016, -0.0046340441, -0.0084157139, -0.0209891219, 0.0012858703, 0.0144380489, 0.0139058875, -0.0180303287, 0.0303093176, 0.0279916916, -0.0241226126, -0.0230031125, -0.0144275948, -0.0387905464, -0.0127919791, -0.0335659534, -0.0193434600, 0.0543154180, 0.0059657688, 0.0297405235, 0.0236939136, 0.0040991046, 0.0027795834, -0.0056295153, -0.0363310613, 0.0127778677, -0.0196340289, 0.0259569027, 0.0214535054, -0.0063586570, 0.0758493096, -0.0121809617, -0.0035499369, -0.0112052970, -0.0202815998, 0.0015793985, 0.0197584666, -0.0050459220, 0.0038911719, 0.0052612573, -0.0248704273, -0.0482636467, 0.0084133949, -0.0066915210, -0.0203691665, 0.0279726628, 0.0300787557, 0.0103298547, -0.0192800146, -0.0286881085, -0.0192472059, 0.0088490788, 0.0315201171, -0.0012921523, -0.0172082260, -0.0114386091, -0.0277618524, -0.0235057846, 0.0145493932, -0.0101647591, 0.0695453137, 0.0238805003, 0.0363425687, -0.0133453477, -0.0158185195, -0.0067807515, -0.0130642969, -0.0056830561, -0.0164887644, 0.0144864228, -0.0022101020, -0.0159612615, -0.0015143519, 0.0374261662, 0.0099898484, -0.0061981096, 0.0107034445, -0.0294406340, 0.0020011319, -0.0064048255, 0.0184903275, 0.0488678701, 0.0100756679, -0.0041578719, 0.0278259721, -0.0028697276, 0.0481480993, -0.0047527133, -0.0023557241, 0.0360321365, -0.0122229736, -0.0119253015, -0.0042051524, 0.0346678384, 0.0614460893, -0.0655841902, 0.0039885715, -0.0015090334, 0.0135908481, -0.0141287940, 0.0105810165, 0.0253419708, 0.0390003547, 0.0152556999, -0.0102091487, -0.0494315587, 0.0258298405, 0.0249308534, -0.0117903743, 0.0521563664, -0.0116553102, 0.0365484394, -0.0077505130, 0.0217514057, -0.0228420999, 0.0041829175, 0.0165310446, -0.0091916686, 0.0216164608, 0.0406578109, -0.0180608723, 0.0359234922, -0.0057711313, -0.0126384776, 0.0940977931, 0.0107468860, 0.0353897326, 0.0388675071, 0.0204665828, -0.0021407427, 0.0432179943, 0.0626861975, -0.0632381663, 0.0214392506, 0.0356232449, 0.0551078618, -0.0208805539, 0.0097931102, -0.0343627855, 0.0089260759, 0.0531106777, -0.0015000666, 0.0212740675, 0.0213086903, -0.0213394929, -0.0172683839, 0.0165937040, -0.0215122122, 0.0370430350, 0.0313334092, 0.0103812534, 0.0220028237, -0.0314705521, -0.0192253422, -0.0285615809, 0.0207559224, 0.0432478115, 0.0677343234, 0.0357523300, 0.0024801746, 0.0107344072, -0.0515239984, 0.0174935739, 0.0155099342, 0.0514546670, 0.0176977608, -0.0192464422, 0.0202552564, 0.0102793993, -0.0711136311, -0.0267314613, 0.0049959077, 0.0054549496, -0.0020767450, -0.0106835840, -0.0012787055, -0.0141484989, 0.0172032379, -0.0094469851, -0.0062519140, -0.0524329171, 0.0400536582, 0.0013034790, 0.0083219977, -0.0188543256, 0.0435127728, -0.0102163674, -0.0004241372, -0.0254744086, 0.0079565737, -0.0253311787, 0.0342445411, 0.0216372907, -0.0179343205, -0.0112704812, -0.0116812401, 0.0215641670, 0.0066469470, 0.0043335552, 0.0095900642, -0.0339818038, 0.0084196022, 0.0181116518, -0.0157164913, 0.0044471119, -0.0057230298, -0.0002685472, -0.0125260716, 0.0150526464, 0.0135105131, 0.0098067084, -0.0099797314, -0.0528932661, -0.0319721140, 0.0180912968, 0.0001576811, -0.0040194960, -0.0140259620, -0.0225994997, -0.0371678025, 0.0324819759, -0.0337403715, -0.0221410152, -0.0173634943, 0.0162569527, 0.0385931320, -0.0385437980, 0.0052651176, 0.0098259291, 0.0145630278, -0.0269417353, 0.0189269036, -0.0203882642, 0.0113973403, -0.0290027335, -0.0374841429, -0.0330636576, 0.0324936844, 0.0405404791, -0.0432837382, 0.0197258387, -0.0067769131, -0.0247308910, 0.0135329068, -0.0176956337, 0.0105933193, 0.0148880696, -0.0193118248, 0.0241639800, 0.0296580382, -0.0062330933, 0.0329032913, -0.0435812883, -0.0028248702, -0.0284691472, 0.0091065345, -0.0118486332, -0.0140650300, -0.0242112000, -0.0008310654, 0.0108843176, 0.0214126222, -0.0217384789, -0.0131402267, -0.0098066414, -0.0024557002, -0.0072043147, -0.0043971599, 0.0054364288, -0.0437224433, -0.0012579368, -0.0078998534, 0.0002406227, -0.0273527000, 0.0081291059, 0.0089190090, 0.0103540020, -0.0481857657, 0.0146541065, -0.0107063157, -0.0369938537, -0.0338058807, 0.0135041401, -0.0269965138, 0.0056835166, -0.0200508535, -0.0206756238, -0.0473766476, -0.0092095425, 0.0196996797, -0.0051470757, -0.0046831071, 0.0178296734, -0.0014860103, -0.0058578597, -0.0270353798, -0.0035346136, -0.0092139076, 0.0120866550, -0.0402915664, 0.0215101913, 0.0585475974, 0.0415585004, 0.0213040374, 0.0206392854, 0.0026725936, -0.0522728786, -0.0012091005, 0.0532030575, -0.0462658405, -0.0284239352, -0.0324999839, 0.0264478903, -0.0021001215, -0.0309220757, 0.0203581098, -0.0031433145, -0.0158165172, -0.0086088553, 0.0139597338, 0.0387716554, -0.0362344459, 0.0337831117, -0.0229663681, 0.0354437344, -0.0205574147, 0.0493284836, 0.0209005922, -0.0146467788, -0.0023908252, -0.0126597714, 0.0246712565, 0.0334319994, 0.0119573148, 0.0290186945, -0.0357666053, -0.0176542103, 0.0103547405, -0.0130850067, 0.0017491034, 0.0150484443, 0.0341946594, -0.0321154259, -0.0110585419, -0.0244106371, -0.0532931425, -0.0452415198, 0.0028773036, 0.0094452929, -0.0042226869, 0.0167665463, -0.0159512758, -0.0323057696, -0.0078520542, 0.0125072673, 0.0599705949, -0.0064092278, 0.0116662011, -0.0266700648, -0.0099223852, -0.0258052908, -0.0134825120, -0.0079744011, 0.0021308640, 0.0154386284, 0.0094468975, -0.0058002947, 0.0191593338, -0.0075619640, 0.0091230543, 0.0065082605, 0.0036043203, 0.0195699353, 0.0371132009, 0.0117755514, 0.0498883538, 0.0068670688, -0.0244733728, 0.0125883045, 0.0301933866, 0.0450209118, -0.0168088116, -0.0173461027, 0.0491439886, -0.0135828229, -0.0208972376, -0.0267333165, 0.0233933255, -0.0627297238, 0.0008957366, 0.0155062228, 0.0044328016, 0.0457259081, 0.0052790949, -0.0260760710, -0.0324106738, -0.0075107077, -0.0159923863, -0.0140624614, -0.0055484297, -0.0146946646, 0.0207203589, 0.0160473753, 0.0586567149, 0.0097865555, 0.0486245491, 0.0134787792, 0.0173851196, -0.0238050893, 0.0073240194, 0.0082016038, -0.0035488836, -0.0101882070, 0.0076192003, 0.0516393408, -0.0122598317, 0.0349187925, -0.0585239604, -0.0166771710, 0.0156678837, 0.0030615553, 0.0243608113, 0.0059590186, 0.0426359288, 0.0020453453, -0.0286010113, 0.0134216705, 0.0256481860, 0.0112381000, 0.0039619370, 0.0004650435, -0.0283978265, -0.0189251155, -0.0127484929, 0.0032883130, 0.0013011500, 0.0000221494, -0.0191817228, 0.0287050903, -0.0378561914, 0.0387228802, -0.0205585118, 0.0309944097, -0.0053733252, 0.0576301143, -0.0123924129, 0.0025536739, -0.0204896871, -0.0034786677, 0.0530786105, 0.0255117770, 0.0181477498, -0.0314310268, 0.0295244381, 0.0291197002, -0.0117440540, 0.0565301925, -0.0364005938, -0.0062649143, -0.0120442957, -0.0213345978, -0.0112842722, 0.0077700936, -0.0187544879, -0.0430692434, -0.0039953380, -0.0106778927, 0.0487389937, 0.0656758770, -0.0050205356, -0.0062325113, 0.0062822565, 0.0130043821, -0.0113846157, -0.0037118141, -0.0025182692, 0.0100192893, -0.0025840842, 0.0517991967, -0.0213353969, -0.0241585337, -0.0152191296, -0.0446217023, 0.0126398280, 0.0278075151, -0.0206712708, 0.0089999968, 0.0089302678, -0.0064801648, -0.0018084940, -0.0016214262, 0.0568403192, 0.0070111118, -0.0042132130, 0.0015898553, -0.0256347768, -0.0103816753, 0.0173225012, -0.0082775932, -0.0314281359, -0.0102960430, -0.0154638449, 0.0247527584, -0.0166426469, 0.0406108908, 0.0110202674, 0.0452958867, 0.0107160416, 0.0390045866, -0.0078697428, -0.0137987537, -0.0312095638, 0.0349879898, 0.0377964079, 0.0129759023, 0.0154001778, 0.0155369686, -0.0151487151, 0.0078278845, -0.0025667425, 0.0088692363, -0.0038862685, -0.0204731785, 0.0020181083, 0.0576957092, -0.0459517203, -0.0067929938, -0.0247108471, -0.0721896663, -0.0034373994, 0.0071355863, 0.0574903041, 0.0339362994, 0.0096903453, 0.0470790006, -0.0169840436, -0.0029897129, -0.0304268077, -0.0208796766, -0.0182731133, -0.0050721811, -0.0025107551, 0.0160202738, -0.0466628224, -0.0438199155, -0.0259396285, -0.0159207247, -0.0137838703, 0.0416470617, -0.0325700305, -0.0358374752, -0.0347543545, -0.0342863984, 0.0347641259, 0.0174819566, 0.0405799635, -0.0027172251, -0.0348834060, 0.0015944809, -0.0068889121, 0.0114879468, 0.0045408984, 0.0391139574, 0.0046489872, 0.0265982226, 0.0130346362, -0.0138980690, -0.0172713716, -0.0111774253, 0.0101112528, -0.0138391955, -0.0042311326, -0.0277449489, 0.0128485989, -0.0021348002, 0.0131428409, -0.0014839069, -0.0062001781, -0.0135592278, -0.0196530391, 0.0369761847, -0.0096995067, 0.0012704630, -0.0121092582, 0.0117460731, 0.0090954360, -0.0057535642, -0.0149966450, -0.0076833125, 0.0143437944, 0.0197763070, -0.0086231558, 0.0038686651, 0.0244966932, 0.0106902849, 0.0052832449, -0.0107527664, -0.0027256187, -0.0088994205, -0.0037573793, -0.0207504202, -0.0021677797, 0.0197040029, 0.0223402288, 0.0180769544, 0.0176733155, -0.0202509575, -0.0058383089, -0.0119994190, 0.0115736928, -0.0002082827, -0.0116388118, 0.0221800748, -0.0269907340, 0.0169946328, 0.0034665207, 0.0002918390, -0.0145375691, -0.0051366277, -0.0044488488, -0.0060361326, 0.0106799537, 0.0013835196, -0.0145508582, 0.0101317447, -0.0025034465, 0.0202197582, -0.0045649516, 0.0274003390, 0.0159245003, -0.0163293462, -0.0060670911, -0.0042699152, 0.0213010665, -0.0148001229, 0.0153554240, -0.0204246435, -0.0092363413, -0.0237444695, 0.0084625371, -0.0091241887, -0.0149182715, -0.0115510263, -0.0338026918, 0.0304269269, -0.0002355849, 0.0067906934, -0.0230945405, -0.0153644290, -0.0073399246, -0.0203071013, 0.0022936782, 0.0125518413, 0.0173870511, 0.0004895696, -0.0092611667, -0.0185583904, 0.0145105254, -0.0163953137, -0.0149191031, -0.0166974738, 0.0114982100, -0.0269763246, -0.0005171017, -0.0000513715, -0.0127990851, 0.0049563800, 0.0334917344, 0.0010281211, -0.0035229563, -0.0097031873, -0.0035110258, 0.0076287719, 0.0013058792, -0.0002458433, -0.0039754170, 0.0081952047, -0.0030037845, 0.0239748321, -0.0035137811, -0.0022912154, -0.0183964688, -0.0192071367, 0.0147308968, 0.0066758008, 0.0150649603, -0.0165085420, -0.0082661547, 0.0251285043, -0.0006144550, 0.0150526427, 0.0349098668, 0.0209839512, 0.0112489657, -0.0157541223, 0.0033338151, 0.0042656707, 0.0096715083, 0.0101424698, 0.0169543568, -0.0114902994, -0.0089846915, 0.0114217382, 0.0239196364, -0.0087509891, -0.0274793059, -0.0088920258, -0.0167728458, 0.0078460034, -0.0125489291, 0.0125069395, -0.0061197011, 0.0026516609, -0.0044812388, -0.0275566876, 0.0017564890, -0.0132523226, 0.0346054360, 0.0128157707, -0.0057338155, 0.0202379990, -0.0077460771, 0.0140108857, -0.0037133985, -0.0095086712, -0.0124285948, -0.0196061600, 0.0115972040, 0.0086395936, 0.0038027612, 0.0190386456, 0.0095119299, 0.0023132502, -0.0024453320, 0.0125062177, 0.0038441576, 0.0049011493, 0.0228754468, -0.0012708197, 0.0097186742, 0.0030732010, 0.0029214451, 0.0236517824, 0.0083341924, -0.0029966142, 0.0165942535, -0.0070105628, -0.0069018258, -0.0006891355, -0.0226408355, 0.0222797077, -0.0232194178, -0.0086669670, 0.0018778720, 0.0361573622, 0.0167458467, 0.0149386879, 0.0079493951, -0.0295058154, -0.0061132582, -0.0269325692, 0.0103236595, -0.0183898155, -0.0013787923, -0.0184885021, 0.0110481856, -0.0040824683, 0.0116934953, -0.0164905135, -0.0104809040, -0.0089673894, -0.0127269970, 0.0120895570, -0.0107741067, -0.0017401229, -0.0075452710, 0.0141730485, 0.0078884307, 0.0013404330, 0.0101048211, 0.0059946757, 0.0288461726, 0.0210249443, -0.0023417741, 0.0088959942, 0.0025350365, -0.0070506190, -0.0042008711, 0.0040880037, 0.0107700089, -0.0132249165, 0.0038577740, -0.0086869448, 0.0147551112, 0.0343892314, 0.0231519900, -0.0104839411, 0.0075492123, 0.0085611390, -0.0139130903, 0.0181627907, 0.0196212977, -0.0091026416, -0.0113343820, -0.0068033766, 0.0204175450, -0.0211471897, 0.0040929555, 0.0057056062, -0.0158244427, -0.0109235197, 0.0057332823, 0.0140779782, 0.0148748243, -0.0008907735, 0.0045448421, 0.0002355334, -0.0250879731, 0.0266662892, 0.0078237699, 0.0065820115, 0.0148729421, -0.0184481777, -0.0034610324, -0.0252868738, 0.0081300968, -0.0107778236, 0.0133559443, -0.0123679778, 0.0056314059, -0.0047970340, 0.0180255603, -0.0102083227, -0.0042487467, -0.0031342648, -0.0198861863, 0.0113646192, 0.0182080287, 0.0001372440, -0.0178360492, 0.0100237513, -0.0038645049, 0.0205791984, -0.0030511683, -0.0053760228, 0.0043957364, 0.0000366793, -0.0145707196, -0.0028507062, -0.0186972469, -0.0183655210, -0.0248042140, 0.0012381213, -0.0018925370, 0.0055518551, 0.0148064233, 0.0061874930, -0.0170602370, 0.0193727650, 0.0192148816, 0.0024360202, 0.0000517252, 0.0061848243, -0.0010044764, 0.0082053207, -0.0235813744, 0.0064534023, 0.0018680621, 0.0079203909, 0.0095622092, -0.0234195273, 0.0092296693, 0.0042675231, -0.0082608471, -0.0186001249, 0.0091020111, 0.0158416275, 0.0184772667, -0.0127875758, -0.0050382861, 0.0187027473, -0.0158454608, 0.0271854643, 0.0235695839, 0.0215035658, -0.0039322930, 0.0022546626, -0.0053402651, -0.0260805245, 0.0117298504, 0.0167605057, 0.0136362016, 0.0092934649, 0.0092496891, 0.0072948872, 0.0219752509, 0.0042456626, -0.0155752394, -0.0090128127, -0.0213212166, 0.0142028127, 0.0039864015, -0.0070381532, -0.0114138424, 0.0017531654, -0.0098158289, 0.0151438303, 0.0176160987, 0.0076788492, -0.0026816663, 0.0074536339, 0.0144076971, 0.0040314500, -0.0347546563, -0.0137588810, -0.0179102756, 0.0008423292, 0.0088278074, 0.0185483135, 0.0006586974, -0.0139379492, 0.0085328128, -0.0015760872, 0.0261454247, -0.0141477352, -0.0069966936, 0.0120917289, 0.0183949787, 0.0288023055, 0.0122229084, 0.0014285982, -0.0022082012, 0.0222150199, 0.0133036245, -0.0045945789, -0.0028246851, 0.0057509392, 0.0017421938, 0.0107160937, -0.0208500847, -0.0024819260, 0.0013759262, 0.0117802303, -0.0051676673, -0.0038353836, 0.0168982018, 0.0221045893, 0.0273312647, -0.0082414672, -0.0130537786, -0.0325074121, 0.0035087629, -0.0371266417, 0.0050410600, -0.0342182443, 0.0136969630, -0.0160989948, 0.0048835259, 0.0078858715, 0.0171450041, -0.0164707527, -0.0163543615, -0.0085542593, -0.0151648633, 0.0250357483, 0.0069106920, 0.0088840788, -0.0037609548, 0.0007298220, 0.0168993548, -0.0076061036, 0.0161296055, -0.0075602485, 0.0205912627, -0.0038459264, -0.0230460837, -0.0025045935, 0.0104822163, -0.0036375192, -0.0124483826, -0.0099587031, -0.0034329230, -0.0103240646, -0.0012459385, -0.0226773582, -0.0262082405, 0.0119271642, 0.0058992710, 0.0132406121, 0.0069112210, -0.0202920828, -0.0046601617, 0.0114281261, 0.0012677612, 0.0185142346, -0.0137531571, 0.0008196717, -0.0057956534, -0.0149546880, 0.0125811640, 0.0022541550, 0.0089685144, -0.0123731392, 0.0173059758, 0.0112523511, 0.0033595082, 0.0201964844, 0.0069743218, 0.0250320602, -0.0158665013, 0.0004253320, 0.0059461091, 0.0127087077, -0.0113758417, -0.0314573944, 0.0060409461, -0.0133818761, 0.0108511075, -0.0317893922, 0.0359423757, -0.0076868883, 0.0012175292, 0.0125345495, 0.0156969875, -0.0238541048, -0.0243619252, -0.0066138990, -0.0156373419, 0.0206190217, -0.0018096118, 0.0149531253, 0.0060344771, -0.0070410678, -0.0192209613, -0.0064591616, 0.0080830641, 0.0112172477, 0.0189364962, 0.0063070362, -0.0116531868, 0.0140645392, 0.0001365839, -0.0006151111, -0.0099091725, -0.0027914122, -0.0106423786, -0.0149011128, 0.0053404723, -0.0034403091, -0.0093651190, -0.0004701762, 0.0087339683, 0.0030270040, 0.0277607683, 0.0180138126, 0.0010501635, 0.0086482018, 0.0018024727, 0.0105390027, -0.0044797212, 0.0013524414, -0.0146826440, -0.0043531242, 0.0098270560, 0.0047966875, -0.0153955193, -0.0212905668, 0.0022941204, -0.0110872062, 0.0110896593, 0.0014442055, 0.0055276235, 0.0216966830, -0.0152260140, 0.0322434455, 0.0080605019, 0.0226995926, -0.0138111180, 0.0109632723, -0.0067211664, -0.0148810288, 0.0066822334, -0.0184305217, 0.0112709990, -0.0005903457, 0.0152167166, 0.0213465206, 0.0142813846, 0.0070470045, 0.0020436652, -0.0097959265, -0.0075022378, 0.0231006835, 0.0109848008, -0.0178740025, 0.0122212851, -0.0017840280, 0.0100033274, 0.0055102478, 0.0004448809, 0.0111266142, 0.0325827338, 0.0129209766, -0.0076358458, -0.0053357095, -0.0111007504, 0.0024726614, -0.0122816823, -0.0047930442, 0.0123723354, -0.0015715372, 0.0178592168, -0.0305969361, -0.0064834203, 0.0199451260, 0.0190679673, 0.0112147052, 0.0166570470, -0.0020131711, 0.0068756244, -0.0005617092, -0.0237923339, 0.0009221845, 0.0082927896, -0.0024565444, 0.0079813953, -0.0018534417, 0.0003462835, 0.0001378243, -0.0057443161, -0.0068880557, -0.0046852035, 0.0317499526, 0.0154369120, 0.0219508559, 0.0179409608, -0.0000691238, -0.0163345169, 0.0207693912, -0.0137728136, 0.0207823478, 0.0085207736, -0.0024807975, -0.0043039690, 0.0132535277, 0.0156973451, -0.0026581404, -0.0208410099, -0.0122700017, 0.0029614659, 0.0213651154, -0.0029181608, -0.0122341961, 0.0135387024, 0.0005950629, 0.0101746842, -0.0113253826, -0.0059072408, -0.0084751146, -0.0004807857, 0.0067968229, -0.0182650182, 0.0107219014, -0.0133576114, -0.0096690208, 0.0060492638, -0.0054073995, 0.0156091275, -0.0132443188, 0.0112187164, -0.0022522092, 0.0100940093, -0.0196982119, -0.0122103393, 0.0174108725, -0.0073591406, -0.0116547244, 0.0003195142, 0.0052978853, -0.0036447044, -0.0150383068, -0.0120760398, -0.0121428464, 0.0032227568, -0.0093772961, -0.0209286138, 0.0072469111, -0.0061768536, -0.0052668015, -0.0076018050, -0.0223501828, -0.0040250686, -0.0129212961, 0.0216180999, -0.0109565575, 0.0246593934, 0.0215379335, -0.0248650853, -0.0126654673, 0.0138153294, -0.0168388225, 0.0058902227, -0.0208524391, -0.0165669434, 0.0210718010, -0.0053781695, -0.0126366969, -0.0106490720, -0.0145214200, -0.0197615847, 0.0038316681, -0.0190335661, 0.0060453722, 0.0112858294, 0.0489170700, -0.0272572543, -0.0205228217, 0.0277934968, -0.0084511042, 0.0076050065, -0.0054871514, 0.0112727387, 0.0084455078, 0.0130157080, 0.0367963314, -0.0032939210, -0.0004223908, -0.0155075435, 0.0165352989, -0.0274645910, 0.0052794982, -0.0269049555, -0.0086314576, 0.0307709835, 0.0153020965, -0.0006916982, 0.0113246860, 0.0127193872, 0.0125254169, -0.0150178941, -0.0087515125, 0.0089542829, 0.0055791857, -0.0311072767, -0.0024954320, -0.0047121351, -0.0123448987, -0.0035882774, -0.0519019887, -0.0042507732, -0.0135531425, 0.0068544000, 0.0069697550, 0.0008942216, -0.0026999090, 0.0027633591, 0.0104225967, 0.0034074895, 0.0055329204, -0.0128210448, 0.0080942195, 0.0127992714, 0.0018797030, 0.0112572405, 0.0148632703, 0.0070833759, -0.0261303466, -0.0066783396, -0.0173188336, -0.0010738213, -0.0010435405, -0.0363774374, 0.0095339185, 0.0076675015, 0.0035854140, -0.0050886841, 0.0342917219, -0.0130377021, 0.0214735214, 0.0099511221, -0.0151315555, 0.0013392597, 0.0051542204, 0.0099319713, -0.0090055801, 0.0045411247, 0.0258029066, 0.0177851301, 0.0125139104, -0.0132716931, 0.0024229046, -0.0155913634, 0.0017545623, -0.0096909842, -0.0084600588, -0.0000773479, 0.0026346240, 0.0026165303, -0.0031321356, 0.0070209359, 0.0168285836, -0.0000860002, 0.0040298505, -0.0350046940, -0.0060183774, 0.0142657924, -0.0359096304, 0.0045806980, -0.0090204673, 0.0127783865, 0.0231547337, -0.0003813449, 0.0068235751, -0.0131598739, 0.0022876407, -0.0024592231, 0.0054694619, 0.0155780967, -0.0032654519, -0.0245141424, -0.0137259625, -0.0058717835, 0.0089293877, -0.0108492356, 0.0041134963, -0.0192282591, 0.0059719328, 0.0391687267, 0.0137917884, 0.0128833493, -0.0605296344, -0.0284719300, -0.0036519354, -0.0162072964, 0.0014263762, 0.0110069057, 0.0032381616, -0.0004083216, 0.0141869187, 0.0224145465, 0.0081634838, -0.0039181868, 0.0001536911, 0.0015930884, -0.0064383005, 0.0175495949, 0.0284979586, 0.0218232349, -0.0134657510, 0.0003169173, 0.0001319448, -0.0002673164, 0.0032020072, 0.0134742446, 0.0189381372, 0.0007645295, -0.0066981055, -0.0232318081, -0.0407433361, 0.0073671523, -0.0363392979, -0.0329714604, -0.0138143208, 0.0154857384, -0.0046984311, -0.0399116725, 0.0103518339, 0.0460434072, 0.0273707192, -0.0051144711, 0.0025280600, -0.0014020217, -0.0316239297, 0.0132713672, 0.0238990095, 0.0294708759, -0.0269332808, -0.0328452662, -0.0189798754, 0.0227468014, -0.0144313350, 0.0026050056, 0.0088554723, -0.0232257824, -0.0352173671, -0.0139422249, 0.0028069094, -0.0027765748, -0.0024496701, -0.0303384699, 0.0017005348, -0.0360274613, -0.0381050408, 0.0100935651, -0.0228278674, -0.0098076174, 0.0008978155, 0.0031834510, 0.0033727484, -0.0002767911, -0.0092184367, 0.0010698553, 0.0135989822, -0.0217319317, -0.0112946955, -0.0090770712, -0.0069984207, -0.0236342531, 0.0039019356, -0.0016890682, 0.0319829993, 0.0167939775, -0.0229494218, -0.0050110519, -0.0107784057, 0.0246546250, 0.0060288217, 0.0118292822, -0.0176381245, -0.0219153315, 0.0093515310, -0.0054148687, -0.0226840787, 0.0040372815, -0.0047442890, -0.0196446888, 0.0007687369, -0.0060971980, -0.0006499898, -0.0176839996, 0.0086036539, 0.0254654400, 0.0084750764, -0.0088048736, -0.0346034467, 0.0020890185, -0.0248384569, 0.0233700089, -0.0065166093, -0.0104812691, 0.0100565758, -0.0254545081, -0.0203756467, 0.0238334760, 0.0059236223, -0.0079014366, 0.0002713693, -0.0302212592, 0.0045561348, 0.0018679667, -0.0185476933, -0.0033981162, -0.0243320446, -0.0029576609, -0.0072249975, -0.0076335492, -0.0114798555, 0.0075870859, -0.0094959270, 0.0129351504, -0.0115572745, 0.0002747494, 0.0229611006, -0.0319801569, -0.0281261355, -0.0055892156, 0.0087010451, -0.0125375129, 0.0073828273, -0.0048749452, -0.0009082228, 0.0012205323, 0.0066892165, -0.0022521438, -0.0122321807, 0.0156772379, -0.0138592348, -0.0190511476, 0.0038054890, 0.0265890472, 0.0085387900, 0.0165250637, -0.0118624652, -0.0305232480, 0.0096255345, -0.0284651015, -0.0224758945, 0.0158739109, -0.0035811434, -0.0161918458, -0.0030891639, 0.0039593657, 0.0107092364, -0.0101386467, -0.0126492539, 0.0066611143, -0.0280594826, -0.0029730073, -0.0098460224, 0.0074765971, -0.0028812371, 0.0022029432, 0.0052544670, 0.0118015753, -0.0117954314, -0.0001033916, -0.0128480755, 0.0253368262, -0.0304022375, -0.0091287252, -0.0086482130, -0.0271585993, -0.0030209909, 0.0216342397, -0.0091081513, -0.0291232895, -0.0172422100, 0.0385348797, -0.0184405483, -0.0009581452, -0.0137316771, 0.0187334102, 0.0084305266, -0.0350821689, -0.0117870774, -0.0142141664, 0.0266801696, 0.0413176082, 0.0077746413, 0.0332475118, -0.0042197257, -0.0105739590, 0.0059357174, -0.0100753354, 0.0000710175, 0.0090061883, 0.0233915765, -0.0078036371, -0.0203283913, 0.0171582289, -0.0195614323, 0.0102244383, 0.0177251473, 0.0200486239, 0.0265594516, 0.0172288604, -0.0113777844, -0.0139253605, 0.0236994438, -0.0476069711, -0.0124986172, 0.0076135187, -0.0125149721, -0.0332158804, -0.0411987156, 0.0084305387, 0.0209370255, 0.0103507489, -0.0022451708, 0.0129171917, 0.0299358275, -0.0117967371, -0.0492657796, -0.0254605375, -0.0310230125, -0.0011973906, 0.0232561659, 0.0142105883, -0.0109771639, -0.0369393416, -0.0243991055, -0.0169733614, -0.0093275402, -0.0087210676, -0.0009395508, -0.0074256533, 0.0033872242, -0.0214715060, 0.0204341933, 0.0097443331, 0.0072125043, -0.0100235231, -0.0114219822, -0.0033605490, 0.0094360709, 0.0064328848, 0.0336695090, -0.0158149637, 0.0071361479, -0.0242926069, 0.0320983194, 0.0092064301, -0.0227098074, 0.0104672369, 0.0150823863, 0.0067371945, 0.0124787595, 0.0062917885, -0.0001150878, -0.0270255469, 0.0034032818, -0.0068844953, -0.0129043572, 0.0155471591, -0.0050004767, 0.0052376436, 0.0279892050, 0.0084859226, 0.0281122513, 0.0130440304, -0.0224637743, 0.0059099318, 0.0208743680, -0.0163601041, -0.0182469729, 0.0017923828, 0.0140223829, -0.0236182977, -0.0140668498, 0.0091657043, 0.0414173417, -0.0004229713, 0.0390437692, 0.0123433061, 0.0186179895, 0.0198880509, -0.0164658483, -0.0145296110, -0.0482213385, 0.0230353996, 0.0222335625, -0.0341584794, 0.0136632733, 0.0050029089, -0.0172715690, 0.0050468389, -0.0030149203, -0.0029486860, -0.0108161615, -0.0236498341, 0.0134209152, 0.0025556658, 0.0334026329, 0.0031255162, -0.0091680139, 0.0031544464, 0.0079455711, -0.0194474645, 0.0055666035, -0.0060866782, 0.0241614543, -0.0102665564, 0.0124670239, -0.0126095926, 0.0160131827, -0.0202901699, -0.0195824709, 0.0120902956, 0.0204556156, 0.0237461254, 0.0355170853, 0.0234516859, 0.0035025612, 0.0144310910, 0.0151487077, 0.0065006344, 0.0246733315, -0.0112506980, -0.0241028573, -0.0103124473, -0.0026798451, 0.0050201928, -0.0148495324, -0.0176045578, -0.0294434018, 0.0016199003, 0.0303723421, -0.0258564800, -0.0137402648, 0.0119737573, 0.0234766770, 0.0124720270, -0.0047538788, -0.0201831944, 0.0174141955, -0.0083920630, 0.0136291506, -0.0247661676, -0.0197773706, 0.0057371669, 0.0001340899, -0.0215921905, -0.0380377956, -0.0157832745, -0.0032096282, 0.0158847868, -0.0011893818, 0.0159044545, -0.0155884782, 0.0169606190, 0.0120469984, -0.0050936611, 0.0156359207, -0.0146245128, 0.0036695555, 0.0240993649, 0.0119101563, 0.0026820616, -0.0125592183, 0.0319992118, 0.0088694235, 0.0063895811, -0.0373114869, 0.0113354055, -0.0118209235, 0.0055652787, -0.0417217165, 0.0093392944, -0.0082437145, -0.0351490863, 0.0318766609, -0.0179929473, -0.0277192537, 0.0033180232, -0.0456894860, 0.0015403794, -0.0018271082, -0.0365861915, -0.0373394415, 0.0060120332, -0.0023797380, -0.0134849483, -0.0029616447, -0.0398298837, -0.0269449688, -0.0001102501, -0.0138430595, -0.0185437184, -0.0209216587, 0.0105433762, -0.0061306106, 0.0141276177, -0.0045321994, -0.0069122314, 0.0052555888, 0.0073817195, 0.0008447175, 0.0041503087, -0.0243706703, -0.0121054491, 0.0053260494, 0.0124929557, 0.0034553139, 0.0095691979, -0.0057196724, -0.0095646027, -0.0124730477, 0.0092337336, -0.0194303896, -0.0136309713, -0.0072765285, 0.0172721520, -0.0034989109, 0.0045700464, -0.0223202966, 0.0150408335, -0.0275492612, -0.0180442706, 0.0138509879, 0.0158785228, -0.0138117643, 0.0058189854, -0.0118322475, 0.0017842432, 0.0270571057, 0.0403284319, -0.0055610361, -0.0220612455, -0.0092314072, -0.0044142283, -0.0189578328, 0.0409109965, -0.0233295113, 0.0190218017, -0.0230459850, 0.0107913949, 0.0071460372, 0.0294467062, -0.0131201483, 0.0018465228, -0.0096900305, 0.0032680575, 0.0168941338, -0.0051924149, -0.0008612308, 0.0077519198, 0.0012951710, 0.0078841848, -0.0167610459, -0.0304924324, -0.0276304279, -0.0206150915, -0.0361186787, 0.0007535566, 0.0199179333, 0.0285163336, -0.0101123592, -0.0027242801, 0.0048003937, 0.0183416326, -0.0009038530, 0.0236005690, -0.0389706604, -0.0215084683, -0.0335634425, -0.0135358283, -0.0003878894, 0.0114475871, 0.0191659611, -0.0065660770, -0.0412144810, 0.0360257365, -0.0317112021, -0.0295703579, 0.0001403649, 0.0027655063, 0.0036375187, -0.0180979036, -0.0116850818, 0.0136548039, -0.0388344862, 0.0047124913, 0.0243446082, -0.0029814052, -0.0098890690, -0.0073710573, -0.0069427146, -0.0263955202, 0.0102499994, 0.0106588816, 0.0462755263, -0.0216962863, 0.0031868219, -0.0013548951, -0.0079221679, 0.0150923356, -0.0057477863, -0.0029832078, 0.0205423366, 0.0221309196, 0.0055901594, 0.0090464279, -0.0263327975, -0.0131267793, 0.0076535204, -0.0070443060, 0.0049495571, 0.0206719264, -0.0081169754, -0.0119685503, 0.0154993003, 0.0026729130, -0.0031833202, -0.0077680764, -0.0612008721, -0.0136378119, -0.0134185925, -0.0124628814, 0.0193929318, -0.0058719483, -0.0004169993, 0.0313965864, 0.0045219520, -0.0153236445, 0.0167380087, 0.0345515236, -0.0062874747, 0.0016456242, -0.0245662108, 0.0495309867, 0.0181178581, -0.0056152022, -0.0284257028, -0.0107430378, -0.0360654220, 0.0144068226, -0.0085679190, -0.0426282175, -0.0078768302, -0.0100200996, 0.0077985697, 0.0021427074, 0.0079989973, 0.0044477144, 0.0039163060, -0.0036157097, 0.0201301035, -0.0031080996, 0.0012473708, -0.0227517989, 0.0040748157, -0.0124310171, 0.0272194408, 0.0316286571, 0.0316568352, -0.0432884209, -0.0190135147, -0.0224675536, -0.0282775238, 0.0217201430, -0.0074657276, -0.0303200800, 0.0170265306, 0.0406584777, -0.0020484931, -0.0005218963, -0.0211069100, -0.0053020809, 0.0017967173, -0.0509914197, -0.0005018919, -0.0068134675, 0.0073791500, 0.0038280678, 0.0021307683, 0.0110052023, -0.0062480029, 0.0206818581, -0.0057023657, 0.0183478147, 0.0580562800, -0.0073234318, 0.0103637157, 0.0044336179, -0.0005746959, 0.0262425002, -0.0380606018, 0.0047573932, -0.0240855403, -0.0090881400, -0.0049738628, -0.0165136810, -0.0428723209, 0.0106669627, 0.0122167422, -0.0026899835, -0.0402192809, -0.0170807280, -0.0247102920, -0.0075896839, -0.0328428298, 0.0016985328, -0.0237797257, 0.0325958282, -0.0049943794, 0.0024224925, -0.0172146764, -0.0011725510, 0.0100773070, 0.0011747857, -0.0133579355, 0.0371058695, 0.0037950196, 0.0008704396, -0.0193673354, -0.0337515995, 0.0369326100, 0.0093777254, -0.0152603025, -0.0159004517, -0.0317633189, -0.0102778981, -0.0043290523, 0.0189841669, -0.0108354706, -0.0044664433, 0.0214933082, 0.0486443341, -0.0244775340, 0.0227871779, -0.0260675643, -0.0054121888, -0.0349850245, 0.0350379758, -0.0257170089, -0.0094782440, 0.0149381552, -0.0179940723, 0.0317482203, 0.0222184714, -0.0358705185, 0.0048051509, -0.0588113256, -0.0237464793, 0.0304939579, 0.0289903209, -0.0038913696, 0.0056907241, -0.0108866682, 0.0506584533, -0.0087720836, 0.0183464084, 0.0116854981, -0.0384415574, -0.0594883151, -0.0296403281, -0.0272678304, 0.0136554223, 0.0243571028, -0.0147487437, -0.0139514422, -0.0135171451, 0.0147256311, 0.0255785063, 0.0148411831, 0.0114683816, -0.0259065032, 0.0243775602, 0.0030487108, -0.0168090742, 0.0008551504, 0.0067071230, -0.0044556190, 0.0109696817, 0.0184536595, 0.0457961820, 0.0228966493, -0.0171352327, 0.0015490695, -0.0149207180, 0.0187762138, 0.0046482254, 0.0098934099, 0.0196083188, -0.0226205699, -0.0136960940, -0.0438226387, 0.0277135000, -0.0351672322, 0.0021127050, 0.0190855656, 0.0668429211, -0.0107583394, 0.0047532492, -0.0054120729, -0.0086549008, -0.0002932987, -0.0001534302, 0.0056867702, 0.0232200082, -0.0021295312, -0.0252468176, 0.0402144566, 0.0256307274, -0.0081535308, 0.0181135777, -0.0017217356, -0.0351804607, 0.0196938142, 0.0253557563, 0.0225190725, 0.0128682060, -0.0044927793, 0.0032282178, -0.0018231551, 0.0138879595, 0.0116469432, -0.0264944490, 0.0157351866, -0.0149848284, -0.0105626490, -0.0037815375, -0.0165551789, -0.0130634252, -0.0012132858, -0.0157477912, 0.0220002588, -0.0108507276, -0.0208046883, 0.0037630342, -0.0276539549, -0.0080830799, -0.0306073613, -0.0164135024, 0.0164209399, -0.0201166347, 0.0079931803, 0.0139752831, 0.0048751938, -0.0090516312, 0.0145405727, 0.0051514669, 0.0115771787, 0.0000822425, -0.0167033505, 0.0114457402, -0.0003254809, 0.0165443812, 0.0151319215, 0.0059012710, 0.0103693260, -0.0078278137, -0.0023833641, -0.0042684535, 0.0043893810, 0.0077136490, -0.0312388949, 0.0024426817, 0.0098766219, -0.0072175963, -0.0091033140, -0.0184772369, 0.0167329758, -0.0172599442, -0.0176700298, -0.0330125317, -0.0239946377, 0.0101506850, 0.0113699446, 0.0159353055, -0.0121428557, 0.0229181517, -0.0325169750, 0.0068207290, -0.0111102648, -0.0117337527, -0.0068112286, 0.0394298062, -0.0232524779, 0.0031478950, -0.0380139798, -0.0226181224, 0.0059605115, 0.0491570048, -0.0267821606, 0.0007562197, -0.0296472441, 0.0188597422, -0.0382984877, -0.0446508825, 0.0143913059, 0.0326462425, 0.0061587216, -0.0452879705, 0.0109161492, -0.0282302070, -0.0320691094, -0.0188673642, 0.0073202932, -0.0054122559, 0.0415436625, 0.0231636874, 0.0122508099, -0.0386309512, -0.0283377301, -0.0159550663, -0.0053035319, 0.0438255742, 0.0073601496, 0.0282546636, -0.0512096323, 0.0026861487, 0.0192361660, 0.0172031578, 0.0170252863, -0.0015315692, -0.0105488235, 0.0206456631, -0.0484915785, 0.0365272164, -0.0427810550, 0.0025358831, 0.0101753054, 0.0069890716, 0.0131779909, 0.0132266516, 0.0031189483, 0.0056415587, -0.0015617323, -0.0599908382, 0.0227773283, 0.0118038831, -0.0155947860, 0.0332945883, -0.0035856627, -0.0498579666, -0.0426534936, 0.0045295046, -0.0162567124, -0.0458423272, -0.0190521907, -0.0022756727, -0.0444041677, 0.0171413459, -0.0166793913, -0.0313989557, -0.0050579184, 0.0259968452, -0.0332329012, 0.0349400267, -0.0454112291, -0.0058738557, -0.0055728364, -0.0222944003, 0.0448039696, 0.0194307752, 0.0222334098, -0.0334630199, -0.0242197327, -0.0125169298, -0.0017513009, -0.0207818486, -0.0114364708, -0.0059147268, 0.0429568440, -0.0086747976, -0.0323492698, -0.0833883286, 0.0011782071, 0.0279058348, 0.0189101063, 0.0210088622, -0.0126207611, 0.0269272123, -0.0180682596, 0.0308967642, -0.0039631873, -0.0090468284, 0.0130838659, -0.0132390307, -0.0306794923, 0.0300538316, -0.0320369154, 0.0292988978, -0.0186388493, 0.0040399968, 0.0184126068, -0.0128642451, 0.0066496967, 0.0243799817, 0.0384833105, 0.0146412365, -0.0007308629, -0.0176569931, 0.0205727369, 0.0262410101, -0.0163735468, 0.0040277815, -0.0080199698, -0.0305637829, -0.0077844826, -0.0018619329, 0.0142243383, -0.0079015754, -0.0127056381, -0.0285720434, -0.0182433426, 0.0086497804, -0.0161183439, -0.0226542354, 0.0219120141, -0.0102025112, 0.0188774597, 0.0123532228, -0.0247500874, -0.0017078449, -0.0106730629, -0.0229635909, 0.0471183360, 0.0248393714, -0.0038906431, -0.0137706529, -0.0153183909, -0.0316726156, -0.0083454065, 0.0072249728, 0.0447189920, 0.0064302892, 0.0324399844, -0.0079554617, 0.0033979416, -0.0363668688, -0.0134426067, 0.0375064760, 0.0497395992, 0.0159571953, -0.0163138118, -0.0017495258, -0.0242008530, 0.0076573840, 0.0056976103, -0.0118519776, -0.0014985029, 0.0468187779, -0.0355585255, -0.0464201495, -0.0263119545, -0.0018542910, 0.0385139473, -0.0369761698, 0.0150795169, -0.0318431184, 0.0085325027, 0.0073862285, -0.0258851275, -0.0232532080, -0.0131201642, -0.0547536053, -0.0025730256, -0.0055706748, 0.0204002429, 0.0145411976, 0.0028600474, 0.0349045247, -0.0015517039, -0.0344760716, -0.0386338383, -0.0433429107, 0.0185912494, 0.0337265916, -0.0283278842, 0.0139651019, -0.0167432092, -0.0034462237, -0.0475888513, -0.0211129803, -0.0392227471, -0.0621625260, -0.0293969754, -0.0414613523, -0.0228595436, -0.0471247807, 0.0530091599, -0.0028070644, -0.0096117267, -0.0152250370, -0.0214329492, 0.0029062212, -0.0269303489, 0.0021748324, -0.0314788595, -0.0153259533, -0.0021655085, -0.0074331779, -0.0216172729, 0.0230331887, -0.0360712446, -0.0018176475, 0.0304611437, 0.0278861839, -0.0051124385, 0.0254021753, 0.0092743905, -0.0011027289, -0.0178619586, -0.0097359698, -0.0243572518, -0.0089079347, -0.0066504343, -0.0249028262, 0.0121690957, 0.0286288839, 0.0089661740, -0.0709150583, 0.0062216092, 0.0179332048, 0.0423069000, -0.0255080424, -0.0109981103, -0.0022870007, 0.0218556952, -0.0372782312, -0.0225062259, -0.0317666084, 0.0307828505, 0.0242625568, 0.0418178923, 0.0258183368, -0.0401834175, -0.0408198014, -0.0571247451, -0.0024378868, 0.0092171524, 0.0027187425, -0.0462208502, 0.0163844209, -0.0390200764, 0.0430748165, -0.0364881791, -0.0060420572, -0.0116726030, -0.0212174263, 0.0119821010, -0.0237862319, -0.0304025039, -0.0240283795, 0.0336331241, -0.0160141271, 0.0078478949, 0.0253897943, -0.0379810184, -0.0040796227, -0.0155232474, -0.0227605086, -0.0139294909, -0.0069046281, -0.0185808502, -0.0253718607, -0.0261781830, -0.0048052478, 0.0091210380, 0.0067419363, -0.0415460467, 0.0158833787, 0.0346204713, 0.0368659720, -0.0585224405, -0.0105451047, -0.0052943812, 0.0023738034, -0.0248229522, 0.0099139605, -0.0396815240, -0.0268601198, 0.0024426421, -0.0068024644, -0.0063894838, -0.0264150463, -0.0073709078, -0.0080673983, 0.0384229831, 0.0183215681, -0.0269867703, -0.0006367303, -0.0231085662, -0.0030464858, -0.0111738620, -0.0287552662, 0.0091358265, 0.0175531767, -0.0428658761, 0.0212444365, 0.0096364366, -0.0183123685, -0.0150849661, -0.0429256037, -0.0006234591, 0.0000602143, -0.0381951444, 0.0155087495, -0.0252651032, 0.0185935944, -0.0126355384, 0.0134089645, -0.0431384742, -0.0188310426, 0.0077576460, -0.0055576805, -0.0135445092, -0.0044007669, 0.0373501666, -0.0430816971, 0.0543088652, 0.0171307195, -0.0023518505, 0.0080951378, -0.0280778632, 0.0131531553, -0.0037880326, -0.0153130079, -0.0397397354, -0.0105247339, 0.0061590127, -0.0018775361, 0.0113384016, 0.0260501355, -0.0076029436, 0.0431925841, -0.0305768624, 0.0331385769, 0.0054545277, 0.0161930639, 0.0049190600, -0.0461833216, -0.0108537171, 0.0138667934, -0.0135701783, 0.0335241295, -0.0468140692, 0.0347505286, -0.0239682645, 0.0160931442, 0.0131938737, 0.0123989843, 0.0143954344, 0.0123774931, -0.0177841783, -0.0050153076, -0.0343577527, -0.0465230942, -0.0193046853, -0.0162698105, -0.0227370635, -0.0291878488, 0.0114673963, 0.0310589746, 0.0196171999, -0.0637136847, -0.0554199554, -0.0405867435, 0.0144167915, 0.0030878026, 0.0374460742, -0.0054180254, -0.0237073731, -0.0214185789, -0.0058749313, 0.0218028985, -0.0238375012, -0.0034719266, -0.0282336269, -0.0047461144, -0.0031369021, -0.0190705173, 0.0066006286, -0.0574717149, -0.0139014730, 0.0147150559, -0.0526988134, 0.0324278921, -0.0195232294, -0.0220297147, -0.0382846072, -0.0278774332, -0.0004605266, -0.0285335388, 0.0083384784, 0.0112077156, -0.0410520807, -0.0495167561, -0.0473267920, -0.0280218665, 0.0403672941, 0.0062875021, 0.0313427150, 0.0259826891, -0.0110684317, -0.0031301805, -0.0192841664, 0.0372441337, -0.0114865974, -0.0158259626, -0.0008297139, -0.0250197686, 0.0171229485, -0.0227317214, 0.0186834186, -0.0030097896, -0.0010167657, -0.0063591120, -0.0398364402, 0.0250223782, 0.0096696625, -0.0313102826, -0.0155073591, -0.0164669957, 0.0115256412, 0.0063698799, 0.0311149564, 0.0411664508, 0.0060329428, -0.0629142672, -0.0059591336, -0.0240193401, 0.0010405737, 0.0303872041, -0.0327909663, 0.0376621187, 0.0041710073, -0.0061096409, 0.0270616300, -0.0055897008, -0.0040511806, 0.0113911405, -0.0152012287, -0.0172582995, -0.0132830273, -0.0166094862, -0.0271096323, -0.0101332767, 0.0478356294, 0.0080246534, -0.0117435735, 0.0739153996, -0.0330420099, -0.0256901141, -0.0004898022, -0.0188053921, 0.0095564695, -0.0435777418, -0.0178434923, 0.0479435697, -0.0090621589, -0.0599099994, -0.0089409687, 0.0213778317, -0.0030566936, 0.0274451151, -0.0214643385, 0.0100019919, -0.0102776531, -0.0133675458, -0.0199658442, 0.0375610292, -0.0197394043, -0.0375801846, -0.0061112680, -0.0405470282, -0.0168598425, -0.0076202303, 0.0966456831, -0.0241931938, 0.0378971174, 0.0366699994, -0.0224101394, 0.0067228903, 0.0103566647, 0.0109965671, 0.0102755874, -0.0069882232, 0.0296326447, 0.0003835250, 0.0096184164, 0.0135408901, 0.0155798523, -0.0334332325, -0.0181752462, -0.0281649586, -0.0032000802, -0.0238609966, -0.0184027795, 0.0250070300, -0.0106672468, -0.0037224127, -0.0026902151, -0.0234057326, 0.0380127057, 0.0091660628, -0.0426801667, -0.0275468025, -0.0213094279, -0.0140734529, -0.0285835918, -0.0199950747, 0.0185429733, -0.0353376493, 0.0023060031, 0.0825741366, -0.0463154092, 0.0000685883, -0.0108130649, -0.0332491733, -0.0097743832, -0.0204443913, 0.0015627862, -0.0191186741, 0.0188775863, -0.0484133214, -0.0123656737, 0.0219058283, -0.0053027752, 0.0102019897, -0.0036033166, 0.0411794074, -0.0309787020, -0.0325082652, 0.0232180133, -0.0150488066, -0.0273692943, 0.0094922697, -0.0369936712, 0.0074065626, -0.0115865525, -0.0042643026, -0.0659865066, 0.0181487352, -0.0318901837, -0.0217470136, -0.0431656614, -0.0379451104, -0.0143383918, 0.0031106535, -0.0255999491, -0.0210208930, -0.0210185163, 0.0112113664, 0.0312382281, -0.0186344124, 0.0179586466, -0.0211463608, -0.0265740640, -0.0195820983, -0.0158956386, 0.0011056348, -0.0324551947, -0.0418180488, -0.0056196311, -0.0086277183, -0.0344617590, 0.0050892951, -0.0689521432, -0.0351334177, -0.0656488091, 0.0094773844, -0.0044777230, -0.0221345872, -0.0164740905, -0.0434336998, 0.0252636299, -0.0445997939, -0.0050777900, -0.0116115231, -0.0415574424, -0.0277153403, -0.0318661183, 0.0107937176, 0.0155790541, -0.0181859098, -0.0265805498, 0.0090974998, -0.0397769995, 0.0137178628, 0.0109450715, -0.0271501448, 0.0282748695, -0.0127624208, -0.0454778634, -0.0167617593, -0.0440637879, -0.0127423266, -0.0014430399, -0.0129016526, -0.0096146576, -0.0026040459, -0.0089288754, 0.0091276411, -0.0259792134, -0.0172269493, -0.0359730497, 0.0204032492, 0.0237631146, -0.0249443464, -0.0123503795, 0.0405886136, 0.0096692611, -0.0141206170, -0.0090014320, 0.0094502447, 0.0008769789, 0.0090514412, -0.0367679335, 0.0182965063, -0.0305890720, -0.0165559761, -0.0305302106, -0.0519481972, -0.0228976253, 0.0066819023, -0.0211621672, -0.0089959372, 0.0127083464, -0.0067445827, 0.0193808116, -0.0329626948, -0.0218371097, -0.0313906148, -0.0255570989, -0.0503179282, -0.0129050408, -0.0502065420, -0.0151642319, -0.0510503352, -0.0355366357, 0.0156277772, -0.0258444455, -0.0183919016, 0.0045783217, 0.0162397604, -0.0353734754, -0.0171152484, 0.0403257757, -0.0518332422, -0.0076837675, -0.0221625585, -0.0472604670, -0.0141840037, 0.0015520336, 0.0238159876, 0.0249523148, 0.0327052176, -0.0251132082, 0.0035070486, 0.0001854840, -0.0282122660, -0.0108695338, 0.0188904293, -0.0577782057, -0.0078762993, -0.0006349509, -0.0326975770, -0.0354649760, -0.0322735757, -0.0187102892, -0.0286500044, 0.0460330471, -0.0414832197, -0.0265345220, 0.0119189145, -0.0002725967, -0.0076422654, -0.0229881220, 0.0062188939, -0.0023457306, -0.0008650602, -0.0661198795, 0.0061335959, -0.0505579226, -0.0408000872, -0.0436326861, 0.0113240089, -0.0049377000, -0.0615219139, -0.0213086661, 0.0214142706, -0.0275505260, 0.0059324610, 0.0166146439, -0.0213764366, 0.0052911206, -0.0245502088, 0.0049887178, -0.0345078297, 0.0056147883, -0.0278215520, -0.0203418266, -0.0205086600, -0.0463503376, -0.0140019367, 0.0043808739, 0.0153934630, -0.0066334028, -0.0130766639, -0.0271593835, -0.0086132046, 0.0083606299, -0.0188918002, -0.0300829560, 0.0422534011, 0.0080321059, -0.0013605378, -0.0045329956, 0.0376553312, 0.0483997725, -0.0009868059, -0.0294324495, 0.0056804302, 0.0105653470, 0.0126446141, 0.0076978421, 0.0056107314, 0.0023893833, 0.0050179674, 0.0000996970, -0.0084100263, -0.0060583469, -0.0093142716, -0.0059307101, -0.0025315618, -0.0073154285, -0.0079256371, -0.0000382842, -0.0153736090, -0.0141768577, 0.0098617924, -0.0077845920, -0.0044387537, -0.0142913843, -0.0016487953, 0.0042060735, -0.0030009712, -0.0026677782, 0.0046652770, -0.0097362492, 0.0003545644, 0.0027879693, -0.0074723233, 0.0048335390, -0.0078488169, -0.0029853056, -0.0011761414, -0.0001698719, 0.0070131011, 0.0022073756, -0.0010057231, -0.0014409513, 0.0060108094, 0.0080036987, -0.0019712949, -0.0037860228, -0.0082876887, 0.0035959391, -0.0008783853, 0.0125246421, -0.0044508865, 0.0035735290, -0.0077914493, -0.0050932458, -0.0021638027, 0.0017166749, 0.0082453713, 0.0069452827, 0.0028096200, -0.0129861422, -0.0015715336, -0.0049551586, 0.0083780140, -0.0023447957, -0.0030041724, -0.0057977196, 0.0023337493, 0.0024326115, -0.0044323951, 0.0087847607, 0.0056374194, 0.0083482685, 0.0052026524, -0.0103903553, -0.0097989803, 0.0020562124, -0.0043253656, 0.0094452500, 0.0129972417, 0.0019031280, -0.0017896737, -0.0030673321, -0.0052785454, -0.0097472072, 0.0093591008, -0.0006963229, 0.0013641058, -0.0040258160, -0.0045883777, 0.0060615395, -0.0073396070, 0.0044089346, -0.0101838000, -0.0000653140, 0.0012849703, 0.0005627943, -0.0070994915, -0.0041409014, 0.0096358210, 0.0031707974, -0.0012145221, -0.0014803555, 0.0033608105, -0.0087163458, -0.0023436388, -0.0069806715, 0.0018728423, 0.0010642475, 0.0011229125, -0.0020836156, -0.0011499417, -0.0037929078, -0.0106503936, 0.0005103150, 0.0000240649, 0.0089544468, -0.0032656826, -0.0048897923, 0.0146942055, 0.0034680991, -0.0018990383, -0.0072195991, -0.0057687797, -0.0031676509, -0.0021268143, 0.0031941927, 0.0011379159, 0.0050339159, -0.0018427456, 0.0069689592, -0.0096665788, -0.0151981181, 0.0076109529, 0.0067172106, -0.0122011779, -0.0010392381, 0.0112816226, -0.0055861310, 0.0033703926, -0.0116742933, -0.0123452656, -0.0121210981, 0.0082025640, -0.0091124102, -0.0036954437, -0.0059868554, -0.0041350867, -0.0016967373, -0.0000863695, -0.0051964684, 0.0094265994, -0.0104209594, -0.0087417224, 0.0201557651, -0.0116263628, -0.0016329625, -0.0026857508, -0.0043479460, 0.0044383095, 0.0082889190, -0.0093436334, 0.0065931589, 0.0040487652, 0.0051468015, 0.0011086436, 0.0056440174, 0.0061373468, -0.0071421089, 0.0053651226, 0.0068294443, 0.0042923498, 0.0055998527, 0.0095820632, 0.0024052933, -0.0156466290, 0.0009657956, -0.0130548002, 0.0142398793, -0.0086768856, 0.0114833275, -0.0066148047, -0.0102794375, 0.0177185573, 0.0048132283, -0.0002846811, -0.0016735662, -0.0083087329, 0.0021342805, -0.0040865811, -0.0003461987, -0.0138976648, 0.0064109657, 0.0010735885, -0.0063826847, -0.0104694916, -0.0038939042, 0.0160045642, 0.0029012412, 0.0026208251, -0.0000082671, -0.0040891725, 0.0072491611, 0.0024549009, 0.0118718147, 0.0027538191, -0.0038265679, 0.0146490000, -0.0029781051, 0.0009565605, -0.0118488157, -0.0025377648, -0.0120005244, 0.0038662711, -0.0014149339, -0.0009638622, -0.0144864228, -0.0134538747, 0.0040567182, -0.0027859530, 0.0003406559, -0.0047605303, -0.0073764054, 0.0050808350, 0.0037517522, -0.0056187962, 0.0152678518, -0.0040793852, 0.0108648837, -0.0028602185, -0.0016320994, 0.0034139624, 0.0101015000, -0.0057510762, 0.0060801175, 0.0104466677, 0.0035075869, 0.0086029358, -0.0040902062, -0.0051954966, -0.0006464326, -0.0097590601, 0.0093594044, -0.0062062633, 0.0089225471, -0.0053644110, 0.0052524372, 0.0151263019, 0.0023103396, 0.0041136458, 0.0041680578, -0.0014752335, 0.0007583991, 0.0001958411, -0.0090837153, -0.0053940150, -0.0027022152, 0.0015475079, -0.0053430498, -0.0139991641, -0.0017808408, 0.0227490719, 0.0049909111, 0.0040670219, 0.0101652388, -0.0040996815, -0.0042025507, -0.0099025881, 0.0156788677, -0.0071559888, 0.0037062685, 0.0090698591, -0.0018800247, -0.0077266814, -0.0058437209, -0.0133173326, -0.0053222957, 0.0019779878, 0.0006230996, -0.0062360493, -0.0035978036, -0.0134336976, 0.0132822702, 0.0034463375, -0.0012083246, 0.0012148581, -0.0031504377, 0.0021480201, 0.0039629270, -0.0028742086, 0.0018207147, -0.0055732373, 0.0118994713, 0.0007169755, -0.0086404523, -0.0014527186, 0.0121011874, 0.0014056913, -0.0033759009, 0.0010449253, 0.0146680390, 0.0038157098, 0.0009833518, -0.0021251403, -0.0003158375, 0.0056026783, -0.0011397473, -0.0009959870, 0.0132447993, -0.0105313975, -0.0056782169, 0.0090090223, -0.0031195544, -0.0049624084, 0.0030660026, 0.0006479892, 0.0013209810, 0.0097366543, 0.0010853946, -0.0016719983, 0.0040784450, -0.0104305474, 0.0056759645, -0.0082045533, -0.0050353473, 0.0140942857, 0.0064785280, -0.0020371270, -0.0029048393, -0.0028342544, -0.0119077917, -0.0096481182, 0.0013019816, -0.0016035365, -0.0058335187, 0.0101205530, -0.0050824597, -0.0009807174, 0.0016229064, -0.0038607775, -0.0031763206, 0.0062083127, -0.0051485561, -0.0077216439, -0.0074568656, -0.0030540498, 0.0059446385, -0.0110987052, -0.0023242445, -0.0089703323, -0.0032571626, 0.0189862195, 0.0098464321, -0.0096651884, 0.0095918356, -0.0079932883, 0.0102026630, 0.0083910711, -0.0025971697, 0.0030728453, 0.0102216071, -0.0025100363, 0.0138453357, 0.0062740045, 0.0083755618, 0.0147076407, -0.0098420018, 0.0051483419, -0.0011296823, -0.0030486900, 0.0124308802, -0.0006955037, 0.0082101217, -0.0067767426, -0.0098594092, 0.0184215792, 0.0078956224, 0.0026789785, 0.0078808414, 0.0124631636, -0.0026951316, 0.0005920053, 0.0018930321, -0.0101073887, -0.0054221675, 0.0013491547, -0.0054734824, -0.0111865979, 0.0007434667, 0.0003386942, -0.0107220560, 0.0047486532, -0.0150492638, -0.0076029524, 0.0060888142, 0.0023957887, 0.0055379504, 0.0019361420, -0.0163860489, 0.0032365769, -0.0020869984, -0.0036555938, -0.0135042612, -0.0037579075, 0.0008272375, -0.0070875660, -0.0019223184, -0.0026979435, -0.0119142840, -0.0158266667, 0.0052224882, 0.0039478778, -0.0216345303, 0.0007995743, -0.0052543478, 0.0095225126, -0.0009716011, -0.0032812739, 0.0055111600, -0.0045737107, -0.0136868022, -0.0030679035, 0.0081923576, 0.0033876761, -0.0097070532, 0.0009447226, -0.0043318379, 0.0032032535, 0.0039825710, 0.0061399732, -0.0022082797, -0.0144173205, 0.0037615492, -0.0041534463, 0.0119104097, -0.0020337394, 0.0095049003, -0.0097659426, -0.0053836918, 0.0073441397, -0.0016718607, -0.0003088395, 0.0002213522, 0.0087735793, -0.0112351840, -0.0042189443, -0.0148842605, -0.0146447401, 0.0012035040, -0.0037086087, 0.0104262503, -0.0092629557, 0.0023258312, 0.0074724210, 0.0015877882, -0.0051270309, 0.0000802884, -0.0121015608, 0.0012558784, -0.0036019883, -0.0072009689, 0.0019103331, -0.0040283827, 0.0112343086, -0.0047708075, -0.0078886431, -0.0074491929, -0.0006654767, 0.0057624425, -0.0054279277, -0.0019818838, 0.0004617728, -0.0040290398, -0.0019428815, 0.0012772830, -0.0007769753, -0.0016952561, -0.0003217594, 0.0003332332, -0.0026699782, 0.0083212471, -0.0092431847, 0.0072847349, -0.0023123927, -0.0088794073, 0.0105640423, 0.0055540591, 0.0128671732, -0.0043884199, 0.0027688053, 0.0073422645, 0.0102830660, -0.0000322388, 0.0067326347, -0.0035969790, -0.0007276048, -0.0077978885, -0.0001337705, -0.0047020405, -0.0020384036, 0.0066384119, -0.0107114734, -0.0116303694, 0.0028579128, 0.0098130004, 0.0081820693, 0.0046510650, 0.0040205177, -0.0026914547, -0.0005223606, -0.0040530004, 0.0009479371, 0.0153212640, 0.0048074853, 0.0068820063, -0.0085162455, 0.0050293966, 0.0145196700, 0.0001085195, 0.0004299241, 0.0065348945, -0.0055592572, -0.0026150274, 0.0067563332, 0.0025339960, -0.0024304329, 0.0002812098, 0.0007253048, -0.0026963216, 0.0076877545, -0.0049180044, -0.0006469135, -0.0089422017, 0.0054667541, 0.0096965469, 0.0003589025, -0.0007605377, -0.0185018517, -0.0037500476, -0.0000336907, 0.0023943025, 0.0033823673, -0.0037371733, 0.0111178812, 0.0086779781, -0.0048686634, 0.0031400991, -0.0036474864, 0.0052168430, 0.0065831523, 0.0037684685, 0.0062007206, 0.0006821750, -0.0064666253, 0.0051943315, 0.0113013815, 0.0106966663, 0.0104061076, -0.0068512070, -0.0109124361, -0.0042332560, 0.0065341964, 0.0029056687, -0.0107487990, 0.0116980933, -0.0069332374, -0.0139314532, 0.0133895641, -0.0002585277, 0.0061876001, 0.0012915601, 0.0201205444, -0.0035138300, -0.0097577032, -0.0091764517, -0.0082180630, 0.0071004732, -0.0055743661, 0.0031586343, -0.0040149051, 0.0189732946, 0.0090717105, 0.0092101032, -0.0027542009, -0.0050872099, -0.0006655130, -0.0120754335, -0.0090310425, -0.0092816958, -0.0160663649, 0.0045467992, -0.0026893001, 0.0141119324, -0.0020512692, 0.0061216243, 0.0001051310, -0.0060804160, 0.0074164225, 0.0036341189, -0.0045501124, -0.0005322587, -0.0032462820, 0.0081387302, -0.0037144434, 0.0069743018, 0.0079682097, -0.0043341508, 0.0020999769, -0.0105975010, -0.0108214999, 0.0039102943, 0.0107059106, 0.0054578516, -0.0119874254, -0.0125224218, -0.0128831621, 0.0040875161, 0.0031164030, -0.0114805056, -0.0009210407, -0.0082489373, 0.0048851920, -0.0013039286, 0.0059809643, 0.0002176742, -0.0211020950, -0.0058271177, -0.0071669593, -0.0056892522, -0.0026683062, -0.0020516000, -0.0016054853, 0.0128963878, 0.0014892588, -0.0175815150, -0.0037266193, -0.0098254690, 0.0046527372, 0.0117824357, 0.0053064679, 0.0055792774, 0.0220674817, 0.0011079345, 0.0062245722, 0.0009355841, 0.0066404971, 0.0079055456, 0.0037777505, -0.0107066529, 0.0156537853, -0.0021070682, -0.0086370911, -0.0020286599, -0.0030995184, -0.0024323915, -0.0015683816, -0.0128529537, 0.0119062662, 0.0085224174, 0.0128213847, -0.0036633292, 0.0078521278, -0.0005517236, -0.0042825085, -0.0177652705, 0.0044615483, -0.0006550421, -0.0161790270, -0.0138657931, 0.0039564995, 0.0099395411, -0.0004982314, 0.0025919569, -0.0158085432, 0.0072609298, 0.0046168203, 0.0116074020, 0.0022353346, -0.0173652004, 0.0032333860, 0.0174428038, 0.0128982281, -0.0003818851, -0.0096208574, 0.0120356120, 0.0120939147, 0.0010644322, 0.0025531754, -0.0118055083, 0.0026358557, 0.0109239100, 0.0030493569, -0.0057587870, 0.0028539144, 0.0050534545, 0.0116383927, -0.0008616231, 0.0079495050, -0.0016830922, -0.0045677898, -0.0025395239, 0.0068396921, 0.0081121679, 0.0225761700, 0.0103118122, 0.0127366530, 0.0033798716, 0.0062634773, -0.0061795372, 0.0028514015, 0.0025045760, -0.0073859347, 0.0079194652, 0.0209777355, 0.0036924020, -0.0009348035, -0.0195398331, -0.0167261008, -0.0205352660, -0.0035032756, -0.0115348976, -0.0120701194, -0.0089988047, 0.0024810808, -0.0038092355, 0.0127403159, -0.0046331314, 0.0037448341, -0.0063053705, -0.0049651344, -0.0135074463, -0.0073644300, 0.0078973230, 0.0028044051, -0.0044913027, 0.0075485148, 0.0087666251, -0.0197213273, 0.0243357178, 0.0020461916, 0.0232049488, 0.0098494180, -0.0241516568, 0.0103391279, 0.0069140638, -0.0117663201, 0.0156756751, -0.0030319197, 0.0124886632, -0.0027714903, -0.0065765153, -0.0006956219, 0.0053033368, -0.0184889566, 0.0242268238, -0.0208175033, 0.0037536041, 0.0079868482, -0.0114870751, 0.0118770665, 0.0092364568, 0.0074486621, -0.0052867443, 0.0147561179, -0.0026824977, -0.0087869838, 0.0024846841, -0.0203056689, 0.0094560608, 0.0043859300, -0.0020020725, -0.0013632545, 0.0083374213, 0.0007741697, 0.0019392320, 0.0044643837, -0.0118970200, 0.0118614789, 0.0022039281, -0.0024148801, 0.0035981496, -0.0188451204, 0.0059464094, 0.0172140114, 0.0279620290, -0.0033908996, 0.0021413192, -0.0043974179, 0.0062054670, 0.0165860411, -0.0091529936, 0.0037091395, 0.0028907498, 0.0033118906, 0.0005256583, 0.0005876193, 0.0045729261, -0.0027869863, 0.0057930639, -0.0121232001, 0.0149878953, -0.0060669463, 0.0202485994, 0.0091986824, 0.0098624201, -0.0042564818, 0.0244399253, -0.0057871290, -0.0166436918, 0.0049386546, -0.0073776832, 0.0042141122, 0.0075333714, 0.0041705971, 0.0047291922, 0.0041589322, -0.0130950809, -0.0090301391, 0.0159871299, 0.0115668662, 0.0061044893, -0.0209018737, -0.0118612396, 0.0007858729, -0.0008284373, 0.0176847465, 0.0140738972, 0.0296565555, -0.0054802904, -0.0014663284, 0.0078062969, -0.0110493293, 0.0069303056, 0.0171993505, -0.0093486430, -0.0044425591, -0.0021226143, 0.0126937637, 0.0073674489, -0.0066953832, -0.0024623976, 0.0026703314, -0.0067064157, 0.0093517965, 0.0010760430, -0.0105643244, -0.0102686118, 0.0132903811, 0.0119631570, 0.0104451720, -0.0099917231, 0.0097638192, 0.0036266039, 0.0068114116, -0.0113438452, 0.0049652383, -0.0080137728, -0.0140051069, 0.0003367689, -0.0031955608, -0.0069383020, -0.0007159029, 0.0132228276, 0.0137529494, 0.0101362886, -0.0161877573, 0.0167683885, 0.0210288949, -0.0027534927, 0.0017751065, 0.0029005022, -0.0037916366, -0.0014648585, 0.0034885167, 0.0056595425, 0.0239546522, 0.0047281799, 0.0036208336, -0.0019751997, 0.0016233539, -0.0037703565, 0.0035579375, -0.0036219857, 0.0050824964, 0.0020336972, 0.0073125772, -0.0060231620, 0.0072064241, 0.0068513891, 0.0054992675, 0.0098466510, 0.0169229079, -0.0049794153, 0.0055688047, 0.0030033246, -0.0009467058, 0.0073968768, 0.0149546079, -0.0021503284, -0.0009889264, 0.0076051927, 0.0081029320, 0.0221296046, -0.0088153221, 0.0122745866, 0.0143428966, -0.0025117840, -0.0039863046, -0.0021058053, -0.0066871997, -0.0079423711, -0.0106692519, 0.0193912610, -0.0091536278, 0.0012049366, -0.0101760738, -0.0022699863, 0.0062288395, -0.0133722546, -0.0023838154, -0.0081376387, -0.0122532537, -0.0009825381, -0.0070884954, 0.0066296211, -0.0016173969, 0.0043122075, -0.0004245998, 0.0062320661, 0.0038187588, 0.0200799685, 0.0006997746, 0.0112098465, 0.0133407991, -0.0014008331, -0.0041891937, -0.0056954343, -0.0004502730, 0.0098341620, 0.0100291846, 0.0044571240, 0.0045298319, 0.0051328694, -0.0096245436, -0.0061231754, 0.0145390788, 0.0109444931, -0.0196195077, 0.0041539338, 0.0002504935, -0.0100201406, -0.0069906972, 0.0063523161, 0.0033962310, 0.0031827556, 0.0183258895, -0.0126953255, -0.0098729609, -0.0053171492, -0.0347807817, 0.0212403387, 0.0062613701, -0.0043740068, -0.0155412136, 0.0022118825, 0.0160105303, 0.0084649622, 0.0047891438, -0.0136109032, -0.0115605025, 0.0012553756, -0.0074297683, 0.0167489946, 0.0024639429, -0.0020519726, 0.0186838731, -0.0051774355, -0.0065036104, -0.0126744909, -0.0085648689, -0.0038900743, -0.0051746685, 0.0041899136, -0.0014578184, -0.0060926187, 0.0036611315, 0.0039561405, 0.0193201993, 0.0024909924, -0.0106053334, -0.0132627478, 0.0087983627, 0.0033273541, 0.0062972950, 0.0188137628, -0.0131403040, 0.0106493421, -0.0080139600, 0.0010514808, -0.0066902330, -0.0114158578, -0.0140730049, 0.0052224374, 0.0063942512, 0.0081332950, 0.0036220588, -0.0200538728, -0.0159184039, 0.0102905771, 0.0013861799, 0.0102742491, 0.0075485846, 0.0067140246, -0.0048222914, -0.0158062726, 0.0108033633, 0.0015723573, 0.0135886632, 0.0042774929, -0.0073753940, 0.0004235545, -0.0064251353, -0.0108503085, 0.0025383460, -0.0045074634, 0.0021396407, -0.0013600421, -0.0214034431, 0.0025671970, 0.0011427524, -0.0075917081, 0.0106316144, 0.0047290782, -0.0102240602, 0.0044692634, -0.0179672185, 0.0049336264, 0.0037059288, -0.0077185254, 0.0008038715, 0.0069780345, 0.0056225173, -0.0106284954, 0.0027964392, 0.0029856151, 0.0037467971, 0.0064649321, -0.0070232633, 0.0070624645, -0.0185284466, 0.0059830085, -0.0028784806, -0.0136309518, -0.0001927017, -0.0006139160, 0.0055054715, 0.0031913449, -0.0251898710, 0.0217383001, -0.0106645608, -0.0087629249, 0.0062491684, 0.0087966677, -0.0141982213, 0.0005925156, 0.0191002674, 0.0097915605, 0.0134416195, 0.0082508912, 0.0108247269, -0.0002834612, -0.0039781150, 0.0071188933, -0.0032376661, 0.0099740494, 0.0070181992, 0.0136872577, -0.0007030586, -0.0062994752, 0.0029005429, 0.0077147973, 0.0165947322, 0.0076932809, -0.0003601211, 0.0004748058, -0.0083759269, -0.0132770175, 0.0194123611, 0.0000297266, -0.0013041232, -0.0093390085, -0.0037159761, 0.0080555296, 0.0164351836, 0.0091413585, 0.0096422695, 0.0049321838, 0.0160579067, -0.0099285804, -0.0137001108, 0.0243258215, -0.0003762892, -0.0057371007, 0.0085556703, 0.0137856966, -0.0157192089, -0.0139091397, -0.0011204216, -0.0024873726, 0.0157873668, -0.0062141754, -0.0065360763, 0.0013963382, -0.0145121524, 0.0109590422, 0.0062718298, 0.0086018639, 