//Numpy array shape [3, 3, 64, 128]
//Min -0.343771725893
//Max 0.317976176739
//Number of zeros 0

#ifndef W27_H_
#define W27_H_

#ifndef __SYNTHESIS__
model_default_t w27[73728];
#else
model_default_t w27[73728] = {0.0124382563, 0.0016746857, -0.0295407847, 0.0073141628, 0.0211756565, 0.0186771080, -0.0566932820, -0.0349881053, -0.0140269017, 0.0014335535, 0.0180640928, -0.0131161120, -0.0155349774, -0.0407276899, -0.0051943134, 0.0014752535, 0.0109417131, 0.0033023867, 0.0324304849, 0.0417368524, -0.0155349001, -0.0511749908, 0.0235391501, -0.0117115881, 0.0086525995, -0.0230055135, -0.0258004572, 0.0066920747, 0.0054731369, -0.0048442637, -0.0126227690, -0.0204419531, 0.0004121876, 0.0150697902, 0.0205775015, -0.0149981901, -0.0250632390, -0.0085190646, 0.0088140275, -0.0130779529, -0.0182245541, -0.0045062457, -0.0120744379, -0.0137709901, -0.0116633140, 0.0345329568, 0.0557102449, -0.0471014120, -0.0290095191, -0.0208024979, -0.0192768537, -0.0154655743, -0.0286976453, -0.0009932646, -0.0015529820, -0.0028974281, -0.0208927933, 0.0070878128, -0.0098818578, 0.0016830584, 0.0295797009, -0.0220774114, -0.0184229072, -0.0034853450, -0.0497426391, 0.0092027886, -0.0028666679, -0.0181300733, -0.0233458299, 0.0114793079, -0.0127774337, -0.0099084359, -0.0105035249, -0.0293888617, -0.0112023689, -0.0365910009, 0.0314760879, -0.0342099145, -0.0142232049, -0.0032755889, -0.0104572102, -0.0513946563, 0.0099125337, -0.0109150894, -0.0085413503, -0.0344069749, -0.0318470933, -0.0063425512, -0.0210120138, -0.0335613564, -0.0131317470, -0.0242371596, -0.0017077414, 0.0011183113, -0.0047517451, 0.0172994044, -0.0011976851, 0.0009711829, -0.0342418775, 0.0154883862, -0.0183995720, -0.0266614985, 0.0103098340, -0.0141476626, 0.0058904486, 0.0121227736, -0.0259920843, -0.0466851406, 0.0094524231, -0.0152566135, -0.0278075449, 0.0101876855, -0.0296787117, 0.0011088446, -0.0131570464, -0.0266618934, -0.0392592251, 0.0163537171, -0.0005262755, 0.0121978298, -0.0191031042, 0.0109377624, -0.0093697887, 0.0033367644, 0.0037077446, 0.0435471497, -0.0033127004, 0.0144283390, 0.0208494682, -0.0045667179, 0.0035763970, -0.0091452617, -0.0397823900, 0.0320125073, -0.0098225493, 0.0208866671, 0.0216925610, 0.0413520373, -0.0236295890, -0.0244943891, 0.0351642072, -0.0538820140, 0.0194548350, 0.0280946363, 0.0050116861, -0.0476027951, 0.0209847912, -0.0007384075, -0.0023337496, 0.0477694944, -0.0558477603, -0.0309455488, 0.0252054054, -0.0393200628, -0.0017520281, 0.0000306079, 0.0212487653, -0.0246729869, -0.0004231674, 0.0182785168, 0.0202640630, -0.0058521768, 0.0290640518, 0.0039198729, -0.0399686806, -0.0156707577, -0.0035319529, 0.0325874500, 0.0442614518, 0.0418676846, -0.0221624356, 0.0272909310, 0.0254819412, 0.0488342270, 0.0265108012, 0.0356980637, -0.0825248584, 0.0329974703, -0.0362629294, 0.0240094047, 0.0019084592, -0.0023685067, -0.0281545930, 0.0070958263, -0.0032146014, 0.0144201489, -0.0058671786, -0.0107591683, -0.0154594984, -0.0053216461, -0.0020283642, -0.0150766699, -0.0199383777, -0.0239756033, -0.0365979709, -0.0022950852, 0.0035787402, 0.0080754021, 0.0233299173, -0.0537434407, -0.0314776562, 0.0356456041, 0.0104590524, 0.0061360300, -0.0409222469, -0.0174332857, 0.0075318497, -0.0080841156, 0.0072009251, -0.0452316478, 0.0207402129, -0.0007624361, -0.0049988437, -0.0368337780, -0.0047675110, -0.0006336709, -0.0174750388, -0.0005254585, 0.0485777333, 0.0086192833, -0.0265415460, -0.0486624539, -0.0223961975, -0.0096002240, -0.0168075003, -0.0635647178, 0.0068346187, 0.0008394963, -0.0260881484, -0.0839793608, -0.0446502864, -0.0257774182, -0.0071568619, -0.0318462923, 0.0082069952, -0.0360091850, -0.0432536379, 0.0291671641, -0.0050501726, -0.0013511522, -0.0326791033, -0.0768810362, -0.0577111021, 0.0111650890, -0.0130259665, -0.0255605187, -0.0172732826, -0.0639772713, 0.0170819275, -0.0329334773, -0.0354138352, -0.0398703702, -0.0075405771, 0.0163560510, -0.0300002210, -0.0477566607, 0.0491772033, 0.0150747970, -0.0396473594, -0.0213036556, -0.0215946715, -0.0179924052, 0.0199631900, 0.0163405053, -0.0413303263, -0.0257500317, 0.0256307945, -0.0178190526, -0.0337423719, 0.0518899709, 0.0140287597, -0.0187121294, -0.0103048524, -0.0264528114, -0.0210255608, -0.0591075271, 0.0052913320, 0.0246723127, 0.0126923183, -0.0218549632, -0.0398714431, -0.0107753854, 0.0006288926, 0.0260880291, -0.0138332797, 0.0148944929, -0.0167233087, -0.0382721834, -0.0165557675, -0.0141873499, -0.0454902686, 0.0117735127, -0.0071363789, 0.0159186870, -0.0506922416, -0.0296287965, -0.0222292598, -0.0281961579, -0.0007325063, -0.0677691624, -0.0285336822, -0.0015339894, -0.0551027097, -0.0018067604, -0.0059385695, -0.0608807914, -0.0215264391, -0.0067940308, 0.0154269012, -0.0281867348, 0.0009377431, -0.0201266538, -0.0172939189, -0.0399363935, -0.0214206744, -0.0235953778, -0.0343363024, 0.0388190635, -0.0047824797, -0.0703584924, -0.0174633488, -0.0189992748, -0.0145434150, -0.0013665062, 0.0214159451, -0.0204296373, 0.0106221493, -0.0376215205, -0.0024599419, 0.0336403884, -0.0082673263, -0.0224615652, -0.0054954942, -0.0061109657, 0.0534928814, 0.0083446596, 0.0048000347, 0.0028828820, 0.0660238042, -0.0183314234, -0.0074407519, -0.0098230354, 0.0372562185, -0.0225615911, -0.0062627825, -0.0161244664, -0.0109917754, 0.0208967887, -0.0263099801, 0.0294524841, -0.0159724187, 0.0181434322, -0.0132957138, 0.0178594310, -0.0113744177, -0.0158123989, 0.0071893646, -0.0311048087, -0.0152250491, -0.0171496961, 0.0183802675, 0.0106630642, 0.0130909877, -0.0280207191, -0.0300632548, -0.0466190502, 0.0144514004, 0.0133543750, -0.0010184533, 0.0106840460, -0.0255992915, 0.0081953108, -0.0070486395, -0.0752988979, 0.0063170674, -0.0024469376, -0.0093982881, -0.0325825140, -0.0221941359, -0.0266047698, -0.0161096845, -0.0271848198, -0.0244030245, -0.0403722972, -0.0043483810, -0.0338971540, -0.0214724299, -0.0078776404, -0.0134033905, 0.0251944084, 0.0192948338, 0.0050619938, 0.0119525176, 0.0334317312, -0.0056434129, -0.0159928072, -0.0386128277, -0.0731811747, 0.0101947021, 0.0142493993, -0.0124416901, -0.0148908161, -0.0025249075, -0.0075010057, 0.0154220499, -0.0030696818, -0.0465584323, -0.0088104410, -0.0189782064, -0.0055524656, -0.0047194115, 0.0009013854, 0.0282849465, 0.0170634650, -0.0069443882, -0.0020220783, -0.0138411568, -0.0066781719, -0.0026669437, 0.0094789052, -0.0520864762, -0.0055959369, 0.0427766703, -0.0269568246, 0.0039029503, 0.0052026366, -0.0008034907, 0.0039121038, -0.0491594002, 0.0195237398, -0.0124560893, 0.0065950630, -0.0067600938, 0.0223964900, -0.0478153750, -0.0362946652, -0.0056122616, -0.0183310490, 0.0258032084, -0.0478648581, -0.0105677154, -0.0157168340, -0.0190173928, -0.0685543641, 0.0000715373, 0.0322443098, -0.0351091437, 0.0052335570, 0.0142779071, 0.0570326746, -0.0222971998, 0.0226557013, 0.0207330305, -0.0223827735, 0.0040485752, 0.0318857841, -0.0149000855, -0.0153766777, -0.0114155123, -0.0159148872, 0.0009676935, 0.0132674500, 0.0034327870, -0.0003473815, -0.0289388318, 0.0308149550, -0.0008053787, -0.0181823634, -0.0098472927, -0.0089045186, -0.0094635049, -0.0046790619, 0.0048446134, 0.0014005443, -0.0095161423, -0.0350769460, -0.0353610329, -0.0166421868, -0.0121089555, -0.0242419783, -0.0180663764, 0.0002356526, -0.0111435764, -0.0158423968, 0.0209219959, 0.0466199964, -0.0070269839, 0.0013765026, 0.0029517484, -0.0377215892, 0.0139267724, -0.0161278900, -0.0107553070, -0.0019159751, -0.0200728215, 0.0044158273, -0.0497470647, -0.0285675861, 0.0162764397, 0.0045596408, -0.0169572383, -0.0036427928, -0.0065652644, 0.0378379971, 0.0237036571, 0.0067708013, -0.0196528453, -0.0194653552, -0.0170258544, -0.0346736722, -0.0637642369, -0.0148126595, -0.0088176047, 0.0060149869, 0.0287157893, 0.0217721872, 0.0366228819, -0.0073693562, 0.0378568172, -0.0003855828, -0.0125425318, -0.0047062575, -0.0062761675, 0.0089626526, -0.0328439511, 0.0001669080, 0.0182285160, -0.0099320104, -0.0053148558, -0.0080392277, -0.0140950251, -0.0046514184, 0.0217404943, -0.0173539724, 0.0150930686, -0.0292275939, -0.0075884429, 0.0319138467, 0.0196986292, -0.0281082690, 0.0016154581, -0.0189867262, -0.0218545906, 0.0060673496, 0.0223581549, 0.0101038115, -0.0056694322, -0.0412638746, -0.0368374847, -0.0297940448, 0.0361576341, -0.0755631998, 0.0250017550, -0.0311350878, 0.0038322927, -0.0224054977, -0.0176501814, 0.0146591347, -0.0463479869, -0.0044672224, 0.0106471051, -0.0520783551, -0.0215508845, -0.0128291128, -0.0261721145, 0.0047621350, 0.0120876962, -0.0122742290, -0.0343505815, 0.0175560527, 0.0181802604, 0.0231803078, -0.0170257669, -0.0302036479, -0.0281356368, -0.0250238199, 0.0375174433, -0.0378110781, 0.0134835867, -0.0097483052, 0.0044064256, -0.0442138612, 0.0266501531, 0.0214467011, 0.0316517837, -0.0429083817, -0.0087093385, 0.0020374989, -0.0512830801, -0.0932213962, 0.0012751558, -0.0126870051, -0.0208810121, 0.0331435539, 0.0290741958, -0.0371639617, 0.0310173165, 0.0184569545, -0.0534578599, 0.0300805755, -0.0030185252, 0.0409892760, -0.0039380565, 0.0847156942, 0.0126084061, -0.0246048737, 0.0460594855, -0.0197832789, 0.0351391956, 0.0009391945, 0.0292140786, -0.0266622566, 0.0611170456, 0.0253538880, 0.0517174453, -0.0718667731, -0.0913468823, -0.0266544335, -0.0375640690, -0.0894369483, -0.0645086169, -0.0131650353, -0.0147877140, 0.0256881006, -0.0392995402, -0.0286511593, -0.0374169275, -0.0293730199, 0.0462726019, -0.0304318182, -0.0014498142, -0.0178051870, 0.0196162108, 0.0355935581, 0.0041699503, 0.0170910154, -0.0879664049, 0.0696057081, -0.0235649329, -0.0372112766, 0.0489282161, 0.0167155266, -0.0124833733, -0.0378294177, -0.0387212187, 0.0301824156, 0.0040614032, 0.0558381528, 0.0204316322, 0.0237393156, -0.0247347336, -0.0254216865, 0.0439038649, 0.0149944108, -0.0205338579, -0.0075733736, 0.0242371410, 0.0366184488, -0.0383783504, -0.0475533232, -0.0485699624, 0.0152291469, -0.0406262577, 0.0244218521, -0.0343712196, 0.0075399075, 0.0046680719, -0.0022329434, 0.0141113559, 0.0708763152, 0.0370692499, 0.0086123226, 0.0117506273, -0.0121364351, 0.0346966088, -0.0126063079, -0.0414799787, -0.0453641899, 0.0076144049, 0.0458643287, 0.0624862388, 0.0541137084, 0.0107563147, 0.0294253305, -0.0364117250, -0.0432348996, -0.0659434199, -0.0059771128, 0.0393841974, 0.0945225433, -0.0884262845, -0.0111827236, -0.0360729955, 0.0576007925, -0.0124621382, 0.0075462689, 0.0190520324, -0.0322410800, -0.0270628724, -0.0452685840, 0.0094674397, 0.0308639426, 0.0300577562, -0.0029025530, 0.0753584877, 0.0049161459, 0.0362721495, 0.0085798511, -0.0064634415, 0.0040265941, 0.0245143585, -0.0325791836, 0.0213332884, 0.0428266302, 0.0601699948, -0.0040485337, 0.0577031374, -0.0081659639, 0.0030153305, 0.0467848852, 0.0302632749, 0.0200660136, -0.0160147324, -0.0588157959, 0.0248263981, 0.0028160980, 0.0362922922, -0.0042298534, 0.0210506488, 0.0149342595, 0.0218290947, 0.0257952679, 0.0506185107, 0.0262225587, 0.0407877043, -0.0141274398, -0.0118359374, -0.0424384400, 0.0552090593, 0.0116537353, 0.0077647469, 0.0924386531, -0.0520370603, 0.0009163204, -0.0347102620, 0.0263748858, 0.0237458609, 0.0142828925, 0.0191040039, -0.0289624445, -0.0032889668, 0.0235993378, 0.0160390977, -0.0751090422, 0.0648180246, 0.0128484480, -0.0175001081, -0.0066066612, 0.0552651063, -0.0622579977, 0.0345213786, -0.0778184235, -0.0227865595, 0.0165760946, -0.0511567742, -0.0022293439, -0.0028243773, -0.0099676317, -0.0540143363, -0.0047134054, 0.1000173613, -0.1065824702, -0.0076402556, 0.0188406147, 0.0304989517, 0.0267189424, -0.0281865560, 0.0019196048, -0.0083754258, -0.0376118943, 0.0202493388, 0.0385970511, 0.0171648376, 0.0190054979, -0.1005225778, 0.0039595445, -0.0102133313, -0.0524303243, 0.1012263969, -0.0215051230, -0.0517383814, -0.0159130991, -0.0833665282, 0.0542026982, -0.0055541676, 0.0632297173, 0.0769340470, 0.0491357520, -0.0784538388, -0.0464038961, 0.0212228075, -0.0188983567, 0.0205813311, -0.0135051357, 0.1124042273, 0.0296192914, -0.0335695706, -0.0385304205, -0.1053715125, 0.0113094496, -0.0058482834, -0.0592745729, 0.0293968506, -0.1660462618, 0.0090629831, 0.0563888662, 0.0205547381, -0.0303721614, 0.0175803807, -0.0282815602, 0.0262216870, 0.0144546349, -0.0432604067, 0.0189637300, -0.0545694567, 0.0103921611, 0.0205557495, 0.0090945000, -0.0923898891, 0.0519631691, -0.0570693091, -0.0507622175, -0.0419967286, -0.0343075097, -0.0136089297, -0.0794838741, -0.0169560313, -0.0380559154, 0.0172954239, -0.0270673521, -0.1112351492, 0.0235453732, -0.0685396865, -0.0631227568, -0.0517276302, 0.0058821570, -0.0484993532, 0.0020637582, -0.0324400552, -0.0214001890, -0.0258922558, 0.0029196870, -0.0613905080, 0.0254405495, 0.0420765355, -0.0531327575, -0.0067830202, -0.0192429330, -0.0411432683, -0.0740701109, -0.0325490236, -0.0002431113, -0.0944551900, -0.0181747153, -0.0487344936, -0.0170433372, -0.0085240183, 0.0564286597, 0.0250259060, -0.0755506232, -0.0107322019, -0.0174522921, -0.0180957057, -0.0395390727, -0.0266015437, -0.0247100834, -0.0248792432, -0.1226249114, -0.0537731424, -0.0106506422, -0.0383933112, -0.0097665591, -0.0333400145, -0.0154687269, -0.0291789733, -0.0153939957, -0.0470537581, 0.0080616781, -0.0780215859, -0.0542537794, 0.0010388287, -0.0371912979, -0.0276945028, -0.1158623397, 0.0361904502, -0.0521411821, 0.0312376283, -0.0099342437, -0.0614381842, -0.0200159866, 0.0248922501, -0.0271951407, 0.0395469740, -0.0053713056, 0.0183888357, -0.0098920567, -0.0169344451, -0.0473415628, -0.0222831778, -0.0088487612, -0.0697409511, -0.0677690580, 0.0417972244, -0.0102750678, -0.0018723683, 0.0368236788, -0.0357259847, 0.0018614109, 0.0265457015, -0.0078401435, -0.0641014129, -0.0314519890, -0.0127819050, -0.0311399866, -0.0225051381, -0.0197311956, -0.0494437106, -0.0315164924, 0.0544136539, -0.0055776201, -0.0360807888, -0.0094027417, -0.1144941747, -0.1008606702, 0.0070509743, 0.0208788253, -0.0327527337, 0.0164040532, -0.0671032816, -0.0229826234, -0.0020893824, -0.0532690324, 0.0224958286, -0.0927053392, -0.0836490095, -0.0971715301, 0.0392357260, -0.0215283372, -0.0047965664, 0.0259175543, -0.0712574422, -0.0733307078, -0.0761027634, -0.0335469507, 0.0232523791, 0.0236691367, -0.0166293718, -0.1130693331, -0.0124885850, -0.0548835211, 0.0078089950, 0.0278239772, 0.0108904568, -0.0343141966, 0.0046113776, -0.0349602289, -0.0028818659, 0.0118268300, 0.0434572995, -0.0260246173, -0.0607767589, -0.0624047220, -0.0336370543, -0.0553148426, 0.0818788633, -0.0263264310, -0.0985337719, -0.0100444211, 0.0275368765, -0.0823548064, 0.0556442328, -0.0099767307, -0.0868446305, -0.0585768074, -0.0737501308, -0.0710347220, -0.0251893383, 0.0092266481, -0.0298572369, 0.0545561127, 0.0562629774, -0.0472948141, -0.0104124602, -0.0035685881, 0.0664588436, 0.0018890925, 0.0848446190, 0.0175004620, 0.0742872134, -0.0542959347, -0.0972012654, -0.0570485219, 0.0191162340, -0.0374871604, 0.0844085887, -0.0742366388, -0.0046704146, 0.0771320164, -0.0282925442, 0.0242155716, 0.0015486225, 0.0128145423, -0.0391478799, 0.0212171879, 0.0014925351, 0.0435089990, -0.0409818217, -0.0022799147, 0.0586559437, -0.0119734677, -0.0227876846, -0.0408935845, -0.0665436983, -0.0320501849, -0.0029869515, -0.0265299417, 0.0208764262, 0.0439565964, -0.0469098352, -0.0774254128, 0.0146171181, -0.0466097593, -0.0489515699, -0.0946418718, 0.0241583697, -0.0166298281, -0.0035587703, -0.0590758957, 0.0431200415, -0.0717753619, -0.0053823125, -0.0160720795, -0.0603517182, -0.0096699912, -0.0200523809, 0.0150391711, -0.0106487209, -0.0387451462, -0.0115309758, -0.0521356240, -0.0161269978, -0.0712349638, -0.0303071886, 0.0111604538, 0.0212362874, -0.0218292512, -0.0860964358, -0.0548666269, -0.0600556172, -0.0002698775, 0.0100881392, 0.0330030657, -0.0746482089, -0.0376852974, -0.0632352456, 0.0177902412, -0.0727881864, -0.0186935645, 0.0425948836, -0.0313195772, -0.0583304837, -0.0699814484, -0.0084986454, 0.0105130812, 0.0200370681, 0.0494433269, -0.0897645876, -0.0752380639, -0.0163801238, 0.0387080312, -0.0066858474, -0.0604730099, 0.0277548023, -0.0102972444, 0.0008112288, -0.1265903562, 0.0500183962, -0.0264451597, 0.0054651950, 0.0060251453, -0.0607944392, 0.0235300809, -0.0198018532, -0.0139140282, 0.0450048484, 0.0312828682, -0.0230892170, 0.0094235009, -0.0776273161, -0.0464542359, 0.0285903532, 0.0627961829, 0.0562013388, -0.0188159142, -0.0072815688, -0.0349949189, 0.0277149696, 0.0171817895, -0.0433934256, 0.0427338332, 0.0276775956, -0.0166438837, 0.0142676206, -0.0074384445, 0.0035313724, -0.0609695427, -0.0501514189, -0.0484448522, 0.0573857091, -0.0624234676, -0.0050241505, -0.0507883504, -0.0296257399, -0.0088539543, -0.0646793619, 0.0171818305, 0.0089804782, 0.0036082179, -0.0492479242, 0.0279237721, -0.0121669890, 0.0292726979, -0.0682863668, 0.0497924648, -0.0115403226, -0.0281461775, -0.0581935011, 0.0190148670, -0.0029015639, 0.0238408372, -0.0281557683, -0.0723089278, -0.0209743902, -0.0548772179, -0.0027227395, -0.0541216135, -0.0103604961, 0.0529282279, 0.0202415567, -0.0319862142, 0.0449622162, -0.0327117965, 0.0277481936, -0.0289455317, 0.0073514031, -0.0070549017, 0.0196747910, -0.0121635385, -0.0166533981, 0.0050980910, -0.0380284786, 0.0004403909, 0.0382774174, 0.0194532406, -0.0109801991, -0.0158279389, 0.0234634764, 0.0365040004, -0.0008614083, -0.0248738024, -0.0375453234, -0.0324015394, -0.0837877542, -0.0508184768, -0.0247314293, 0.0325449556, 0.0172944423, 0.0060186847, -0.0088059623, -0.0200117193, -0.0100855362, 0.0174895097, 0.0006699333, -0.0222824086, -0.0000162099, -0.0070785005, -0.0087545672, -0.0407397263, -0.0248916838, -0.0008949699, -0.0068615801, 0.0026380618, 0.0211463906, -0.0188387483, -0.0002227387, -0.0275951549, -0.0229015630, 0.0408574007, -0.0003011117, -0.0100731840, 0.0187237039, -0.0299156178, -0.0383928157, 0.0064000003, -0.0652691349, 0.0202086177, 0.0320829861, -0.0031756500, 0.0119187655, -0.0060711927, 0.0296941921, -0.0489246659, 0.0274302140, 0.0085055204, -0.0094375378, -0.0430958383, 0.0280075315, 0.0227808580, -0.0044343132, 0.0394233875, 0.0157105923, -0.0434545651, 0.0252852254, 0.0029851203, -0.0082962979, -0.0168554038, 0.0477516018, -0.0052913371, 0.0039522154, 0.0001961005, 0.0153800678, -0.0535603203, -0.0535611510, -0.0066722110, -0.0683256686, -0.0157519244, -0.0837179050, -0.0415781699, 0.0134264715, 0.0068761180, -0.0127138263, 0.0262509938, -0.0315294601, -0.0521052480, 0.0284604616, 0.0123756602, 0.0270594135, 0.0185397323, -0.0118020596, -0.0165152550, -0.0225254782, 0.0081048915, 0.0118299043, 0.0021764853, 0.0127079934, 0.0371941179, -0.0243961085, -0.0276736692, 0.0098541882, -0.0550271533, 0.0382753611, 0.0131423986, 0.0027032779, 0.0142313493, 0.0030392299, -0.0489078015, -0.0123699391, 0.0171989743, -0.0311977006, 0.0162764899, 0.0081393216, 0.0276999492, 0.0305800140, -0.0140632801, 0.0180397350, 0.0179467835, -0.0258208402, 0.0074188709, -0.0307552908, -0.0218817536, -0.0166594535, 0.0173767209, -0.0249250848, 0.0401700549, 0.0075183325, -0.0331126638, -0.0185807571, -0.0151755018, 0.0230820440, -0.0663185716, 0.0287606623, 0.0189448521, -0.0110106887, -0.0023054599, -0.0278975517, 0.0167351719, -0.0092059206, -0.0204573087, -0.0718858615, -0.0258289743, -0.0559187718, -0.0551055893, -0.0213354602, 0.0018109664, -0.0252435394, 0.0229961649, -0.0068220492, 0.0440342538, 0.0276514124, 0.0258308407, 0.0010748160, 0.0036017115, 0.0318243615, 0.0147779770, 0.0130404150, 0.0152005637, -0.0375413783, 0.0123887332, 0.0423110127, 0.0285076015, -0.0203437712, -0.0189495645, 0.0374626853, 0.0260951165, 0.0415817127, 0.0115332585, -0.0021550818, -0.0129168155, 0.0142965149, -0.0151970722, 0.0018465834, 0.0017723920, -0.0561275668, -0.0038509320, 0.0203199070, 0.0143678822, 0.0132902637, 0.0455225073, 0.0190554857, -0.0010846053, -0.0103084333, -0.0012375949, -0.0370893516, 0.0012775054, -0.0190607812, 0.0096402643, -0.0110779759, -0.0158433113, -0.0366017558, -0.0338704996, 0.0112546282, -0.0104632089, 0.0149566252, 0.0056958827, -0.0166552700, -0.0406456962, 0.0054390882, -0.0501674823, -0.0445728675, -0.0527700223, 0.0136862909, -0.0123999584, -0.0213446282, 0.0043740622, 0.0237066112, -0.0221183877, -0.0299761984, -0.0293901283, -0.0155479079, -0.0170678776, -0.0070640286, -0.0023300475, 0.0520002954, 0.0435787775, 0.0089523774, -0.0137799578, 0.0030693701, -0.0143237850, 0.0303288698, -0.0010041940, -0.0458618440, 0.0508177541, -0.0059950342, -0.0110157039, -0.0014453880, 0.0065544862, -0.0587493777, -0.0037866104, -0.0293480493, 0.0078341151, 0.0130095892, 0.0364303552, -0.0466495641, 0.0465218984, -0.0101571847, -0.0272725616, -0.0006398341, 0.0246576779, -0.0116077065, -0.0481549576, -0.0327278711, -0.0068224510, -0.0057783234, -0.0729241446, 0.0092714150, -0.0049096448, -0.0170477871, -0.0119646797, 0.1045483425, 0.0699549988, -0.0161588155, -0.0041981675, -0.0086943582, -0.0352890231, -0.0305531826, 0.0088015636, 0.0713947266, 0.0101531101, -0.0230928976, -0.0312994607, -0.0032348123, 0.0455553904, 0.0007422123, -0.0319497436, -0.0169132799, 0.0514905229, -0.0135824420, -0.0095340544, -0.0252787415, 0.0127889495, 0.0388215743, 0.0106289731, -0.0369538702, -0.0034494561, -0.0345878415, -0.0119031295, -0.0422102921, 0.0065609314, 0.0255909972, -0.0073692240, -0.0371646769, -0.0418206081, -0.0360337980, 0.0077854963, 0.0156608783, 0.0438050590, -0.0322955549, 0.0278436020, 0.0110977897, -0.0435015261, -0.0037463163, -0.0480121262, 0.0457855016, -0.0026313630, 0.0206265934, 0.0241975691, -0.0285632852, -0.0036928763, 0.0110260015, 0.0314399563, -0.0114930170, 0.0019104365, -0.0362838022, 0.0011717848, 0.0059078485, 0.0050761183, 0.0263687856, -0.0286178272, -0.0301570315, -0.0280580688, 0.0038913959, 0.0134436991, 0.0271932166, 0.0436020084, -0.0376811251, 0.0087654861, 0.0017110304, -0.0042434507, -0.0001357598, -0.0012966932, 0.0659831166, -0.0147213954, 0.0277471691, -0.0113798510, 0.0084209871, -0.0649663657, -0.0133172674, 0.0202812478, -0.0069417455, 0.0328533128, -0.0626674592, 0.0074561001, -0.0026315572, 0.0343070105, -0.0039000215, 0.0113535775, 0.0542997867, 0.0143941389, -0.0419624075, -0.0193795264, -0.0314572975, -0.0183116589, 0.0381395370, -0.0090137320, -0.0382038467, -0.0221376233, 0.0006576884, 0.0081774713, -0.0352141261, 0.0215619579, -0.0187339392, -0.0002293051, 0.0313763544, 0.0160138756, 0.0064907223, -0.0149309132, 0.0318378955, 0.0161372479, 0.0657643378, -0.0409460887, -0.0250933208, -0.0259935111, 0.0354540646, 0.0180648100, -0.0418573134, 0.0015928168, 0.0239407513, 0.0208026823, -0.0045739678, -0.0110572148, -0.0048282766, 0.0291572437, -0.0331540592, 0.0035289866, -0.0232625119, 0.0291615259, 0.0336481258, -0.0286502857, -0.0240895972, -0.0188669544, -0.0091115190, -0.0216332879, 0.0149539467, -0.0304211956, -0.0218235794, 0.0039409585, 0.0025733518, 0.0114866719, -0.0153405927, 0.0082894405, 0.0597802959, -0.0358237512, -0.0287665762, 0.0081918491, 0.0351239145, 0.0317135900, -0.0122784562, -0.0096376948, -0.0106669944, -0.0250831693, -0.0178007483, -0.0439817123, -0.0470594913, 0.0327320956, -0.0184504911, -0.0020325468, -0.0020014781, -0.0229913071, 0.0131978346, -0.0227856096, 0.0161907766, -0.0029757835, -0.0072349058, -0.0061695031, 0.0095887259, 0.0085731642, -0.0227529854, 0.0295225680, -0.0255406033, 0.0016588104, 0.0125087276, 0.0195120145, -0.0055360543, 0.0183919072, 0.0029217210, 0.0532270037, 0.0560453609, -0.0031105790, 0.0305178445, 0.0401689447, 0.0127442004, 0.0126189627, -0.0221327450, -0.0210550670, -0.0073637324, -0.0075116106, -0.0285235103, 0.0148675209, 0.0199758280, -0.0019681125, 0.0632673055, 0.0181019045, -0.0266613681, 0.0261884611, -0.0102956370, 0.0060708942, 0.0351554975, -0.0483230278, 0.0561151579, -0.0127910897, 0.0190869737, 0.0129769072, -0.0158533379, -0.0134641444, 0.0211419445, -0.0103802253, 0.0206521824, 0.0071413070, -0.0061242003, 0.0334020779, -0.0255768076, -0.0067623993, 0.0170946997, 0.0399556197, 0.0066556539, -0.0167504381, -0.0219921228, -0.0279169530, -0.0252060033, 0.0025305613, 0.0371603668, -0.0195932034, -0.0380183421, 0.0100926310, 0.0140516208, -0.0200110842, -0.0051823105, -0.0403225198, -0.0312782116, 0.0628339648, 0.0429252125, 0.0025507894, 0.0318585560, 0.0117890872, 0.0188712478, 0.0232910421, 0.0569107980, -0.0155807547, -0.0486033224, 0.0026562824, -0.0185874291, 0.0368341506, -0.0225781221, 0.0557888746, -0.0026205101, -0.0215407405, 0.0505500399, 0.0018971004, -0.0014172972, -0.0117392559, -0.0376632214, -0.0559227765, 0.0623963401, -0.0411977507, 0.0529865734, 0.0142800799, 0.0258576851, -0.0009885001, 0.0062248041, 0.0165906958, 0.0043871310, -0.0228282772, 0.0582707599, -0.0281707812, 0.0363801643, 0.0049435091, -0.0045753955, 0.0238149259, -0.0254491232, -0.0082298601, -0.0058028633, -0.0317702740, -0.0285730287, 0.0568312854, 0.0016262227, 0.0279701557, 0.0599681512, 0.0210866202, 0.0330458656, -0.0044733225, -0.0135875931, -0.0196339916, -0.0481798612, -0.0077390396, 0.0478583165, 0.0194762852, 0.0274331793, -0.0057450724, 0.0070808507, 0.0021481544, -0.0006153459, -0.0204634648, -0.0349628590, 0.0349366888, 0.0285072438, -0.0371018238, 0.0264308006, -0.0010529064, -0.0074984632, 0.0623357520, 0.0071590692, 0.0279249735, 0.0123818414, -0.0175327305, 0.0320876241, 0.0021113253, -0.0063785459, 0.0272452105, 0.0297690574, 0.0077095707, 0.0189604498, 0.0072472482, -0.0178058054, -0.0225661993, -0.0116273658, 0.0010455892, 0.0067258836, -0.0022046885, -0.0549455732, 0.0249162503, 0.0167386271, 0.0041258563, -0.0219996292, -0.0645004287, -0.0213365629, 0.0099142296, -0.0066604791, -0.0649612173, 0.0038041035, -0.0277317204, 0.0720766410, 0.0246434417, -0.0434766896, -0.0405665152, -0.0658563524, 0.0348127261, -0.1336687654, 0.0164740551, -0.0279864911, -0.0068535232, 0.0336009003, 0.0143367033, 0.0010867389, 0.0187473129, -0.0326462947, -0.0460382737, 0.0091861160, 0.0756819397, -0.0069385003, 0.0792613551, -0.0177762825, -0.0155932726, -0.0714422166, -0.0199862421, 0.0107578449, 0.0026072017, -0.0143098030, -0.0033900456, -0.0254972987, -0.0023749713, 0.0243731551, 0.0030544293, 0.0427703187, 0.0192844886, -0.0127410321, -0.0020255288, -0.0087571209, 0.0342293978, -0.0298769958, 0.0111580035, -0.0087753600, 0.0394789390, 0.0631124601, 0.0405158922, -0.0258809812, 0.0515087321, -0.0011558129, -0.0526577160, 0.0457428172, 0.0466829836, -0.0130602857, 0.0125145866, -0.0090955803, 0.0370688699, 0.0317936763, 0.0439597405, 0.0227470659, -0.0449218191, 0.0191666801, -0.0001920366, -0.0091655906, -0.0823447332, -0.0034926897, 0.0309770647, 0.0503935218, 0.0264773611, -0.0376375504, -0.0247985777, 0.0033020023, 0.0803648382, -0.0742767379, -0.0256851073, 0.0068957009, 0.0005902931, -0.0035498054, 0.0118441330, 0.0478040390, -0.0541982278, -0.0172947031, 0.0191820040, 0.0590175875, 0.0479781106, 0.0427731872, 0.0073971823, 0.0417047814, 0.0482817143, -0.0409476906, 0.0094065769, -0.0116329137, -0.0498994887, -0.0066765188, -0.0165545810, 0.0283088274, 0.0550766438, 0.0238963403, 0.0311338529, 0.0607553087, -0.0265271477, -0.0091418549, 0.0276959818, 0.0088600041, 0.0189985298, 0.0034251167, 0.0165934544, 0.0038389743, -0.0090743797, 0.0496589057, 0.0428124145, 0.0057870517, 0.0438287407, 0.0031941324, -0.0160913840, 0.0367062613, 0.0324827619, -0.0243722945, 0.0273471773, -0.0119594848, 0.0167452544, 0.0349028669, 0.0231855977, 0.0339215100, -0.0095096780, 0.0363132209, 0.0123773059, 0.0044227107, 0.0201067608, 0.0023088790, 0.0215215087, 0.0583648868, 0.0476602539, 0.0217317641, -0.0290768836, 0.0179693215, 0.0040317830, -0.0252919719, 0.0067087058, 0.0222249143, 0.0764890239, 0.0476916544, -0.0345088989, 0.0227474403, -0.0065850574, -0.0142244417, 0.0113552017, -0.0243707150, -0.0226947423, -0.0049905856, 0.0540525690, 0.0483937487, 0.0840642229, 0.0318831168, 0.0221809093, 0.0102728019, -0.0566405505, -0.0415749773, -0.0467703007, 0.0495012254, 0.0053985128, 0.0048553720, 0.0313087329, 0.0954908729, -0.0299304053, -0.0284583308, 0.0162144620, -0.0346025527, -0.0233480576, 0.0378795117, 0.0001055165, -0.0171468407, -0.0354159661, 0.0330051742, 0.0429034717, 0.0217135958, 0.0230341125, -0.0037253250, 0.0142756924, 0.0347840711, -0.0231692027, -0.0050765811, 0.0342392996, 0.0979413465, 0.0101847127, -0.0699786395, -0.0355597027, -0.0001062156, 0.0441370979, -0.0403068885, 0.0346337520, 0.0443531983, 0.0223230906, -0.0071222181, 0.0637942851, -0.0011974791, 0.0411077328, -0.0533532016, -0.0039628535, -0.0366862826, 0.0742866397, -0.0142980739, -0.0024213167, -0.0015062178, 0.0214102753, -0.0634237975, 0.0518979393, 0.0041465377, -0.0249318443, 0.0052079284, -0.0025116806, -0.0161755886, -0.0634915903, -0.0130786942, 0.0513609424, 0.0252525453, 0.0186637528, 0.0034718821, -0.0370572880, -0.0015584775, 0.0303212982, -0.0000913911, 0.0162088331, 0.0017989316, -0.0321768634, -0.0057181632, 0.0399337597, 0.0398816131, -0.0041374816, -0.0599589981, 0.0240025055, -0.0274877585, -0.0312871002, -0.0164683741, 0.0099556586, 0.0661490783, -0.0382153131, 0.0391493328, 0.0282156952, -0.0118260514, 0.0160449240, -0.0511002131, -0.0069457679, 0.0437772200, 0.0119381389, -0.0167271979, -0.0289637744, 0.0596418642, 0.0265705697, -0.0069722226, 0.0608696863, 0.0195588842, -0.0681791604, -0.0085958038, -0.0216970462, 0.0604984760, 0.0622826852, 0.0287321154, 0.0371839628, 0.0122589618, 0.0072800308, 0.0190565605, 0.0387890339, 0.0701544136, 0.0181198251, -0.0331112184, -0.0031572881, -0.0039912811, 0.0718650445, 0.0370160379, 0.0294134896, 0.0196225047, 0.0297969431, 0.0048547979, -0.0254627187, -0.0142055908, 0.0288636796, 0.0363646559, -0.0080801062, 0.0039869505, 0.0164644253, 0.0149268033, 0.0072885030, 0.0194002781, 0.0664087459, 0.0368588977, 0.0138926059, 0.0432902463, -0.0036862062, -0.0056473198, 0.0283581261, -0.0188418385, -0.0058829291, -0.0321393944, -0.0268737357, 0.0062688952, 0.0324402228, 0.0330076329, -0.0051827892, 0.0586145036, 0.0326549113, 0.0083381543, 0.0264739059, 0.0084781870, -0.0111766038, -0.0119699882, 0.0502077788, -0.0189415254, -0.0029414326, -0.0115248049, 0.0184249282, 0.0054024952, 0.0680578947, 0.0331037901, 0.0174382664, -0.0021443288, 0.0314399004, -0.0380368307, 0.0285409559, 0.0346218795, 0.1037987173, 0.0159940552, 0.0447112918, 0.0676610917, -0.0550391003, 0.0183441322, 0.0353121646, 0.0265426692, 0.0517164133, -0.0695956275, 0.0164927635, 0.1361813247, 0.0020650974, 0.0492460951, 0.0482063740, 0.0804677010, -0.0298221186, 0.0090373131, 0.0232076421, 0.0037417749, 0.0250971373, -0.0072948402, 0.0404658206, 0.0536622517, 0.0593315251, 0.0008304987, 0.0541490912, -0.0518555492, -0.0132164322, 0.1158630624, -0.0217826702, -0.0041469801, 0.0202719923, 0.0259381644, 0.0711087286, 0.0204589870, -0.0104902033, 0.0466788299, 0.0633566901, 0.0225968063, 0.0510093644, 0.0252221785, -0.0320503078, 0.0014179818, 0.0817445517, -0.0132183107, 0.0620491765, 0.0494970270, 0.1177168563, 0.0266267024, -0.0016514339, 0.0560934059, 0.0333684981, 0.0611039177, 0.0423053466, 0.0371212736, 0.0174282286, 0.0044647120, 0.0242295954, -0.0182554740, 0.0145043563, 0.0260873921, 0.0228787307, 0.0181251895, 0.0617810301, -0.0169310793, -0.0083339009, -0.0202941671, 0.0179636199, -0.0051619448, 0.0179999787, 0.0105876680, 0.0025466057, 0.0478718840, -0.0089545893, 0.0336632915, 0.0071899625, -0.0419713743, 0.0372167863, 0.0306540038, -0.0452114008, -0.0205073692, 0.0814896449, -0.0045646955, -0.0263028499, -0.0085928896, -0.0289882161, 0.0321085528, 0.0446820557, 0.0300637949, 0.0097551765, 0.0105458945, 0.0630268231, -0.0355035327, 0.0437088683, 0.0267138407, 0.0062385574, 0.0040302263, 0.0097913006, -0.0050973524, -0.0153177101, 0.0280410293, 0.0613726340, 0.0204687808, 0.0246016514, 0.0428435914, -0.0039815833, 0.0399396680, 0.0704634041, -0.0158378761, 0.0136543494, -0.0337435007, 0.0103519522, -0.0221921690, -0.0046286136, -0.0025772888, -0.0651880726, 0.0839249194, -0.0313746408, 0.0458171107, 0.0042951102, -0.0136827342, -0.0008696342, -0.0214224830, 0.0181847010, 0.0141699715, 0.0621495657, -0.0061369319, 0.0026658059, 0.0581040941, 0.0317456238, 0.0426523089, -0.0259527955, 0.0128710195, -0.0699054971, 0.0651237369, 0.0774150565, 0.0112713408, 0.0252365824, -0.0161044691, 0.0266604777, 0.0474388227, 0.0314686298, 0.0397442356, 0.0129162120, -0.0047856858, -0.0277655758, -0.0059844004, -0.0084594227, -0.0064983885, 0.0197753310, -0.0052312734, 0.0667155981, 0.0171389878, 0.0031290916, 0.0507098213, 0.0295446720, 0.0502773561, 0.0706951618, 0.0326637030, 0.0781535357, 0.0376804471, 0.0384027734, -0.0828498229, 0.0035670695, 0.0960954204, 0.0229555834, 0.0335456543, 0.0800348893, -0.0273162667, 0.0026805254, 0.0157879423, -0.0447685532, 0.0185449012, 0.0406503715, -0.0036322395, 0.0247668866, 0.0121294931, -0.0294527523, 0.0989892185, -0.0611619763, 0.0800800696, 0.0897936746, -0.1112988219, 0.0072856378, -0.0192376189, -0.0557096303, -0.0563301258, 0.0598871149, -0.0245139878, 0.0369193703, -0.0471769646, -0.0496564098, -0.0230954848, 0.0303658936, 0.0213262439, 0.0052006068, 0.0182479247, -0.0164469667, 0.0114089856, -0.0090051750, 0.0006601992, 0.0918030888, 0.0403078310, 0.0483775772, 0.0342531763, -0.0232575275, -0.0106224176, -0.0022860039, 0.0143785886, 0.0271957424, 0.0412539653, 0.0368373320, -0.0056030340, 0.1223775968, 0.0177345648, 0.0712999180, -0.0205226410, 0.0647913665, 0.0289925057, 0.0412907191, 0.0730619580, 0.0731395185, -0.0239943527, 0.0523769669, -0.0127409259, 0.1090400815, -0.0459791198, 0.0189384278, 0.0377518572, 0.0801596940, 0.0250796713, 0.0433275029, -0.0767738745, 0.0018313059, 0.0366688259, 0.1207203344, 0.0295968484, 0.0147195077, -0.0122912209, 0.0230656154, 0.0372414440, -0.0062744324, 0.0543495230, 0.1020284742, -0.0194991156, 0.1228310615, 0.0153411645, -0.0105236927, 0.0030671125, 0.0224908590, -0.0066109034, -0.0261730365, 0.0029745745, 0.0081399856, -0.0039084377, -0.0023393198, -0.0059916638, -0.0015598274, 0.0306236204, 0.0018199593, -0.0102721034, -0.0147848995, -0.0009908238, 0.0043434100, 0.0065630032, -0.0013743580, -0.0060579847, 0.0075199176, -0.0285505075, -0.0331235789, 0.0381238908, -0.0276423767, -0.0136815850, 0.0051737805, -0.0139596658, -0.0148996543, -0.0014089850, 0.0053093857, 0.0032500001, 0.0065528727, -0.0125515070, 0.0193404853, 0.0244067963, 0.0199060459, 0.0192683749, 0.0123307230, 0.0294240844, -0.0033146921, -0.0217396393, 0.0045756754, 0.0038938201, 0.0005162778, -0.0282306764, 0.0187757798, -0.0019640094, 0.0161480084, 0.0237348583, -0.0120104356, 0.0470285267, 0.0088109504, -0.0073159444, 0.0110722017, -0.0047678659, 0.0196605325, 0.0080932882, -0.0058858390, 0.0020169909, -0.0022226658, -0.0180804860, 0.0156649165, -0.0018012950, 0.0013592192, 0.0350539871, 0.0091096284, -0.0145898964, 0.0093355114, -0.0071463161, -0.0141504072, -0.0100435698, 0.0242547486, -0.0291102119, -0.0012110920, 0.0278508645, 0.0299072769, -0.0125473868, -0.0233181193, 0.0023858668, 0.0031663994, 0.0261531882, -0.0160068106, 0.0197794586, -0.0011265366, -0.0384625793, 0.0056489804, -0.0102554271, -0.0008259743, -0.0096413586, 0.0178723969, -0.0088165980, 0.0156025914, -0.0168628786, 0.0047221403, 0.0203831699, -0.0092547024, 0.0039848369, 0.0036207908, -0.0244214535, 0.0197893772, 0.0057550161, 0.0035133089, -0.0131536368, -0.0126841497, -0.0326349884, 0.0105514247, 0.0091461763, -0.0188843682, -0.0136883790, -0.0092533836, 0.0137608312, 0.0162040405, -0.0160287507, -0.0272727925, 0.0073365988, 0.0161484312, 0.0039866581, -0.0110994978, -0.0109736016, -0.0061955196, 0.0115350448, 0.0086228345, -0.0130912932, -0.0046794550, -0.0145710967, -0.0072318241, -0.0074793850, 0.0057468694, 0.0124587473, -0.0130686052, -0.0110083297, -0.0028997813, -0.0287860017, 0.0056113293, -0.0096348217, -0.0118739028, -0.0126834251, 0.0031057724, -0.0095098875, 0.0169342738, -0.0206572674, 0.0013239491, 0.0034888817, 0.0001182363, 0.0062819407, 0.0027458924, -0.0038470039, 0.0046686907, -0.0173142832, 0.0000896247, -0.0078933034, -0.0154422084, -0.0071270396, 0.0151480641, 0.0304126777, 0.0180921927, -0.0183175877, -0.0002508927, 0.0320098400, -0.0103665488, 0.0034669961, 0.0214752536, 0.0023933072, -0.0088447500, 0.0067737685, 0.0008413761, -0.0230504051, 0.0081297392, -0.0065157642, -0.0044696745, 0.0031018613, 0.0044388692, 0.0110911056, 0.0110855792, 0.0057363627, 0.0005586899, 0.0131941428, -0.0344376303, 0.0109598273, -0.0034121061, 0.0143086314, -0.0094055571, 0.0034026143, -0.0026994729, 0.0003337972, 0.0191116426, -0.0077995225, 0.0017691130, -0.0151494052, -0.0203330219, -0.0123673202, 0.0037340398, -0.0301874802, -0.0195792355, -0.0062334165, 0.0081625469, -0.0055252677, -0.0171125978, -0.0013135714, 0.0080330726, -0.0027208431, -0.0134529648, -0.0166207142, 0.0018718530, -0.0089921486, -0.0059277839, 0.0097372932, 0.0056675961, 0.0257375687, -0.0121685332, -0.0132070780, -0.0016563750, -0.0357673205, -0.0354737453, -0.0080902511, -0.0047244346, -0.0052002231, 0.0086456165, -0.0195565745, -0.0125307525, -0.0244220588, -0.0117690153, 0.0093887867, -0.0262087528, -0.0143096754, 0.0044858633, 0.0078560906, -0.0430607833, -0.0283398721, 0.0283052363, 0.0094476165, 0.0102844760, -0.0151109267, -0.0164024346, 0.0135258799, 0.0025051590, 0.0174638666, -0.0125658112, 0.0006448345, 0.0125311511, 0.0060009104, -0.0021905629, 0.0143791186, -0.0113551784, -0.0014842242, -0.0047427313, -0.0013287752, -0.0025062775, 0.0030737072, -0.0055410955, -0.0199112203, 0.0158620626, 0.0070281737, -0.0126805594, -0.0224021748, 0.0002597839, -0.0208662041, -0.0044132718, -0.0137340277, 0.0208320376, -0.0082388194, -0.0036014211, 0.0150965974, 0.0277243275, -0.0098629938, -0.0093058078, -0.0038952602, -0.0154867144, -0.0070691719, -0.0059747230, 0.0098994281, 0.0072957436, 0.0109486394, -0.0211079884, -0.0026686825, 0.0081927776, -0.0044049611, -0.0201924238, 0.0251913127, -0.0053019486, 0.0153448926, -0.0023191015, 0.0045140106, -0.0030806225, -0.0166723076, -0.0283084307, -0.0071283332, -0.0089022927, 0.0117107341, -0.0010694603, -0.0193151850, -0.0152572282, -0.0378732905, 0.0109132472, 0.0191230737, 0.0074009830, -0.0123032536, -0.0172126181, 0.0154032698, -0.0061911712, 0.0039169919, 0.0089930920, -0.0030319202, 0.0022536933, -0.0168206990, 0.0093196649, 0.0026692157, -0.0138917239, -0.0063321101, -0.0192460027, -0.0058286390, -0.0086057335, -0.0162032545, -0.0054995292, -0.0067282952, -0.0136584463, -0.0061167288, 0.0120354351, 0.0254265536, -0.0043400219, -0.0212510396, -0.0133480215, -0.0195417646, 0.0101353386, -0.0156436991, 0.0177687965, 0.0118368454, -0.0103626661, -0.0383293331, -0.0301943794, -0.0023859313, 0.0008000685, -0.0158235133, -0.0206837095, -0.0012239950, 0.0175167769, 0.0271199234, 0.0234042518, -0.0109930960, 0.0189203639, -0.0147724636, -0.0062897056, -0.0088164397, -0.0083671510, 0.0148701258, -0.0239968821, 0.0123517672, 0.0060613593, -0.0088657998, -0.0101008043, 0.0339883715, -0.0044910167, -0.0161039177, -0.0048870845, 0.0107630566, 0.0258236490, -0.0257263649, 0.0083456654, 0.0078566587, -0.0051481016, -0.0071921027, 0.0063004703, 0.0084555671, 0.0093720490, 0.0299654230, -0.0108194062, -0.0123988586, -0.0014055386, -0.0218550991, -0.0152798407, -0.0035618476, 0.0121095479, -0.0189778041, -0.0219228715, -0.0003331869, 0.0016065345, 0.0131714642, 0.0092880679, -0.0192302391, 0.0251232404, 0.0098163681, -0.0160453506, -0.0181553401, -0.0180183128, -0.0168149322, -0.0037607448, -0.0002737400, -0.0038080805, 0.0147385160, -0.0009465576, -0.0125316205, -0.0082725435, -0.0117245745, -0.0134395631, -0.0123121077, -0.0325273126, -0.0174625460, -0.0117151206, 0.0045184675, 0.0163248628, -0.0070551788, -0.0071119945, -0.0025438129, 0.0034763115, 0.0015878329, -0.0264343210, 0.0064881188, -0.0015312190, 0.0116621815, -0.0083876140, 0.0062416145, 0.0109453388, 0.0034857136, -0.0143676056, 0.0038320313, -0.0142650958, -0.0120619312, -0.0146675212, -0.0473064706, -0.0069657695, 0.0072534140, -0.0216313861, -0.0129871303, 0.0126959998, -0.0055110808, 0.0005943871, -0.0160276983, 0.0001215135, -0.0331254713, -0.0035777998, 0.0013984755, -0.0107186828, 0.0047564250, -0.0348592848, 0.0116875637, -0.0172426887, -0.0185360648, -0.0039341454, -0.0115734572, -0.0119507834, -0.0114433011, 0.0271852631, 0.0090562413, -0.0044401344, -0.0125785209, -0.0071305386, -0.0015811513, -0.0013678519, 0.0035704139, -0.0058909715, -0.0060309260, -0.0199804083, 0.0029520285, 0.0171374157, 0.0230907816, 0.0134567199, -0.0351100303, -0.0101595428, 0.0045866417, -0.0149322394, -0.0107519934, -0.0042158430, 0.0147184609, 0.0292585865, -0.0036654728, -0.0030175045, -0.0125770401, -0.0111274160, 0.0143353418, -0.0119353160, -0.0063524698, 0.0228018854, 0.0066043898, -0.0073157237, -0.0181944631, -0.0078806747, -0.0220926423, -0.0094785625, -0.0200800914, 0.0138522098, -0.0018488208, -0.0051291250, -0.0183663480, -0.0143481642, 0.0304237008, -0.0090786936, 0.0098151406, 0.0058896830, 0.0026672594, -0.0123665528, 0.0031641154, -0.0166365653, -0.0073233377, -0.0161799341, -0.0091681434, -0.0058282115, 0.0043022325, -0.0138815409, -0.0026067635, -0.0096767517, -0.0067522605, -0.0084585091, -0.0171412826, 0.0075258007, 0.0026376643, -0.0058225868, 0.0008043678, -0.0388137326, 0.0199315101, -0.0223792195, 0.0146412123, -0.0062815454, -0.0244606137, -0.0328317657, -0.0146870874, -0.0108463066, -0.0218387153, -0.0028874616, 0.0059712552, -0.0022400252, -0.0289244242, -0.0238976087, -0.0077547850, 0.0004436458, -0.0088446634, -0.0100499196, 0.0018722999, 0.0180853847, 0.0147972358, -0.0177377276, -0.0070884502, 0.0025245382, -0.0072052223, -0.0241492353, -0.0007809039, -0.0001453746, -0.0079572387, -0.0017330946, 0.0025109018, 0.0111247487, 0.0093898792, -0.0040977309, -0.0090581262, -0.0057645873, -0.0251430962, -0.0137180425, 0.0044437400, -0.0230326541, 0.0179797262, 0.0120638749, -0.0033850591, -0.0193072390, -0.0219480209, -0.0219257642, -0.0146684283, -0.0066381455, 0.0105075054, 0.0064389841, -0.0023383147, -0.0179465022, -0.0053244238, -0.0006855968, -0.0276446622, -0.0071987333, -0.0198447648, -0.0014437046, -0.0306447931, 0.0053045629, -0.0193064827, -0.0099651180, -0.0055920319, 0.0183780324, 0.0059706927, -0.0106918095, -0.0208673775, -0.0297051668, -0.0109096449, 0.0197436027, -0.0127465194, 0.0120619265, 0.0138602080, -0.0006413370, -0.0681598932, -0.0068135564, 0.0027646285, -0.0053927451, -0.0178898200, 0.0107919024, 0.0396528542, -0.0034992015, -0.0502265133, -0.0073424266, -0.0055211009, -0.0098524187, 0.0024522215, -0.0044005108, -0.0146428598, 0.0311044753, -0.0041912114, -0.0207925346, -0.0392210260, 0.0087554185, -0.0052309004, -0.0091936542, 0.0376545563, 0.0019670532, -0.0310232788, -0.0054269438, -0.0133472672, 0.0215427410, -0.0007242348, 0.0325865485, -0.0015634483, -0.0027400935, -0.0248524453, -0.0093114013, 0.0191052202, -0.0270448476, 0.0067431796, -0.0209807977, -0.0021936705, -0.0083856396, -0.0107717644, 0.0037336200, -0.0113012046, -0.0012199428, 0.0045341174, 0.0297265276, -0.0095557915, 0.0016263119, 0.0075331689, -0.0149514126, 0.0118623786, 0.0040037474, -0.0064110463, -0.0091531463, 0.0241807066, 0.0157961939, -0.0061948276, -0.0110973399, -0.0113902017, 0.0046570650, -0.0099481381, -0.0031036427, 0.0168745536, 0.0031741543, -0.0603078939, -0.0220874082, 0.0012566560, 0.0031307822, -0.0110453963, 0.0151827456, 0.0156975482, 0.0029636158, -0.0248043742, -0.0048813336, -0.0060544070, -0.0035755846, 0.0112020792, -0.0036978908, 0.0058923280, 0.0000942867, -0.0224446319, -0.0105946260, -0.0252602044, -0.0048550200, 0.0217379797, 0.0073682796, 0.0271623079, 0.0068342430, -0.0206972323, -0.0021890437, -0.0013471385, -0.0012313896, -0.0027503259, -0.0052214591, -0.0144826323, -0.0187929608, -0.0213426277, -0.0080011990, -0.0112651112, 0.0319502689, 0.0298823975, 0.0331813358, -0.0466159284, -0.0269285087, -0.0085931458, -0.0349383913, 0.0285429973, 0.0269015636, -0.0232228935, -0.0096536800, 0.0198454112, -0.0015851791, 0.0309867002, -0.0142906634, 0.0152709344, -0.0096646287, 0.0054494813, 0.0175044648, -0.0185582135, -0.0046662702, -0.0199004933, -0.0215234403, -0.0211464688, -0.0053460067, -0.0250475407, 0.0019484175, 0.0157242715, 0.0236746147, -0.0552444234, 0.0057156682, 0.0131955324, -0.0006337197, -0.0054917228, 0.0081667788, 0.0253107231, -0.0129994107, -0.0222903118, -0.0371061154, 0.0054071769, 0.0001855139, -0.0181455370, 0.0110672358, -0.0189123359, -0.0019428272, 0.0126452222, -0.0212053228, -0.0153448498, 0.0233474430, 0.0292702690, 0.0008885159, -0.0021033434, 0.0091832187, -0.0047779460, -0.0363928378, -0.0075149611, 0.0114400266, 0.0019236631, 0.0216746535, 0.0098635387, 0.0028412882, 0.0331709571, -0.0116466573, -0.0115336422, -0.0360436775, -0.0127830971, 0.0133118043, -0.0010044399, 0.0013979072, -0.0320990831, 0.0067650499, 0.0123431776, 0.0302022081, -0.0153799290, 0.0197525192, 0.0124154817, -0.0053726579, 0.0027111918, 0.0164170712, 0.0000711760, -0.0033812760, -0.0404514298, 0.0112784384, -0.0206291806, -0.0181145668, -0.0022859909, -0.0004800090, -0.0139915682, -0.0170983672, 0.0143676409, -0.0035344120, 0.0074562426, 0.0145755624, -0.0098317843, -0.0009045802, 0.0242061149, 0.0126567967, -0.0062549720, -0.0209944714, 0.0308086071, 0.0156400390, -0.0007854176, 0.0122023495, -0.0112416372, 0.0052580875, -0.0314452760, -0.0102068959, 0.0130171673, 0.0131487539, -0.0507560633, 0.0292772185, -0.0024414875, -0.0141545571, 0.0111498525, 0.0033123742, -0.0030935882, -0.0048983512, 0.0231808536, -0.0077728294, -0.0117177628, 0.0209776275, 0.0065811547, 0.0177717693, 0.0442229472, -0.0102755949, -0.0008529661, -0.0168141425, 0.0269393139, 0.0005203541, 0.0129847182, -0.0089996764, 0.0012311143, 0.0194472596, 0.0181515850, -0.0056582224, -0.0083877193, -0.0134391803, -0.0241232663, 0.0009157716, 0.0120708905, -0.0199576132, 0.0047271205, 0.0062274174, -0.0030512821, 0.0051078657, 0.0031494116, -0.0095626973, -0.0188516211, 0.0211225599, 0.0022440208, 0.0006862303, -0.0040090173, 0.0052826791, -0.0077657267, -0.0079110330, 0.0204968527, 0.0126810605, 0.0287583787, -0.0172382910, 0.0070751049, -0.0029754906, -0.0119848531, -0.0126465978, 0.0176454354, 0.0217522867, -0.0171036012, 0.0073894518, 0.0151944514, -0.0071006352, -0.0210351944, -0.0228186361, -0.0080479700, -0.0005031427, -0.0130841760, 0.0022320650, -0.0354946740, 0.0005894682, 0.0257166736, 0.0258178879, 0.0083541442, -0.0085900445, 0.0449061431, -0.0280959345, 0.0039840131, 0.0030004617, 0.0113231577, -0.0174068157, 0.0318094976, -0.0232020225, -0.0298527963, -0.0242013317, 0.0249160584, -0.0224104039, 0.0195452031, -0.0015103332, -0.0207305849, -0.0140817799, 0.0311016049, 0.0007681549, 0.0200346969, 0.0013322973, -0.0207700487, -0.0008163653, -0.0132415444, 0.0200931486, 0.0179932825, 0.0410154015, 0.0027265102, -0.0012240208, -0.0130818002, -0.0241773222, -0.0008908876, -0.0013338578, 0.0323522836, 0.0113205016, 0.0051102648, -0.0003320934, -0.0052003046, -0.0318484530, 0.0116541013, 0.0010295407, -0.0057771197, -0.0314944126, 0.0150398193, 0.0035386898, -0.0027776537, -0.0383945927, 0.0085934661, -0.0081490371, -0.0515126251, 0.0131155998, -0.0242245421, 0.0136502488, -0.0018337391, 0.0060138963, -0.0060044988, 0.0088757100, -0.0455662645, 0.0093177427, -0.0206137151, -0.0120377727, -0.0067970534, 0.0145539539, 0.0007665601, -0.0220469292, 0.0202444978, -0.0104527622, -0.0009564605, -0.0127969701, -0.0181359071, 0.0152422646, 0.0132771358, -0.0200338420, -0.0072257319, -0.0056041558, 0.0161279030, -0.0049428702, 0.0275285020, -0.0190917384, -0.0294847041, 0.0111900112, 0.0106743155, -0.0155051975, 0.0089780819, 0.0116419354, 0.0058575086, -0.0181638747, -0.0373936370, 0.0077890591, 0.0119072981, 0.0114664445, 0.0045600422, 0.0014356410, -0.0119749596, 0.0104764113, -0.0280653313, -0.0089276675, -0.0285676438, -0.0215840023, -0.0032360211, -0.0104925968, 0.0180274192, -0.0139697129, 0.0040173992, -0.0143808415, -0.0226036627, -0.0130935730, 0.0416038372, 0.0246039741, -0.0126396744, 0.0138137406, 0.0138277011, 0.0041254852, 0.0033434900, -0.0183254369, -0.0066769086, 0.0163711905, -0.0163560435, -0.0021251314, 0.0148321446, 0.0285695754, -0.0167961959, 0.0168373641, 0.0004587297, 0.0262154751, 0.0289951265, 0.0036640994, 0.0085533578, -0.0154128131, -0.0299514346, -0.0097415280, -0.0077010756, 0.0038727333, 0.0314746909, -0.0002381359, 0.0008809580, -0.0447442308, 0.0014126411, -0.0128139993, 0.0110662933, -0.0105224801, -0.0295675453, -0.0051267757, -0.0123060867, -0.0254568886, 0.0128654409, 0.0123797003, -0.0149702979, 0.0222779289, -0.0394701809, -0.0053691822, 0.0228460804, -0.0136038139, 0.0372002274, -0.0103292512, 0.0174701232, -0.0190429334, 0.0038336439, 0.0257817153, 0.0074334722, 0.0043202029, -0.0258462522, 0.0007284905, 0.0093545467, -0.0194199439, 0.0075902157, 0.0397190265, -0.0062149055, -0.0102926837, 0.0157148708, -0.0388782620, 0.0007166116, 0.0199663583, -0.0388925485, -0.0042775436, 0.0017690351, -0.0050346446, -0.0131137576, -0.0382726081, -0.0419058390, 0.0194970425, -0.0200127009, -0.0348461308, 0.0012297578, 0.0099937851, 0.0000722677, 0.0323784500, 0.0076819980, 0.0280971676, 0.0094984779, 0.0240831766, 0.0142739834, -0.0175524913, -0.0269785188, -0.0106158573, 0.0017295283, 0.0031294539, -0.0127846478, -0.0269564874, 0.0364240371, 0.0019792081, -0.0154635040, 0.0025172697, 0.0143136615, 0.0157855414, -0.0260194857, 0.0031948008, -0.0016328645, -0.0495278984, -0.0037066231, -0.0326896533, -0.0078032673, 0.0087314909, -0.0266211666, 0.0013775601, 0.0094313063, 0.0009722607, 0.0142364874, -0.0337835066, -0.0120626669, 0.0163579136, -0.0061131180, -0.0008543284, -0.0108474316, 0.0149858985, 0.0237986092, 0.0044553014, 0.0375233442, -0.0053959959, 0.0220709424, -0.0111621954, 0.0209815204, -0.0053103040, -0.0313636586, -0.0396523811, 0.0158597529, 0.0248888601, -0.0286474489, 0.0195125025, 0.0003806948, 0.0142837251, -0.0183513034, -0.0006204098, -0.0064958129, 0.0278476737, 0.0117180869, 0.0017527422, -0.0001465852, 0.0279734209, -0.0314733237, 0.0362095982, 0.0135996183, -0.0049587535, 0.0008782013, -0.0096466970, -0.0014403753, -0.0107372040, -0.0132992575, -0.0176562760, 0.0285821408, 0.0054937536, 0.0016891171, 0.0040685385, 0.0078152008, -0.0355510153, -0.0239303336, -0.0244155675, 0.0041585178, -0.0129036466, -0.0059251492, -0.0204425287, -0.0308260508, -0.0192386620, 0.0273138173, -0.0205538031, 0.0158556662, 0.0364535972, -0.0042043393, -0.0174993258, 0.0135399150, 0.0051677874, 0.0246577132, 0.0001138671, -0.0024592329, 0.0254133828, 0.0180961359, -0.0073090526, -0.0302624907, 0.0230098274, 0.0008600341, 0.0435225815, -0.0044678203, -0.0270624328, 0.0136532737, 0.0394243337, 0.0158507116, 0.0492762364, -0.0268018711, 0.0439854339, 0.0013914111, 0.0121741816, 0.0073615271, 0.0101068644, 0.0258534942, 0.0386977755, 0.0488185920, 0.0310544334, 0.0260873847, -0.0838222355, 0.0209528599, 0.0198544208, -0.0429182909, -0.0013358176, 0.0049513588, 0.0087154703, 0.0180261862, 0.0041617476, 0.0432737097, 0.0047928877, -0.0373401009, -0.0091509419, 0.0622039437, -0.0283267274, 0.0132265612, 0.0021226439, 0.0363407955, 0.0108141247, 0.0176434014, -0.0228179581, 0.0456902534, 0.0059483228, -0.0119089028, -0.0094033238, 0.0182187334, -0.0131819565, 0.0267843809, 0.0224236250, 0.0119069181, 0.0027553658, -0.0117547289, 0.0081724711, 0.0266825818, 0.0223741625, 0.0018483498, -0.0208646413, -0.0031840166, -0.0349489190, 0.0160914809, 0.0275237430, -0.0275253598, -0.0056750188, -0.0256301984, -0.0138413347, -0.0139413150, -0.0463168807, -0.0203235336, -0.0010608771, 0.0237079542, 0.0443146937, -0.0217104852, -0.0417776145, 0.0282158740, 0.0063319560, 0.0126885362, 0.0117771048, 0.0100287171, -0.0302756056, 0.0576802380, 0.0159224700, -0.0146233784, 0.0194496680, -0.0074945311, -0.0445210077, -0.0373505503, -0.0101990961, -0.0213445853, -0.0288064908, -0.0141285714, 0.0435828753, 0.0477270633, -0.0483946614, -0.0128325885, -0.0337674506, -0.0182207488, -0.0263300501, 0.0365214944, -0.0212107636, 0.0272142421, -0.0060009547, -0.0148960762, -0.0179655291, -0.0104998602, -0.0216023587, 0.0288716555, -0.0713087767, -0.0259287786, -0.0832874402, -0.0432653278, -0.0088068759, 0.0078596259, -0.0338382088, 0.0115694460, -0.0838425606, -0.0157822371, 0.0218533836, -0.0249814447, -0.0199967120, -0.0204314943, -0.0071211034, 0.0370147303, -0.0345372558, -0.0310214050, 0.0054232599, 0.0174353458, -0.0142890662, -0.0133518111, -0.0343863368, 0.0334930830, 0.0102249654, -0.0160351098, -0.0313335396, 0.0475140586, -0.0205815099, -0.0102787409, -0.0005172013, -0.0109576061, -0.0199718531, -0.0132092508, 0.0106992768, -0.0036817577, 0.0158418920, 0.0319446325, 0.0070787678, -0.0015519384, 0.0841268450, -0.0265487973, -0.0718237087, -0.0592212640, -0.0396843739, 0.0027655966, -0.0185306352, -0.0123533029, 0.0111180786, 0.0357111767, -0.0136536239, -0.0165974051, -0.0544806309, -0.0370997824, -0.0276448354, -0.0021388701, 0.0289041735, 0.0616794787, -0.0425420702, 0.0024768149, -0.0639413297, -0.0092377253, -0.0362695344, 0.0262172837, -0.0229814332, -0.0119112963, 0.0037691586, 0.0035117564, -0.0195854250, -0.0215704441, -0.0373104848, 0.0257036202, -0.0169401821, 0.0040713060, -0.0244449098, 0.0050186426, -0.0011555046, 0.0031370816, -0.0033933008, 0.0328828469, -0.0074482271, -0.0275721345, -0.0223106872, 0.0136737656, -0.0681592822, -0.0091001969, -0.0288100466, -0.0497093089, 0.0140545331, 0.0453306884, -0.0261108857, 0.0093201697, -0.0342506208, -0.0363253169, 0.0096472567, -0.0173461940, 0.0602283515, 0.0239561163, -0.0019172868, 0.0189817753, -0.0032751188, 0.0106159458, -0.0064988355, 0.0445347354, -0.0312230233, 0.0409108028, 0.0107261082, -0.0014490741, 0.0284040254, -0.0206111483, -0.0166440643, 0.0219144896, -0.0434514470, 0.0064237718, 0.0550139137, 0.0342006236, -0.0246102251, 0.0127121685, 0.0353132747, -0.0362069830, -0.0102669941, -0.0120070074, 0.0205774792, -0.0223702658, -0.0351711065, -0.0206732396, 0.0037339285, 0.0237154011, 0.0159405097, 0.0099790590, 0.0172989834, -0.0372878462, 0.0409418754, -0.0207816176, 0.0495632850, 0.0041831979, -0.0052881916, -0.0377310291, 0.0195346065, 0.0939369649, 0.0590829588, -0.0080832541, -0.0236333087, 0.0036629457, -0.0097492943, -0.0064285421, 0.0116906948, -0.0172741059, 0.0029504318, 0.0113651538, -0.0125289103, -0.0680330247, 0.0105815418, -0.0026310624, -0.0181183238, 0.0271686427, 0.0104505084, -0.0407179333, -0.0112420097, -0.0121388612, 0.0194711294, 0.0166790709, 0.0218837038, -0.0145997340, 0.0014684286, -0.0306744110, 0.0032610805, 0.0532851629, -0.0092315851, -0.0359536335, 0.0328161269, -0.0320225321, -0.0012051021, -0.0090927053, -0.0159260351, -0.0366713852, 0.0014824782, 0.0033402892, 0.0358361714, 0.0064981752, -0.0333876982, -0.0244074464, -0.0349383391, -0.0015041000, 0.0030128672, 0.0196158718, 0.0119263306, -0.0182360187, -0.0077368729, -0.0124283638, -0.0091434093, 0.0035497872, -0.0317566618, 0.0194424316, 0.0110202003, -0.0291130058, -0.0221743993, -0.0247876327, 0.0545926243, 0.0005545664, 0.0094049554, -0.0385375135, -0.0221020021, 0.0145726576, -0.0064993948, -0.0198780969, -0.0038566443, -0.0313294716, -0.0464537926, -0.0159875695, 0.0048611844, 0.0254332963, -0.0499652661, 0.0475396551, -0.0242107790, 0.0238855500, 0.0061788759, -0.0172617603, 0.0025626791, 0.0106834937, -0.0033547482, 0.0115231546, -0.0746194944, -0.0054755588, 0.0394935198, 0.0461730845, -0.0032464806, -0.0165001545, 0.0250465274, -0.0293994807, -0.0080570048, 0.0147509007, 0.0396337770, -0.0331954770, -0.0628667995, -0.0084149446, 0.0056826239, 0.0233781636, 0.0005368260, 0.0013951162, 0.0211653188, 0.0035021969, -0.0003148137, -0.0495067388, -0.0129998438, -0.0097304340, 0.0019384451, -0.0282422006, -0.0235208329, 0.0192386918, -0.0236892700, -0.0067318985, -0.0283599477, -0.0223026536, 0.0186854545, 0.0007466719, 0.0213054344, 0.0103567988, 0.0061209463, -0.0085119130, -0.0191399697, -0.0046288385, -0.0064838906, 0.0460590795, -0.0385181457, 0.0212647207, -0.0302986391, -0.0222863052, -0.0278483238, -0.0049977056, -0.0497838669, -0.0034652473, -0.0332023986, -0.0304187126, 0.0275165085, -0.0555042364, -0.0072243875, 0.0086204242, -0.0450905710, -0.0540390275, -0.0982338041, 0.0211412143, -0.0269612055, 0.0273653176, 0.0086963335, 0.0118049048, -0.0406650193, -0.0059183165, 0.0389629006, 0.0050309901, 0.0022261580, -0.0107615860, 0.0445411317, -0.0172177870, -0.0347827971, 0.0388967395, 0.0302170478, 0.0454093665, 0.0856195465, 0.0272829384, -0.0151227741, -0.0156168034, -0.0057846545, 0.0121292407, 0.0182084236, 0.0614271089, -0.0068013561, 0.0027117431, -0.0050176410, -0.0193049666, 0.0217412952, -0.0305983126, 0.0010711070, 0.0490241349, -0.0168908332, -0.0157293305, -0.0155320428, -0.0033069623, 0.0049549057, 0.0014297405, 0.0136521496, -0.0044574910, 0.0366354510, -0.0237346143, 0.0459180512, -0.0005667012, -0.0190268997, -0.0177883543, 0.0323314816, -0.0299542509, 0.0223083347, 0.0131388837, -0.0360771678, -0.0355050117, -0.0134230740, -0.0260953717, -0.0319558308, -0.0166220032, -0.0218843725, 0.0244149603, -0.0290101543, 0.0035514107, 0.0283539649, 0.0183244087, -0.0758984238, 0.0366800651, -0.0091373585, -0.0004072077, 0.0484122746, -0.0117664477, 0.0017208916, -0.1001844853, -0.0291508473, 0.0073897452, -0.0272980873, 0.0024174966, 0.0100454232, -0.0155099574, 0.0110146776, -0.0236823075, -0.0187687073, -0.0216310024, 0.0155953569, -0.0228718016, 0.0212141294, -0.0310010798, 0.0275862440, 0.0002250503, -0.0114970738, 0.0423681326, -0.0128576923, 0.0255948622, -0.0100000687, -0.0347712226, 0.0052630985, -0.0214892700, -0.0042764219, -0.0069480361, 0.0340782106, 0.0083166109, 0.0144103579, -0.0161050633, -0.0291071385, 0.0135571938, -0.0252788533, 0.0093144150, 0.0029437284, 0.0321676992, -0.0215770099, -0.0353138670, -0.0320208184, 0.0099105705, -0.0223719720, -0.0202245992, 0.0012542593, 0.0427097604, 0.0012390375, 0.0300105829, 0.0023856529, 0.0230669603, -0.0515237041, 0.0191876125, -0.0357649364, 0.0142523581, -0.0182515942, 0.0104896957, 0.0153291635, 0.0182141420, -0.0850587189, 0.0116658863, 0.0154774124, -0.0346817747, -0.0169977564, 0.0158012491, -0.0663731322, -0.0472861417, 0.0335725099, 0.0251803100, -0.0126604447, -0.0140288109, 0.0719323829, -0.0343239792, 0.0482798703, -0.0130410232, -0.0763193667, 0.0126859676, -0.0138748828, -0.0085449740, -0.0135255884, -0.0506791137, 0.0328521281, 0.0002272558, 0.0348838158, -0.0253229588, -0.0152838463, 0.0097303260, -0.0829840526, -0.0178918969, -0.0793406591, 0.0133150797, 0.0234274734, 0.0622915179, -0.0260899290, -0.0310086459, -0.0544188991, -0.0434661172, -0.0201351549, 0.0093552303, -0.0328711271, -0.0026741026, -0.0354288928, 0.0199253932, 0.0282724854, -0.0078778751, -0.0933914781, 0.0218112357, -0.0063382448, -0.0050342074, 0.0203810465, -0.0175026525, -0.0048239278, 0.0267222170, -0.0002562302, 0.0556111075, -0.0494429059, -0.0061484291, -0.0220668577, -0.0343197435, 0.0086140195, -0.0046642865, -0.0282807257, 0.0135501474, 0.0196154676, 0.0192140117, -0.0020756533, -0.0121201538, -0.0291027762, -0.0071298610, 0.0023757876, 0.0179554410, -0.0019813150, 0.0097358702, -0.0240156576, 0.0237725992, 0.0014974040, 0.0238904320, -0.0178798959, 0.0037463352, -0.0011893254, -0.0072262199, -0.0201674476, 0.0398111828, 0.0169143677, -0.0378644690, -0.0279331524, 0.0129731344, 0.0049708989, -0.0261712242, -0.0228739697, 0.0218180586, -0.0072942413, -0.0157515649, 0.0054867291, 0.0143599221, 0.0074186092, -0.0102844052, 0.0082634632, -0.0049801758, -0.0047572749, 0.0010899145, 0.0211640038, 0.0206942223, 0.0142145855, 0.0013432797, -0.0053869775, 0.0105233351, 0.0058559258, -0.0037603362, 0.0176225342, -0.0187578183, 0.0159752630, -0.0104025723, 0.0140829403, -0.0086868312, -0.0112596825, 0.0040911268, 0.0042941328, 0.0047974871, 0.0114367735, 0.0215360597, -0.0123765385, 0.0127486363, 0.0182946101, 0.0031794226, -0.0193370096, 0.0002881436, 0.0476836041, 0.0002888047, -0.0061875340, -0.0346082598, -0.0295581594, 0.0154090505, -0.0111193089, 0.0023224754, 0.0026414117, -0.0261897221, 0.0018528911, 0.0242277402, 0.0050922832, 0.0034498414, -0.0153728724, -0.0021967008, 0.0095512643, 0.0213449840, 0.0204231348, 0.0014421564, 0.0111331698, 0.0006277796, -0.0317218490, 0.0027761797, 0.0077407602, -0.0219230037, -0.0218185317, -0.0053903530, 0.0318050832, -0.0107863601, 0.0106442617, 0.0088827126, 0.0047529116, -0.0166667458, 0.0085107079, 0.0135794599, 0.0016239521, -0.0107771521, 0.0059098150, -0.0006884944, 0.0146534350, 0.0216624811, 0.0020240075, 0.0394419245, 0.0004132183, -0.0153751103, 0.0072648521, -0.0124301910, 0.0055370606, 0.0082885213, -0.0061128028, 0.0250784811, -0.0006059419, -0.0195129588, 0.0106414007, -0.0035741681, 0.0187303722, -0.0093400842, -0.0155983055, -0.0056524090, 0.0020110279, -0.0124623589, -0.0075457026, 0.0146591775, -0.0094358092, -0.0061514890, 0.0011503771, 0.0148237236, 0.0195616893, -0.0248833932, -0.0068020076, -0.0080179842, -0.0127656767, 0.0029702277, 0.0032988016, 0.0031415673, 0.0175301414, -0.0011394370, -0.0217798185, 0.0053495667, 0.0001908806, -0.0110039562, 0.0070446990, 0.0031349510, 0.0186290201, -0.0122900251, 0.0058911410, 0.0176154673, -0.0190709140, 0.0004711919, 0.0000953314, 0.0367543325, 0.0139168547, -0.0021312078, -0.0021729481, 0.0064000227, 0.0018183095, -0.0241700821, 0.0041082716, -0.0018407478, 0.0048843008, -0.0166156497, 0.0019526230, -0.0084188329, 0.0155293113, -0.0064451434, -0.0026354748, -0.0074343262, 0.0044498038, 0.0119864717, -0.0217499919, -0.0322096497, -0.0046836468, 0.0113110598, -0.0138591798, 0.0104570473, -0.0128473286, -0.0260478687, -0.0073461053, -0.0083271014, 0.0020607593, -0.0108251339, 0.0054171607, -0.0115094669, 0.0284773596, 0.0086963624, 0.0003244609, -0.0303751267, 0.0075806128, -0.0029331362, -0.0024021547, -0.0052594938, 0.0108006233, 0.0110422336, -0.0033023658, -0.0162655655, 0.0247409623, 0.0127081275, -0.0015127137, 0.0270606168, -0.0102989906, -0.0130542517, -0.0035906523, -0.0008757382, 0.0182520896, 0.0004708302, 0.0163619220, 0.0060118572, 0.0133660631, -0.0019097432, -0.0254207160, 0.0230208561, -0.0237906352, -0.0172588211, 0.0048198891, -0.0079343366, 0.0092661204, -0.0031097245, -0.0072015910, -0.0014282216, 0.0254024751, -0.0098444670, 0.0205894001, -0.0107495794, -0.0046009514, 0.0135503942, 0.0276342612, 0.0197368115, 0.0273201447, -0.0096064406, 0.0194689482, 0.0291866492, -0.0077851592, 0.0198069327, -0.0091676079, -0.0054067220, 0.0150184557, -0.0118852574, 0.0027684583, -0.0016900891, 0.0404646508, -0.0060416181, 0.0180156939, 0.0148281455, 0.0067298203, 0.0210964773, 0.0185414087, -0.0013262087, 0.0025598288, 0.0310947690, 0.0200310219, -0.0114535214, 0.0314751677, -0.0082477015, 0.0076353322, -0.0035838012, 0.0089017600, 0.0083778938, 0.0079984823, 0.0236118622, 0.0170462318, 0.0078319786, 0.0032962004, 0.0263715480, -0.0078483261, 0.0130482968, -0.0065367352, 0.0268144663, 0.0092352405, 0.0275253933, 0.0164723340, 0.0128081385, 0.0162933283, -0.0132760126, -0.0047301617, 0.0184181724, -0.0034602755, 0.0099293888, 0.0037563809, 0.0117860818, 0.0304433051, -0.0055868146, 0.0294595789, 0.0125321401, 0.0231299549, -0.0100152697, 0.0185887180, -0.0224022642, 0.0128290392, -0.0054587219, 0.0246170256, 0.0375268534, 0.0296779219, -0.0146118905, 0.0414279588, 0.0568951257, -0.0335233025, 0.0153355757, 0.0197976585, -0.0045128786, 0.0106628798, -0.0021629131, 0.0142310886, 0.0219866019, 0.0075334595, 0.0191546790, 0.0226585846, 0.0114592807, 0.0224558953, 0.0318620391, -0.0028677264, 0.0255478956, -0.0274514835, 0.0178556610, 0.0033591762, 0.0358055010, 0.0227614380, -0.0213559791, 0.0196748823, 0.0033003350, 0.0176378395, -0.0321056060, 0.0293175150, 0.0279727057, 0.0015768672, 0.0065256613, -0.0144046415, -0.0014691326, -0.0018488483, -0.0008395355, -0.0199364293, 0.0014044361, 0.0084760394, -0.0002600250, -0.0105226915, -0.0021863459, 0.0385726057, 0.0024038164, -0.0084847752, 0.0089488188, -0.0400474109, 0.0212916173, 0.0046497271, 0.0204145443, 0.0259023719, 0.0033844411, -0.0056514428, 0.0289102048, -0.0025078189, -0.0051968964, -0.0008246052, -0.0004855564, 0.0321616456, -0.0174109768, 0.0180711634, 0.0213126857, -0.0154701974, -0.0239559785, 0.0079231085, 0.0184717532, -0.0014272036, 0.0136068156, 0.0107441414, 0.0078930501, 0.0028565554, 0.0368989334, 0.0072431238, 0.0034817050, 0.0033316689, -0.0158122424, 0.0069752354, 0.0000554198, 0.0122063011, 0.0065323850, -0.0212190691, 0.0027827569, 0.0185186584, 0.0064469427, -0.0003623205, -0.0116133858, -0.0344083011, -0.0319212228, -0.0018467301, -0.0067355167, 0.0082253441, 0.0014048842, 0.0137346312, 0.0008979493, -0.0333529525, -0.0043112077, 0.0044282074, -0.0172836501, -0.0110625215, -0.0221814960, 0.0060172142, -0.0044928431, -0.0186834224, -0.0106226765, -0.0168448314, -0.0096917208, 0.0015269831, -0.0161840171, 0.0071949805, -0.0154363243, -0.0046375976, -0.0096170641, 0.0188732799, 0.0180100482, 0.0248685367, -0.0181327052, -0.0226941779, 0.0211460199, -0.0129568465, -0.0136046438, -0.0126500763, 0.0045014163, 0.0118378513, 0.0407001674, 0.0087907100, -0.0260185376, -0.0039620409, 0.0005511504, -0.0152184954, -0.0070803734, -0.0027551251, -0.0231082086, -0.0143665429, 0.0004658245, 0.0176985394, -0.0148687717, -0.0125986785, 0.0007051795, -0.0005904470, -0.0087995641, -0.0110874819, -0.0035837211, 0.0010772386, 0.0138348248, 0.0150995608, -0.0161185004, 0.0168263596, 0.0092757242, 0.0045730909, -0.0425212495, -0.0038297647, -0.0073922430, 0.0024108654, 0.0283445474, -0.0425590165, -0.0021347292, 0.0236120690, -0.0017422138, 0.0021182355, 0.0088473521, -0.0083271731, 0.0077877287, 0.0093137566, -0.0280665755, -0.0038271463, 0.0309907142, -0.0063936557, -0.0002858652, -0.0178381223, -0.0075003672, 0.0148450444, 0.0090170959, -0.0115375202, 0.0193131622, 0.0067537017, -0.0074039954, -0.0063248710, -0.0185787175, -0.0084248995, -0.0253729559, -0.0240182877, -0.0017898496, 0.0178020597, 0.0056381435, -0.0204844475, 0.0082417978, -0.0260428805, -0.0012448597, -0.0064652651, 0.0263057947, -0.0167094395, -0.0104422616, 0.0048615607, 0.0129194129, -0.0425085574, -0.0312993824, -0.0078366911, -0.0023314860, 0.0084087094, 0.0019754430, -0.0100166891, -0.0037290535, -0.0154594807, -0.0093980413, -0.0031299419, -0.0015362501, -0.0018462291, -0.0291087646, -0.0230863299, -0.0014090844, -0.0136262486, 0.0091577340, 0.0005554638, -0.0379653126, 0.0014575664, -0.0210711025, -0.0092027988, -0.0185193680, -0.0113332197, -0.0351054557, 0.0241672173, 0.0092834122, -0.0002546200, 0.0053943070, -0.0052647665, -0.0021780962, -0.0058848816, -0.0316279829, 0.0033585259, 0.0119564710, 0.0050770664, -0.0156378895, 0.0096829282, -0.0195643716, -0.0091027338, 0.0165682416, 0.0050268830, 0.0265093222, -0.0195771735, 0.0054579624, -0.0072305850, -0.0069013871, -0.0037948168, -0.0188515373, -0.0095913224, -0.0101669058, 0.0008134380, -0.0030524230, 0.0040380838, -0.0294248648, -0.0050454307, -0.0038766775, -0.0174202528, -0.0091062719, 0.0206143074, -0.0135916844, 0.0169624072, 0.0279544219, -0.0167803988, 0.0278551076, -0.0121865328, 0.0054439805, -0.0079676481, 0.0003930044, -0.0000656531, -0.0267529003, 0.0008306149, -0.0148918731, -0.0197863355, 0.0115061915, 0.0123885032, 0.0010297634, -0.0217057876, 0.0048494847, -0.0246626865, 0.0031521926, 0.0073742438, 0.0275345240, 0.0020984891, -0.0144339362, -0.0118094673, 0.0083426489, -0.0080426307, -0.0194242895, 0.0063411635, 0.0142959971, -0.0215094332, -0.0079005882, -0.0133320242, -0.0030122017, 0.0078413300, -0.0108689386, -0.0050548878, -0.0142838629, 0.0230917670, -0.0086556682, 0.0053917714, -0.0049554510, 0.0006584703, 0.0045641777, -0.0105790235, 0.0010430330, 0.0038449659, 0.0014292076, -0.0257238932, 0.0077970503, -0.0169790518, -0.0268126801, -0.0003562920, -0.0048198258, -0.0063507133, -0.0216832850, -0.0037459270, -0.0024200261, 0.0014341526, 0.0062225913, -0.0099109607, -0.0063975798, -0.0030773929, -0.0100097731, -0.0102913827, 0.0105128158, -0.0002342407, -0.0057635908, -0.0067982432, 0.0090911658, -0.0136391865, -0.0000240339, -0.0103257243, 0.0083510913, -0.0018988170, -0.0084817968, -0.0023206107, 0.0031495465, -0.0000145056, 0.0029252744, -0.0235326383, -0.0008965034, -0.0198128968, 0.0058809360, -0.0102848560, 0.0149797685, -0.0105272243, 0.0074029868, -0.0016794523, -0.0072679156, -0.0137714166, -0.0038443515, -0.0219336506, 0.0108255707, -0.0113009335, -0.0100651300, -0.0012978766, -0.0055930587, -0.0053768945, -0.0028417094, 0.0106127495, 0.0031953191, -0.0114121018, 0.0062297555, 0.0026746769, -0.0082269497, 0.0054897731, -0.0044161263, -0.0174754076, -0.0149493879, -0.0115424255, -0.0097464714, 0.0026480644, 0.0109809842, -0.0110744312, -0.0049516466, -0.0101833586, 0.0000348356, -0.0007121930, 0.0024640143, -0.0103008831, -0.0113382861, 0.0077715861, 0.0180327017, -0.0063121794, -0.0208468456, -0.0040905136, -0.0034444320, 0.0087909363, -0.0010788658, 0.0069784075, -0.0238148216, -0.0168280173, 0.0086722113, -0.0070124147, 0.0189158116, -0.0155154727, 0.0171171986, -0.0072727976, 0.0100991502, -0.0011396271, -0.0032721136, -0.0148153296, -0.0064351093, -0.0154872639, 0.0066259741, 0.0144965369, -0.0206787363, -0.0064402581, 0.0098453732, 0.0054216133, -0.0048780516, 0.0020665592, -0.0028084472, 0.0223240573, -0.0236830562, 0.0082561960, -0.0058239815, 0.0004016969, -0.0054886206, -0.0010637002, -0.0016242800, -0.0104516689, 0.0048491745, -0.0012928857, -0.0015494840, -0.0139991716, 0.0111067435, -0.0059694075, -0.0184018053, -0.0137625346, -0.0287323017, 0.0030333698, -0.0069188564, -0.0044458145, -0.0122521697, -0.0041528651, 0.0038603912, -0.0016940908, -0.0040430399, -0.0134962080, 0.0108800568, -0.0065727211, 0.0000546450, -0.0060775410, -0.0082882950, -0.0151549773, -0.0011470772, -0.0010151641, 0.0010639796, 0.0004558009, -0.0081783580, 0.0033154401, 0.0087503530, -0.0112563698, -0.0068287770, -0.0024945375, 0.0030294408, -0.0116342809, 0.0061418191, -0.0149534680, 0.0084272334, -0.0008394715, -0.0205166023, 0.0077431328, -0.0082738847, 0.0030155492, -0.0089073787, -0.0086079361, -0.0041675847, 0.0037372331, -0.0031525956, -0.0019254131, 0.0164846368, -0.0085606650, -0.0052762385, -0.0084233563, -0.0088492977, 0.0075701866, -0.0083449259, -0.0092060370, -0.0133269262, 0.0013891605, -0.0198985189, -0.0086822640, -0.0114836898, -0.0117792748, -0.0036544180, -0.0109165441, -0.0010728088, 0.0091687795, -0.0005664619, 0.0043776860, -0.0151670398, -0.0003472521, -0.0041988157, -0.0076535968, -0.0011133812, -0.0010472189, -0.0012190816, 0.0111067062, 0.0160972252, -0.0055078017, -0.0152844721, -0.0048920661, -0.0015272223, -0.0057084751, -0.0123140281, -0.0033691048, -0.0082664639, -0.0026053428, -0.0220427811, 0.0156422891, 0.0075333449, -0.0101200119, -0.0172644686, -0.0114992885, -0.0038343123, 0.0085516404, 0.0036311471, -0.0152221872, 0.0014087415, 0.0113183465, 0.0004598162, -0.0092037255, -0.0004479245, 0.0094235651, -0.0132477647, 0.0026329029, -0.0068524871, -0.0102085788, 0.0075688711, 0.0003195622, -0.0077104033, -0.0025141654, -0.0060686031, -0.0105297305, -0.0053809602, 0.0055086664, 0.0056088264, 0.0000242986, -0.0178860985, 0.0047832588, -0.0119439457, -0.0045533869, 0.0070595192, -0.0091141220, 0.0030046084, -0.0100136893, -0.0010153030, -0.0024171567, -0.0168268532, 0.0019188419, 0.0124833211, 0.0272675920, -0.0047190371, -0.0134723680, -0.0002718257, 0.0037659951, -0.0216131844, -0.0217209645, 0.0047728289, -0.0015046857, -0.0049274024, -0.0098442305, -0.0206490979, -0.0114333509, -0.0135682048, -0.0059641879, -0.0132849943, -0.0112930052, -0.0104368506, -0.0097431624, -0.0094580073, 0.0018178192, -0.0212568771, 0.0292081591, 0.0051053734, -0.0125063891, -0.0110929236, -0.0193013325, -0.0020910539, 0.0124758398, 0.0033706031, -0.0022814909, 0.0069675064, 0.0026061228, 0.0054052747, -0.0119650746, 0.0137567157, -0.0253089182, -0.0132010235, 0.0027148041, 0.0034459757, 0.0053506461, 0.0042886464, 0.0081266984, -0.0169307571, 0.0162627771, 0.0137912054, -0.0254323166, -0.0281066652, 0.0037167056, -0.0129110217, -0.0182495601, -0.0149183786, -0.0016518154, -0.0124965496, 0.0137180565, -0.0022728366, 0.0129269417, -0.0285052247, -0.0111308713, -0.0149974404, 0.0075708772, 0.0006629133, -0.0119448220, 0.0068843630, 0.0104993833, -0.0062157349, -0.0115758246, 0.0023403610, 0.0177267529, -0.0045264508, -0.0165035389, 0.0190977044, -0.0075258124, 0.0055416990, -0.0042900057, 0.0080595482, -0.0016669661, -0.0212251805, -0.0056232153, 0.0101318546, 0.0002625246, -0.0246875323, 0.0128058624, -0.0079744142, -0.0071615730, -0.0172492936, 0.0352639593, 0.0059262984, 0.0041935858, -0.0276682638, -0.0140036903, -0.0090604406, 0.0086578662, 0.0297356192, -0.0049846149, 0.0101374229, 0.0011657234, 0.0040551689, -0.0047093169, 0.0071872622, -0.0051639886, -0.0170071013, -0.0168090221, -0.0252873208, -0.0009704150, 0.0095189679, 0.0067910715, -0.0138759734, -0.0064567034, 0.0141157936, -0.0140976058, -0.0063579455, -0.0055715116, -0.0068795872, -0.0085036280, -0.0052018082, 0.0097288294, -0.0053854496, 0.0140242130, 0.0005087683, 0.0007177383, -0.0085472213, -0.0018927652, 0.0130109172, 0.0028534285, -0.0243714936, -0.0040114946, 0.0073113465, 0.0045958925, 0.0026908251, 0.0015401749, -0.0035783441, 0.0128163733, -0.0083593214, -0.0052468651, -0.0015978651, -0.0111349886, -0.0116293915, -0.0134567842, -0.0022240637, 0.0088793822, -0.0016994732, -0.0041334941, 0.0066206958, 0.0021045303, -0.0123957265, 0.0120048812, 0.0058637885, 0.0195870474, -0.0129643744, -0.0003552631, 0.0114808809, 0.0058593443, -0.0008330538, 0.0150640365, -0.0011590320, -0.0197780300, 0.0159218349, 0.0020468330, 0.0054657343, 0.0078714686, -0.0254318267, -0.0137800043, 0.0113459062, 0.0199218746, 0.0064278282, -0.0057837619, 0.0039710444, 0.0157183334, -0.0041065142, 0.0021741835, -0.0155527424, -0.0158388223, 0.0112269605, 0.0047759898, 0.0124671580, -0.0040784106, 0.0085468832, -0.0129761249, -0.0012256845, -0.0076966644, 0.0008048294, -0.0008473295, -0.0159732886, 0.0067056380, -0.0058653229, -0.0006001631, -0.0131787444, -0.0049003665, -0.0077175852, -0.0124607533, 0.0089982599, -0.0051371390, -0.0182344411, -0.0150162568, -0.0197861809, 0.0159154925, -0.0268806648, -0.0020652821, 0.0010934942, -0.0051582046, -0.0193485133, -0.0040341145, -0.0301680341, 0.0044591697, -0.0076563386, -0.0072925086, -0.0051169586, -0.0069959196, 0.0061619757, -0.0093689691, 0.0007881261, 0.0143768443, -0.0274740309, 0.0156125445, -0.0049371291, 0.0043000714, -0.0104169287, -0.0309579372, -0.0016904937, -0.0015980921, 0.0254519098, -0.0107301781, 0.0035094349, -0.0237538200, 0.0040730252, -0.0144996829, -0.0146514028, 0.0001248968, -0.0005590105, -0.0079202801, 0.0096499417, -0.0076491050, -0.0114564886, -0.0223290455, -0.0280321240, -0.0063928813, -0.0088860458, -0.0136261145, -0.0182233751, -0.0094286026, -0.0031903505, 0.0021929699, -0.0291861501, -0.0120707778, -0.0173497908, 0.0038742647, 0.0113848615, -0.0056327237, -0.0067996085, -0.0186448433, -0.0040975641, -0.0121342503, 0.0045816926, -0.0163303204, -0.0092466949, -0.0153404335, -0.0048526763, -0.0096042454, -0.0134720746, -0.0027338536, -0.0013149226, -0.0060790987, 0.0122668939, -0.0087459031, -0.0070545152, -0.0083088297, 0.0106788781, -0.0041717794, -0.0139958793, -0.0005669321, 0.0146744400, -0.0129355947, -0.0198910162, 0.0009042611, -0.0002228326, -0.0041148840, -0.0064820056, 0.0017435153, 0.0030944981, -0.0048425966, -0.0290203206, -0.0247833822, -0.0160697401, 0.0120476810, 0.0129476441, 0.0001913697, -0.0141660394, -0.0082431305, -0.0186254550, -0.0276619159, 0.0000274852, 0.0006054587, -0.0097821653, -0.0122402655, -0.0230052229, -0.0103755351, -0.0041937944, -0.0071777320, 0.0021815433, -0.0073863259, 0.0105749108, -0.0019752393, -0.0057594748, -0.0017480697, -0.0598467961, 0.0086142439, 0.0304853860, 0.0025292444, -0.0193366092, 0.0174062103, -0.0778207257, 0.0234640073, -0.0431073196, -0.0649920925, 0.0504571125, 0.0232793614, -0.0670844391, -0.0422061533, 0.0012782948, -0.0494282357, -0.0384169929, 0.0252417047, -0.0946715176, 0.0432780012, 0.0199090485, 0.0272523016, -0.0358800590, -0.0027067591, -0.0058723013, -0.0285574701, -0.0016537117, -0.0020075368, -0.0310997497, 0.0076130987, 0.0335978828, -0.0083470196, -0.0357147716, -0.0058605722, 0.0155260367, -0.0024131068, -0.0268809870, 0.0138395671, 0.0004040049, 0.0675454512, -0.0076551833, 0.0065771681, 0.0315941013, -0.0283614434, 0.0045626122, 0.0134766828, -0.0284202192, 0.0200582482, 0.0087356083, 0.0186728053, -0.0371828638, 0.0128574008, -0.0421111770, -0.0014189803, -0.0419149548, 0.0230966955, -0.0109077785, 0.0187252965, -0.0144317532, -0.0063822549, 0.0045270431, 0.0213120487, -0.1255913824, -0.0328569710, -0.0599546619, 0.0149176493, -0.0277610198, 0.0325069651, 0.0182456635, -0.0053065121, -0.0840390697, -0.0160070732, -0.0543897673, -0.0213233549, 0.0049416670, -0.0732049346, -0.0129622230, -0.0432105735, -0.0277473312, -0.0842101499, 0.0132141598, 0.0643003732, -0.0727416724, -0.0249231216, 0.0081765726, -0.0393612795, 0.0501082428, -0.0451110378, -0.0559600443, -0.0481659211, 0.0309491828, -0.0301312655, -0.0376511142, 0.0016086526, 0.0434488393, 0.0086000403, -0.0338872522, -0.0368306935, -0.0037369970, -0.0486652926, -0.0398891345, -0.0082018077, 0.0180319194, 0.0799771026, -0.0114399176, 0.0738901570, -0.0186336450, 0.0907012597, 0.0316979885, -0.0509279557, -0.0134048527, 0.0025772685, -0.0928916559, -0.0261573419, -0.0459470004, 0.0300765876, -0.0136629418, -0.0475088060, 0.0048328708, 0.0765800774, 0.0008825292, -0.0171270203, 0.0450060628, 0.0612378381, 0.0319404155, -0.0303593110, -0.0335986540, 0.0085407775, -0.0220963769, 0.0254554637, -0.0320914276, 0.0356544703, 0.0071511013, 0.0583717376, 0.0013814671, -0.0196887832, -0.0139302919, -0.0140462080, 0.0654238984, 0.0248360932, 0.0018446493, -0.0083843274, 0.0097291172, 0.0512271523, 0.0006087159, 0.0232583694, -0.0267693214, -0.0096762758, -0.0045546768, -0.0668797120, -0.0543353520, -0.0360835120, -0.0004412577, -0.0418751463, 0.0461901240, 0.0102358246, 0.0061058905, 0.0313081034, 0.0098727345, 0.0132179335, -0.0394095220, 0.0177341811, 0.0255677588, 0.0596151836, -0.0077605662, -0.0305187125, -0.0163406003, 0.0002749547, -0.0188552476, 0.0190071668, 0.0020104968, -0.0249406956, -0.0195564907, -0.0519541986, 0.0191527847, 0.0756120235, -0.0148727652, 0.0212107357, -0.0529354922, 0.0731737316, 0.0086598275, -0.0051249508, 0.0401745401, 0.0196011737, 0.0382232890, 0.0451026671, 0.0257680174, -0.0006887939, -0.0010807225, -0.0311689638, 0.0080174506, 0.0560116358, -0.0450398698, 0.0086543672, 0.0180504173, -0.0213745832, -0.0411835574, -0.0524073429, 0.0931547284, 0.0160007235, 0.0192793682, -0.0540962145, 0.0192212556, -0.0561662875, 0.0250791553, -0.0019165196, -0.0110790832, 0.0524074621, 0.0189357530, -0.0244917162, -0.0555971451, -0.0360989235, 0.0469885580, -0.0362438373, -0.0061426340, -0.0130982576, 0.0476417542, 0.0171726141, -0.0305592529, -0.0406528711, -0.0024378570, 0.0240667611, -0.0501561053, -0.0416995920, 0.0105880508, -0.0363265239, 0.0504177287, -0.0248947088, 0.0114200991, -0.0091240406, 0.0114853689, -0.0450416319, 0.0102671245, -0.0335549712, -0.0380770043, -0.0291285031, -0.0191085171, -0.0070467698, -0.0203154013, 0.0327064134, -0.0091298148, 0.0197057687, 0.0267105736, 0.0190175902, -0.0305360723, -0.0201402400, -0.0106778322, 0.0058554737, -0.0270502102, -0.0012690974, -0.0526108816, -0.0129295439, -0.0091385813, 0.0065515335, 0.0570476688, 0.0218758639, -0.0430574194, 0.0685781091, -0.0025375241, -0.0115212360, 0.0138192372, -0.0287135243, 0.0682587922, 0.0295529347, -0.0337659009, 0.0074510514, -0.0159034245, -0.0113899894, 0.0519636385, 0.0161758419, 0.0126403114, 0.0532384701, 0.0227560457, 0.0349280313, -0.0349681936, -0.0302453376, 0.0136359138, -0.0363496728, -0.0401267409, -0.0082744621, 0.0275808461, -0.0113230348, -0.0307215210, 0.0399187952, 0.0328825228, 0.0061500375, -0.0211349111, 0.0000623489, -0.0223684348, -0.0711545348, 0.0370847210, -0.0021374605, -0.0227489006, -0.0205145106, 0.0510107838, -0.0726736411, -0.0075395238, 0.0121896276, 0.0160336923, 0.0126934564, -0.0024233360, 0.0818490237, 0.0062521412, -0.0085810255, -0.0293224417, 0.0043247328, 0.0144700231, -0.0375801772, -0.0093621220, -0.0297023393, -0.0038746549, -0.0240089055, -0.0097965784, -0.0260169934, -0.0104201594, 0.0431683138, -0.0184763409, -0.0675594732, 0.0034973859, 0.0097827399, 0.0169353914, 0.0395798534, 0.0018480527, -0.0335224979, 0.0301029850, -0.0549818128, -0.0495723002, -0.0058609797, -0.0022080655, 0.0249384977, -0.0316425934, 0.0159729961, 0.0139773497, 0.0080920495, -0.0223356746, -0.0043429225, -0.0323200710, -0.0203452762, 0.0213190597, -0.0005237809, -0.0102408715, -0.0375289097, -0.0084642675, 0.0264290273, -0.0412369706, 0.0538516790, -0.0307806972, -0.0179820526, -0.0378421955, 0.0207906291, -0.0433632806, 0.0070094205, 0.0393113866, -0.0177806783, 0.0455205739, -0.0341905951, 0.0335967802, -0.0125921909, -0.0250660013, -0.0446027294, 0.0263027065, 0.0053633046, 0.0121011818, -0.0262761079, -0.0646669641, 0.0295118149, -0.0074002552, -0.0735288188, 0.0136709278, 0.0505387858, -0.0220896155, -0.0506255701, 0.0524764769, 0.0655011013, 0.0271109063, -0.0156197641, -0.0038392835, 0.0037657346, -0.0096450206, 0.0197192673, -0.0058018118, 0.0087293033, 0.0003492413, 0.0374929644, -0.0011380323, -0.0183070190, 0.0564678721, 0.0217084661, 0.0155283660, 0.0288233757, -0.0687611550, -0.0378572084, 0.0477661565, -0.0014231879, -0.0618375055, 0.0210355632, -0.1115556806, 0.0290815141, 0.0230381005, 0.0684809610, -0.0194317978, -0.0517658442, 0.0056454372, 0.0078282058, 0.0236719474, 0.0131828794, 0.0129631357, 0.0373383984, 0.0159908980, -0.0482902080, -0.0097329644, -0.0005526019, -0.0176199134, -0.0142769795, -0.0707402304, 0.0026750052, -0.0230478365, -0.0146075347, -0.0001713258, 0.0076816650, -0.0051033739, -0.0208003558, 0.0437584557, 0.0315292291, -0.0145384688, -0.0289553888, -0.0319607183, 0.0655757487, -0.0203437973, -0.0335333087, 0.0395539440, 0.0198300947, 0.0355023332, 0.0039013491, 0.0121012535, -0.0476984009, 0.0389345139, 0.0431715995, 0.0079292813, -0.0296285953, -0.0148058105, -0.0860450119, 0.0319769196, 0.0076194084, 0.0219065864, 0.0506539568, -0.0321911722, 0.0252311621, -0.0141407046, -0.0050345543, 0.0115564838, -0.0124895442, -0.0232222490, -0.0203392301, 0.0080368277, 0.0037497603, -0.0093889646, -0.0426179022, -0.0220118631, 0.0175186787, -0.0302038677, 0.0388286412, 0.0218883287, 0.0242470056, -0.0196702052, -0.0388452001, -0.0800072476, 0.0292983446, 0.0196882281, 0.0001384563, -0.0152942687, 0.0287441909, 0.0081962058, -0.0587371551, -0.0683860630, -0.0349048674, 0.0161105357, 0.0281064641, -0.0125338975, 0.0247949176, -0.0725933239, -0.0166454948, -0.0464275889, 0.0211459156, 0.0094469003, 0.0262327325, 0.0147662489, -0.0087582842, 0.0179902259, 0.0038521956, -0.0303777773, 0.0313869156, 0.0296801049, -0.0166898947, -0.0184522104, -0.0291173365, 0.0248804372, -0.0344815552, 0.0174615216, 0.0171663910, 0.0009463541, 0.0394640900, 0.0110996459, -0.0135518331, -0.0240365900, -0.0216594990, 0.0313791074, 0.0781659633, -0.0246458482, -0.0175452847, 0.1122796386, 0.0255826954, 0.0566207059, -0.0714682266, 0.0594110228, -0.0023041931, 0.0087162554, 0.0377945341, 0.1001355946, 0.0273082834, 0.0047883112, 0.0154861715, 0.0006911999, 0.0145396069, -0.0519718789, 0.0133939264, 0.0255280677, 0.0295011010, 0.0181445517, -0.0408011451, 0.0696234554, 0.0332379006, -0.0046975515, 0.0660223663, -0.0142894275, 0.0465153530, 0.0546805449, 0.0182137061, -0.0123390872, 0.0429446734, -0.0282107498, 0.0656983778, 0.0949744880, 0.0686542243, 0.0733286366, 0.0576842017, -0.0198260639, 0.0309724640, 0.0441092327, 0.0127678504, -0.0156453326, 0.0062278621, -0.0058408817, 0.0159021113, 0.0203167051, -0.0315154530, -0.0211686976, 0.0483451858, 0.0267023500, -0.0050268816, -0.0344982520, 0.0092840809, 0.0539335385, -0.0030386169, -0.0046574478, 0.0954527035, 0.0180223230, 0.0308028180, -0.0147703262, -0.0429681577, -0.0205421317, -0.0318830870, -0.0324790329, 0.0164036267, -0.0245536007, -0.0213299636, 0.0582805946, -0.0318818577, -0.0313110985, 0.0324367210, 0.0084294258, -0.0105542792, 0.0009418686, -0.0131617896, -0.0075440919, -0.0356124714, 0.0421489216, -0.0228989646, 0.0626963377, 0.0006683752, 0.0035495262, -0.0780736730, 0.0110607799, 0.0328009687, 0.0111839240, -0.0562058836, -0.1142057478, -0.0735940635, 0.0437533893, 0.0438425504, 0.0226692297, -0.0167085882, 0.0544687212, 0.0116678709, -0.0005956386, -0.0251919385, 0.0044212523, -0.0058768345, -0.0471068919, 0.0245459918, 0.0211420860, 0.0125304312, -0.0444638394, 0.0098535568, 0.0345564932, 0.0438833982, 0.0049017165, 0.0304041449, -0.0138451429, -0.0143429274, -0.0310981814, 0.0976763144, -0.0629849359, 0.0673311800, 0.0072265975, 0.0185798928, 0.1213866323, -0.0047047120, 0.0425775498, 0.0081450017, 0.0229209699, 0.0449653156, 0.0502312705, -0.0197982825, -0.0283389837, -0.0250120535, 0.0205703173, -0.0325928926, 0.0867508203, 0.0375558250, -0.0156693831, 0.0300340988, 0.0129996324, -0.0097485650, -0.0110794213, -0.0125418575, 0.0422635451, -0.0310996771, -0.0030700502, 0.0095899049, -0.0626737550, 0.0486340560, 0.0241296608, 0.0017890045, -0.0304202717, -0.0031024390, -0.0094397729, -0.0292202141, -0.0166835953, 0.0604100265, 0.0253501870, -0.0515280180, 0.0017576186, 0.0144228432, -0.0684296563, 0.0170503687, 0.0227776971, -0.0108913714, 0.0523467399, 0.0018722001, 0.0021254513, -0.0248319563, 0.0374304466, 0.0229615327, -0.0216563195, 0.0017738090, -0.0260281432, -0.0344767012, -0.0057108975, -0.0051745954, 0.0087105203, -0.0395485535, 0.0122512802, -0.0288282949, -0.0001199734, -0.0147392619, -0.0068392549, -0.0146173434, 0.0540503636, 0.0097154798, 0.0245011058, 0.0055040396, -0.0100276116, -0.0640246272, -0.0118203163, 0.0136613660, -0.0054993117, 0.0086549548, -0.0806736425, -0.0063801138, -0.0395574495, -0.0570658371, 0.0879268944, 0.0495028794, -0.0628380477, 0.0537624955, -0.0123792700, -0.0081921043, 0.0335344672, 0.0282350089, 0.0433057509, -0.0011812536, 0.0083491700, -0.0037664261, -0.0001253335, 0.0064941333, 0.0423580408, -0.0859210864, 0.0219021421, -0.0232598558, 0.0295669306, 0.0000261001, -0.0462178215, -0.0162484050, -0.0996274725, -0.0143265054, 0.0230792239, -0.0172706675, -0.0241079871, -0.0103499219, 0.0217628032, 0.0173587948, 0.0745405704, -0.0351138376, -0.0019109014, -0.0418339446, 0.0102981441, -0.0128855631, -0.0031144454, 0.0022071549, -0.0074805096, 0.0282901637, -0.0068300627, -0.0315432101, -0.0524450429, -0.0320889354, -0.0185931250, 0.0644776151, 0.0224749874, -0.0449246615, -0.0048287190, -0.0115021225, 0.0106300991, 0.0086513218, -0.0177197587, -0.0217952654, 0.0110576823, -0.0439879633, 0.0074747987, 0.0001770298, 0.0353926010, 0.0435000136, 0.0505239107, -0.0480957478, -0.0252023432, -0.0305944476, -0.0820008591, 0.0575095415, -0.0149341980, -0.0455795191, -0.0228713211, 0.0163191631, -0.0127056381, 0.0269541927, -0.0373769663, 0.0421942174, -0.0486612096, -0.0237121675, -0.0037887967, -0.0143857077, 0.0452652536, -0.0215969924, 0.0074337795, -0.0116605479, 0.0133849597, -0.0464246012, 0.0412544720, 0.0874997005, -0.0669231340, -0.0303607192, 0.0478569642, -0.0166215450, -0.0065059350, -0.0472292230, -0.0380620062, -0.0246616621, -0.0017617184, -0.0536759757, 0.0217675101, -0.0518438891, 0.0145836128, -0.0028737492, -0.0043402296, -0.0761743858, -0.1410274357, 0.0842714608, 0.0192578752, 0.0856586695, -0.0114565324, -0.0400901064, 0.0437738001, -0.0240873471, 0.0961596221, 0.0107022664, -0.0317736231, -0.0104643991, -0.0154038658, -0.0045461762, -0.0000322651, -0.0499173254, -0.0467073098, -0.0343340300, -0.0430508852, 0.0285970140, -0.0358829536, 0.0027287060, -0.0503645912, 0.0463716574, -0.0029792020, -0.0425942577, 0.0013707766, -0.0040240888, 0.0141958185, -0.0815389603, -0.0161040761, -0.0119258463, -0.0144472662, 0.0020814210, -0.0744243115, -0.0400627181, -0.0022061681, -0.0092568547, -0.0604739450, -0.0263696630, -0.0242146496, 0.0062551331, -0.0296747815, -0.0243361220, 0.0375101790, -0.0642275512, -0.0098329494, 0.0488168299, 0.0285325442, -0.0025490308, -0.0194975361, 0.0225644223, -0.0087660905, -0.0542351790, -0.0391460769, -0.0235214848, 0.0416963100, -0.0664160326, -0.0092815924, -0.0699350014, 0.0001134618, -0.0409065969, -0.0076480936, -0.0049359524, -0.0651199222, 0.0628444999, 0.0236032140, 0.0145620145, -0.0203222465, -0.0882469118, -0.0007066247, -0.0682999119, 0.0369752534, 0.0127311312, -0.0144166192, -0.0472187065, 0.0248992480, -0.0426273569, 0.0181467962, -0.0587393939, -0.0465527810, -0.0313979313, -0.0010050093, -0.0714723319, -0.0928414166, -0.0084650004, -0.0711958408, 0.0153353158, 0.0475741811, -0.0393026322, -0.0236492399, 0.0389187932, -0.0173285976, -0.0328172334, 0.0063371076, -0.0526665673, 0.0460643619, -0.0203958787, 0.0211209506, 0.0371219181, -0.0147673078, -0.0618746467, -0.0703271329, -0.0929346532, -0.0046718754, -0.0367436297, 0.0142470459, 0.0110938577, 0.0292560644, -0.0829697326, -0.0108355684, 0.0537270755, 0.0012468850, -0.0752710104, 0.0052552167, -0.0370366871, -0.0036149966, -0.0688525736, 0.0363299884, -0.0293092467, -0.0112488922, -0.0866912082, 0.0486515872, -0.0780431926, 0.0040559978, -0.0199209247, -0.0548129566, 0.0015496354, 0.0153646525, -0.0261072777, 0.0309397914, 0.0316394828, -0.0226038117, -0.1063431874, -0.0727040842, 0.0070066396, 0.0348045789, -0.0232347604, -0.0125861159, -0.0613071136, -0.0170830693, -0.0266014524, 0.0152737917, -0.0681683123, -0.0301222671, -0.0440850854, -0.0329136215, -0.0193115417, -0.0285025332, -0.0539597645, -0.0357833914, 0.0013219233, -0.0644617900, -0.1057133824, -0.0033131198, -0.0192206409, -0.0383198485, 0.0141953621, -0.0594911687, 0.0204499979, 0.0343358554, 0.0151057225, -0.0078660976, -0.0012830894, -0.0218453240, -0.0161184464, 0.0542115942, 0.0212743301, 0.0161320250, -0.0205741264, -0.0076221079, 0.0039216173, -0.0222082641, -0.0402774848, 0.0157394689, 0.0039274306, -0.0456322469, -0.0671891719, 0.0053248736, -0.0241738595, -0.0202669650, -0.0043372167, 0.0033230858, -0.0237975214, -0.0328678638, -0.0118551366, -0.0318825059, -0.0097186929, 0.0471987948, 0.0090055559, 0.0476014689, -0.0012942700, -0.0189962294, -0.0129272221, 0.0174076390, -0.0039504333, -0.0145750921, 0.0520604439, -0.0176724568, -0.0095456550, -0.0472313650, 0.0064212377, -0.0170809701, 0.0721378252, -0.0374157801, -0.0184594151, 0.0397566371, 0.0049410872, 0.0606484190, 0.0167426504, -0.0487022586, 0.0445989743, 0.0357496031, 0.0208760723, 0.0154973753, -0.0040605864, -0.0281415023, 0.0250543971, 0.0466849767, -0.0446312800, 0.0174222775, -0.0083759986, -0.0200080331, -0.0924537852, 0.0289528687, -0.0183906555, 0.0138004320, -0.0101892967, -0.0032675271, -0.0092367772, -0.0613225624, 0.0325608701, -0.0401454344, 0.0582371503, -0.0130129876, 0.0443887562, -0.0147795519, 0.0196456276, -0.0516245402, -0.0279629957, -0.0111546284, -0.0094548343, 0.0010623873, 0.0258012004, -0.0476163700, -0.0762576163, -0.0418313779, -0.0239235703, 0.0037719859, 0.0073587182, -0.0306702238, 0.0138141569, 0.0085668499, -0.0200711992, -0.0123024872, -0.0316406749, -0.0119689675, -0.0166856963, 0.0209938679, -0.0475642942, 0.0069100852, -0.0273834039, 0.0218368005, -0.0702264160, 0.0139602227, -0.0480870679, 0.0171530154, -0.0459436141, -0.0339224935, 0.0795706958, -0.0328155942, -0.0134752924, -0.0316316262, 0.0019301452, -0.0026066087, -0.0065156068, -0.0306899343, 0.0048285522, -0.0478387140, -0.1070847288, -0.0625760406, -0.0471132733, -0.0427118279, -0.0194867495, -0.1155991182, 0.0251006018, -0.0236692410, -0.0040313881, 0.0175364893, -0.0722573847, 0.0269951746, 0.0133358361, 0.0105849775, -0.0016500788, 0.0285841301, -0.0420911200, 0.0530309901, -0.0411814004, 0.0093450854, -0.0027204552, -0.0005319547, 0.0166363679, -0.0939062834, -0.0064550284, 0.0140242623, -0.0691003799, 0.0015526066, -0.0642966479, -0.0374763124, -0.1041095257, -0.0271172952, -0.0209277831, 0.0195461623, 0.0116964048, -0.0403553620, -0.0170359313, -0.0240350366, 0.0057131653, -0.0499302000, 0.0149115687, 0.0148105342, 0.0314085260, 0.0874780118, -0.0249690115, -0.0686393380, 0.0338120461, -0.0132021382, 0.1835227907, 0.0700327307, -0.0336075500, -0.0411946177, -0.0491040014, -0.0420841537, 0.0186767392, -0.0200774334, 0.0023114730, -0.0019200973, 0.0115503464, -0.0408203267, -0.0079578254, -0.0016860128, 0.0469729565, -0.0202464350, 0.0058174538, -0.0016820921, -0.0051630214, 0.0012827974, 0.0394344591, -0.0092908470, 0.0104620699, 0.0218056738, 0.0123849744, 0.0116395913, -0.0127616348, 0.0373268165, -0.0220847130, -0.0181842074, 0.0062936931, 0.0143237244, -0.0087456377, -0.0216513183, -0.0049728164, -0.0190778896, 0.0225973390, -0.0494713895, 0.0155441547, 0.0007623752, 0.0018751810, 0.0127156926, -0.0481777415, -0.0185014196, 0.0027781846, 0.0017975980, -0.0141836982, 0.0219465271, 0.0112845646, 0.0103360824, 0.0197849590, -0.0246567093, 0.0080048498, -0.0206006579, 0.0099205347, -0.0381575301, 0.0125168562, 0.0251739882, 0.0201381128, -0.0382206962, -0.0026274025, 0.0445216857, 0.0408936292, 0.0311460383, 0.0126599232, -0.0322611816, 0.0187956821, 0.0030132679, 0.0164479595, -0.0022303017, 0.0167652369, -0.0474167541, 0.0236587543, -0.0161573458, 0.0063545881, -0.0027601144, 0.0250687376, 0.0086863209, 0.0058812397, 0.0063321996, 0.0253339279, 0.0088133710, 0.0030883581, 0.0064910790, 0.0384171531, -0.0110796075, -0.0465163291, 0.0405624956, -0.0118120229, 0.0281389486, -0.0290654916, 0.0283256900, 0.0312592201, -0.0171867944, -0.0220994242, 0.0309441872, -0.0226974431, 0.0498885438, -0.0000573539, -0.0246335007, 0.0337172374, -0.0102686863, 0.0189662501, -0.0062157689, -0.0116801299, 0.0223659892, -0.0239732843, -0.0169474017, 0.0169549379, -0.0158444662, 0.0011840273, -0.0111110983, 0.0042984583, -0.0111990161, 0.0302420072, -0.0011837684, 0.0396570079, -0.0117709497, -0.0258547831, -0.0248265583, -0.0054987096, -0.0067897486, -0.0074578980, -0.0251675006, -0.0374108031, 0.0054533314, 0.0403766073, 0.0341908000, -0.0294254590, -0.0254338998, -0.0046277903, -0.0266478173, -0.0074728634, 0.0084680635, -0.0060726781, -0.0270044468, -0.0209586136, -0.0082628252, 0.0144683924, -0.0322729312, 0.0149484556, 0.0020914932, 0.0031157190, -0.0006707204, -0.0168531369, -0.0367936306, -0.0026508200, 0.0097740432, -0.0035923091, -0.0176694132, -0.0052698529, 0.0273812544, -0.0370324180, -0.0008734534, -0.0019086770, 0.0233195443, -0.0263495073, -0.0017279939, -0.0323064402, 0.0037685020, -0.0015108447, -0.0340235382, 0.0176198874, -0.0366078243, 0.0230091419, -0.0185241997, 0.0173027236, 0.0157710556, -0.0088346982, 0.0163837429, -0.0250776112, 0.0100200316, 0.0001920639, -0.0008806976, 0.0146385347, 0.0092454292, 0.0192221943, -0.0087862583, 0.0050573288, 0.0505795442, 0.0064283274, -0.0032199393, 0.0161823742, 0.0089239525, -0.0016475886, -0.0187751502, -0.0155433472, -0.0430470034, -0.0156259667, -0.0087472964, -0.0018859312, 0.0334962122, -0.0229601897, 0.0104131866, 0.0409836993, -0.0137846516, 0.0125713684, 0.0049723503, -0.0199042987, -0.0384102426, -0.0034273057, 0.0041984650, 0.0424877405, -0.0182491597, 0.0578694232, 0.0071591591, 0.0061812894, -0.0045658601, -0.0188871920, -0.0166407786, -0.0097297337, 0.0061139232, -0.0015105953, -0.0002332931, 0.0352720022, 0.0064025372, 0.0131217530, 0.0423205830, -0.0007595100, 0.0176586136, -0.0482623354, 0.0120926909, -0.0048981239, -0.0094309058, 0.0140045639, -0.0309060439, -0.0259001851, -0.0164738409, 0.0180453975, -0.0185979269, -0.0054957699, -0.0341258608, -0.0088216951, 0.0235473383, -0.0010239034, -0.0073971953, -0.0317450464, -0.0513335429, -0.0256327186, -0.0101397941, -0.0057397154, 0.0274733547, 0.0311149936, -0.0165200606, 0.0297684204, 0.0098579898, 0.0254614260, -0.0054618148, -0.0221505482, 0.0235512853, 0.0109264217, -0.0488451384, -0.0003657544, 0.0030073831, 0.0007845114, 0.0224659648, 0.0136198932, -0.0363550149, 0.0052780407, -0.0293425564, 0.0169800706, 0.0018574867, 0.0175377857, -0.0337182917, 0.0228005257, 0.0157760251, 0.0348455980, 0.0070688054, 0.0133873085, -0.0017626774, -0.0156258624, 0.0386292078, 0.0106376950, -0.0243043583, 0.0225510839, -0.0173028912, 0.0324999020, -0.0350098610, 0.0264326073, 0.0306992028, -0.0278545171, 0.0046151327, -0.0162012912, 0.0486918949, -0.0347641073, 0.0293814875, -0.0108720930, 0.0029600724, -0.0074484642, 0.0165230446, -0.0362206884, -0.0387632214, 0.0119254151, 0.0008549794, 0.0242442582, -0.0404134579, -0.0014150054, 0.0089930221, 0.0010155954, -0.0027181262, 0.0098698139, -0.0031289884, -0.0133512486, 0.0028171109, 0.0181120150, 0.0208755266, 0.0237459950, 0.0087712929, 0.0292075668, -0.0304241795, 0.0139736095, -0.0276748110, 0.0109182065, 0.0533739515, -0.0103394827, 0.0027342946, -0.0122240465, 0.0056006927, 0.0133669507, 0.0139226485, 0.0056943791, -0.0003557106, 0.0133986901, -0.0044707716, -0.0092066824, 0.0197206810, 0.0256903768, -0.0040703318, 0.0412870795, 0.0155937485, 0.0275169406, 0.0005916686, 0.0204219297, -0.0124988239, -0.0010390051, 0.0700058192, 0.0161649231, 0.0015475493, 0.0627172664, -0.0254963227, -0.0039978707, -0.0139449034, 0.0037935285, 0.0092861000, 0.0120210918, 0.0113513870, 0.0047879857, 0.0634826496, -0.0435577556, 0.0032601196, 0.0131717911, 0.0133861313, 0.0149955684, -0.0019308500, 0.0186198559, -0.0379003100, -0.0140846809, -0.0263324417, 0.0128116831, -0.0042708609, -0.0243164916, 0.0224353634, 0.0307352301, 0.0020160931, -0.0230593737, -0.0080292700, 0.0037835438, -0.0292553660, 0.0485797115, 0.0135720959, 0.0269047022, -0.0020033147, 0.0155313462, -0.0049764230, 0.0070242924, -0.0117495963, 0.0059756362, -0.0327095799, 0.0251685847, -0.0594200604, -0.0250926893, 0.0083995769, 0.0198500417, 0.0177900810, 0.0052080578, -0.0089925127, -0.0095117800, -0.0087594781, 0.0145886783, -0.0129585359, 0.0145163583, -0.0271466114, -0.0123127289, 0.0091269407, 0.0141812749, -0.0064092586, 0.0134236924, 0.0328542776, -0.0307007805, 0.0129008237, 0.0026678233, 0.0287944805, 0.0570743531, 0.0285253152, 0.0036775470, -0.0031263831, -0.0003145701, 0.0094550643, -0.0113509605, 0.0034766817, 0.0028233086, 0.0370472334, -0.0093645491, 0.0374053456, -0.0039242790, -0.0268667061, -0.0292045604, -0.0154582486, -0.0023005456, -0.0432227254, -0.0050872616, -0.0472383499, 0.0293429121, -0.0209470075, 0.0009595404, 0.0087508997, 0.0014844127, -0.0015788451, -0.0490172282, -0.0660229251, 0.0119338594, -0.0001404190, 0.0316195078, 0.0339948609, 0.0281319786, -0.0162901804, 0.0588266589, 0.0153676365, 0.0129752271, -0.0050475029, 0.0498280562, 0.0029727432, 0.0294413194, -0.0514628664, -0.0398106612, 0.0176705662, 0.0190775245, 0.0229941700, -0.0245331824, -0.0150798522, 0.0311357509, -0.0419399142, -0.0018977243, 0.0350419544, 0.0352390446, -0.0203470420, -0.0177477766, 0.0003209773, 0.0084135877, 0.0045253229, -0.0002445235, 0.0285053197, 0.0300503038, 0.0089845099, -0.0070624785, 0.0203980077, 0.0293640196, 0.0305422861, -0.0190121457, -0.0130464891, 0.0199516583, 0.0074427184, -0.0066242167, 0.0125329131, 0.0099245301, -0.0003133662, -0.0270882323, -0.0070839953, -0.0046935603, -0.0119427014, -0.0251010079, 0.0018557234, 0.0178122725, -0.0226356220, 0.0290069897, -0.0289576165, -0.0031419788, -0.0139716314, -0.0027462037, 0.0039976146, -0.0237255748, 0.0113239652, -0.0206233058, -0.0083203679, -0.0073832953, 0.0042298073, 0.0108058136, 0.0146693783, 0.0143816499, 0.0194169711, 0.0419910401, -0.0222827941, 0.0407538563, -0.0241024364, 0.0354173891, 0.0458748080, -0.0159867518, -0.0691316277, -0.0108377403, -0.0205585212, 0.0561646894, -0.0057870075, -0.0020469693, -0.0303263832, 0.0060338741, -0.0084401397, 0.0018807891, 0.0158322360, 0.0141068231, -0.0346789025, -0.0085806288, -0.0147262746, 0.0119965235, -0.0017888176, 0.0119901495, -0.0041153464, 0.0172596406, 0.0628603548, -0.0123057067, 0.0068913866, 0.0343679972, 0.0295810159, 0.0204024110, -0.0016277939, 0.0145260580, 0.0032698540, 0.0055027432, 0.0122301290, -0.0093814852, 0.0214399770, -0.0330624320, 0.0061067296, 0.0017999276, 0.0251454711, -0.0335612819, 0.0025892702, 