//Numpy array shape [3, 3, 128, 128]
//Min -0.307887822390
//Max 0.287895888090
//Number of zeros 0

#ifndef W31_H_
#define W31_H_

#ifndef __SYNTHESIS__
model_default_t w31[147456];
#else
model_default_t w31[147456] = {-0.0090735899, 0.0084728217, 0.0374809727, 0.0021759029, 0.0009142792, 0.0020135609, -0.0080197258, 0.0144826556, 0.0069067799, -0.0028095590, 0.0110820364, -0.0059453058, -0.0014711544, 0.0323027037, -0.0040406194, 0.0012077516, 0.0026204560, 0.0043849368, 0.0058653690, -0.0039319703, -0.0009831479, 0.0025679984, -0.0012171244, 0.0249298196, 0.0132229570, 0.0095355297, 0.0037976841, -0.0132881664, 0.0003788461, -0.0021977262, 0.0115860961, -0.0009851054, 0.0138452891, 0.0152879842, -0.0230902657, -0.0099256318, 0.0134656923, -0.0062774592, 0.0105638048, 0.0001322097, -0.0167248677, -0.0055562174, 0.0040027220, 0.0049365698, 0.0153023694, 0.0038572764, 0.0093294438, 0.0299822222, -0.0125353346, 0.0038204847, -0.0308167022, 0.0054086624, 0.0112485187, 0.0160044171, 0.0146152275, -0.0086577265, 0.0110562546, 0.0059629232, -0.0100228451, -0.0225570370, 0.0195610169, 0.0107051898, -0.0126635488, -0.0049514454, -0.0098478552, 0.0136809815, 0.0072145630, 0.0153136421, 0.0283725653, -0.0007749608, 0.0038924222, 0.0003498951, 0.0011377226, -0.0340507999, 0.0140301986, -0.0025501309, 0.0127183795, -0.0140954591, 0.0000262721, 0.0303787533, 0.0193454977, 0.0015581183, 0.0228614844, -0.0196477138, -0.0053191450, 0.0089321565, 0.0216020793, 0.0167731866, 0.0230992138, 0.0139409341, 0.0080557251, -0.0114778234, 0.0105409874, -0.0089844000, 0.0260530226, 0.0077503123, -0.0146984188, -0.0075686132, 0.0119480249, 0.0138134500, -0.0057930877, -0.0004538543, -0.0017574923, -0.0300677922, 0.0119169131, 0.0220965389, 0.0190829001, -0.0221312270, 0.0018181946, 0.0107799545, -0.0073326961, 0.0089431871, 0.0170374941, -0.0077027301, 0.0091339294, 0.0098983096, 0.0130188232, 0.0081358599, 0.0115773110, 0.0091441991, -0.0024156636, 0.0054028584, 0.0020474792, -0.0090779914, 0.0035366062, -0.0250843316, 0.0260197334, -0.0113939410, -0.0216081627, -0.0074436185, 0.0191966891, 0.0427998602, -0.0042441161, 0.0126576843, 0.0000297695, 0.0084764911, -0.0079365894, -0.0052113771, -0.0106749339, -0.0163504388, 0.0026340194, -0.0203045886, -0.0190930869, 0.0227253921, 0.0074320897, -0.0088215666, 0.0285431407, -0.0071854657, 0.0107047819, -0.0096453978, -0.0177898780, 0.0156464148, 0.0056915665, -0.0031406921, 0.0033078906, 0.0036188448, -0.0215703677, -0.0039822459, 0.0024729450, 0.0163776912, 0.0031600469, 0.0283626299, 0.0189477932, -0.0100527881, -0.0003492020, -0.0194278751, 0.0003509280, 0.0007813681, -0.0090480186, 0.0070542046, 0.0049847029, 0.0039782990, -0.0154590448, 0.0082321800, 0.0033061660, 0.0178441908, -0.0050227013, -0.0117154038, -0.0304087829, -0.0085491538, 0.0191127639, 0.0150134824, 0.0478395000, 0.0091355117, -0.0022591532, -0.0008479744, 0.0033512530, -0.0066612582, 0.0107567552, 0.0030394793, -0.0148008289, 0.0011163006, 0.0070223883, 0.0106360894, 0.0182017833, -0.0079352893, -0.0020147189, -0.0185709074, 0.0039065550, 0.0053085410, 0.0113885729, -0.0043043946, -0.0217099655, 0.0131789455, -0.0061665112, 0.0159022883, 0.0101038236, 0.0108154742, 0.0087091941, -0.0025619164, 0.0378482491, -0.0134025468, -0.0223664287, -0.0032813041, -0.0006965332, 0.0053880261, -0.0110864183, -0.0091881137, 0.0009984007, -0.0019010522, -0.0041602477, -0.0046924944, 0.0037822982, -0.0013590867, -0.0153062167, -0.0140828900, -0.0077927327, 0.0165823754, 0.0042507215, -0.0054776110, -0.0022255140, 0.0032016227, -0.0022091330, 0.0014806370, 0.0008976582, -0.0180173758, 0.0284374729, -0.0082407212, -0.0086843427, 0.0038491637, -0.0181282107, -0.0132654207, 0.0047282446, -0.0206457358, -0.0227086004, 0.0012876733, -0.0025408994, 0.0065917633, 0.0049281348, 0.0150630698, 0.0050146985, 0.0133294836, 0.0024918388, 0.0228751097, -0.0012754509, 0.0014333463, 0.0088945953, -0.0228140503, -0.0006004090, 0.0074440707, -0.0003685894, 0.0126195857, -0.0156232389, 0.0122383926, 0.0096105523, 0.0031438088, 0.0029231689, 0.0070960731, -0.0007559427, -0.0161533915, 0.0153348949, -0.0109299105, 0.0054072449, 0.0077170460, -0.0060447622, -0.0068364884, 0.0065416116, -0.0128005669, -0.0080041876, -0.0061349678, 0.0012809923, 0.0036890509, -0.0009354271, -0.0178471915, 0.0027066597, -0.0028477223, 0.0058789640, 0.0144198108, 0.0219709370, -0.0085109165, 0.0042421445, 0.0093467236, -0.0046366216, -0.0445991233, 0.0055187736, -0.0057420502, -0.0127149299, 0.0116597610, 0.0113403480, -0.0435511023, -0.0100973202, -0.0252189822, -0.0100903222, -0.0036738049, -0.0085152201, -0.0013508999, -0.0169186611, -0.0001059312, 0.0107332319, -0.0102551142, 0.0104637798, -0.0011738435, 0.0241257139, 0.0111385649, 0.0195143130, -0.0103542665, 0.0027897407, 0.0100083640, -0.0175725538, -0.0134449499, 0.0038347594, -0.0026110027, 0.0090497900, -0.0102730133, -0.0117790522, 0.0088325720, 0.0016293032, 0.0018849109, 0.0036478946, 0.0025617348, -0.0029271545, 0.0174752846, -0.0087624136, 0.0000718097, -0.0064246785, -0.0363350064, 0.0055776597, 0.0046238434, 0.0049366960, 0.0014584070, -0.0229466502, 0.0059290580, 0.0010310081, -0.0283662844, 0.0012529868, -0.0078794453, -0.0047438149, -0.0022162583, 0.0048492858, -0.0205979645, 0.0148205878, -0.0186651088, 0.0057348390, 0.0000407893, 0.0087930653, 0.0010738962, -0.0214379579, 0.0066121477, -0.0284133907, 0.0057657398, 0.0097988546, 0.0017964782, 0.0079326490, -0.0085056070, 0.0193950702, -0.0027918967, 0.0049789557, -0.0120736985, 0.0196803752, -0.0076501886, 0.0003802347, -0.0117624635, 0.0002743953, -0.0121452753, -0.0048788693, -0.0127527174, 0.0050885146, -0.0239031408, 0.0006095514, 0.0029949658, -0.0294608530, 0.0065473737, -0.0046959957, -0.0053847772, -0.0099617513, 0.0110730184, 0.0261403043, 0.0068601291, -0.0059263092, 0.0034298822, -0.0127727613, -0.0010595043, 0.0095391702, -0.0229895748, 0.0140228560, -0.0114254914, -0.0210088119, 0.0070496453, 0.0042648534, 0.0131860962, 0.0090655657, -0.0428609997, 0.0145695740, 0.0056224409, 0.0146756601, 0.0094145034, 0.0094515514, 0.0123839667, 0.0017553564, 0.0008186023, 0.0124439793, -0.0071289078, -0.0093524158, -0.0096474541, 0.0127404956, 0.0198788736, 0.0070661670, -0.0074958056, -0.0035755353, 0.0113731641, 0.0058116848, 0.0059432439, -0.0014680963, -0.0068528410, -0.0089082848, -0.0147618633, 0.0125138387, -0.0065108314, -0.0096128238, -0.0218786281, -0.0019046458, 0.0127562005, -0.0156658962, 0.0077775768, -0.0190288406, 0.0061678374, 0.0055072494, 0.0079257330, 0.0191784687, -0.0352692828, 0.0125202825, -0.0058004097, 0.0007498487, -0.0176537745, -0.0090148821, -0.0007128346, -0.0275296848, -0.0102833873, -0.0143748559, 0.0142607270, -0.0140613280, 0.0062545957, 0.0105500147, 0.0084495395, -0.0171108991, 0.0101066632, 0.0078075435, 0.0052716164, 0.0138875945, 0.0004584258, -0.0048146597, -0.0003295920, -0.0006195472, 0.0169944670, 0.0038867148, 0.0290661063, 0.0169069897, -0.0182022881, 0.0112698264, -0.0054768436, 0.0026282710, -0.0042539886, 0.0121366652, -0.0053958367, 0.0306535196, -0.0102157537, 0.0220773555, -0.0102377934, 0.0191482473, -0.0248728991, 0.0131012760, 0.0064640641, 0.0077559645, -0.0087454999, -0.0248926785, 0.0284694210, 0.0079562431, -0.0078191245, 0.0190559682, -0.0008745816, 0.0217065718, -0.0227640066, 0.0002784336, 0.0282136779, 0.0107252318, -0.0101280911, -0.0073828008, 0.0059760492, -0.0023205651, -0.0105944546, -0.0214499366, -0.0039701513, 0.0002909726, 0.0066322065, -0.0174476914, 0.0117577994, -0.0055700010, 0.0126721533, -0.0034988120, 0.0084337918, 0.0151069779, -0.0083428863, 0.0004666873, -0.0190125462, -0.0148112858, 0.0022076417, -0.0161276218, 0.0122538200, 0.0004618563, 0.0163694546, 0.0050190887, -0.0038443271, -0.0008585274, -0.0163853113, 0.0011419047, -0.0138538843, 0.0048586628, 0.0187681112, 0.0066210222, -0.0163892526, 0.0088326605, -0.0174912829, -0.0017772533, 0.0071856692, 0.0271472856, -0.0158322901, -0.0038254326, 0.0109218061, -0.0069664302, 0.0225415118, -0.0110030677, -0.0299718454, 0.0157214943, -0.0037970517, 0.0052189762, 0.0277862195, -0.0008796343, 0.0087684924, -0.0030890859, 0.0046915603, 0.0029124985, -0.0076335166, -0.0261992011, -0.0194632784, -0.0017206229, 0.0211650617, -0.0166302733, 0.0014717327, -0.0038912301, -0.0082088904, -0.0130324671, 0.0007082401, 0.0057088551, -0.0211319942, 0.0182733238, -0.0028540918, 0.0276983809, 0.0343028530, -0.0180588868, 0.0177356787, 0.0057936953, 0.0020155979, -0.0204322077, 0.0284474846, -0.0067482907, 0.0058052433, 0.0043681762, -0.0036275580, 0.0015466707, 0.0027424025, 0.0092381909, -0.0015981151, 0.0004289775, -0.0037196148, -0.0082252454, -0.0078626154, 0.0120783113, 0.0048524723, -0.0148039460, -0.0068992181, 0.0091233999, -0.0088958591, 0.0004737671, 0.0004266942, -0.0039167940, -0.0185296293, 0.0084191207, 0.0084790075, 0.0209777243, -0.0207021851, 0.0118988566, 0.0111934105, -0.0067817857, -0.0106200492, 0.0185219590, 0.0022387549, -0.0024679645, -0.0166478064, -0.0141725494, -0.0080041606, 0.0063553499, -0.0006056221, -0.0355969258, -0.0123716779, 0.0016916955, 0.0103309834, 0.0031806112, 0.0094849365, -0.0044269962, -0.0101017598, 0.0081631504, 0.0210290495, 0.0191333517, -0.0163935255, -0.0164926536, 0.0023243872, 0.0299917124, 0.0041531539, -0.0269612763, 0.0056524253, -0.0200695805, 0.0169025082, 0.0022077486, 0.0038051109, -0.0061868732, -0.0142508075, -0.0032182105, 0.0253115762, 0.0074096355, 0.0081347544, -0.0058883284, -0.0241616312, -0.0286177378, 0.0085602785, -0.0095321322, 0.0009593710, 0.0054755071, -0.0097221751, 0.0163942333, -0.0050920541, -0.0000576636, -0.0231590718, -0.0133685740, -0.0473549031, -0.0198949482, 0.0087927887, -0.0060484987, -0.0124467574, -0.0037904512, -0.0188831594, 0.0211102366, -0.0061624809, 0.0137235196, 0.0076407334, 0.0045284964, 0.0235441253, 0.0110134911, -0.0136350170, -0.0123798419, -0.0195908807, 0.0092321150, 0.0216099080, -0.0037810833, -0.0070661209, -0.0028961354, 0.0036713982, -0.0067922161, -0.0113651371, 0.0029227636, -0.0032567689, -0.0288434867, -0.0322680585, 0.0075549614, 0.0274306312, 0.0040455721, -0.0121717937, 0.0108502014, -0.0046551023, -0.0357974283, 0.0130122676, -0.0062262239, -0.0300372336, -0.0019652520, 0.0046584187, 0.0146711841, -0.0071840729, -0.0105971815, -0.0159176569, 0.0044441619, -0.0198900290, 0.0053395033, 0.0002254230, 0.0010040512, 0.0149398651, -0.0026549515, 0.0003644737, 0.0007362189, 0.0183378533, -0.0022665218, 0.0087326597, 0.0087529691, -0.0316490531, 0.0181895178, 0.0055713444, 0.0385933258, 0.0387754478, -0.0024240171, -0.0040549245, -0.0010058186, -0.0010698696, 0.0287642069, -0.0127624003, 0.0095243892, -0.0128099388, 0.0120793805, -0.0003513760, 0.0036490366, -0.0271827057, 0.0044383975, 0.0070488169, 0.0117914760, -0.0187007375, 0.0156177664, -0.0089846291, -0.0209769178, -0.0399116240, 0.0085554374, 0.0097191315, 0.0162684936, 0.0153008103, -0.0307899788, 0.0112606017, 0.0159481745, 0.0128263263, 0.0079475483, 0.0080411490, -0.0103498651, -0.0281711407, -0.0078951288, 0.0211071838, 0.0106771803, -0.0176272895, -0.0103247575, 0.0212886408, 0.0109584723, 0.0151410028, 0.0000696881, 0.0101292282, 0.0041130534, 0.0313598886, -0.0105651487, 0.0049805897, -0.0023325782, 0.0072539956, 0.0009482344, -0.0079129878, -0.0004491343, -0.0065974072, 0.0181707256, -0.0132855028, 0.0157116260, -0.0026052475, 0.0166144930, -0.0146539081, -0.0453802198, 0.0124281030, 0.0043260474, -0.0014117000, -0.0031379457, -0.0101399738, -0.0206947997, 0.0128139993, -0.0014308881, -0.0036710880, 0.0031382064, 0.0009590053, 0.0195861533, -0.0127758840, 0.0247859359, -0.0046225656, 0.0126005206, 0.0007692945, 0.0114163393, -0.0015085198, 0.0019889532, 0.0035989806, 0.0222948510, 0.0025688820, 0.0165618882, 0.0137526300, 0.0149657037, 0.0024708509, 0.0158393048, 0.0216794256, -0.0020796633, -0.0014333163, -0.0272433087, -0.0099638347, 0.0126974946, -0.0251257662, 0.0108278114, 0.0325795487, 0.0097119370, -0.0356621817, -0.0221590642, -0.0139356637, -0.0069254800, 0.0002045837, -0.0233474933, -0.0358049795, 0.0215394180, 0.0184672363, -0.0207474772, -0.0173603036, 0.0064438768, 0.0115188397, 0.0171442367, -0.0303137824, -0.0118200136, 0.0091826543, -0.0414415002, -0.0209661014, -0.0341345370, -0.0109515069, -0.0156489555, -0.0049952879, 0.0080257570, 0.0064556217, -0.0217779353, 0.0116230100, 0.0389464051, -0.0107328724, 0.0180744026, 0.0032150622, -0.0078892428, 0.0209616255, -0.0433959924, 0.0085132904, -0.0005133947, 0.0206341073, 0.0043091667, -0.0154851237, -0.0070149745, 0.0017372802, 0.0210976787, -0.0033935220, -0.0011307980, 0.0111590168, -0.0010762271, -0.0278066657, 0.0060838740, -0.0109422617, 0.0126384813, -0.0052511878, 0.0066199857, -0.0097677922, -0.0005845459, -0.0427441709, -0.0235334877, 0.0019726530, -0.0174334049, 0.0114491396, 0.0039580227, -0.0260095540, 0.0035179968, -0.0106302714, 0.0172179565, 0.0057329498, 0.0173785295, -0.0142490556, 0.0058389888, 0.0012308515, -0.0127348490, -0.0051436364, -0.0286614560, -0.0132438513, 0.0262438580, 0.0101942243, -0.0016601300, -0.0129239066, -0.0024112172, 0.0096400119, 0.0028380230, -0.0086004380, -0.0104487147, -0.0296308678, -0.0167370420, -0.0106685720, 0.0197229329, -0.0101985326, 0.0050025759, 0.0007223178, -0.0124768140, 0.0096937539, -0.0009684457, -0.0153059484, 0.0348345898, -0.0342735462, -0.0103747547, -0.0496978834, -0.0213208012, -0.0062450706, 0.0053671924, 0.0038895253, 0.0076215644, -0.0282034576, 0.0040979767, -0.0173098687, 0.0178179201, 0.0026039372, -0.0043991297, 0.0114610186, 0.0126176542, -0.0234095827, 0.0234044269, -0.0302134734, 0.0180922113, 0.0123531371, -0.0005681589, -0.0071205068, 0.0240228083, 0.0047843796, 0.0010490810, -0.0020986495, 0.0159092341, -0.0215065926, -0.0150053790, -0.0136428904, -0.0031807376, 0.0276146177, -0.0142577412, 0.0079342108, -0.0338316634, -0.0088190660, -0.0112157986, -0.0011775483, -0.0114574675, -0.0330513120, 0.0073505589, 0.0193010941, -0.0071970127, -0.0218579303, -0.0256741811, 0.0165752079, -0.0066716578, 0.0084624123, 0.0029662696, 0.0154611794, -0.0198839288, -0.0187899061, -0.0166591145, 0.0008182076, 0.0107991993, 0.0358190835, 0.0070921751, -0.0329310410, 0.0085326377, 0.0118085984, -0.0009238000, 0.0055575138, 0.0089421719, 0.0100200046, -0.0168323945, 0.0111136697, -0.0202211197, -0.0061281831, -0.0215362851, 0.0086367829, 0.0081551159, -0.0080063716, 0.0119348764, 0.0069023338, 0.0019076483, -0.0088736694, -0.0121016186, 0.0005340481, 0.0031018001, -0.0034260193, 0.0056068078, 0.0174499247, -0.0047040153, 0.0147546502, 0.0128992386, -0.0052190316, -0.0109550375, -0.0308547504, -0.0093443701, -0.0061689308, -0.0079598064, -0.0069404258, -0.0291895270, 0.0212657563, 0.0193199664, -0.0048444048, 0.0137716029, 0.0096530300, -0.0018546089, -0.0320305526, -0.0009026601, 0.0053898431, -0.0004870070, 0.0164698120, -0.0236219577, 0.0030467268, -0.0020739150, -0.0060439720, 0.0075748293, 0.0085169822, -0.0109313168, 0.0226032864, 0.0027353584, -0.0291056335, -0.0166651271, -0.0328437351, -0.0277248882, -0.0164605603, -0.0076633049, 0.0017218440, 0.0026742944, 0.0073205861, -0.0159252752, -0.0119538493, -0.0046984726, 0.0075412430, 0.0068358863, -0.0144712785, -0.0219618008, -0.0202395879, -0.0324479304, 0.0033793256, -0.0065688514, -0.0128493868, -0.0106553948, -0.0165507644, 0.0222875588, -0.0062529463, 0.0086707398, -0.0019477751, -0.0121779600, -0.0000460735, 0.0040509058, -0.0318776891, 0.0126524549, -0.0285658259, 0.0273481999, 0.0170194115, 0.0196884051, 0.0018351808, 0.0008566009, 0.0265258607, 0.0070150420, -0.0281921625, -0.0166865587, -0.0190458819, -0.0011843957, -0.0036399269, 0.0097308280, -0.0122423489, -0.0083364984, -0.0051267245, -0.0133565180, -0.0161016546, -0.0194933563, -0.0150894318, -0.0049909088, -0.0113936113, 0.0114231063, 0.0101958597, -0.0187158193, -0.0061733513, -0.0284854900, 0.0096764453, 0.0115625998, -0.0412802622, -0.0093925670, -0.0056901150, -0.0453827679, -0.0290210415, -0.0246886667, -0.0005485002, -0.0152215129, 0.0156680513, 0.0072212857, -0.0175424349, -0.0095996251, 0.0027360211, -0.0055277580, -0.0023563993, 0.0201628078, -0.0057046465, -0.0052414234, 0.0035664365, -0.0186803490, -0.0312430095, -0.0210407581, -0.0015237482, 0.0123446118, -0.0139237316, 0.0167540126, -0.0001559965, 0.0160730295, -0.0056231893, -0.0231147557, -0.0144028645, 0.0065000327, -0.0127800405, 0.0041042077, 0.0014207646, -0.0121715432, 0.0040537608, 0.0241800286, 0.0041017723, -0.0098162629, -0.0380170643, -0.0173898172, -0.0033534365, -0.0427190997, -0.0207717624, -0.0094798952, 0.0153766098, -0.0121945227, -0.0244693551, 0.0291599184, 0.0105668576, 0.0047625182, -0.0353680104, -0.0183377322, 0.0003957765, 0.0219526570, -0.0065839565, 0.0132061867, 0.0010726622, 0.0320374928, -0.0044965972, -0.0014824616, -0.0105915805, -0.0261181649, 0.0175416935, -0.0025669511, -0.0102030272, -0.0170312002, -0.0482073948, -0.0067554843, -0.0107672028, -0.0226495210, -0.0303151011, 0.0125432732, 0.0035439651, 0.0023572622, 0.0177246556, 0.0333948247, -0.0062155859, 0.0064891325, 0.0026893872, 0.0231270362, 0.0247691721, 0.0102853011, 0.0166268591, 0.0152586587, 0.0164358243, 0.0176818483, 0.0016703820, 0.0198782552, 0.0251236036, 0.0092605846, 0.0120576415, 0.0239408463, -0.0032831563, 0.0081566311, 0.0262486674, 0.0027106630, 0.0116332537, 0.0149665503, 0.0147796609, -0.0013104996, 0.0034603972, 0.0086574713, 0.0048419377, 0.0241730791, 0.0103083234, 0.0029687926, 0.0162879471, -0.0051449188, -0.0026231871, 0.0287215989, 0.0031443401, -0.0001178563, 0.0058299163, -0.0360532776, 0.0221411809, 0.0391223803, 0.0134295775, 0.0069277580, -0.0121747339, 0.0096069686, -0.0009596166, 0.0225631911, 0.0025303657, -0.0275181606, 0.0232672896, -0.0078912470, -0.0150038479, 0.0083111199, 0.0097939940, -0.0030264901, 0.0006114967, 0.0142097156, 0.0212963019, -0.0096485391, 0.0010843067, 0.0175320376, 0.0100653255, -0.0278726108, 0.0293942820, 0.0213938616, 0.0115493769, 0.0145433974, 0.0292323083, 0.0060468754, 0.0134896701, 0.0030391684, 0.0039332928, -0.0100650638, 0.0118564684, 0.0097444206, 0.0066230940, 0.0107324924, -0.0229053684, 0.0224684402, -0.0032594616, -0.0013711633, 0.0245372988, 0.0054532951, 0.0130317044, 0.0089492677, 0.0145635614, 0.0031731182, -0.0206831507, 0.0149354683, 0.0144140683, -0.0096838856, 0.0083707767, -0.0089740315, 0.0161895212, -0.0282469131, 0.0260467362, 0.0314709842, 0.0240889024, -0.0048026494, -0.0081315888, -0.0038648001, 0.0003059377, -0.0053765816, -0.0002419830, -0.0115226517, -0.0103359809, 0.0046778168, -0.0013822149, 0.0150033524, -0.0098143667, 0.0419127792, 0.0122484276, -0.0164038949, -0.0063937595, 0.0097652692, 0.0185955334, -0.0061966372, -0.0193469170, -0.0003894855, 0.0034939805, 0.0039147190, -0.0040979092, -0.0053422018, -0.0283905789, 0.0141140586, 0.0004743818, 0.0053174747, 0.0042711920, 0.0069816113, 0.0009916397, 0.0042251935, -0.0266338494, -0.0026444003, 0.0268371943, 0.0011560956, 0.0071579870, 0.0016086319, 0.0203578174, 0.0063153249, -0.0009492837, 0.0089913476, -0.0020817572, 0.0107842097, 0.0087516000, -0.0020717836, 0.0127669601, 0.0107051553, 0.0033550018, -0.0054595433, -0.0005450887, 0.0280580763, 0.0145612108, 0.0060555977, -0.0005987578, 0.0044471249, 0.0155523866, 0.0094570732, -0.0183522403, -0.0089255823, 0.0015566741, -0.0043151760, -0.0117121330, 0.0231705271, -0.0200765673, 0.0094068293, -0.0037001956, 0.0228248220, 0.0018859018, 0.0057967561, 0.0148895793, 0.0164494179, -0.0058538867, 0.0186750181, 0.0164305884, -0.0168032981, 0.0222242139, 0.0053291009, 0.0110591156, -0.0124565689, 0.0012933003, 0.0023042054, -0.0167073403, 0.0176240876, 0.0144236591, -0.0005653757, 0.0126394834, 0.0077270325, 0.0071591865, 0.0161345210, 0.0102955317, -0.0024723625, 0.0302527416, 0.0023579472, 0.0140518704, 0.0048303637, 0.0024840876, 0.0024714584, -0.0213317480, -0.0044309427, 0.0158058330, -0.0147979883, -0.0106914956, 0.0043553333, 0.0129040182, 0.0234540850, -0.0036210846, 0.0005384167, 0.0181750041, 0.0022212334, 0.0030577241, 0.0148832742, 0.0109583158, 0.0247086585, 0.0147780906, 0.0188511424, 0.0007896391, -0.0022915308, 0.0074868691, -0.0231952406, -0.0008192394, -0.0102793351, -0.0023852356, -0.0198366065, -0.0051006381, 0.0218291748, 0.0110728415, 0.0262183268, 0.0165639613, 0.0260455105, 0.0042551733, 0.0079643717, 0.0168471225, -0.0023448204, -0.0197702628, -0.0231716949, -0.0047995080, 0.0127215451, -0.0167465825, 0.0247562788, -0.0156649295, -0.0048008249, -0.0153944390, 0.0138798449, 0.0280812290, -0.0017972608, -0.0125126280, -0.0237820745, 0.0042654523, 0.0091144564, 0.0127249192, 0.0265473370, 0.0122242020, 0.0065160259, 0.0000214390, 0.0025212166, -0.0057026851, 0.0074774083, -0.0149880266, 0.0146165891, -0.0057397108, -0.0037456050, 0.0180010777, -0.0075684134, -0.0125983814, 0.0114124911, 0.0048140795, 0.0038850240, -0.0064286818, -0.0078468593, -0.0010710895, 0.0159467626, 0.0011159240, -0.0027470093, 0.0133470511, 0.0186644867, -0.0065181325, 0.0148636457, 0.0000108865, 0.0168533660, 0.0177078098, 0.0188736208, 0.0145100523, -0.0155072976, 0.0176429003, 0.0074364464, -0.0205114540, -0.0073195416, 0.0047988165, -0.0022113940, -0.0079599582, 0.0096692182, 0.0104156686, 0.0057065655, -0.0087947696, -0.0016506393, 0.0040451051, -0.0212873779, 0.0103621967, 0.0046132826, -0.0016709702, 0.0200704988, 0.0308946390, -0.0285512507, -0.0048725400, -0.0115018580, 0.0153264301, -0.0114592006, 0.0016259049, -0.0001021755, 0.0040637203, -0.0051009879, 0.0072122151, -0.0085807778, 0.0135378158, -0.0080124578, 0.0108747734, 0.0319861248, -0.0062817084, -0.0059067057, -0.0020038849, -0.0174568146, -0.0142838852, 0.0148149980, 0.0054872134, 0.0079966476, -0.0026311032, -0.0004204012, -0.0117469439, -0.0081095686, 0.0166033786, 0.0199891627, -0.0106737409, 0.0291200727, 0.0027490782, 0.0141030066, 0.0318440385, -0.0063632163, -0.0196727216, 0.0343602486, 0.0065645543, 0.0196190961, -0.0045095882, 0.0268500913, -0.0124477744, 0.0228272639, 0.0351357125, 0.0042328867, -0.0062528164, -0.0035039296, -0.0136764059, 0.0011327105, 0.0030203511, 0.0003125487, 0.0016859268, 0.0227567516, -0.0224253517, 0.0225874539, 0.0356028304, 0.0164213572, -0.0043761823, 0.0095192697, -0.0194492154, -0.0003587992, -0.0133249741, 0.0064293542, 0.0033775147, -0.0085533783, -0.0226160958, -0.0025004598, 0.0222086776, -0.0067710485, 0.0095583890, -0.0016808533, -0.0326978341, -0.0125803500, 0.0017520351, 0.0045721484, -0.0145280771, 0.0276355483, 0.0053196508, 0.0012786611, 0.0146941580, 0.0029287625, 0.0162247159, 0.0023284059, 0.0013920483, 0.0169122405, -0.0001060075, 0.0148226963, 0.0099346414, -0.0000514931, 0.0123531753, 0.0125067830, -0.0124092139, -0.0034883418, 0.0176760033, 0.0045170379, -0.0032583349, 0.0182450376, 0.0109848464, 0.0230074823, 0.0028458773, 0.0091165816, 0.0016675225, 0.0132394871, -0.0023338818, 0.0110747851, 0.0108578429, 0.0222370028, 0.0091134906, 0.0221022256, 0.0043807602, 0.0061062067, 0.0020756375, 0.0029858986, -0.0090724090, 0.0007397519, 0.0054661511, 0.0014570714, -0.0238511711, -0.0083855446, 0.0225846823, -0.0124483863, -0.0027518559, 0.0158399660, 0.0201154072, -0.0015558712, -0.0140215727, 0.0110440589, -0.0026311618, -0.0033552083, -0.0045110532, 0.0010259295, 0.0184735395, 0.0265043359, -0.0104410546, -0.0136073837, -0.0008406629, -0.0004562937, 0.0277172439, 0.0007384827, 0.0145957386, -0.0050109169, -0.0221933592, 0.0086335335, 0.0074687819, -0.0091115944, 0.0064755119, -0.0090101687, 0.0128351627, 0.0037132567, 0.0073021473, 0.0152750602, -0.0004307387, 0.0056106490, -0.0248388425, -0.0023835201, -0.0020043626, 0.0021337497, 0.0011069376, -0.0312409215, -0.0040607215, 0.0010572952, 0.0150164301, 0.0007285389, -0.0201945882, -0.0070620640, 0.0036711530, -0.0197766572, -0.0235495996, 0.0088883927, -0.0108192395, -0.0008603223, 0.0139572220, 0.0047048656, 0.0049134628, -0.0014399262, 0.0025035751, 0.0102015687, 0.0015457193, -0.0011603904, 0.0168635342, -0.0193515643, 0.0007948172, 0.0242275894, -0.0084202951, 0.0147403106, 0.0027881155, -0.0077665411, 0.0125432750, 0.0119040878, 0.0286947917, 0.0386654362, 0.0031799348, 0.0058856900, -0.0148462392, 0.0006143591, -0.0115535790, 0.0010511596, -0.0137621611, -0.0070449240, 0.0061767851, -0.0018037846, 0.0040818173, -0.0062242183, -0.0027191264, 0.0164502561, 0.0112706646, 0.0312009715, 0.0079099089, 0.0105305398, 0.0122438567, 0.0275603998, -0.0157455113, 0.0003249391, -0.0106203565, 0.0233837273, 0.0275670979, -0.0035849193, -0.0037478858, 0.0139294295, -0.0063042967, 0.0142664397, -0.0067613097, -0.0009089213, 0.0188896842, -0.0068112253, 0.0128679713, 0.0030011740, 0.0121823400, 0.0144884419, 0.0203590598, 0.0146945072, -0.0123341689, 0.0089690294, 0.0108110718, 0.0201252252, 0.0276771784, 0.0119442306, -0.0046904157, 0.0166807789, -0.0141320359, 0.0106247291, 0.0021473879, -0.0030524645, -0.0021324831, 0.0299968868, -0.0273411721, -0.0197573602, -0.0040533589, -0.0011916811, -0.0120059708, -0.0030854251, -0.0021330512, 0.0057105185, -0.0136112832, 0.0184886903, 0.0067662294, -0.0096739214, 0.0091096852, -0.0028961857, 0.0113896783, -0.0153412754, -0.0120161027, 0.0037408369, 0.0084213745, 0.0038769967, 0.0137449857, 0.0106209395, 0.0099028805, -0.0012897395, 0.0144676920, 0.0266891383, -0.0064590075, 0.0069388337, 0.0161314234, 0.0151374862, 0.0010605260, 0.0192106683, 0.0022610712, 0.0106757125, -0.0343854204, -0.0023074406, -0.0162494686, -0.0086227059, 0.0191858858, 0.0208824854, 0.0015642651, 0.0312836282, 0.0091269016, 0.0126825040, 0.0221034959, 0.0194642693, -0.0145976460, 0.0223173872, 0.0077172546, 0.0100317523, 0.0060993386, -0.0031340143, -0.0091955001, 0.0187054425, 0.0243612956, 0.0200075917, 0.0154577047, 0.0046078204, 0.0002718192, -0.0116739292, -0.0135066872, 0.0060690045, -0.0159740578, 0.0131996442, -0.0028772368, 0.0070816465, -0.0122549813, 0.0270254593, 0.0127247255, 0.0098232450, -0.0160769057, 0.0086942539, 0.0071250810, 0.0301851686, 0.0055598849, 0.0234730132, -0.0109818242, 0.0083780922, -0.0049292808, 0.0102178818, 0.0324894227, -0.0042969328, -0.0005259744, 0.0020106069, 0.0056377091, 0.0154033732, 0.0072374768, -0.0010571103, -0.0364900157, 0.0305229258, -0.0111711733, -0.0143327573, 0.0018052754, 0.0217031687, -0.0290749203, 0.0111345118, -0.0084061390, 0.0009465996, 0.0224195737, -0.0047748173, 0.0107825808, 0.0100021800, -0.0005032464, 0.0233890191, -0.0059991549, 0.0029093593, 0.0089508025, -0.0186075754, -0.0004162223, 0.0212231111, -0.0051154755, 0.0245591868, -0.0012895970, 0.0170963015, 0.0040080179, 0.0150816580, 0.0257675666, 0.0126632694, 0.0123984935, -0.0053568962, 0.0448383428, 0.0196546726, -0.0212663021, 0.0017171690, -0.0055076242, 0.0117501272, -0.0093318745, 0.0223194826, 0.0065347552, -0.0043240320, 0.0025933650, -0.0083068954, -0.0010492310, -0.0018907738, 0.0101325437, -0.0068739601, -0.0175764859, 0.0262624342, 0.0222285781, 0.0021647869, -0.0026129540, 0.0184963644, 0.0158540141, -0.0320407711, 0.0000114738, -0.0165903140, 0.0146035058, -0.0038828403, 0.0068914532, -0.0067749182, 0.0232048072, -0.0150282551, 0.0109852916, 0.0063821110, 0.0087871905, -0.0069802813, 0.0094517032, 0.0048800753, 0.0354723670, 0.0324715227, -0.0166655220, -0.0040750438, 0.0095787188, -0.0155131053, 0.0110588949, -0.0053573195, 0.0136247687, 0.0030388846, 0.0019516612, -0.0000536768, 0.0006860264, 0.0217381585, 0.0071237953, 0.0093422998, 0.0113118710, 0.0319043882, -0.0029875874, 0.0264304411, -0.0024128379, 0.0081620123, 0.0119910976, 0.0217017122, 0.0197597817, -0.0092869811, 0.0088027269, -0.0077570900, 0.0046152151, -0.0206384119, 0.0088550439, -0.0034314878, -0.0081970785, 0.0240329057, -0.0154637313, 0.0193913169, 0.0079408875, 0.0137552610, 0.0114475908, 0.0209563058, -0.0060229017, -0.0137163866, 0.0073429174, -0.0142803406, -0.0027000615, 0.0064162877, -0.0141090928, -0.0024636532, -0.0190339498, 0.0022293383, 0.0045195054, -0.0074585201, 0.0111175068, 0.0218839012, -0.0072273472, -0.0169681516, -0.0150949555, 0.0128637096, 0.0238008294, 0.0019895390, 0.0080835531, 0.0040966910, -0.0014478663, 0.0038477154, -0.0096494751, -0.0139934644, 0.0004327632, 0.0065124128, -0.0413059406, 0.0076277060, -0.0045618406, -0.0086485669, -0.0142352711, -0.0008476896, -0.0051124380, 0.0003012239, 0.0020896825, 0.0246995874, 0.0183054507, 0.0228867587, 0.0291856043, 0.0023530854, -0.0377203785, -0.0063361819, 0.0030875627, 0.0006957959, 0.0007725298, 0.0001665464, -0.0049429145, 0.0306474827, 0.0019977589, -0.0068968334, -0.0257593021, 0.0104904491, 0.0068618422, -0.0128224613, 0.0067893523, -0.0065930430, -0.0199186467, 0.0002579825, -0.0077030617, -0.0057450314, 0.0097738896, -0.0255322922, 0.0450370796, -0.0022259923, -0.0179510526, -0.0013303327, -0.0068143909, 0.0239280239, 0.0121704489, 0.0026600398, -0.0056697009, 0.0028684854, -0.0072812308, -0.0006224550, -0.0186789930, 0.0002562633, -0.0078521678, 0.0040119831, 0.0014238259, 0.0139717320, -0.0031127110, 0.0107046803, 0.0014589743, -0.0081359074, -0.0108020864, 0.0138359731, -0.0178328417, -0.0023865527, 0.0035857656, -0.0140062915, 0.0095626293, 0.0007062029, 0.0034464342, -0.0069893003, 0.0082895951, 0.0218761824, -0.0120735168, -0.0177870318, 0.0084698237, 0.0133581348, -0.0161655415, 0.0138267959, -0.0000965266, -0.0119846994, -0.0098913042, 0.0107300924, -0.0231942665, 0.0022588992, 0.0038682278, -0.0262826923, -0.0091571547, -0.0094228163, -0.0180021953, -0.0087236315, 0.0186495855, 0.0095906937, -0.0038570729, -0.0104195857, 0.0075862771, -0.0012408009, -0.0007412592, 0.0172860660, -0.0008285685, 0.0154371019, -0.0029534728, -0.0051670200, -0.0301752128, 0.0173786916, -0.0029395900, -0.0134733561, 0.0130140781, -0.0210602749, 0.0164062567, -0.0075449818, 0.0185675416, 0.0097415326, -0.0208738912, 0.0050080344, 0.0267152358, 0.0021351473, 0.0073849466, -0.0433782935, -0.0273449440, 0.0057444689, 0.0069934595, 0.0057212422, 0.0141622694, -0.0102850022, 0.0269039925, 0.0120128915, 0.0024726270, -0.0016678068, 0.0058177137, 0.0000444402, -0.0086419377, -0.0088563589, -0.0002023721, 0.0080579007, 0.0007503017, 0.0247203503, 0.0010723507, 0.0149152149, 0.0215750821, 0.0028954428, 0.0119702304, 0.0133634666, 0.0176886730, 0.0058601806, -0.0224202890, 0.0000085854, -0.0167020094, 0.0326886810, 0.0185689479, 0.0216912311, 0.0330973752, 0.0018802576, -0.0013290348, -0.0238696225, -0.0087278550, 0.0186704602, 0.0166852623, -0.0044329460, -0.0004068232, -0.0119282864, -0.0204420667, -0.0209499169, -0.0189043917, 0.0150548751, 0.0116751492, -0.0064196512, -0.0000883898, 0.0062516350, 0.0086783338, 0.0156531744, -0.0057230811, 0.0151808839, -0.0020838804, 0.0022482800, 0.0107454518, 0.0261161029, -0.0190062728, 0.0041358764, -0.0064410530, 0.0032821984, -0.0112777799, 0.0120552322, 0.0125071714, 0.0091137495, -0.0097498614, 0.0251329094, -0.0010421869, 0.0027521690, 0.0051475284, -0.0054189824, -0.0034502475, -0.0095641529, 0.0124218920, -0.0176246632, 0.0025248923, -0.0068064872, 0.0070993877, 0.0027823441, 0.0078678411, 0.0150124002, 0.0008081438, -0.0112794675, -0.0068643922, 0.0141900266, -0.0219689142, 0.0144150052, -0.0033524595, -0.0099690082, -0.0104070101, 0.0038147040, -0.0080192862, -0.0191324782, -0.0031917647, -0.0013151354, -0.0087888017, -0.0025538309, -0.0154631902, -0.0046009803, -0.0000610793, 0.0209016930, -0.0047438159, 0.0060121394, -0.0038524126, 0.0032265431, 0.0148093216, 0.0083191684, -0.0073678582, 0.0091667157, -0.0100770267, -0.0022014200, -0.0288470853, 0.0137136029, 0.0183262452, 0.0000610675, -0.0029408338, 0.0108288582, 0.0036331085, -0.0169143099, 0.0082070399, 0.0030419191, 0.0180119909, 0.0162511244, 0.0195515193, 0.0315201767, -0.0359202176, -0.0005347151, 0.0004813618, -0.0032915287, -0.0132672060, -0.0077861617, -0.0049758223, -0.0238354970, 0.0054645236, 0.0082323793, -0.0212918334, 0.0009026671, -0.0018969991, 0.0012082293, 0.0180913433, -0.0100428471, -0.0203990303, 0.0122503676, -0.0110997194, -0.0146993631, -0.0251035709, -0.0193241276, -0.0090773301, 0.0070599276, -0.0005287677, 0.0001853360, -0.0083625428, 0.0144835897, -0.0059149223, 0.0100694355, -0.0199765041, 0.0142382011, 0.0128352307, 0.0150406798, 0.0149271786, 0.0110334214, -0.0006506359, 0.0120896092, 0.0327566564, -0.0116071198, -0.0026255334, -0.0110020377, -0.0202006400, 0.0022581588, -0.0204110555, -0.0271266866, -0.0024446230, 0.0025878067, -0.0036785260, -0.0122807762, -0.0075989701, -0.0145216193, -0.0053587751, 0.0183003005, -0.0180321187, 0.0053617000, -0.0185837094, 0.0067157107, 0.0083807865, -0.0004862831, -0.0074711856, -0.0145303858, 0.0261173341, -0.0112723652, -0.0114554744, -0.0179179627, 0.0055810465, -0.0129235378, -0.0011870558, 0.0237272810, -0.0204278547, -0.0054651410, -0.0316429175, 0.0050687441, 0.0256697740, -0.0050854133, -0.0030140649, -0.0085374117, 0.0085162837, -0.0094693853, -0.0058209198, -0.0047047604, 0.0035676595, -0.0020754593, 0.0016565529, -0.0426199883, -0.0176167898, 0.0092659881, -0.0070121633, 0.0109139383, -0.0097602233, -0.0092614228, -0.0149509739, -0.0138886711, -0.0228716880, -0.0021826895, -0.0213133674, 0.0237863734, 0.0080243545, -0.0049158195, -0.0096682087, -0.0170963909, -0.0092809880, -0.0073609115, 0.0086739995, 0.0013661886, -0.0143707944, 0.0048144870, -0.0070278556, 0.0045951894, 0.0026453228, 0.0075287335, -0.0078181038, -0.0330225006, -0.0236602817, -0.0069098924, 0.0420874916, -0.0141770709, -0.0196022838, 0.0101287849, -0.0371528789, -0.0063586468, -0.0400267430, -0.0115059642, 0.0283059608, -0.0179801080, 0.0232548751, 0.0186678972, -0.0280444957, 0.0023383719, -0.0061137052, 0.0010733590, -0.0046516974, -0.0073307506, -0.0019821906, 0.0010937545, 0.0029260786, 0.0003407991, 0.0013239485, -0.0101207700, 0.0118155042, 0.0155656291, -0.0027854105, 0.0226877145, -0.0102018462, -0.0012752761, 0.0201897155, 0.0061828010, 0.0148839997, 0.0005220442, 0.0122395717, -0.0004841727, 0.0091355471, 0.0135461679, -0.0029772087, 0.0009384171, -0.0088151693, -0.0043546311, -0.0053354432, 0.0018983316, -0.0005606541, -0.0005518471, -0.0076884306, -0.0011609286, -0.0018770153, 0.0051310761, -0.0026185024, 0.0048565357, 0.0171230081, 0.0214391574, 0.0153588112, -0.0062208320, 0.0151661010, 0.0068209912, -0.0049785916, 0.0176007692, 0.0006742323, -0.0001611489, -0.0000850897, 0.0173482895, 0.0258359183, -0.0046120151, 0.0145491119, -0.0039718663, -0.0088541564, -0.0234145783, -0.0042279689, -0.0085325213, -0.0155832488, 0.0178134087, -0.0049690721, 0.0013523152, -0.0072607943, 0.0000020208, 0.0089076748, 0.0111305490, 0.0091965143, -0.0046681808, 0.0203777999, -0.0143856099, -0.0021180965, -0.0053362944, 0.0095658945, 0.0218068864, 0.0035823674, 0.0088757230, 0.0194982234, -0.0043159821, 0.0108245099, -0.0068209893, -0.0017337343, -0.0015110797, -0.0013453539, 0.0047607333, 0.0056890151, -0.0005004153, 0.0091155814, -0.0039971559, -0.0067781131, 0.0151552437, -0.0107266633, 0.0073788124, 0.0282871053, 0.0018044191, -0.0049573230, 0.0004784286, 0.0060667829, -0.0096580181, -0.0054518171, 0.0094427643, 0.0051679453, -0.0141994162, 0.0152565725, 0.0238882098, 0.0074735126, 0.0008740676, 0.0065392251, -0.0041537494, -0.0108763622, -0.0037017176, 0.0117964977, -0.0036693462, -0.0114638377, 0.0053249276, 0.0007512221, -0.0167190004, -0.0106118675, 0.0060790530, 0.0090139778, 0.0020250641, -0.0060579251, -0.0023050837, -0.0034343172, -0.0071105813, -0.0035406549, 0.0009152010, 0.0022755899, -0.0036316295, -0.0001331549, -0.0102049215, -0.0033578160, 0.0047105239, -0.0086326553, 0.0086036427, 0.0110164583, 0.0014155736, -0.0030294973, 0.0019626357, 0.0032316367, 0.0070056887, -0.0067734942, 0.0169345681, -0.0096043227, 0.0010588125, 0.0181502849, 0.0066059092, 0.0257796049, 0.0045670443, 0.0135753769, -0.0072498363, 0.0069109187, 0.0100538144, 0.0138023039, 0.0062266332, -0.0054323520, -0.0012692959, -0.0009734838, 0.0119854473, 0.0107401349, -0.0061749429, 0.0072065494, -0.0082358764, 0.0130451266, 0.0106762974, -0.0072337547, 0.0049032522, 0.0217254888, 0.0175134111, 0.0103047239, 0.0113214534, 0.0075893262, -0.0132653862, 0.0020494177, -0.0219109487, 0.0000172048, -0.0044902763, 0.0019182219, 0.0095941257, 0.0145304268, 0.0127227269, 0.0056337453, -0.0021184168, 0.0031078032, -0.0025115283, 0.0117578730, 0.0047265361, -0.0082098413, -0.0000878399, 0.0022225811, 0.0023992318, -0.0098643899, -0.0000577367, 0.0141912447, 0.0009265369, 0.0117322160, -0.0006290395, 0.0057326937, -0.0075465096, -0.0083443047, -0.0153300650, 0.0148185743, 0.0131149692, 0.0072099082, 0.0078768795, -0.0003243414, -0.0034738474, 0.0028661387, -0.0136101935, 0.0060914932, 0.0011471760, -0.0005054005, 0.0148158753, -0.0010889289, 0.0011236541, -0.0090672560, -0.0022916049, -0.0054235146, 0.0137318363, 0.0057993862, 0.0051303850, 0.0172565449, -0.0020340432, -0.0063018119, 0.0068286820, 0.0122024622, -0.0146494191, -0.0069991695, 0.0021369043, 0.0053836936, -0.0039517465, 0.0066666310, 0.0238772705, 0.0045312033, 0.0037451731, 0.0127817644, 0.0087625524, 0.0114242854, 0.0066300188, 0.0032247193, -0.0031102307, -0.0190188661, 0.0121179726, -0.0014693823, 0.0034999684, -0.0087218983, 0.0281719808, 0.0027117345, -0.0061498811, -0.0070411419, 0.0102987094, 0.0120281242, -0.0040809452, -0.0224451739, 0.0071010874, -0.0009390467, -0.0023595272, 0.0161986649, -0.0030598703, -0.0057270811, 0.0130744400, -0.0033178043, 0.0052944827, 0.0044795414, 0.0053455471, -0.0089218747, 0.0017150772, 0.0195604321, 0.0040479470, -0.0008164370, 0.0221834481, 0.0045682043, -0.0041065239, 0.0059668343, 0.0102342945, 0.0094151823, -0.0065158741, 0.0042346115, 0.0009477349, 0.0048846393, 0.0083506191, 0.0065874876, 0.0126470244, -0.0063258959, 0.0042593395, 0.0047355033, 0.0025612672, 0.0024323964, 0.0012093696, 0.0154715246, -0.0055486779, 0.0007911741, 0.0068681631, -0.0176432822, 0.0096366387, 0.0130776260, 0.0013478670, 0.0103712473, -0.0051174778, 0.0155220451, 0.0001474970, -0.0026872146, -0.0043825051, -0.0064227637, 0.0097359195, -0.0049040350, 0.0129156765, 0.0044498513, -0.0024982286, 0.0052835653, 0.0039776298, 0.0030042117, -0.0085742325, 0.0109370612, -0.0129599925, -0.0101230592, 0.0011270705, 0.0051291427, 0.0045429254, -0.0045390273, 0.0034115575, 0.0099879531, 0.0011373200, 0.0060821869, 0.0051815426, 0.0185007527, 0.0012580978, 0.0131545132, -0.0008937644, 0.0058132326, 0.0027057312, -0.0058514690, -0.0035570343, -0.0081822323, -0.0000638657, -0.0027524137, -0.0140581420, 0.0004527954, 0.0147235580, -0.0128434356, 0.0069186445, 0.0018840262, -0.0059828730, -0.0094279749, -0.0089235995, -0.0045947693, 0.0113217775, -0.0072650537, 0.0097608808, 0.0116085121, -0.0046310434, 0.0008881947, -0.0052780765, 0.0051280400, -0.0013621675, -0.0141037228, 0.0093993209, 0.0067423033, -0.0134841623, 0.0087806135, 0.0050599044, 0.0017731464, 0.0165093783, 0.0173110254, 0.0009253892, -0.0057662772, 0.0003987718, 0.0129547575, -0.0110416077, -0.0032382191, -0.0065100365, -0.0077234227, -0.0127363093, 0.0048251925, 0.0106844353, 0.0149696078, -0.0070712785, 0.0114682764, 0.0073641911, 0.0041126641, 0.0141069144, -0.0091383699, -0.0096475407, 0.0103827389, -0.0074165389, 0.0037565334, -0.0108997412, -0.0002525292, 0.0043817479, -0.0105675999, 0.0105161751, 0.0107860332, -0.0004343662, -0.0065110717, 0.0049753538, 0.0079669831, 0.0107577154, 0.0256661270, 0.0094890529, -0.0001686287, 0.0203806330, 0.0070785224, 0.0046190834, 0.0070351511, -0.0171671212, 0.0123599079, 0.0004683118, -0.0070071951, 0.0136311008, 0.0048521548, 0.0019580980, 0.0019673184, 0.0088810017, -0.0011192217, -0.0006449000, -0.0008388148, 0.0093062334, -0.0003742340, 0.0103895739, 0.0035491099, 0.0047000423, -0.0046419953, 0.0055519058, 0.0120013058, -0.0046239439, 0.0043110293, 0.0121466620, -0.0005631479, -0.0116789900, -0.0110676661, 0.0000155176, -0.0051376144, 0.0077550369, 0.0067667123, 0.0084335133, -0.0145131145, -0.0013124975, 0.0065608751, 0.0056669777, -0.0116789844, 0.0050950050, 0.0114745656, -0.0090256790, -0.0107454704, -0.0091124941, 0.0045268540, 0.0079264948, -0.0024644530, -0.0008800910, 0.0020984928, -0.0042808852, -0.0026815343, -0.0070460304, 0.0064987042, -0.0152998427, 0.0015997845, 0.0113790911, 0.0052514654, -0.0058631129, 0.0083545269, 0.0089230910, 0.0133654969, 0.0000971238, -0.0005977981, 0.0056689125, 0.0025790748, -0.0121435402, -0.0085142050, 0.0082655940, 0.0040193037, -0.0013372137, -0.0023582659, 0.0045809313, 0.0046345433, 0.0058684535, 0.0172741655, 0.0045556561, 0.0005551921, -0.0017219781, -0.0140210846, 0.0138827870, -0.0019404334, -0.0043470063, 0.0033862358, 0.0064056655, 0.0070548221, 0.0009823414, 0.0123673733, 0.0113964956, -0.0044211014, -0.0001949081, 0.0084664254, -0.0009514411, 0.0086732991, 0.0062303236, 0.0042324024, 0.0076117502, -0.0056288433, 0.0018381677, -0.0020391541, 0.0015573285, -0.0014674554, 0.0101190116, -0.0022354985, -0.0013711568, 0.0109087545, 0.0058341264, 0.0089194663, -0.0008150074, 0.0050461548, -0.0098302793, 0.0055720094, 0.0068963142, 0.0102544874, 0.0094159739, -0.0000544704, 0.0048065269, -0.0107752299, 0.0047844970, 0.0065401462, 0.0054885903, -0.0087465709, 0.0074818879, 0.0064251027, 0.0047928328, 0.0160969738, 0.0035851276, -0.0069758026, 0.0152737228, 0.0154680312, 0.0058219656, 0.0214104280, -0.0070631844, -0.0048481547, 0.0027763864, -0.0094854701, 0.0047368347, -0.0063746269, 0.0019384803, 0.0043278071, 0.0146185653, -0.0064891148, -0.0045697112, 0.0014172172, 0.0090652518, 0.0036237335, 0.0010482300, 0.0031297579, 0.0070470064, -0.0046575321, 0.0047904337, 0.0132624526, 0.0101111243, 0.0029850199, 0.0069750613, 0.0070374254, -0.0033935106, -0.0007766461, -0.0230659414, -0.0052614277, -0.0061740647, 0.0075675682, 0.0129853189, 0.0096274223, 0.0083206166, 0.0053618359, 0.0028283293, 0.0024135229, 0.0122819822, 0.0075792610, 0.0014655889, -0.0137108313, -0.0084382007, 0.0146265412, -0.0007602400, 0.0095628286, 0.0088828662, 0.0116960453, -0.0037660911, -0.0050365711, 0.0075379941, 0.0097086700, -0.0058130245, 0.0013724247, 0.0119817536, 0.0020141876, 0.0039537665, -0.0003152159, -0.0007917849, -0.0086010369, 0.0014265468, -0.0088035548, 0.0066613080, 0.0086068222, -0.0079694716, -0.0079105310, 0.0099676847, -0.0020662374, -0.0011796366, -0.0156259257, 0.0001799961, -0.0127999457, 0.0044504735, 0.0026418553, 0.0091738924, 0.0122058317, 0.0033040196, -0.0175084677, 0.0048838593, 0.0063735987, 0.0017559112, 0.0030469538, 0.0098758079, 0.0076872157, 0.0070541613, 0.0145799890, 0.0121736582, 0.0071882033, 0.0142670069, 0.0030041449, 0.0047014039, 0.0102994936, 0.0084526306, 0.0224744249, 0.0222148392, -0.0082869576, 0.0062977485, 0.0075235283, 0.0136254355, -0.0013946095, 0.0143478271, -0.0092676282, 0.0010860036, -0.0062552718, -0.0022238784, 0.0022603387, -0.0107019553, -0.0079751192, -0.0094759641, 0.0012569447, -0.0026040846, 0.0153818978, 0.0007860404, -0.0098913340, 0.0066593788, 0.0016208694, 0.0014739559, 0.0149737913, -0.0008302568, -0.0025811375, -0.0015017686, 0.0059700785, 0.0007239425, 0.0033285280, -0.0106428657, 0.0023753315, 0.0073389672, 0.0165083017, -0.0068126707, 0.0164657664, 0.0056642522, -0.0004263680, -0.0062019099, -0.0056678471, 0.0027690558, 0.0043052495, -0.0032770992, 0.0095862569, -0.0089999093, 0.0055041593, -0.0038813832, -0.0062026447, 0.0013048612, 0.0130744651, -0.0012309274, 0.0037892337, -0.0025559790, -0.0118611939, 0.0028031634, 0.0067943768, 0.0104149720, 0.0147953723, -0.0026097379, 0.0000568220, -0.0102331033, 0.0045234747, 0.0060567614, 0.0029809524, -0.0048144641, 0.0031303037, 0.0210254416, -0.0074260822, -0.0036876940, 0.0016900265, 0.0166698843, 0.0017263874, 0.0198783260, 0.0008067653, -0.0035753797, -0.0066860919, -0.0006609865, 0.0002320363, 0.0025124857, 0.0137554249, 0.0029613751, -0.0053248191, -0.0033103731, -0.0057031396, -0.0084739821, 0.0174898766, 0.0040400522, 0.0067153103, 0.0035384672, -0.0067873113, 0.0042389301, -0.0045091836, 0.0093843667, -0.0036733728, 0.0083352476, -0.0030514277, 0.0064018317, 0.0091437344, 0.0028997487, -0.0181721039, -0.0064534200, -0.0036761540, 0.0015407649, -0.0118882824, -0.0009235082, -0.0146821393, -0.0029800260, 0.0016029193, 0.0096624708, 0.0151291359, -0.0061612935, -0.0046776622, -0.0009916110, -0.0018162896, 0.0050826441, -0.0130664678, 0.0153499050, 0.0003704276, -0.0123408306, 0.0056524896, 0.0012372739, 0.0167928655, -0.0086385757, 0.0126817487, -0.0100433603, -0.0122480365, -0.0012741067, 0.0071900743, -0.0023256005, -0.0141595723, -0.0029699907, -0.0083880667, -0.0019051050, -0.0040190751, -0.0009331415, 0.0071969707, 0.0086052353, 0.0028662526, 0.0013937817, -0.0001499239, -0.0156035721, -0.0033589983, -0.0116375331, 0.0073658423, -0.0138881803, -0.0034927260, -0.0027199613, 0.0170624591, -0.0034200659, -0.0163687468, -0.0056519955, -0.0044729472, -0.0015691710, -0.0074873306, -0.0250779502, 0.0088729300, -0.0036464077, 0.0017165035, 0.0211106837, 0.0047691488, -0.0046664355, -0.0036470247, 0.0028442550, 0.0097869365, -0.0023307859, -0.0060821590, 0.0002838842, 0.0018088052, 0.0153310066, 0.0043011368, -0.0040654857, -0.0162243582, 0.0026602668, -0.0145000219, -0.0053393920, -0.0031638213, 0.0030920361, 0.0075501208, 0.0056595835, 0.0052077854, -0.0038359717, -0.0111541180, 0.0063115922, 0.0061490322, 0.0063178600, 0.0270886105, -0.0067796782, 0.0047425875, -0.0073860134, -0.0103408666, -0.0106370542, 0.0178471059, -0.0109320330, 0.0076331869, 0.0131681263, -0.0007380567, -0.0071762591, 0.0018603163, 0.0173801966, -0.0027297658, -0.0069750217, 0.0089157205, -0.0037844516, -0.0214414317, 0.0050188201, -0.0188217647, -0.0002305859, -0.0073445477, 0.0009024910, 0.0064474344, -0.0089513389, -0.0009103058, 0.0046185935, 0.0069669685, -0.0013703277, -0.0168779567, 0.0085708322, -0.0024180643, -0.0065301689, 0.0086307190, 0.0092692664, 0.0147872772, -0.0068654087, 0.0026562044, 0.0013897375, 0.0016526610, 0.0020501330, -0.0165179074, 0.0042661154, -0.0013026346, 0.0031249269, -0.0057031363, -0.0009912137, 0.0038066194, -0.0075977482, 0.0081829792, 0.0004779589, 0.0185008459, -0.0027544708, 0.0005128544, 0.0019962024, 0.0001044748, 0.0027222028, -0.0050671427, 0.0157914646, -0.0074885623, 0.0053458498, -0.0055914400, 0.0100403521, 0.0076999739, -0.0067426837, 0.0148083642, -0.0118257310, -0.0155347465, -0.0010036457, -0.0006503892, -0.0230408348, -0.0026872104, 0.0083380807, -0.0038071922, -0.0056868927, 0.0029997216, -0.0042381040, 0.0153359007, -0.0064213946, 0.0152209159, -0.0062175519, -0.0088183610, 0.0158594251, 0.0055582160, 0.0026965602, -0.0106789358, -0.0056558140, 0.0096567329, 0.0038305221, -0.0025876774, 0.0002086632, -0.0012106735, 0.0073999125, -0.0045741997, 0.0042771511, -0.0166097395, 0.0001410689, 0.0130372448, 0.0098728621, 0.0021771134, 0.0254848488, 0.0251982920, -0.0088266674, 0.0112666888, -0.0013347801, 0.0089786537, -0.0114406394, 0.0005833622, 0.0095010791, -0.0075208405, 0.0121030575, 0.0003337259, 0.0001762803, -0.0167645626, 0.0050161830, -0.0056667682, -0.0020320523, 0.0038722039, -0.0105226189, 0.0069570313, 0.0002457077, 0.0051178122, 0.0050122533, -0.0072474615, -0.0038753299, 0.0191809312, 0.0023890152, 0.0239572451, 0.0049553327, -0.0009708580, 0.0160009675, -0.0064535243, -0.0066123288, -0.0005795559, 0.0057220664, 0.0047737239, 0.0067717521, 0.0043829503, -0.0068101902, -0.0086495681, -0.0083379932, -0.0118952869, 0.0052696648, 0.0016047164, 0.0143178515, 0.0056748507, 0.0016078905, -0.0010103564, -0.0058868201, 0.0041662822, -0.0013623990, -0.0039346688, 0.0021785414, -0.0074152872, -0.0021554881, 0.0117545407, 0.0073623545, -0.0165388323, -0.0159609336, 0.0116567099, -0.0054744631, 0.0092307329, 0.0017264732, -0.0073616719, -0.0083741564, -0.0074631148, 0.0015942148, 0.0070210998, -0.0035880641, -0.0146037964, -0.0006199793, 0.0005753589, 0.0087688053, -0.0119971996, 0.0081169289, 0.0121103395, 0.0011168332, 0.0079234820, 0.0003286635, 0.0133970734, 0.0005156477, 0.0094976686, -0.0090412730, 0.0075667999, -0.0058560572, -0.0143101932, 0.0128025450, 0.0050383299, -0.0035553135, -0.0041598985, 0.0077867899, -0.0149925081, 0.0003299704, 0.0071304250, 0.0049907933, -0.0054239617, -0.0042974721, 0.0050756359, -0.0106506543, 0.0096650235, -0.0015824138, -0.0016550386, -0.0086690485, 0.0056057051, -0.0057790293, 0.0159473028, 0.0055162576, 0.0159297474, 0.0101123806, -0.0016199809, 0.0116787814, 0.0000255012, 0.0037718983, -0.0043299641, -0.0079103541, 0.0038560505, 0.0020188147, -0.0070485710, 0.0032508136, 0.0017368015, 0.0064552757, -0.0020474263, -0.0092225624, -0.0193506517, -0.0110567492, 0.0074284603, -0.0026045048, 0.0183327682, 0.0160342120, 0.0091478415, -0.0089035435, 0.0008917124, -0.0053596529, 0.0201413799, -0.0004628610, -0.0045466521, -0.0040064789, 0.0020732705, 0.0094537949, -0.0070967143, 0.0079391450, -0.0047333958, -0.0090982448, 0.0008077888, -0.0187734459, -0.0100425147, -0.0142746260, 0.0007559297, 0.0006391506, -0.0110091614, -0.0039153695, 0.0029868984, 0.0087072225, 0.0165365767, -0.0054460769, 0.0175073612, 0.0067797257, -0.0064417343, -0.0014231917, 0.0081440741, -0.0060446109, 0.0011583017, 0.0045981919, -0.0092021385, 0.0081672464, 0.0070564244, -0.0037062622, -0.0048977486, -0.0000266641, 0.0043286155, -0.0011216231, -0.0044846977, 0.0025091639, -0.0079429597, 0.0034780409, -0.0005038793, -0.0029625765, 0.0012973339, -0.0088861436, 0.0051895832, 0.0026989169, -0.0042874259, -0.0063240547, 0.0090345908, 0.0011748209, -0.0144675616, -0.0001305816, 0.0011704448, -0.0027664555, 0.0112697314, 0.0108782481, -0.0003200337, -0.0037376506, -0.0007673821, 0.0131159844, -0.0033065069, -0.0016062149, -0.0037683672, -0.0058319648, 0.0022628456, 0.0031085289, -0.0052532558, -0.0016029577, -0.0004311601, -0.0065302900, 0.0014614474, -0.0113197109, 0.0071877087, -0.0015467921, 0.0045475774, -0.0124450587, -0.0085602356, -0.0046162675, 0.0029076338, 0.0146523174, -0.0022465761, 0.0031269547, 0.0035258275, 0.0046077799, -0.0045694676, -0.0000455303, 0.0104990508, -0.0191654731, 0.0022521184, -0.0033104040, 0.0058806702, -0.0139409155, -0.0025476171, -0.0009463373, -0.0071178959, -0.0167573113, 0.0031619954, -0.0070091607, 0.0058586285, 0.0019590736, 0.0073319930, 0.0051932256, -0.0050769770, 0.0048454655, 0.0158943310, -0.0019029662, 0.0022673560, -0.0001130096, -0.0209600721, 0.0159472954, 0.0111998534, 0.0031488286, -0.0076013715, -0.0104700634, -0.0060673328, -0.0085858777, 0.0036895864, 0.0067701275, -0.0185198206, -0.0152203292, -0.0083563169, -0.0033153507, -0.0103005720, 0.0087218257, 0.0002923992, 0.0035337093, 0.0098420065, -0.0020115133, -0.0100304428, 0.0149595048, 0.0004746188, -0.0003032849, 0.0062914137, 0.0075335265, 0.0153169157, -0.0092554986, 0.0005178871, 0.0083451988, 0.0086603295, 0.0067296033, 0.0017227684, 0.0012985329, 0.0116673121, 0.0032072235, 0.0171273462, -0.0047244555, -0.0039486713, -0.0003586949, -0.0270719714, -0.0001461671, 0.0125551596, -0.0089006517, -0.0177881531, 0.0033537981, 0.0018447594, 0.0059273462, -0.0049228645, 0.0150745632, -0.0266483892, 0.0248363614, 0.0152210984, -0.0040885755, -0.0078062648, 0.0062997383, 0.0119807618, 0.0157485399, -0.0035631787, 0.0136374049, 0.0080606276, -0.0080093760, 0.0108566694, -0.0076303561, 0.0044471095, -0.0118539203, 0.0136196129, 0.0025872493, -0.0185134150, -0.0151127111, 0.0066420957, -0.0263025910, 0.0094036302, 0.0119875818, 0.0015310948, -0.0104222177, 0.0033224644, -0.0146119734, 0.0058945762, -0.0228971075, -0.0094035231, 0.0226403344, -0.0033213273, 0.0144918533, -0.0301852990, 0.0131069655, -0.0071995705, -0.0103426930, 0.0113718705, 0.0043521831, -0.0153029803, -0.0010544513, -0.0015642240, 0.0017484983, -0.0216182433, 0.0075430595, 0.0110140312, -0.0174531359, -0.0031851612, -0.0356842019, -0.0021381001, -0.0016720504, 0.0057799956, 0.0028639878, -0.0103061721, 0.0026427591, -0.0044661155, 0.0061236918, 0.0175059475, 0.0168812610, -0.0285520684, -0.0059443866, -0.0086840633, -0.0021200629, -0.0025726459, -0.0187379681, -0.0239203908, -0.0021573703, -0.0109020984, -0.0208705124, 0.0055874307, -0.0073625371, 0.0147924218, -0.0028053909, 0.0044379607, -0.0250071436, -0.0081109600, 0.0022750059, 0.0037888431, -0.0216015987, 0.0146012316, -0.0063135000, 0.0128152119, -0.0085663218, -0.0082198614, -0.0090771159, -0.0170536917, -0.0033602731, -0.0194605626, -0.0129411099, -0.0120970383, -0.0092183789, 0.0229985677, -0.0081981281, -0.0176281799, -0.0126648769, -0.0305722896, 0.0122602498, 0.0121280178, 0.0124209812, -0.0012767959, 0.0014216261, -0.0014907299, 0.0123292347, -0.0099698203, -0.0118710287, -0.0033065574, -0.0046129134, 0.0136544025, -0.0126825823, -0.0119552240, 0.0160321519, -0.0000354872, -0.0110791065, 0.0042884420, -0.0051272390, -0.0018937819, -0.0081458604, -0.0093203904, -0.0160911884, -0.0075079319, 0.0031309039, -0.0162961781, -0.0160295535, 0.0064678160, -0.0093974778, 0.0005345159, -0.0042357263, -0.0224385504, -0.0034385181, -0.0068717268, -0.0016328018, -0.0131265335, -0.0213221833, -0.0082460456, 0.0020969491, -0.0110669406, -0.0138166863, -0.0094926991, -0.0077752215, -0.0027106472, -0.0130435480, -0.0021531123, -0.0007931967, -0.0056914096, -0.0027974758, -0.0228147022, -0.0070481147, 0.0077762818, -0.0055824467, 0.0038096725, -0.0158852246, -0.0274082180, -0.0103059746, 0.0073329383, -0.0114693120, -0.0100436807, -0.0324340425, -0.0004200378, 0.0233238917, -0.0118839163, 0.0094813397, -0.0217083804, -0.0017810302, -0.0153825460, 0.0002490192, -0.0040380252, 0.0021271899, 0.0087731369, 0.0070059164, -0.0017230830, 0.0266506858, -0.0267834254, 0.0097454824, 0.0059783645, 0.0053013335, -0.0112452814, -0.0426559299, 0.0072070486, 0.0072670681, -0.0003641188, -0.0021592607, -0.0234408397, -0.0098293498, -0.0149593605, 0.0004134181, -0.0036836264, 0.0212348085, -0.0217786133, 0.0116716372, 0.0199166462, -0.0114926528, -0.0402913839, 0.0005173186, -0.0142697766, -0.0082200067, -0.0044761910, -0.0325518213, -0.0200009607, -0.0169763640, -0.0048075812, -0.0010542211, 0.0017820157, 0.0213943720, -0.0126131484, 0.0089805424, -0.0043841796, -0.0084527247, -0.0057464573, -0.0208647158, 0.0001138768, 0.0038696015, -0.0071956660, 0.0017368665, -0.0086861989, -0.0103673525, -0.0156185552, -0.0139981555, -0.0051984354, -0.0192259979, -0.0348595604, 0.0108016338, -0.0167601593, -0.0053641289, -0.0340302773, 0.0139153171, 0.0121017974, -0.0030606070, -0.0069768140, -0.0046449532, 0.0012848650, -0.0128696300, 0.0099968789, -0.0060256259, 0.0026939879, -0.0005207470, 0.0064626457, -0.0014683797, 0.0091589773, 0.0095452471, -0.0005908100, -0.0022141184, 0.0112665165, -0.0021552611, -0.0190146901, -0.0312070586, -0.0214056168, 0.0039797230, -0.0354553610, 0.0016879548, -0.0274047535, 0.0152914440, 0.0029057532, 0.0003938744, 0.0120016532, -0.0247925110, -0.0169219505, 0.0118027013, 0.0036201426, 0.0059432504, -0.0044846162, -0.0171531979, 0.0016861575, -0.0073553245, -0.0054728859, -0.0175266452, 0.0014416573, -0.0066642384, -0.0030478644, 0.0031514266, -0.0006112009, -0.0203589778, -0.0086883977, 0.0033815922, -0.0079343999, -0.0126555599, 0.0137189357, 0.0057370183, 0.0103878789, 0.0142598888, -0.0098882429, -0.0017686061, -0.0132286325, -0.0062536392, -0.0124523472, 0.0115568684, 0.0035385964, 0.0110424943, 0.0007953970, 0.0095141632, -0.0106226569, -0.0001852390, -0.0301278029, -0.0018075459, 0.0074980073, -0.0063078636, -0.0206060037, 0.0007227270, -0.0359977931, 0.0058100936, -0.0171651822, -0.0096136155, -0.0079332525, -0.0071144421, 0.0024361578, -0.0303911455, -0.0020740831, 0.0218772162, 0.0063048168, 0.0307412576, -0.0127734644, -0.0048473305, -0.0079984888, -0.0138141941, -0.0031722798, -0.0058781845, -0.0512019098, 0.0100500677, 0.0179609377, 0.0026318100, -0.0030820852, -0.0185668562, -0.0056014508, -0.0023909938, -0.0062570106, -0.0136439726, -0.0206939746, -0.0086092111, -0.0071029328, -0.0133041656, 0.0023772216, 0.0019537336, 0.0093523879, 0.0015842125, 0.0211062226, 0.0131738652, 0.0008419675, 0.0288392194, -0.0095445737, -0.0028239118, -0.0007915741, 0.0347994231, -0.0030747629, 0.0115969591, -0.0188731067, 0.0134018026, 0.0141754393, -0.0179376025, -0.0159991048, 0.0135667501, -0.0017243958, 0.0189086292, -0.0061195912, 0.0258457065, -0.0003921932, 0.0028112289, -0.0114658223, -0.0044806204, 0.0018076787, 0.0075515304, -0.0043789600, 0.0209563132, -0.0081639998, 0.0220245998, 0.0130752847, 0.0228567123, 0.0195293035, 0.0077147232, 0.0131267374, 0.0232962631, -0.0001332922, -0.0021866416, -0.0025920707, -0.0052492479, -0.0103203077, 0.0083193136, 0.0107683251, -0.0035653689, -0.0199005716, -0.0033578163, -0.0178504381, -0.0039393064, 0.0060789092, 0.0144300023, -0.0117048612, 0.0339143761, 0.0055914586, 0.0053955526, -0.0128365643, 0.0115004163, 0.0199171770, -0.0058977557, -0.0227844343, -0.0089834025, 0.0225969367, -0.0337549485, 0.0037869392, -0.0002999569, -0.0003323311, -0.0023721294, 0.0006588442, 0.0150173614, 0.0166853871, -0.0136619536, 0.0108109452, -0.0106368456, 0.0118242735, -0.0066445307, -0.0048095747, 0.0252001975, -0.0097776558, -0.0063175987, -0.0236176867, 0.0060907155, 0.0124819959, -0.0013561544, 0.0017446439, -0.0043687476, -0.0030158048, 0.0119870482, -0.0204166025, 0.0134590389, 0.0006044782, 0.0297847334, 0.0034717026, 0.0102987727, 0.0168399848, -0.0065535610, 0.0212283004, 0.0007419586, 0.0281069633, -0.0104098180, -0.0112716109, -0.0234470293, 0.0215056278, -0.0056355665, 0.0285236053, -0.0262878779, -0.0081297830, 0.0171908773, -0.0232117660, 0.0036277028, -0.0142458873, 0.0348431580, 0.0014934859, 0.0203596484, -0.0150727658, 0.0270386338, 0.0163881853, 0.0064558764, -0.0149760330, 0.0020246899, -0.0071444935, -0.0164738167, 0.0006244197, -0.0031630965, 0.0032123835, -0.0039798762, 0.0032711704, -0.0260230377, -0.0357142761, 0.0129919555, 0.0082144598, 0.0080276821, -0.0242682900, 0.0045177429, 0.0236506574, -0.0185037758, 0.0070577180, 0.0068744617, 0.0123809688, 0.0176574402, -0.0192693826, -0.0022066156, 0.0049324231, -0.0101429829, -0.0068375017, 0.0119853904, 0.0025971145, 0.0210833158, -0.0063472735, 0.0348474011, 0.0046162852, 0.0020977636, 0.0118656140, 0.0027472901, 0.0044546020, 0.0102063026, -0.0110279620, 0.0183895770, 0.0072918534, 0.0253489185, 0.0355176032, 0.0131033957, -0.0071631349, 0.0108682085, 0.0084172999, 0.0021996517, 0.0313681774, 0.0113371946, -0.0117444890, 0.0008770104, -0.0051458548, 0.0204230696, 0.0177388042, -0.0124242995, 0.0048560295, -0.0217621736, -0.0015217502, 0.0104936976, 0.0031676097, 0.0153690362, 0.0043251486, 0.0031495953, -0.0097458195, 0.0008364010, -0.0049248291, 0.0220167022, 0.0012695595, -0.0036923699, -0.0055900100, -0.0159964412, 0.0068559693, -0.0041108625, -0.0152009008, -0.0111059677, 0.0126126390, -0.0090357373, 0.0257756412, -0.0024791320, -0.0116962157, -0.0038602836, 0.0115528526, 0.0213654842, 0.0166143570, 0.0319505334, 0.0076427814, 0.0006005588, 0.0141557688, -0.0182367507, -0.0033624810, 0.0147504266, 0.0081721907, 0.0146089364, 0.0059078573, -0.0147662386, -0.0070959642, 0.0279357620, -0.0066320272, -0.0061835204, 0.0078750439, 0.0229694098, 0.0077056899, 0.0151233273, 0.0150329135, -0.0018724955, 0.0026303993, 0.0036122894, -0.0015904227, 0.0205838270, -0.0022084760, 0.0047980971, 0.0172455013, -0.0243332423, -0.0003675695, -0.0105319684, -0.0016410864, 0.0023400553, -0.0078394152, 0.0173861962, 0.0015513406, 0.0155115137, 0.0051383926, 0.0246834997, 0.0125219207, 0.0003040742, 0.0220020283, 0.0368117467, -0.0183900651, 0.0143793551, -0.0063848738, -0.0048433067, 0.0016218830, -0.0069970558, 0.0101131229, 0.0115676746, 0.0145331239, 0.0121439938, -0.0191540942, 0.0172494501, 0.0197791476, -0.0017106311, -0.0289403666, 0.0186760072, -0.0116833951, -0.0073436359, 0.0134449936, 0.0214236211, 0.0112673165, 0.0295731239, -0.0058798175, -0.0103154983, 0.0051561543, -0.0099452818, -0.0024191123, 0.0205275770, 0.0051301308, 0.0156581625, -0.0163228866, 0.0232367739, 0.0101380562, 0.0235046986, -0.0087874234, 0.0067721587, -0.0133520681, 0.0231660698, -0.0137113491, 0.0284855813, -0.0153625170, 0.0332142897, 0.0118745593, 0.0232620891, 0.0021805689, 0.0233899932, 0.0267624408, -0.0025852306, 0.0088408114, -0.0009153792, -0.0137168476, -0.0038625284, -0.0041917642, 0.0335641578, 0.0094578015, -0.0198066533, 0.0088186143, 0.0060185734, -0.0205744095, -0.0044605331, -0.0065569091, -0.0031609968, 0.0055547925, 0.0106399348, -0.0012835580, -0.0249694958, -0.0024360851, 0.0061415210, 0.0308547467, -0.0038524095, 0.0200078152, 0.0055871475, 0.0089867897, -0.0074277124, 0.0065572956, -0.0048967069, -0.0029191268, -0.0084520550, 0.0360867009, 0.0233799908, -0.0173561256, -0.0062987292, 0.0237268358, -0.0047986256, 0.0139045622, 0.0227780323, 0.0242594611, -0.0007558751, 0.0101563707, -0.0001147920, 0.0011570782, 0.0095813116, 0.0138674937, -0.0017880345, 0.0137828849, 0.0329645649, -0.0183084905, 0.0162182190, 0.0085778031, -0.0018936435, 0.0105932998, 0.0160323139, -0.0202133693, 0.0147917876, 0.0010671847, 0.0156333372, 0.0142957997, 0.0339889005, 0.0156038767, -0.0122934552, 0.0099068088, -0.0139878709, -0.0164595488, -0.0112565374, 0.0154257910, -0.0177356564, -0.0199828465, -0.0056901784, -0.0134009458, 0.0194118638, 0.0240422394, 0.0152801508, -0.0100171519, 0.0118830372, -0.0037011041, 0.0055958377, 0.0212285500, 0.0156767331, 0.0001689864, 0.0088891443, 0.0043603200, -0.0012430414, 0.0132760238, 0.0036713528, 0.0338803791, 0.0139916241, 0.0065216343, -0.0254772380, -0.0196264926, -0.0043227435, 0.0074273031, 0.0217906255, -0.0003921307, -0.0129351411, 0.0183566660, -0.0056704246, 0.0022517291, -0.0005943991, -0.0048209568, -0.0002881539, -0.0076773278, -0.0148955407, 0.0184109863, 0.0159132220, 0.0167684052, -0.0209024269, 0.0012633117, -0.0062537231, -0.0130174831, -0.0098039554, -0.0171911586, 0.0062158844, 0.0038584748, -0.0016493186, -0.0027999924, -0.0188727453, -0.0142947249, -0.0085731987, 0.0113927005, 0.0034580827, -0.0039355881, -0.0037983758, 0.0015252497, 0.0072381953, -0.0091967294, -0.0172952991, 0.0114270095, 0.0055486239, 0.0091446424, 0.0147532579, -0.0042998977, -0.0063546351, 0.0054061920, 0.0033959453, -0.0207924284, -0.0011855043, 0.0084099565, 0.0031700020, 0.0168569274, -0.0049437103, -0.0185820553, -0.0045636501, -0.0227138326, -0.0170039199, -0.0171054099, -0.0088901818, 0.0044526835, 0.0044144583, -0.0019020898, 0.0039747730, -0.0106855705, 0.0007990774, -0.0077106152, 0.0022127628, 0.0073548513, 0.0172512680, -0.0039995792, 0.0132382764, 0.0014168998, -0.0272006821, -0.0257223640, 0.0084843682, -0.0097340196, -0.0093759745, -0.0170682166, -0.0013934650, -0.0035968209, 0.0016450905, -0.0027098665, 0.0019913635, 0.0076587349, 0.0146826208, 0.0118772406, -0.0070866216, -0.0133695109, 0.0143137230, -0.0085376222, 0.0198207386, 0.0057352632, -0.0029718536, -0.0040532099, 0.0027495546, 0.0047205370, 0.0163203236, -0.0225463007, 0.0001983714, -0.0016100103, 0.0047405544, 0.0008627208, -0.0063297236, -0.0089329807, 0.0018754473, 0.0024262741, 0.0092460429, -0.0266230013, -0.0011521169, -0.0227226391, -0.0038018900, 0.0026763892, 0.0018337879, -0.0231870320, 0.0052470127, -0.0036257722, -0.0067068785, 0.0016370949, -0.0359853357, -0.0178924948, -0.0095773181, 0.0207914226, -0.0229784213, -0.0205432270, 0.0080336453, -0.0051460853, 0.0175659824, 0.0038608641, 0.0073213135, 0.0015676916, -0.0110924775, -0.0179886743, 0.0342629589, 0.0068984288, -0.0059433319, 0.0197490677, 0.0141729768, -0.0013596644, -0.0072560702, -0.0138068236, 0.0160718393, -0.0028986356, -0.0002412184, -0.0078900345, -0.0097420514, 0.0013048752, -0.0001343423, -0.0176324099, 0.0017350268, -0.0221140236, -0.0169346128, -0.0151957553, -0.0037924449, 0.0289577376, 0.0125790136, -0.0115139904, -0.0025798078, 0.0046837106, -0.0123201450, 0.0166791622, -0.0088325841, -0.0028740379, -0.0049865204, 0.0010949718, -0.0053645237, 0.0088802921, -0.0110398978, -0.0044578249, -0.0035573593, -0.0103971893, -0.0053997971, -0.0267631672, -0.0163623020, 0.0028294807, 0.0048858789, -0.0253782496, 0.0193743091, 0.0399697386, -0.0003669771, -0.0070902370, -0.0015972301, 0.0043838094, -0.0090062767, -0.0081001027, -0.0144663490, -0.0118099898, -0.0013079032, -0.0084228255, -0.0082795965, -0.0041396422, 0.0002277727, -0.0094321910, 0.0105454549, -0.0103589790, 0.0077690743, 0.0087100379, -0.0077073085, 0.0039067892, -0.0001412819, -0.0208229609, 0.0038040355, -0.0074715526, -0.0328102149, -0.0213119928, -0.0272764172, 0.0025615166, 0.0000309934, 0.0321479887, -0.0262688808, 0.0158671234, 0.0067364890, 0.0012243838, 0.0038778605, 0.0055643865, -0.0259538908, -0.0099433316, -0.0010181592, 0.0163938794, -0.0105535174, -0.0021311811, 0.0032513556, -0.0153337605, -0.0018046602, -0.0025945739, 0.0080871554, -0.0206234213, -0.0103757028, -0.0087076975, -0.0152854789, 0.0031235737, 0.0051339399, -0.0017326797, -0.0039307009, -0.0171651058, -0.0130619025, -0.0132516939, 0.0097969854, -0.0248462241, -0.0093915220, -0.0101139937, 0.0102797234, -0.0015101637, 0.0086235311, -0.0018786318, -0.0041774516, -0.0051895259, -0.0197110549, -0.0063447640, -0.0086221332, 0.0088219568, -0.0215677619, -0.0188972242, 0.0036800157, -0.0079961857, 0.0073677800, -0.0025259138, 0.0107559031, -0.0016021926, -0.0013082329, 0.0258246288, 0.0005096188, -0.0188691821, 0.0025176264, 0.0045400006, 0.0072187772, -0.0067362757, 0.0065599382, -0.0064244121, 0.0014351157, 0.0001723420, -0.0106933797, 0.0050704270, -0.0193828065, 0.0122484788, -0.0093351547, -0.0011764111, -0.0015195379, -0.0066128341, -0.0257573687, -0.0048330366, 0.0094117820, 0.0269253030, 0.0102416445, 0.0035773122, -0.0044179158, 0.0046036015, 0.0099586667, -0.0078199105, 0.0052073840, 0.0059196698, 0.0135377236, -0.0115416059, 0.0059305904, -0.0095041078, 0.0136298425, 0.0109831262, -0.0209836122, 0.0025914095, -0.0087981094, -0.0008551884, -0.0093627237, 0.0171609074, 0.0156020876, 0.0004332633, -0.0049615358, 0.0176331624, 0.0113986079, -0.0045955800, -0.0152025791, 0.0101988409, -0.0149307726, -0.0387725458, -0.0351057053, -0.0168801490, -0.0007750678, -0.0123451343, -0.0207801759, -0.0166132152, 0.0076763141, -0.0161945578, 0.0127158472, -0.0189960524, -0.0054760454, -0.0025988235, -0.0167804491, -0.0021286332, -0.0076119336, 0.0001339729, -0.0194436554, -0.0205844343, 0.0014883771, 0.0133991661, -0.0111648291, -0.0006130278, 0.0000044280, -0.0170726143, -0.0261720568, 0.0081402157, 0.0084353033, 0.0073181470, 0.0019833460, 0.0073911762, -0.0182683151, -0.0061695725, -0.0016772115, 0.0229584891, -0.0021874716, 0.0025684838, 0.0073100026, -0.0101792030, 0.0083669620, -0.0093309246, 0.0097442446, -0.0054927124, 0.0054024472, 0.0067690271, -0.0269252528, -0.0037554654, 0.0009631989, -0.0064627854, 0.0123038143, -0.0117734764, -0.0212536044, -0.0153365983, 0.0046171215, -0.0054878001, -0.0010560954, 0.0153010469, 0.0011052059, 0.0185085218, -0.0024658297, 0.0028604339, 0.0143333357, 0.0024460689, -0.0306975916, -0.0099030230, 0.0060915523, -0.0120210499, 0.0032760294, -0.0223114099, -0.0086166607, 0.0077826767, 0.0115406085, -0.0008850540, 0.0060244999, -0.0013702022, -0.0052252300, 0.0140798902, -0.0003660814, -0.0233892910, -0.0018432288, -0.0039332854, -0.0005780975, -0.0033756206, -0.0091968141, -0.0104420977, -0.0103533268, 0.0015066403, -0.0027418039, 0.0060879807, 0.0009857388, -0.0132952528, -0.0030185743, 0.0055808327, -0.0030262899, 0.0006516005, -0.0010600741, -0.0099676503, -0.0185675770, 0.0145172393, -0.0064550354, 0.0044583925, 0.0085297143, -0.0082464926, 0.0005221462, 0.0022397675, -0.0063318186, -0.0040323478, -0.0193659943, 0.0054583428, -0.0301688164, -0.0050466433, 0.0077915685, -0.0031328599, 0.0076939240, 0.0247005187, 0.0089998161, 0.0020674588, 0.0005558564, 0.0247826036, -0.0068227798, 0.0015119064, 0.0207003206, -0.0023523082, -0.0144327376, -0.0015806368, 0.0109567894, 0.0030641516, -0.0075284103, 0.0057087336, -0.0167700592, 0.0136965262, -0.0096236430, -0.0036892148, -0.0087786578, 0.0027714712, 0.0068122484, -0.0067736246, 0.0050614923, -0.0004984123, -0.0092085721, 0.0019776316, 0.0068612117, -0.0094645377, -0.0135805868, 0.0087533370, 0.0026155410, -0.0011752025, -0.0163645800, 0.0012854537, -0.0118491733, 0.0040547582, -0.0076084463, 0.0059316093, 0.0041047931, 0.0196175370, -0.0123953549, 0.0042127231, -0.0056036036, 0.0403615572, -0.0024576867, 0.0040590507, -0.0151944747, 0.0180886965, -0.0079833437, -0.0179188345, 0.0062566954, 0.0046629519, -0.0047194636, 0.0092921043, 0.0176890027, 0.0018477360, -0.0023280177, 0.0133820167, 0.0005458927, 0.0038694043, -0.0051415106, -0.0075749434, -0.0150807984, -0.0006683585, 0.0121417223, 0.0107923364, -0.0092363711, 0.0066997334, -0.0004281870, -0.0026600796, 0.0070585757, 0.0286587328, -0.0051726955, -0.0176098850, -0.0353638344, -0.0052193883, -0.0142004406, -0.0047824383, -0.0022664873, 0.0082447957, 0.0064192610, 0.0008110285, 0.0203259140, -0.0046068053, 0.0000929354, -0.0143768713, 0.0186685100, -0.0027025503, 0.0039931987, -0.0148474872, 0.0091442671, 0.0175184924, 0.0041187336, -0.0066579478, -0.0004486373, 0.0121300640, -0.0077515999, -0.0191059802, -0.0028845510, -0.0058190795, 0.0170714743, -0.0048364890, 0.0189270414, -0.0121259578, -0.0071997656, 0.0076509723, 0.0095124803, 0.0057216599, -0.0021305750, 0.0059473854, -0.0115027316, 0.0095542222, 0.0128899254, 0.0117809512, -0.0053964304, -0.0249391310, 0.0027400656, -0.0195682142, 0.0050141113, 0.0013222023, -0.0017455301, 0.0003433552, -0.0267894715, -0.0102189574, -0.0065255687, 0.0049994537, 0.0064313300, 0.0106631713, -0.0036054461, 0.0017021378, -0.0023460719, 0.0261575673, -0.0074017043, 0.0156256557, 0.0129926307, -0.0097098555, -0.0018480859, -0.0076112971, -0.0005478754, -0.0027494505, -0.0004709071, -0.0033143333, 0.0083430102, -0.0052301367, -0.0166925080, -0.0022067211, -0.0030448474, -0.0047675380, -0.0001242928, -0.0020227185, 0.0086150914, -0.0009932008, -0.0117532583, 0.0110964552, 0.0072533488, -0.0050190608, -0.0084187100, 0.0019270246, -0.0005900078, -0.0001390511, -0.0071914168, -0.0011184696, -0.0021479672, 0.0038930909, -0.0004956099, -0.0229988024, -0.0054694111, -0.0065640695, -0.0191985257, 0.0150909713, 0.0028980263, 0.0165130235, -0.0099152392, 0.0142354593, -0.0072104130, -0.0131289735, -0.0198101122, 0.0025214318, 0.0030714192, -0.0097379396, -0.0002735450, 0.0129942913, 0.0134692714, 0.0084269494, -0.0005502382, 0.0036966230, -0.0216671191, 0.0011339980, 0.0030385153, 0.0023551930, 0.0015517855, 0.0017284736, -0.0001780683, 0.0191755109, 0.0060229129, 0.0135740051, 0.0085002901, -0.0027245355, -0.0054375269, 0.0150512177, -0.0037115410, -0.0148600442, -0.0155114494, -0.0067851557, -0.0124099068, -0.0165214147, 0.0071368837, 0.0089609744, 0.0033770395, 0.0025272507, 0.0151581969, -0.0068375315, 0.0006586969, 0.0001195414, -0.0022619937, 0.0036868316, -0.0030045086, 0.0135867260, 0.0139371036, -0.0022241101, 0.0057348828, -0.0184947997, 0.0035718943, -0.0039325394, 0.0048624296, -0.0173916668, 0.0204339232, 0.0111000780, -0.0006486661, 0.0133458655, 0.0010351783, -0.0072648646, -0.0023694313, 0.0110542309, 0.0049090902, 0.0136511652, -0.0045611337, 0.0068275910, -0.0217446107, 0.0150757683, -0.0101100663, 0.0080729956, 0.0052851201, 0.0048892926, 0.0022033171, -0.0072967219, 0.0031087506, -0.0018607089, -0.0005733867, 0.0028832559, -0.0095112398, -0.0080926130, 0.0060930080, -0.0074114441, 0.0038502461, 0.0129146762, -0.0014219186, 0.0094743827, 0.0099418946, -0.0045068432, -0.0085177608, -0.0115243094, 0.0206050705, -0.0031377252, 0.0043367427, -0.0131521430, 0.0131233120, 0.0094209872, -0.0109628914, 0.0005935729, -0.0036731707, -0.0043846681, -0.0046686977, -0.0078846319, 0.0006672160, -0.0029781430, 0.0078848582, 0.0070869769, -0.0133014051, -0.0126310084, -0.0144470073, 0.0093890922, -0.0013975564, 0.0134708062, -0.0124164149, 0.0063868645, 0.0090457853, 0.0011224705, -0.0116871521, 0.0102998475, 0.0009191108, 0.0030650748, 0.0019680199, -0.0086364057, -0.0082774553, 0.0043340721, -0.0150326388, 0.0136511568, -0.0048620952, -0.0102110161, 0.0005076551, 0.0038765832, 0.0016550672, -0.0074051111, -0.0024411017, -0.0002680443, 0.0039345091, 0.0038434421, 0.0057707001, 0.0060813515, 0.0153692467, -0.0158784129, -0.0003355212, 0.0113871926, 0.0095306570, -0.0106451595, 0.0113438861, 0.0046466296, -0.0159337297, 0.0079523977, 0.0067912131, 0.0029476678, 0.0075533441, 0.0109239835, 0.0107931597, -0.0123064946, 0.0048750644, 0.0107908184, -0.0220065322, -0.0158572458, -0.0024732633, -0.0136547927, -0.0021603692, -0.0083230063, -0.0014596076, 0.0212922785, -0.0107272146, 0.0170269608, 0.0074122399, -0.0059830863, 0.0059059761, -0.0224602185, -0.0036277759, -0.0064389007, 0.0108471066, 0.0190082397, 0.0070666429, -0.0019312641, -0.0019755329, 0.0011640415, -0.0072054374, 0.0097003635, 0.0045038499, 0.0040805517, 0.0028373690, 0.0389555879, 0.0062587983, 0.0464918762, 0.0254807416, -0.0020634739, -0.0034615400, 0.0031657817, -0.0006732806, 0.0106271952, -0.0036815051, -0.0119779324, 0.0021390673, -0.0125447018, -0.0036240369, -0.0022402685, 0.0122061763, -0.0030146255, 0.0014724080, 0.0099968165, -0.0187662151, 0.0003337022, 0.0027130486, -0.0045032781, -0.0038863388, 0.0030649356, -0.0047025657, 0.0119081745, 0.0070313164, 0.0125300894, 0.0132271955, 0.0024712309, 0.0086509092, 0.0021660032, 0.0176969822, -0.0212938227, -0.0077179777, 0.0104130730, -0.0064474172, -0.0014257189, 0.0055891946, 0.0232286137, -0.0127604501, 0.0186547115, -0.0047902912, -0.0179144964, 0.0073460462, 0.0113420412, 0.0138597554, 0.0058407462, 0.0004414348, -0.0107921436, 0.0053837285, 0.0113413287, 0.0051701758, 0.0026385589, 0.0096979020, -0.0016918995, 0.0078817643, 0.0040858570, 0.0010463267, -0.0133756530, 0.0053519644, -0.0013147603, -0.0109476475, -0.0000521575, 0.0292085577, 0.0043029115, 0.0149451336, -0.0205963403, 0.0240274630, -0.0022186679, -0.0046655461, 0.0077722827, 0.0058552241, -0.0151377125, -0.0096347835, -0.0042730062, 0.0024540224, -0.0233437717, -0.0000859748, 0.0088137612, 0.0090437941, -0.0043092091, 0.0136271734, -0.0085772444, -0.0176656954, 0.0086722923, -0.0142810959, 0.0040884907, 0.0213170201, -0.0005941570, -0.0076239388, -0.0068069962, 0.0164635275, 0.0000307122, -0.0008238218, 0.0077599650, -0.0139430678, 0.0006224051, -0.0074115307, 0.0108383140, 0.0138646653, 0.0057781166, -0.0125308866, -0.0076472424, -0.0002667398, -0.0078044753, -0.0060599269, 0.0007755490, 0.0085313320, 0.0061132745, -0.0070373556, -0.0071114567, -0.0056332550, 0.0204916168, 0.0143367881, 0.0023325738, -0.0151838036, 0.0123404786, 0.0100131975, 0.0031023296, 0.0102808084, 0.0118974913, 0.0018706261, 0.0179516934, 0.0046413438, -0.0162587054, 0.0046737986, 0.0176106393, 0.0189756360, 0.0208847262, 0.0168234427, -0.0045877588, 0.0148097584, 0.0077188010, 0.0090663815, 0.0084293978, -0.0121008139, 0.0171783343, -0.0099403188, -0.0078063500, 0.0150504308, -0.0153909205, 0.0057652793, 0.0046576923, 0.0189124029, 0.0028908586, -0.0017041622, 0.0060736733, 0.0171681326, 0.0245207734, 0.0104284938, -0.0097519001, 0.0164735429, -0.0040310542, 0.0026161885, 0.0132686608, 0.0073812739, 0.0172010735, 0.0134634292, 0.0048975628, 0.0017105381, -0.0135015324, 0.0005035896, -0.0023100125, 0.0058482215, 0.0050762836, 0.0129420683, 0.0082988124, 0.0144032380, 0.0007008215, 0.0310375318, -0.0044258852, -0.0115991691, 0.0056757592, 0.0017923494, 0.0078486558, -0.0112489779, 0.0120413564, 0.0110844169, 0.0013581869, 0.0130021265, 0.0215262137, 0.0033494243, 0.0100401221, 0.0004672350, 0.0341512077, 0.0041380092, 0.0058469707, 0.0029922959, 0.0070782620, 0.0040526870, -0.0116253393, 0.0118979504, -0.0027923980, 0.0102253426, 0.0005413973, 0.0080440855, 0.0057690800, 0.0045824465, 0.0110532399, 0.0260909684, -0.0012808830, 0.0017036140, -0.0100392802, 0.0249699838, -0.0279890522, -0.0000918829, 0.0024281233, 0.0096099470, 0.0096043088, -0.0219626185, -0.0123207951, 0.0046153730, 0.0054375920, -0.0132668922, 0.0201946869, 0.0251873471, 0.0176423900, -0.0051724189, -0.0020767450, 0.0107086273, -0.0029014016, 0.0115444576, 0.0106267771, 0.0050592828, -0.0226224568, 0.0067663891, 0.0177419633, 0.0063593239, 0.0045939768, 0.0000199158, 0.0007646012, 0.0103160311, -0.0000555580, 0.0132601168, 0.0120488182, 0.0017948096, -0.0029143158, -0.0026466909, -0.0068565849, -0.0077122855, -0.0089491792, 0.0095171044, 0.0087975617, -0.0197178088, -0.0091485204, -0.0081429426, -0.0042575132, 0.0076999310, 0.0039872853, -0.0068264869, 0.0168415755, 0.0009381365, 0.0008557838, -0.0072031971, 0.0098813111, 0.0196815990, 0.0055278540, 0.0058491323, 0.0089233192, 0.0170764755, 0.0371906124, 0.0095845945, 0.0225411318, -0.0079617044, 0.0145981684, 0.0052189720, 0.0009916858, 0.0214144234, -0.0006415315, 0.0055801277, 0.0210847743, 0.0067766709, -0.0010001275, 0.0061790845, 0.0036349462, 0.0081283394, 0.0122844456, 0.0146187302, -0.0021897790, 0.0052315793, 0.0060530445, -0.0036518113, 0.0219834521, 0.0258252360, 0.0286594965, 0.0117648449, -0.0007795351, 0.0051363753, -0.0155343506, 0.0088597033, -0.0009459869, -0.0033352766, -0.0093602082, 0.0287850592, 0.0119212130, 0.0073619871, -0.0011684099, 0.0151960747, -0.0098869512, -0.0004016286, 0.0087530557, -0.0160454549, 0.0083197029, 0.0011656089, 0.0072092777, 0.0147770848, 0.0009358471, -0.0047731837, 0.0072947224, -0.0076124370, 0.0059546949, 0.0075794845, 0.0228112694, -0.0111479238, 0.0101728970, 0.0085392827, 0.0157350376, -0.0016192771, 0.0083818370, 0.0373076387, -0.0044770800, 0.0111120800, -0.0046145460, 0.0287054013, 0.0027991836, 0.0007091699, 0.0158846211, 0.0208443869, -0.0065542189, 0.0020420433, -0.0004459646, 0.0104109701, -0.0066458890, 0.0120382458, 0.0010767530, 0.0005860775, 0.0028459278, -0.0126555013, -0.0286118612, -0.0071326378, 0.0008264963, 0.0089171706, 0.0134522412, 0.0185828060, 0.0179383643, -0.0225669853, 0.0000522047, 0.0188627653, -0.0094720433, 0.0097838072, 0.0295993667, 0.0079894783, -0.0092760911, 0.0065483004, 0.0103998398, 0.0023506929, -0.0085663339, -0.0057277144, -0.0050802473, 0.0098400591, -0.0050246287, 0.0116109867, 0.0055548428, 0.0071262182, 0.0017351048, -0.0142681720, 0.0098854639, -0.0067001348, -0.0083417352, -0.0146256182, -0.0054083522, 0.0070624389, 0.0003928024, -0.0051212027, 0.0182593763, -0.0134395417, -0.0042508850, -0.0060613374, -0.0006177266, -0.0101860510, -0.0223726239, -0.0342492722, 0.0204178374, -0.0060933237, 0.0049085855, 0.0305585898, 0.0250621270, -0.0106461486, 0.0044231182, -0.0072813826, 0.0140432492, -0.0135837095, -0.0078910273, -0.0001679729, 0.0085526053, 0.0071401522, 0.0069199814, -0.0121082030, -0.0089394106, -0.0070908191, -0.0094547970, -0.0193299167, -0.0200309157, -0.0013174188, -0.0044421451, -0.0076655806, -0.0002087001, -0.0131227756, 0.0208007712, -0.0062768273, 0.0155542251, -0.0038797874, 0.0267753918, -0.0098358560, 0.0160183329, -0.0009114773, -0.0008370607, 0.0006312122, -0.0032826008, 0.0001235034, 0.0096293185, -0.0017042513, 0.0128718102, -0.0067874328, -0.0294960756, -0.0003271479, -0.0012227031, 0.0095860949, -0.0119165406, 0.0025724396, -0.0006846219, 0.0086934948, -0.0100548575, 0.0067901975, 0.0016155544, -0.0048583131, -0.0022324980, -0.0079844035, 0.0098169418, 0.0027957913, -0.0023980176, 0.0083164815, -0.0317618661, 0.0016399266, -0.0247454215, -0.0134793241, 0.0088144755, 0.0051973178, -0.0027208799, -0.0002360168, 0.0209798198, 0.0179157909, 0.0000570289, 0.0028353429, -0.0130259767, 0.0139512457, 0.0007661708, -0.0005136487, 0.0026405908, 0.0005213399, -0.0030271041, 0.0049184659, 0.0018373940, -0.0101665920, -0.0009588655, -0.0073118680, 0.0026973120, -0.0075770020, 0.0059877932, 0.0031794738, -0.0144881625, 0.0197872706, -0.0123562012, 0.0083249360, -0.0092768846, 0.0137329716, 0.0004178088, -0.0023048767, 0.0204493906, -0.0273352694, -0.0051974803, -0.0017196367, 0.0038106057, -0.0176407527, 0.0171209928, -0.0015407039, -0.0093474090, -0.0199305341, 0.0100485347, -0.0082052527, 0.0238778349, 0.0101478770, 0.0288913026, 0.0063563515, -0.0195121355, 0.0139118666, -0.0123641808, 0.0080789225, 0.0153710255, -0.0136358840, -0.0092196688, -0.0085611166, -0.0089161899, -0.0115184924, -0.0020368074, 0.0092609301, 0.0126615800, -0.0042188657, 0.0033124841, -0.0222325418, 0.0125647848, 0.0037554144, -0.0133950375, -0.0006688759, 0.0112879789, -0.0081318952, -0.0053236503, -0.0011820154, 0.0048774849, -0.0191371385, 0.0038320401, 0.0052007493, -0.0106853452, 0.0179249737, 0.0039040963, 0.0017354339, 0.0118506523, -0.0251473859, -0.0062933946, -0.0141483555, -0.0054016635, 0.0048338110, 0.0234456938, -0.0121691320, -0.0029927117, -0.0187970437, 0.0048807613, 0.0032846422, 0.0179399680, 0.0040075565, 0.0193738360, 0.0024508543, -0.0022496171, -0.0047882367, 0.0131404549, -0.0068110749, -0.0162088200, 0.0062019564, -0.0010082308, -0.0135866608, 0.0023909914, 0.0140719255, -0.0146987317, 0.0127381664, 0.0064186705, 0.0091869468, 0.0076370919, -0.0009748547, 0.0021110324, -0.0132319797, -0.0171151552, 0.0038317128, 0.0048695887, -0.0010082736, 0.0017323678, -0.0032973760, -0.0016976321, 0.0016158239, 0.0041231229, 0.0085738590, -0.0096680140, 0.0091718752, -0.0068324851, -0.0039542858, 0.0107102441, 0.0113181612, 0.0028171921, 0.0051902477, 0.0034776325, 0.0125143239, 0.0071013183, -0.0134855341, -0.0227341279, 0.0012689213, 0.0081276493, -0.0066119139, 0.0016905359, 0.0077602142, 0.0060833800, -0.0087122945, -0.0029551291, 0.0163076557, 0.0067387158, -0.0101350900, -0.0020291840, 0.0039475528, 0.0037931050, 0.0148238884, 0.0005154817, 0.0162444580, 0.0075178607, 0.0130566135, 0.0075484444, 0.0194419567, -0.0065232157, -0.0071595432, 0.0047369720, -0.0113343690, -0.0125001753, -0.0027689126, -0.0009690198, -0.0151917897, 0.0022846453, 0.0180816948, -0.0151451938, -0.0184381772, 0.0105637833, 0.0057059810, 0.0211445969, 0.0125485323, 0.0120624509, -0.0067766686, -0.0106019592, 0.0226053260, 0.0208156668, 0.0087164566, 0.0090122884, 0.0048239874, -0.0323303007, 0.0122137237, 0.0000391364, -0.0183376316, -0.0042237546, 0.0033490469, 0.0061466447, -0.0043746601, -0.0184562225, -0.0249237046, 0.0087073874, -0.0035625019, -0.0103323571, 0.0204619430, -0.0113081904, -0.0093348417, -0.0022313625, -0.0134233655, 0.0082081826, -0.0098509900, -0.0180415418, 0.0049750647, -0.0070097633, 0.0150823472, -0.0015083783, -0.0062940074, 0.0176764596, -0.0055173314, -0.0152087836, -0.0087975916, -0.0010935933, -0.0102108829, 0.0115478458, 0.0089937346, -0.0019277263, -0.0243516397, 0.0142027112, 0.0009777881, 0.0115914745, 0.0031570378, 0.0125330389, 0.0001238338, -0.0018225663, -0.0079350984, -0.0035825954, 0.0096781747, -0.0017681817, 0.0038705615, -0.0070170015, 0.0210750587, 0.0221489314, -0.0037401973, -0.0182339456, 0.0060981582, -0.0036535633, 0.0131067606, 0.0025703583, -0.0066745584, -0.0133286892, -0.0067463880, -0.0089041814, -0.0182680413, -0.0042565055, -0.0062643578, -0.0054692659, -0.0068793045, -0.0119820265, 0.0028544478, 0.0152439773, -0.0041029085, -0.0288365949, 0.0324264467, -0.0073293638, -0.0105098030, -0.0043570925, 0.0219651517, 0.0093328683, -0.0030425200, -0.0316142589, 0.0064241122, 0.0025606412, -0.0153544946, 0.0016181229, 0.0062232530, 0.0064752800, -0.0021027820, -0.0246696714, 0.0195973609, -0.0140046244, -0.0068551223, -0.0231795553, -0.0021418130, -0.0102043990, 0.0091281924, -0.0050868401, -0.0127327135, -0.0159797799, 0.0167378783, -0.0207328126, 0.0069075269, -0.0020847826, 0.0101722023, 0.0024920066, 0.0003268284, -0.0039504636, -0.0196670853, 0.0144741340, -0.0148709556, 0.0133488588, -0.0091157099, -0.0088656815, -0.0299173146, 0.0044224574, 0.0063561909, 0.0125177503, -0.0354660526, 0.0039244913, 0.0002274529, 0.0073194471, 0.0048969123, 0.0076456321, -0.0075214449, 0.0008213700, 0.0048424629, -0.0019365726, 0.0045219841, -0.0050533321, -0.0168104600, -0.0204010755, -0.0075393897, -0.0197154880, -0.0014894552, -0.0164602753, -0.0023002229, -0.0075882976, -0.0081572765, -0.0021563550, -0.0016635129, -0.0048568156, -0.0146918613, -0.0074756099, 0.0085987961, -0.0109702284, -0.0154050402, 0.0024894373, -0.0277391374, -0.0006923810, -0.0332766585, -0.0114421872, -0.0234837104, -0.0002954182, -0.0231437031, 0.0026580251, -0.0255610049, -0.0005562071, -0.0082252398, -0.0127866445, -0.0147315264, -0.0225014091, -0.0066577834, -0.0132485107, -0.0094227493, -0.0039476450, -0.0125684058, 0.0016460466, -0.0147211878, 0.0090162894, 0.0078294016, 0.0084565552, -0.0130883949, -0.0003404119, -0.0160682630, -0.0127324881, 0.0007000761, -0.0033713132, 0.0025398647, -0.0124933599, -0.0091039408, 0.0065793674, -0.0182027556, -0.0062288241, -0.0176841691, -0.0124913529, -0.0168431625, -0.0036948968, -0.0136527494, -0.0232998393, 0.0069646719, -0.0152662490, -0.0066899103, -0.0135159735, -0.0213836618, -0.0072727147, 0.0000452727, -0.0126972795, -0.0165655240, 0.0008931835, 0.0011445247, -0.0025688314, -0.0070462679, -0.0151399719, -0.0084899087, 0.0022684939, 0.0118007567, 0.0087933140, -0.0230365470, 0.0192173626, -0.0204045400, -0.0092310281, -0.0203815997, -0.0146077694, -0.0024617780, 0.0125066983, -0.0104543883, 0.0027963391, -0.0167537183, -0.0077762934, -0.0031695724, -0.0081213489, -0.0185010787, -0.0135676516, 0.0210865643, -0.0034982546, -0.0207507927, -0.0001004894, 0.0122925136, 0.0037673896, 0.0099823745, -0.0135653410, -0.0081713554, -0.0177109875, -0.0130477753, 0.0073369080, -0.0091383010, -0.0119264321, -0.0022847715, -0.0279575270, -0.0046354798, 0.0214478280, -0.0092650559, -0.0377311893, -0.0094967410, -0.0153728323, -0.0018834765, -0.0056912652, -0.0292481482, 0.0173084233, -0.0049148914, -0.0182022974, 0.0055302130, -0.0186072253, -0.0121187018, -0.0459539481, -0.0140929436, -0.0051994747, -0.0076599722, -0.0068195714, -0.0015384515, -0.0034903237, 0.0002315939, -0.0272988155, 0.0149854403, -0.0218431614, -0.0110089863, -0.0307136960, -0.0014971638, -0.0098105278, -0.0087170387, -0.0013633301, 0.0049203392, 0.0096115386, 0.0050066463, 0.0079320716, -0.0041071824, 0.0105187343, -0.0209812447, -0.0252176654, -0.0088440273, 0.0009909031, -0.0044150623, 0.0057092407, 0.0068397205, -0.0098566273, -0.0044325115, -0.0270666536, 0.0016399799, -0.0080672391, -0.0182662942, -0.0152253583, -0.0000401971, 0.0087575875, -0.0049128910, 0.0094872490, -0.0036738631, 0.0019471388, -0.0059751701, -0.0036236800, -0.0089087682, 0.0089020729, -0.0154506965, 0.0070630689, 0.0190630350, -0.0062210704, -0.0023070215, -0.0083418237, 0.0028812906, 0.0063065062, -0.0162121691, -0.0140945707, -0.0148390671, -0.0100644007, -0.0269105639, -0.0011128553, 0.0004120142, -0.0157925095, 0.0163919441, -0.0128427986, -0.0184323322, -0.0080625601, -0.0183640737, -0.0011049415, 0.0031315496, -0.0036522346, -0.0273743197, 0.0025342968, -0.0013445186, -0.0185227878, -0.0141223455, 0.0044063097, -0.0115662944, -0.0126361204, -0.0056283465, 0.0091513917, -0.0225596763, 0.0160336308, -0.0214728378, 0.0019695854, -0.0013759811, -0.0170087237, -0.0160649512, 0.0040007415, -0.0156398695, -0.0143543715, -0.0094111925, 0.0078543676, -0.0120002450, -0.0085132821, -0.0004618621, -0.0132658323, -0.0057810657, -0.0075326608, -0.0082746167, -0.0002239086, -0.0245581958, -0.0229161866, -0.0011984210, 0.0022137309, -0.0135045974, -0.0066023003, -0.0005934670, -0.0055263238, -0.0106958319, 0.0090002241, 0.0003608470, -0.0111233611, 0.0005609582, 0.0144847026, -0.0005237359, -0.0139110480, -0.0386342630, -0.0045649069, -0.0144880479, -0.0070497137, -0.0046203034, -0.0137708848, 0.0137315169, -0.0202074740, 0.0123514300, -0.0109177912, 0.0118881371, -0.0187211335, -0.0102292420, -0.0047887689, -0.0252821576, -0.0047257282, -0.0153931258, -0.0084685320, 0.0009047667, -0.0460630320, 0.0106340302, -0.0138217248, -0.0131396167, -0.0263267718, -0.0067633293, 0.0060896459, -0.0073345774, 0.0232222117, 0.0067278557, 0.0026045004, -0.0183651913, -0.0055957153, -0.0091883484, -0.0100775771, -0.0013120174, -0.0127502782, 0.0091475518, 0.0044973078, -0.0113611491, 0.0016432372, -0.0085145887, -0.0145424176, 0.0134027572, -0.0154209556, -0.0038666124, -0.0155356005, -0.0029042300, -0.0149567369, -0.0341940485, -0.0116292993, 0.0043376158, -0.0299444497, -0.0013133534, 0.0070802458, 0.0043720398, -0.0217335187, 0.0032723984, -0.0067986543, 0.0018369474, 0.0145498840, -0.0003520918, -0.0226434972, -0.0181849618, -0.0069353757, 0.0079959128, 0.0068967021, -0.0240733027, 0.0163576584, -0.0167520363, 0.0036549871, -0.0210116841, -0.0124569423, 0.0133689167, -0.0025701365, 0.0056535262, -0.0433493517, -0.0189208705, -0.0084512271, -0.0087796124, 0.0104582496, -0.0002057092, -0.0246232096, -0.0339956693, -0.0022052294, -0.0023325162, -0.0018154583, -0.0161890928, -0.0064097913, -0.0114486841, -0.0059114941, -0.0026348582, -0.0171255432, -0.0053051682, 0.0055704452, -0.0303635560, -0.0015437052, -0.0024028849, -0.0094456198, 0.0197111443, -0.0028328125, -0.0039794436, -0.0082151517, -0.0242973603, 0.0053637717, -0.0035229048, -0.0093589704, -0.0175772235, -0.0088274246, -0.0262767244, -0.0246380568, -0.0049719461, 0.0017720239, -0.0263019763, 0.0013236078, -0.0085855890, -0.0102342675, 0.0033312954, 0.0059138895, -0.0039199651, 0.0042289719, 0.0069159097, 0.0044617942, -0.0092907110, 0.0031255961, 0.0069311415, 0.0086864475, -0.0055983062, -0.0315528214, -0.0084676631, -0.0080559626, 0.0062406249, 0.0055242097, -0.0005527899, 0.0051887943, 0.0005329372, -0.0298697725, -0.0110735567, -0.0199203379, 0.0114168739, 0.0005712764, 0.0135446843, -0.0182875041, -0.0023883705, -0.0125944577, 0.0009866022, 0.0101698013, -0.0021564986, -0.0002174034, -0.0044514323, 0.0059806472, 0.0080147441, 0.0035190533, -0.0144965937, -0.0116353594, 0.0007574453, 0.0007176211, -0.0022385486, -0.0205375738, -0.0007574944, 0.0011134982, 0.0143772587, -0.0107652834, -0.0198796540, -0.0129806120, -0.0068295919, 0.0077332081, -0.0106286583, -0.0145922489, -0.0012261915, -0.0006306274, 0.0035440146, 0.0050364505, -0.0083554368, 0.0002909194, 0.0017142646, -0.0033083817, 0.0159015749, 0.0067303404, 0.0019245321, 0.0411359333, -0.0079933312, -0.0065584765, 0.0054386705, 0.0084039560, 0.0112540517, 0.0064527337, 0.0035889652, -0.0303626154, 0.0043372982, 0.0128051192, -0.0022273932, -0.0145502426, -0.0187238920, 0.0056227841, 0.0119870389, -0.0006901469, -0.0005380803, -0.0293709431, 0.0123816095, 0.0111367637, -0.0022947639, 0.0107459910, 0.0216576308, -0.0209053643, 0.0115379868, -0.0281242002, 0.0019764984, -0.0151987113, -0.0047547556, -0.0160842966, 0.0085018268, 0.0092213182, -0.0248641223, -0.0019997349, -0.0230392646, 0.0205330327, -0.0200836845, -0.0161987897, 0.0007113534, 0.0086622061, -0.0193008929, -0.0177823417, 0.0194563214, -0.0050979094, -0.0098374402, 0.0023744458, -0.0083478913, -0.0156652872, -0.0083601791, -0.0038686018, -0.0045697312, -0.0140920542, 0.0007746509, -0.0016753380, -0.0122924522, 0.0013207366, 0.0209171325, -0.0268646069, -0.0066397800, -0.0060900305, 0.0077183116, 0.0264740027, 0.0004722791, 0.0147155961, 0.0007208398, 0.0048567830, 0.0046786657, 0.0143862264, 0.0002489569, -0.0107388217, 0.0176717229, 0.0027059165, 0.0061875391, -0.0071503916, 0.0187132005, 0.0081624351, -0.0063975607, 0.0126137063, -0.0064318511, -0.0184969436, -0.0091012707, 0.0064439867, -0.0200070087, 0.0000112996, -0.0026956990, -0.0014007128, -0.0170020293, 0.0138948821, 0.0052785082, 0.0097601218, -0.0252045989, 0.0016441976, 0.0125739975, 0.0060584624, 0.0127038565, 0.0028177176, -0.0112867579, 0.0075894766, 0.0007517405, -0.0146758128, 0.0312682241, 0.0000344216, 0.0185570884, 0.0024268124, -0.0113982977, -0.0192273129, 0.0167420376, 0.0069347960, -0.0028621231, -0.0109611377, -0.0125514474, 0.0024225209, -0.0021232960, -0.0037922349, 0.0126312543, -0.0200498682, 0.0028185456, -0.0193758216, 0.0379492827, 0.0107267518, 0.0103092315, 0.0282175746, 0.0230331291, 0.0079772752, 0.0238645654, 0.0150667112, 0.0061627533, 0.0102473823, 0.0091369534, -0.0044502160, 0.0051818220, 0.0158055443, 0.0271484330, 0.0116911745, -0.0103117684, -0.0011551472, -0.0096595474, -0.0003894735, -0.0058111870, 0.0093556661, 0.0142394518, -0.0037163699, 0.0221096613, -0.0274211988, 0.0023492803, -0.0220158603, 0.0059026019, 0.0190524049, 0.0044928933, 0.0142422486, -0.0038882794, 0.0189480633, -0.0031483409, 0.0065620863, -0.0041482649, 0.0150764771, -0.0016099854, -0.0150585249, 0.0025330635, 0.0005042464, -0.0215504225, -0.0077363029, -0.0075516766, 0.0268167574, -0.0195019133, -0.0023759245, 0.0001554449, -0.0116480291, -0.0009532790, -0.0084533906, 0.0321981721, -0.0040301709, -0.0077615175, -0.0084649576, -0.0083523458, -0.0197336711, -0.0022048971, -0.0131552648, 0.0188947618, -0.0164595637, 0.0059087472, -0.0074659293, 0.0132988598, -0.0198124591, -0.0156855900, -0.0167668778, 0.0003534369, 0.0035752899, -0.0085323611, -0.0126305204, 0.0148684215, 0.0056944354, -0.0157555714, 0.0069583603, -0.0017352795, -0.0011501261, 0.0129009644, -0.0079807425, 0.0018506303, -0.0123327682, 0.0320601389, -0.0002491111, -0.0191297419, -0.0112682562, 0.0004967012, 0.0260968171, 0.0202545263, -0.0160292853, 0.0147431409, -0.0231404286, -0.0003719004, 0.0161970221, -0.0026970089, 0.0125353318, -0.0145079494, 0.0177244861, 0.0033657558, 0.0035263659, -0.0000092944, -0.0055105649, -0.0063197096, -0.0135734212, 0.0223409086, 0.0131892525, -0.0088186059, 0.0149723981, 0.0125503987, 0.0026745133, -0.0011468120, 0.0069850022, 0.0230460502, 0.0141182998, 0.0043207016, -0.0030229636, 0.0340747759, 0.0053235521, 0.0175088216, -0.0080793826, -0.0070263413, 0.0100462986, 0.0058785654, -0.0125476774, 0.0077600223, -0.0200028159, -0.0057840161, -0.0067042224, 0.0146092130, 0.0047064754, -0.0105354683, 0.0176908467, 0.0252148937, 0.0114713870, 0.0365090407, 0.0038446384, 0.0329172574, 0.0291126519, -0.0040640444, 0.0009919079, 0.0070313099, -0.0015431825, 0.0059302892, 0.0123972483, 0.0146982288, -0.0096338801, 0.0281178635, 0.0209952369, -0.0354351960, 0.0043051280, 0.0057185097, 0.0100775668, 0.0221729334, -0.0082136076, -0.0029063935, -0.0224644933, 0.0281355046, 0.0090422183, -0.0023233208, 0.0060299640, 0.0114319595, 0.0240736157, 0.0020544231, 0.0057227011, 0.0184578039, 0.0039464105, -0.0041962285, -0.0152761219, 0.0021579766, 0.0041737747, -0.0070915166, -0.0039202180, 0.0030007029, 0.0207748227, -0.0151346419, -0.0267695710, 0.0060161133, 0.0024734915, 0.0068669445, 0.0156560056, 0.0164310876, -0.0041662613, -0.0209091492, 0.0385944769, -0.0248043202, -0.0277990364, -0.0020887975, 0.0204985086, 0.0125097148, -0.0136129865, -0.0116398539, -0.0123701775, -0.0133758448, 0.0070319525, -0.0233496334, -0.0326369703, 0.0124239987, -0.0015724346, 0.0161080174, 0.0074671973, 0.0088627394, 0.0325952992, -0.0314473771, 0.0157816429, -0.0026170427, 0.0166011807, 0.0144739728, 0.0077549326, 0.0094240578, -0.0002731657, 0.0328623876, 0.0049831294, -0.0096426206, -0.0100615034, -0.0076316306, 0.0123140616, 0.0301180016, -0.0100647248, -0.0031764749, -0.0129250372, -0.0080560837, -0.0001653661, -0.0123442123, 0.0224472657, -0.0114315553, -0.0084178895, -0.0204067286, -0.0025248330, 0.0152603751, 0.0059253639, -0.0411439165, -0.0087608136, 0.0012981473, -0.0087782638, 0.0115247956, 0.0033721149, 0.0069936891, -0.0199063551, -0.0247556232, 0.0042579053, 0.0025539023, 0.0245109424, 0.0001626565, -0.0001297563, 0.0018020753, 0.0111115398, 0.0011879167, 0.0081600156, -0.0255937502, -0.0008469824, 0.0164888520, -0.0198235940, -0.0019679940, 0.0011023654, -0.0118778767, 0.0070192018, -0.0054346561, 0.0067815213, -0.0136058452, 0.0156917814, 0.0103128040, -0.0061053736, 0.0139834723, -0.0046781031, -0.0029630112, 0.0007308014, -0.0052911770, 0.0057366099, 0.0056816512, 0.0113078365, 0.0243634470, 0.0088715432, 0.0118513014, 0.0139952144, -0.0334580392, -0.0202192850, -0.0009854060, -0.0016533230, 0.0062731365, -0.0000089926, 0.0051483205, 0.0043872283, 0.0089941528, 0.0158912539, 0.0003697009, 0.0054250406, 0.0066687246, 0.0007777270, -0.0029436494, 0.0049956613, 0.0121836392, 0.0168759674, 0.0144432969, 0.0058102743, -0.0094315503, 0.0182278212, 0.0180065036, 0.0164695047, 0.0090626301, -0.0182776842, 0.0216967780, -0.0038824624, 0.0144225527, -0.0092516178, 0.0193280056, 0.0049887756, 0.0172233786, -0.0179700758, -0.0232642684, 0.0029439612, 0.0038606161, 0.0089969924, 0.0228546448, -0.0026109775, 0.0174893178, 0.0221872348, 0.0167115889, 0.0222263038, 0.0141284317, -0.0096890796, 0.0077004172, 0.0267479680, -0.0124482103, 0.0041422048, 0.0006159308, -0.0027977307, 0.0120913563, -0.0038260762, -0.0048983553, 0.0147409365, 0.0182193276, 0.0138055375, 0.0127870282, 0.0028048295, 0.0087820021, -0.0108688036, -0.0160441864, 0.0332397632, -0.0123336893, -0.0009405384, 0.0106174173, 0.0214707889, 0.0106843151, -0.0059056091, 0.0076433215, 0.0030040590, 0.0086509911, -0.0068042339, 0.0097777192, 0.0272882655, -0.0031264469, 0.0057038856, 0.0058965315, 0.0072255651, 0.0111764707, 0.0126136290, -0.0016255522, 0.0115899770, -0.0207663868, 0.0053890795, -0.0023688120, -0.0012491242, 0.0164594334, 0.0164926760, 0.0210202876, -0.0181599595, 0.0089103980, -0.0011756164, 0.0083676474, 0.0147081781, 0.0054365522, 0.0138168745, 0.0109681804, 0.0110990712, 0.0171296708, 0.0084503563, -0.0051494590, 0.0103773400, 0.0220311303, -0.0133159375, 0.0158270895, 0.0033195738, 0.0010484392, -0.0094648311, -0.0180179980, -0.0004214162, 0.0130680604, 0.0253843628, 0.0135463700, -0.0010751219, 0.0112602320, 0.0207943246, -0.0038043847, 0.0070669246, 0.0034120313, 0.0071199583, 0.0053254911, 0.0105586899, 0.0230618343, -0.0019571981, -0.0046093604, 0.0248385035, -0.0282902289, -0.0102965757, 0.0206129514, 0.0104879644, 0.0111574912, 0.0011436309, 0.0251152441, 0.0042182398, 0.0285307523, 0.0020885756, -0.0096384166, 0.0122686578, 0.0216086693, 0.0003487697, -0.0163893662, -0.0079686120, -0.0089240149, 0.0274314824, -0.0117348647, 0.0109103601, 0.0133563923, 0.0386939868, 0.0345669687, 0.0207092650, 0.0141529283, -0.0035079403, 0.0270843226, -0.0096789608, 0.0171353333, 0.0247357171, 0.0189888123, -0.0151202669, -0.0037224959, -0.0093076024, 0.0170590077, 0.0199858956, -0.0188802592, -0.0067722043, 0.0187017769, 0.0115030222, 0.0163239241, 0.0166929532, 0.0040278654, 0.0223427135, 0.0123355007, -0.0135938674, 0.0327024832, -0.0067782849, -0.0005519944, 0.0043826988, 0.0222366862, 0.0192246791, 0.0350043960, -0.0052853920, -0.0107416380, 0.0062291273, 0.0249756388, 0.0206646156, 0.0140941180, -0.0064480668, 0.0062661655, -0.0080699436, -0.0076213283, 0.0564968139, -0.0167419687, -0.0095557338, -0.0104901567, 0.0110163586, 0.0043585990, -0.0170901231, -0.0220897403, 0.0264508910, -0.0023542969, -0.0183439944, 0.0287439842, 0.0384905376, 0.0028497553, 0.0030206232, 0.0286141336, 0.0082302466, 0.0243985914, 0.0066239396, 0.0241925567, 0.0098474454, -0.0189738180, -0.0043727518, -0.0157148335, 0.0036205582, -0.0190540031, 0.0135958688, -0.0060619060, -0.0098528499, -0.0014989357, 0.0129569052, 0.0014809527, 0.0048714890, 0.0108269053, -0.0019767692, 0.0006913425, -0.0050732424, -0.0010561096, 0.0082999878, 0.0021841736, 0.0157401171, 0.0358071961, -0.0137811834, 0.0030718958, 0.0200999789, -0.0048755077, 0.0083781434, -0.0346879736, -0.0011913179, 0.0083840853, -0.0087893214, 0.0073144212, 0.0250728503, 0.0226139259, 0.0115241352, -0.0189087465, 0.0033195082, 0.0204511266, 0.0073836292, 0.0176171269, 0.0135445986, -0.0058374661, -0.0186776090, 0.0215358678, -0.0133272838, 0.0058527081, 0.0094673233, 0.0284982696, 0.0198960286, -0.0008382725, 0.0164645631, 0.0044076736, -0.0074516116, 0.0421129949, 0.0251061674, 0.0079341950, 0.0169702470, 0.0119998651, 0.0072722533, -0.0105010280, 0.0094965836, 0.0133072911, 0.0137965363, 0.0110786250, 0.0209012739, 0.0348506421, 0.0089619225, 0.0379825234, 0.0235671196, 0.0183942392, -0.0181794930, 0.0433130376, 0.0037392094, 0.0147022232, -0.0073685315, 0.0109454449, -0.0218910314, 0.0160378497, -0.0266978480, 0.0369067453, 0.0131461918, 0.0048877439, 0.0192501359, 0.0220769141, 0.0117535014, 0.0259950235, -0.0193048120, 0.0046551777, 0.0189366229, 0.0054132319, 0.0061253747, -0.0012268405, -0.0078870095, 0.0122242551, -0.0128248697, 0.0014483370, 0.0136667993, 0.0242311470, 0.0103344433, -0.0054068184, 0.0140306987, 0.0343713574, 0.0138147017, 0.0081463633, -0.0081965150, 0.0144404471, 0.0001057883, -0.0161512680, 