//Numpy array shape [5, 5, 4, 16]
//Min -0.363464295864
//Max 0.422823011875
//Number of zeros 0

#ifndef W4_H_
#define W4_H_

#ifndef __SYNTHESIS__
model_default_t w4[1600];
#else
model_default_t w4[1600] = {0.3742682040, -2.8326559067, -5.3238763809, 0.9059029222, -4.1122665405, -0.3552234173, -1.9479365349, 2.5659289360, -1.9748980999, -0.6937844753, -2.9248962402, 1.0173684359, 4.7400898933, 1.2564899921, -0.8999397159, 0.2660711706, -3.2106111050, 2.8139102459, 1.6899664402, 1.1294335127, -0.9447665811, -1.6934095621, -2.8918850422, 2.1588678360, 0.1087444872, -0.4378364980, 2.5202524662, 8.6402978897, -4.1718764305, -1.9815778732, -0.5222110748, -0.3151341379, -0.1490424871, -6.7691774368, 6.4877490997, 7.4067668915, 4.2197403908, -0.8992151022, 1.2905392647, 6.9142293930, 3.0331933498, 0.0222347640, -0.1630782038, 1.3383606672, 4.5259823799, -1.3619399071, -0.5062736869, 6.9447488785, -1.9065989256, 2.5266776085, -3.6119759083, 3.6046187878, 0.9561361670, 4.5408563614, -0.2671827674, 8.8769426346, 1.7868782282, 2.3469305038, -1.4478377104, 4.9199976921, -0.6880540848, -0.7776557803, 0.9127136469, 5.1823487282, -2.3692729473, -2.8953840733, 2.2165553570, -0.0210799873, 3.1153252125, -1.8119206429, -0.1629407257, 7.2361483574, -0.0879304409, 0.3369637430, 1.0049011707, 5.1709046364, 2.6723251343, -1.1841264963, 1.9794969559, 3.7469663620, 0.6477693319, 4.1860890388, 2.4254231453, 5.6926136017, 6.6154484749, 6.9090461731, 0.6340314746, 3.1403176785, -1.8199013472, -0.0858764872, 0.2604549825, 3.1155889034, 1.9082006216, -1.4563443661, 1.4150544405, 2.1623799801, -2.3848595619, -1.9494625330, 3.1769621372, 1.3580356836, 1.5656845570, 0.5343980789, 0.6277518272, 0.7829589844, -0.0840458646, -0.9153411984, 0.7313942909, -1.2156311274, -0.8960658312, 0.1128452793, -0.6540589333, -1.0361224413, 1.7918738127, -2.1755003929, -0.6198316216, -0.7437434793, 0.3368867636, -1.8383685350, 0.3987285793, -1.3459771872, 0.5919240713, -0.4912374020, -2.0027375221, -0.5301840901, 0.6349677444, -2.5812752247, -0.7572352290, -0.7458714843, 0.2019489259, -1.1933040619, -1.5666689873, 1.1941462755, 0.1733426005, -2.5316309929, -2.2410075665, -1.5856903791, 0.5036399364, -0.5176099539, -0.9060900211, -1.1604689360, -0.4504962265, -2.3841481209, 0.4158225060, -0.4473702312, 0.3049390912, -2.8052985668, -1.4618904591, -0.0307551678, 1.1112692356, -1.0160564184, -0.1409118325, -0.2054271698, -0.8910442591, -2.0418043137, -1.4114559889, -0.2581827343, -0.4054442942, -0.6167657375, 1.1037218571, -0.3594078124, 1.0294015408, -2.1612343788, -1.0122368336, -0.4426098466, 0.8834208250, -0.4808489084, 0.4471931159, -0.9918878078, 1.3814498186, -2.7754390240, -1.8190956116, 1.4754778147, 1.3161456585, -0.2252064645, 0.1495475173, 0.7307832241, -0.6758116484, -2.4034063816, -1.7767075300, -0.4445326328, -1.3062573671, 0.5359022021, -2.6235029697, -1.4105025530, 1.2949315310, 2.5826818943, -2.9941542149, -1.5990658998, 0.0705802739, -1.8723379374, -1.0951994658, -1.9359476566, 0.6106024384, -1.4656171799, -1.2803026438, -1.0739125013, 0.4831887186, -0.2774990201, -0.1443305314, -0.6311608553, 0.9020981789, 1.8156040907, -2.3468351364, 2.0439546108, 0.1388632655, 1.2729588747, -0.7575640678, 0.2810889482, 0.6621260047, 1.5309885740, -0.4048601091, 1.0855971575, -0.8762676120, 0.6360920072, 0.7022539973, -3.4243533611, -0.6716959476, -0.5902778506, -0.4684664607, 0.3247230053, -0.0279980320, -2.0436975956, -0.5079597235, -0.1161947474, 0.0148842223, -2.7022871971, -1.0480927229, 0.4358635247, 2.1630444527, -0.9409277439, -1.1721506119, 0.8279631138, -0.3653884232, -3.2244968414, 0.0770897046, -1.1270396709, -0.7545374036, -1.3481489420, -1.9416370392, -0.1222031564, 1.1920393705, -2.3344502449, -2.2535612583, -1.7524484396, 0.7758848071, -1.4491715431, -0.2972126305, 1.8936363459, -1.4398605824, -1.3550461531, -1.6792808771, -0.8158058524, 0.4006228447, -2.3690180779, 0.8982921839, 0.9733592272, 0.7845972776, -0.8398912549, -1.9074819088, 0.1465212256, 0.9354414940, -0.9500918984, -2.0084824562, 1.7516889572, 0.4341624081, -0.6619731188, -0.7141864300, 1.5515042543, 0.0363905914, 0.3404359818, -1.6763601303, 0.1484285146, 0.3554691374, 0.1866888553, -2.5172502995, 0.0228432715, 0.6599432230, 1.4048432112, -1.5766596794, 4.3420495987, 0.0706795529, 0.4544711411, -0.6828077435, -0.3733929396, 0.2268266082, -0.0544692390, -2.1841027737, -0.1817112416, 1.6463960409, -0.3740009665, -0.7392334342, 0.5368309021, -1.1487214565, 0.1921089143, -1.7252163887, -0.8804205656, 1.7158370018, 1.4231238365, -1.2687397003, 1.7859425545, -1.7063121796, 1.8786132336, 1.2068873644, -1.3669562340, 3.9372496605, -2.5327789783, -2.4615912437, -1.1083787680, 3.1214344501, 3.5858099461, -3.3594355583, -0.3899034560, -1.5876368284, -1.9065829515, 4.7487759590, -1.4747638702, -2.3635785580, -2.5638909340, 2.0011551380, -4.0294017792, 3.7797837257, 0.4257659614, -1.6313532591, 3.7845101357, 1.1622906923, 1.5462130308, -2.3516912460, -1.8313165903, -0.0392233692, 5.0480399132, 2.8531463146, -6.9338822365, 1.3406831026, 0.3202505708, -3.2086148262, 2.8082623482, -0.4787913263, -2.8981335163, 0.2293211371, 5.5320806503, 4.8154158592, 3.1931672096, 0.1124332622, -2.4269359112, 1.7982966900, -1.1883860826, 2.2727267742, -3.1813621521, 1.8439595699, 3.4653151035, -0.5396934152, -4.7947607040, -0.1350362897, -3.1563127041, 1.7354806662, -1.3139756918, -2.3484981060, 3.2881724834, 2.2648887634, -1.2663651705, 1.1988861561, 1.3859648705, 0.2109002173, 0.2150603086, -4.8501858711, 2.5229964256, 0.4237384498, -3.4424445629, -0.1888460964, 3.4059972763, -0.6885973811, 2.1065530777, 2.5938262939, -1.1758311987, 3.0558710098, -0.4535308778, -2.9438476562, -0.6316024065, -2.7149472237, 2.3765578270, 0.4527129531, -1.0003939867, -0.9648206830, -2.6734216213, -4.5127897263, -2.8495128155, 1.6770056486, 4.0327830315, -4.1403260231, 1.1856800318, 0.8754724860, -4.7499408722, -0.6119583249, 0.1706305742, -2.7158858776, 2.6800034046, -0.1950451732, 3.1068115234, 1.1114089489, 1.0638573170, -0.9254601002, 0.4525254965, -0.1243513823, -1.2761123180, 2.5137453079, 4.0587015152, -2.8468153477, -3.1524419785, -1.0910415649, -0.7427305579, -0.3151772022, 2.2584443092, -0.6496759653, 1.3308204412, -1.3984323740, 3.3494246006, -4.7493667603, 0.7677183747, -0.3608590961, -1.1296975613, -0.5538570881, -1.0134153366, 0.2071756870, 1.8374394178, -2.0839760303, 0.2548197210, 0.1496590674, 1.4471603632, -0.4873970747, 0.5740523338, -0.1353126913, 2.6781246662, 0.3647303879, 1.2676277161, 1.0603486300, 0.1704191864, -2.0134150982, -1.9985108376, 0.1192016155, -1.5860067606, -0.7888228297, -3.3692703247, -0.0242204759, 0.1192978844, 0.4757602215, -4.1889524460, -0.4608061016, -0.9290043712, -0.0028050812, -3.2510094643, 0.6824490428, 0.2033611089, -0.9250245094, -4.4748640060, 1.4006104469, 1.6288347244, -1.0840266943, -3.7746772766, -0.2411157936, 0.8802406192, -0.4800328910, -3.3631627560, -0.1423287541, -0.6947051883, -0.8136575818, -2.3905212879, -0.7380690575, -0.6776604056, -1.3268479109, -4.3005089760, -1.6914106607, 0.1293497235, -0.8368904591, -2.0526590347, -0.5606251955, -1.9592078924, -0.7181794643, -2.3528141975, 0.9198186994, -1.8819313049, -3.0466663837, -0.2140793055, 1.1599707603, 1.5410073996, -0.3191386163, -1.3149367571, -0.6770198345, -0.3927696943, -2.2637147903, -1.9931393862, -0.0704382285, -0.5709071755, -1.7198665142, -1.7335677147, -2.2313096523, 1.1329351664, -0.0366901830, -0.6477622986, 0.5990778804, 1.2459216118, -0.2125293612, -0.6308563948, -1.7461280823, 3.9580280781, 1.9565038681, -0.2258759886, 3.8339564800, -4.5536484718, 1.6428850889, -0.8354538083, 0.9269208312, -5.5549015999, -2.9878890514, 2.3747487068, 0.4454436004, -2.8712873459, 1.1782941818, 0.3271230757, 1.9197449684, -1.9075132608, -0.0881757438, -1.4900239706, 0.7015206218, -0.9468694925, 1.1562260389, -2.0852475166, -0.4510836005, -6.6012134552, 5.2832465172, -3.1490814686, -0.1099318638, -6.0984869003, -1.2313996553, 1.1209787130, -3.1030526161, -0.6200821996, 5.0579309464, -1.4617606401, 0.8114972115, -8.4294309616, 2.4707481861, 5.5952043533, 0.4674284458, 2.3723487854, -0.4847103953, -2.4089417458, -1.4927622080, -2.5986130238, 0.0297390055, 3.3443832397, 2.7360048294, -2.4547607899, 1.9581079483, -2.5287532806, 0.8683033586, -3.7315735817, 4.1368889809, 2.0739960670, -4.5746645927, -1.1742706299, -0.0767810941, -4.3749952316, -0.4420298934, 3.9971768856, 0.6809089184, 0.4664197266, -0.5534575582, -0.4306383133, -2.4739840031, -0.3035200536, 2.1999387741, 0.3703915775, -1.0316859484, -2.3163547516, 3.9824585915, -5.7133345604, 2.0131266117, -2.0909984112, 3.8250286579, -1.2297437191, -3.6290771961, -0.0850578398, -0.0579093136, -2.0014169216, -1.7551131248, 3.1103770733, 0.4859446287, -2.9013738632, -0.6324418187, 0.2779578567, 0.1360251009, -5.3841409683, -2.1339921951, -2.0908718109, 1.0929685831, -0.9935282469, -2.6516396999, 3.3709754944, 3.2154850960, 2.4760773182, 0.4072723985, 1.2478137016, -0.3073965311, 0.3208461106, -1.1970492601, 0.0080526639, 0.2473036647, 0.4127660692, -0.2632036805, 0.5095815063, 0.7400225997, 0.0151432380, -0.6762440801, 0.4037036598, -1.4304047823, 0.4962217808, -1.1109880209, -0.7793920040, -0.3614841700, -2.4117946625, -0.8626797795, -1.2776229382, 1.0283874273, 0.4017508328, 1.1699440479, -0.2067559958, -1.4361400604, -0.0912287682, -0.2636987269, 0.0117955497, -0.4139311314, 0.7836951017, -1.0152844191, 1.4552181959, -2.0783557892, 2.4295461178, -1.5407412052, 0.5780658126, -1.3128746748, -0.7506576777, -0.1856523007, -2.7311728001, -2.1725656986, 0.2583851218, 2.0068514347, -2.8342013359, -3.0102295876, 1.3759995699, 2.7279562950, 0.8677831292, -0.7589174509, 0.2644219995, -1.0129398108, -0.7909021974, -0.7753432393, 0.7015231848, 0.3444072008, -0.8582651019, -0.5782663822, 2.3990535736, 1.4375625849, -1.7594583035, -1.0346703529, -0.5028924346, 0.1575728506, -2.0279393196, -1.1013878584, 0.9231421351, -0.1075772345, -3.4668784142, -0.9256926179, 1.5197768211, -0.2458093315, -3.5352518559, -2.2322454453, 1.3533006907, 0.9891697764, -1.1136642694, -0.7250195146, 1.5522234440, 2.4274005890, -0.7629222274, -0.1967808604, -1.3708362579, 0.9871970415, -1.5031627417, -1.3207669258, 1.5253384113, 0.8238741755, -0.9624505639, -1.7094080448, 0.8782470822, -0.3521048427, -0.5270002484, 1.3549910784, -0.0580634773, -0.3431547582, -0.1365411282, -2.1718089581, -0.0682290941, 1.2470958233, 2.1424281597, -6.4669604301, 0.6187759638, 0.4270507693, 0.1241001040, -0.0750791654, -4.0224351883, -1.0073870420, -2.9809484482, 4.9432725906, 0.9590439200, 2.9101195335, -4.2659139633, 0.0953965783, -4.1517877579, -3.4254791737, 2.9327189922, 2.8439178467, -0.4599781930, -0.0282893647, -2.3245499134, 3.3194088936, 4.0862812996, 5.4738168716, 1.9279009104, 0.8756657243, 2.6808075905, 4.3630390167, -1.5658040047, 2.1500096321, -3.3376438618, 0.2210852951, 2.3088519573, -2.0207030773, 1.7652864456, -4.0043253899, 0.0481321849, -3.9139170647, 3.6861269474, -0.0161880925, 3.3090896606, 4.3437867165, 2.0801293850, 2.2813544273, -3.7250664234, -2.3844203949, 3.8252267838, 2.7439703941, -1.6733558178, -5.6127552986, 3.6528673172, 0.8287369013, 3.4605753422, -4.1950101852, 1.6861821413, 0.9982660413, 0.3596360683, 5.3219823837, 0.7256483436, -5.6516098976, 3.0322418213, 0.6626460552, -0.3780271709, 1.6371461153, 2.9391996861, -0.4014710784, 0.5773632526, 4.2500791550, 4.0505037308, -1.3672283888, -0.5840755105, 0.1039239243, -2.0181405544, -4.6536726952, -2.5502502918, -5.6439547539, 1.5925110579, -4.3683505058, 2.1088297367, -4.0602035522, -3.3030166626, 3.6287703514, 0.2871803343, 1.0692299604, 3.5272076130, 1.5165549517, 1.1297310591, 4.2739877701, 0.7889537811, 1.6138610840, 1.5209059715, -1.1825870275, 3.5265011787, -0.3331012130, 3.1340463161, 0.4385729134, -1.7866483927, 1.3090149164, 0.6725914478, 0.0827875361, 1.2046543360, -0.1151749268, -0.7622749209, -1.6438438892, 3.0398819447, -1.4407752752, 1.8118420839, 0.1001862213, 1.1806446314, -2.4809319973, -2.1588034630, 1.4801353216, 1.5159534216, -6.2775316238, 2.6379573345, 0.2332789600, 2.8739049435, -1.5356429815, 4.0116314888, -0.6838400364, -1.3426741362, -4.9032521248, -1.2951376438, 1.9234409332, -4.5709266663, -6.0978183746, 1.6466890574, 0.9341645837, -3.0113756657, 1.7735387087, 2.6416292191, -0.8080181479, -0.4649156630, -2.2088665962, 5.6082377434, -0.4523885846, -3.5648753643, -4.4900937080, 1.7560745478, 0.8683758974, -1.7237799168, -0.8691722155, -3.7757391930, -3.4771285057, 0.9997203350, -2.6235394478, -3.1501488686, 0.5011166930, -0.0580360107, -3.8480262756, 1.7969212532, -1.5248942375, 1.6063338518, 1.7058917284, 7.4462323189, -1.7440365553, -1.4667340517, 1.4588928223, 0.3091543019, -0.1847952157, 0.9963710904, 0.8418147564, 4.1506547928, -1.7631994486, 3.4627287388, 1.3755575418, -0.3529780805, -1.8338458538, -0.8272953033, 3.9078953266, 2.8837764263, -1.0148206949, 3.4631412029, 2.5133063793, -1.0602809191, -0.6731342077, 0.4193139970, 0.8312001824, -0.6406930089, -0.3604579866, -0.4691584408, -0.4905007184, -0.5788377523, -0.7326887250, 0.7876510024, -0.7891891599, 0.7266759276, -0.0358735882, 1.4121503830, 0.8635163903, 4.4161310196, -1.6458427906, 0.5284655094, -2.4368498325, 2.9266362190, 2.4473865032, 0.7445605397, -0.5438801646, -0.9415544271, 0.9676077962, 2.7361164093, -0.9363442659, -1.6473339796, -0.4099640250, 0.4881473482, 1.2665082216, 0.3704448938, 1.7796999216, 0.9641002417, 0.0977835730, 0.0256579090, -0.8331145644, 2.8241033554, -0.2081128508, -0.1242770851, -2.4740388393, 0.9670716524, 2.3825139999, 0.2757592797, 0.4834258556, 1.6355806589, 0.0388290621, -1.2006287575, 0.6297750473, 2.4742555618, 0.8471071720, 0.5577413440, 0.6983903050, 0.5356531143, -0.4966098964, -0.8359114528, -1.1589691639, 0.6894710660, 0.9279746413, -1.7355426550, 1.0306354761, 1.7617890835, 1.7795032263, -2.4497456551, 0.4429196715, 0.9476147294, -0.2368468493, -0.8003957272, 0.0941979960, 3.4258399010, -0.3141188920, -0.4789428115, -2.3072719574, 0.9210755825, 1.1610292196, -0.3625493348, 2.2445118427, -0.3358905613, 0.9467781782, -1.7409571409, 0.0079120640, 0.3108355701, 2.1469299793, 0.3438686132, -0.1648970842, 3.1188452244, 1.7007263899, 1.0746313334, 2.2562770844, 1.9236663580, 0.7468438148, 0.0627404302, -1.6256225109, 0.8286371827, -0.9673987627, 0.2374746352, -1.7128273249, 1.9885839224, 1.7398165464, -0.4268267453, -0.4202909768, -0.6296343803, -2.0972716808, -2.0386571884, -0.7261697650, 1.4882004261, -0.5632213354, -2.9048740864, 0.3961711228, 2.8116128445, 2.5930783749, 0.2543121576, 1.6378867626, 1.7007899284, -0.4091744125, -1.2163405418, -0.6724815369, 0.7058556080, 0.6510819793, -1.3079879284, -1.7161562443, 0.8767074347, 0.3850932121, -1.8502960205, 1.3870112896, 0.2011674345, -1.0114983320, -0.6956125498, -1.2962313890, 0.4625350833, 1.6110199690, 1.2868473530, 0.5367863774, -3.5589127541, -1.3141905069, 0.6422200799, 1.7395241261, -1.5545357466, -0.6777281165, -0.5336328149, 0.4504327178, -3.3019154072, 0.3239939213, 2.7708513737, 2.5464155674, 2.3563852310, 4.8642992973, -1.9113802910, -2.4257652760, 0.8574152589, 2.3666524887, -1.1393007040, 0.4780435562, -1.8835036755, -0.5010239482, 3.0747318268, -2.1189761162, -5.4600458145, -3.0086505413, 1.3272490501, 0.5488797426, -6.6466369629, -4.3006253242, -2.2306549549, 1.1636297703, -0.2844866514, -3.1083028316, 2.4457898140, 0.6406607032, -1.3483963013, -1.6494169235, -0.5389408469, 2.7410881519, -2.4021136761, -0.5758318305, 3.3483502865, 0.7656866312, -1.6664144993, 2.0113480091, -0.2447324246, -3.5428361893, -1.0590455532, -1.5399788618, -1.7879595757, -1.8805136681, 1.4515591860, -1.0351202488, -0.7105047107, -4.8639221191, 0.0168748349, -2.2984364033, -3.4115049839, -1.1045006514, 0.6107617617, -0.2744859159, 6.2397341728, -0.0669791624, 1.3825669289, 0.1838700771, -1.7219486237, 1.0088173151, -0.3475649655, -2.6527099609, 3.0274152756, 0.2392498553, 0.2205258906, -2.3025686741, 4.4126234055, -0.9711948037, -0.0298113283, 0.0858587474, -2.0464920998, -1.4354324341, 2.2404932976, -1.8551977873, 0.9059317708, 4.0006155968, 2.7353854179, -2.6292576790, -0.3688760102, -3.7784247398, 0.2715651095, 1.1069861650, 2.1968986988, -0.9261176586, -1.2009581327, -1.3857994080, 3.8521919250, 2.5122721195, 2.5071365833, 6.2933216095, 5.0813598633, 2.3553590775, -4.8186020851, -4.3488764763, 4.8448081017, -0.3569684625, 4.1292085648, -0.9368484020, 1.5041459799, 4.1394414902, -3.8203389645, -1.6099283695, -1.6225703955, -2.9302678108, 1.1444519758, -1.6727316380, 4.6273488998, 0.1073243842, 2.9409563541, -1.2128146887, 1.3931173086, 0.2072801441, 2.5806045532, -4.1932444572, 1.6548348665, 1.0724576712, 0.9534715414, 4.1710453033, -2.8927288055, -0.1590279192, -2.9497220516, -1.6808813810, 2.8963775635, -3.6023020744, -0.5296166539, -1.6275424957, 4.4133620262, 0.5265306234, 2.7561664581, -2.0719594955, -0.5130827427, -1.4383740425, 1.6429443359, -2.9532222748, -2.2854149342, -1.7719089985, -1.2800328732, -2.2297506332, 2.9970285892, -4.0378737450, 3.9164264202, 0.0763507634, -0.5710341930, -1.0361683369, 4.7543721199, 3.7518291473, -2.0580112934, -2.8102674484, 0.3179742396, -1.0408569574, -0.3164767027, 3.4982545376, -1.8483922482, 1.1379148960, 0.9262714386, 4.8400306702, 0.2892934382, 1.1025912762, -0.1686679423, -0.2157921493, -4.5995402336, -1.8478358984, -0.6891022325, 0.3405315876, -0.1703491211, 0.2767247856, -1.2706794739, 0.6319261789, -1.9290457964, -1.0069811344, 4.4620943069, 4.0206298828, 3.0229938030, -2.6906766891, 1.3776772022, -3.0568454266, 2.8089783192, -0.5402143598, -5.1051478386, 5.3107504845, 0.6262357235, 4.7614932060, 4.0164203644, 4.1034998894, -1.2991517782, 0.1141692698, 0.3555022180, -3.8780791759, -5.5947804451, 0.1061454043, 2.6696870327, 2.6079406738, 3.2651805878, 0.8321703076, 4.3687748909, 1.2701890469, 0.4253781140, 4.0742917061, -2.3394398689, 1.9133037329, 1.1390438080, 2.0214564800, -0.5946780443, -0.7565398216, 3.0729300976, -0.6070591807, -1.0097713470, -1.4421803951, 0.0035620588, 2.1595637798, 1.1580806971, -0.2814016938, -1.4962278605, -0.4802215397, 1.5048857927, 5.7867813110, 5.5200271606, 0.4636903703, -3.4465706348, 3.7152585983, -5.2545223236, 2.6025626659, 0.0327490941, 4.1081571579, 1.5138490200, 0.1498157382, -1.9417680502, -0.2468960285, -5.3655090332, 0.9289795756, -3.5502300262, -1.5967803001, 2.0702316761, -2.6267631054, 1.2455626726, -3.3339338303, 5.5194506645, 7.3221912384, -6.3848609924, 0.8140867352, 0.1191852838, 1.2477095127, -1.6042591333, -0.0658803061, -1.6974041462, -1.9111611843, -5.4115180969, 2.3127536774, -2.8928055763, -3.6385107040, -4.7397837639, -1.4156603813, -7.3332710266, 1.8700683117, -7.0014081001, -2.0450768471, -4.6440019608, -3.6490862370, -8.0908117294, -0.9738846421, -0.4404104352, 0.5540866256, -7.1169672012, -3.3842108250, 6.2145080566, -4.0062146187, -2.9129035473, -0.6001977324, -4.0358138084, 2.5300159454, -5.4227972031, 2.8686988354, 0.0965471417, -2.0112731457, -5.9218707085, 1.6311899424, 1.3429193497, -4.5604071617, -4.1161398888, 2.1143207550, -0.1721283793, 1.9647133350, -6.9276685715, -2.5093600750, 6.0574059486, -3.5814836025, -3.8935470581, 3.3207311630, -2.8254427910, 1.2248899937, 2.8285176754, -1.3410348892, 0.4013147950, -3.2272033691, 0.9694944620, -0.1183621287, 0.3072625697, -6.0914430618, 3.8440725803, -0.6275299191, 1.4763602018, 0.8045932055, -2.0479841232, -3.5352613926, 3.0423228741, 0.3992900848, 1.4111330509, -0.4473470747, 0.4466511011, 1.2060956955, -1.7171664238, -2.0542767048, 0.0295803212, -2.1590886116, 3.6110310555, -1.3120261431, 2.7760992050, -1.9136911631, 3.0702934265, 1.7164721489, -0.6642665863, -8.4834156036, 5.3226823807, 0.4168858528, -2.6173002720, 0.6044129729, -1.7980153561, -3.7360272408, 1.5220727921, 6.2026300430, 4.7611227036, 0.4278887212, -1.5786064863, -2.8999562263, 7.0334758759, -0.9267286658, 0.3144828677, 3.6680634022, 7.0674390793, 4.2491383553, -2.5499327183, -5.2004346848, 3.3093900681, 4.3498778343, 2.4480814934, -3.0627977848, -0.2545362115, -0.1574004292, 1.3391603231, 0.5701690912, -0.9290789366, 2.5082786083, -2.2769558430, 2.6414465904, 3.7513940334, -1.8806084394, 0.1693431884, 0.0054587661, 5.5533657074, 3.3414788246, -3.4934999943, 2.8781592846, 1.6592984200, 0.7368625998, -1.0658043623, -1.8654513359, 0.9591791630, -6.5468726158, 2.9045276642, 0.7648810148, 2.5115334988, -1.2946342230, -3.1707553864, 2.8429203033, -0.5605933070, -0.7772417665, 3.1906135082, 2.4105255604, -0.2200967520, 0.2835087776, -0.4480224252, -3.0879809856, 4.6249313354, -0.6322423816, 1.0615123510, 1.1203019619, -1.8301750422, -1.7137016058, 1.7948938608, 0.4104799628, -0.3576960862, 1.5659415722, 1.6477370262, 3.8321125507, -1.5804493427, 0.8207201362, -0.4672946334, 2.3125081062, -0.1295159459, 0.8932753801, 1.6948649883, 1.9222685099, 1.0629565716, 2.2157664299, 0.6705829501, 0.1667755991, -1.9162929058, -0.0550127886, 0.9217005968, 1.6817750931, 1.2605249882, 2.2585222721, 2.8931014538, 0.5126035213, -1.3503173590, 0.4330167174, 1.3201221228, 1.9433877468, -0.4804103971, 0.3939857781, -0.3253674209, 0.0613173023, -0.6558559537, -0.0291828867, -0.5266951919, -0.6327275038, 0.8860566020, 0.2290039808, 1.1073596478, -0.6760773063, -1.6423941851, 0.1002565473, 2.0796604156, -0.5104525089, -1.2207252979, 1.2496187687, -0.5546007752, -1.5167559385, 0.8410637379, 2.7390584946, -1.3486253023, 0.3811788261, 2.6219327450, -0.7883315682, -1.6783835888, -2.3811469078, -1.0901707411, 0.9601597786, 2.6036145687, 1.2786209583, 1.3500087261, 1.1898881197, 2.2257344723, 0.2574241459, -0.1665153056, 1.4447432756, 2.3601086140, -0.6995311975, 0.7543788552, 2.5404465199, -1.7368559837, 2.2159163952, -0.0974741802, 3.1422817707, 1.1115239859, -0.1937343776, -0.3749470413, 2.8901457787, 0.1054648980, -0.3714057803, 2.1359169483, 2.0879940987, 0.8987182975, 1.7447149754, 0.2875432074, 3.5519223213, 2.0500156879, -0.7212914228, 1.7392890453, 3.8582923412, -0.1662645340, -0.2727014720, 3.2541952133, -1.7457448244, -1.0904397964, 0.2111533880, 0.4865680933, 0.1156165227, 0.5780029297, -3.2104301453, 1.0143480301, -1.6578923464, 0.5599114299, -1.1202905178, -0.2397455275, -1.5561618805, -0.7824091315, 0.0896838158, 0.9304756522, -0.2446517795, 0.1384938657, -1.2744028568, -1.3166964054, -2.7297272682, -1.5709302425, 0.4112588167, -3.4383614063, -2.1636607647, -4.3856558800, 0.3103618026, -1.4156979322, 0.7520408630, 0.4927723408, -2.0008103848, 2.3218271732, -2.0574374199, -2.3142526150, -0.9882695079, 0.4614902139, -2.0967979431, -1.3760063648, -0.3460427225, 0.9544761777, 0.5221894979, -2.2004499435, -0.2530842125, 0.0957958102, -3.6092712879, -2.8799762726, 0.0367481150, -2.7724428177, 0.7743834853, -3.5970637798, -2.0652587414, 0.9423536658, -1.6801847219, -2.8733210564, -1.3947192430, 0.8520805836, -0.4676509500, 1.4255733490, 0.2696120739, 1.1745048761, -2.7825248241, -0.9469619989, 0.3031929433, 0.1327747554, 0.9833436608, -2.6194064617, -0.0193633046, -1.2101557255, 1.1809259653, -1.0069961548, 3.0884010792, 4.3648390770, -1.5503932238, -2.3110592365, -3.1020596027, 2.6989755630, -0.5060676932, -0.6454910040, -1.5350490808, 1.2548023462, -0.6574074030, 2.2018651962, 0.1340475529, -2.2213790417, 0.0482571721, 1.0906836987, 3.0915858746, -1.4541286230, -0.7170890570, -0.9655828476, -1.9766725302, -0.9330564141, -2.4481091499, -1.0388731956, 1.3256493807, -0.0226084609, -0.4691096842, -1.0180437565, 1.2166881561, 0.6982493997};
#endif

#endif
