//Numpy array shape [256, 256]
//Min -0.387785285711
//Max 0.392959445715
//Number of zeros 0

#ifndef W49_H_
#define W49_H_

#ifndef __SYNTHESIS__
model_default_t w49[65536];
#else
model_default_t w49[65536] = {-0.0136640621, -0.0187046491, -0.0340195708, -0.0316222869, -0.0508003533, -0.0018919120, -0.0094240522, -0.0336662158, 0.0183022860, -0.0247482453, -0.0194989499, -0.0015175696, -0.0257762298, 0.0139735844, -0.0316816233, -0.0006353400, 0.0022946901, -0.0059670755, -0.0261073243, -0.0015992685, 0.0133434068, 0.0064617167, 0.0063707926, -0.0441092923, -0.0597711727, 0.0243400335, 0.0063414830, 0.0044672973, 0.0041728802, 0.0120305177, -0.0252851881, 0.0097546633, 0.0000734079, 0.0153271090, -0.0351002850, -0.0218743943, -0.0085450010, 0.0390005596, 0.0115167219, -0.0075640678, -0.0275888573, -0.0086031891, -0.0534911677, -0.0165748950, 0.0316199549, -0.0157286748, 0.0297084693, 0.0078387391, -0.0157925989, -0.0057457839, 0.0319185629, -0.0161427557, 0.0122276489, 0.0039044302, -0.0273380522, -0.0210809018, -0.0072015147, -0.0030553043, 0.0005506829, 0.0109056104, -0.0066925460, -0.0433259383, 0.0002314457, 0.0480619818, -0.0496419072, 0.0180308856, 0.0057641580, -0.0252179671, 0.0112348991, -0.0002745944, 0.0253805555, -0.0164117254, 0.0238244459, -0.0462491438, 0.0021268215, -0.0046418770, -0.0126918992, 0.0184456427, 0.0102979299, -0.0261770450, -0.0508921258, 0.0061867717, -0.0395479314, -0.0350856967, 0.0383260846, -0.0233800858, 0.0238374900, 0.0606860258, -0.0137577709, -0.0262712203, 0.0066813156, -0.0148042310, -0.0346886367, 0.0070737312, 0.0271075200, -0.0349107794, 0.0050184429, -0.0154362144, 0.0283968616, 0.0042312089, 0.0098683108, 0.0072479378, 0.0211652201, 0.0014969503, 0.0191058423, 0.0029335059, -0.0088094631, -0.0273106005, -0.0184796955, -0.0026169878, 0.0114891930, 0.0175645184, -0.0158100687, 0.0048917118, -0.0038834065, -0.0210192539, -0.0139547419, -0.0240317304, -0.0016572431, -0.0371641591, -0.0279122181, -0.0190360975, -0.0223151147, -0.0187679976, -0.0120156184, -0.0379151739, -0.0016307126, 0.0026676462, -0.0059010382, -0.0417851917, -0.0024299119, -0.0240391586, 0.0006834143, -0.0327111594, -0.0394028835, 0.0071202614, -0.0069878018, 0.0225130916, -0.0114579126, 0.0190268010, -0.0192495678, -0.0072189346, -0.0480514206, -0.0065832711, 0.0157809444, -0.0442981012, 0.0039437735, 0.0299649239, 0.0207395274, -0.0032660838, 0.0122781005, 0.0078335926, 0.0447657630, -0.0287635103, 0.0480290093, -0.0183974542, -0.0135936756, 0.0537188165, -0.0043068496, -0.0110979648, 0.0466707610, -0.0174554847, 0.0062228735, 0.0031055307, 0.0044793617, 0.0036046607, -0.0159216356, -0.0178817436, -0.0000867030, 0.0546233132, 0.0456556082, -0.0368418247, 0.0380821712, 0.0254345015, 0.0200984105, -0.0120508038, 0.0000978264, 0.0361550227, -0.0306952819, 0.0149039002, -0.0486177728, 0.0414348952, 0.0161979441, 0.0421876609, -0.0202905443, 0.0324001200, -0.0220418666, -0.0006943292, 0.0083376607, -0.0177269131, -0.0466342233, -0.0304688439, 0.0439734235, 0.0454884171, -0.0634716302, -0.0302679744, 0.0148868132, 0.0201341417, 0.0203945693, -0.0024381091, 0.0025582032, 0.0112879286, -0.0031903123, 0.0038579793, -0.0631274879, -0.0033104692, 0.0078678550, 0.0187105406, -0.0178660527, -0.0138465958, -0.0021318654, -0.0198402498, 0.0105703147, -0.0231224671, 0.0036904481, -0.0672101304, 0.0073955236, -0.0280132033, -0.0321447887, -0.0103796301, -0.0257036909, -0.0595972128, -0.0327027179, -0.0265039057, 0.0169302169, -0.0029189389, -0.0018819619, -0.0029111621, -0.0334850326, -0.0452726483, -0.0187772047, -0.0080653699, -0.0041550151, 0.0329165384, -0.0067732185, 0.0169082321, -0.0579578020, 0.0264383070, -0.0144063244, 0.0044622687, -0.0177919734, -0.0044195149, -0.0314456038, 0.0076004169, -0.0093714260, -0.0193468425, 0.0191853698, 0.0092071565, 0.0279848482, -0.0082116211, -0.0150154652, -0.0116272056, 0.0059177498, 0.0765754282, -0.0112776998, -0.0166960154, -0.0231129080, 0.0194371399, 0.0026289511, -0.0406580940, 0.0086892536, -0.0367378332, 0.0072342516, -0.0459774546, 0.0119097829, -0.0196503345, -0.0142004015, -0.0183672961, -0.0037949269, 0.0107777789, 0.0000996924, 0.0299006347, 0.0094042495, 0.0366910994, -0.0018892573, 0.0314242803, 0.0073064906, 0.0085601294, -0.0202164780, -0.0144105842, -0.0052178521, 0.0477847531, -0.0277932230, -0.0381028503, 0.0118055474, 0.0316582806, -0.0030368478, -0.0008757301, -0.0071017076, -0.0158042200, 0.0128784077, 0.0189968552, -0.0217518639, 0.0068376651, 0.0143974172, 0.0029116832, -0.0232200008, -0.0003055110, -0.0229818001, -0.0049659880, 0.0194691904, 0.0037705321, 0.0219069291, 0.0188936796, 0.0197117366, 0.0043950966, 0.0299041253, -0.0219333190, 0.0097624939, 0.0275954250, 0.0232405290, -0.0088910824, 0.0276482794, 0.0176794119, 0.0043629375, 0.0075228731, 0.0098536564, -0.0147975367, 0.0284321029, 0.0297911242, -0.0187473726, 0.0200407468, -0.0242798962, 0.0115381414, 0.0081908954, 0.0418691151, 0.0245999526, -0.0158103909, 0.0050355704, -0.0111410161, 0.0075003412, -0.0167437866, 0.0169231668, 0.0321152918, -0.0009238589, -0.0051620454, -0.0033021825, 0.0381981172, 0.0064457492, 0.0212226640, -0.0076645911, 0.0290077701, 0.0360417254, 0.0246982146, -0.0370731689, 0.0433938503, 0.0196664426, -0.0184096247, -0.0121180946, -0.0125038764, 0.0101712914, -0.0327896476, 0.0034388057, -0.0076789325, 0.0033045311, 0.0065254816, -0.0104930792, -0.0032252418, 0.0414093174, -0.0120553989, 0.0085356236, 0.0451611094, -0.0067548277, 0.0261752121, 0.0101449061, -0.0194857344, -0.0285105444, 0.0090156607, 0.0109295594, 0.0041339858, 0.0250273496, -0.0031527281, -0.0305260271, 0.0088079385, -0.0024672537, 0.0091680828, 0.0212370157, 0.0178982597, 0.0025128606, 0.0049721459, 0.0289856605, -0.0070832735, 0.0121539207, 0.0048795738, 0.0317904502, 0.0440266617, -0.0291078854, 0.0036695802, -0.0222458392, -0.0412398465, 0.0079934262, -0.0319578946, 0.0183118023, 0.0254529919, -0.0094398335, -0.0075560533, 0.0540243909, -0.0219181161, -0.0134702306, -0.0318870246, 0.0384939313, -0.0078880806, 0.0094334893, 0.0329557806, -0.0401050746, 0.0164647624, 0.0047446992, 0.0072724647, 0.0082870498, 0.0315607674, -0.0039313966, 0.0060927183, 0.0005254548, 0.0235005263, 0.0075217616, 0.0260286313, 0.0017702262, -0.0189139955, 0.0084826183, 0.0132443029, 0.0099070845, 0.0258381106, 0.0070819361, 0.0027477113, 0.0342026465, 0.0323885754, 0.0264159814, 0.0159980468, 0.0392396674, 0.0022408706, 0.0234433170, 0.0391690359, -0.0076307161, 0.0458732359, -0.0027301961, 0.0231436118, 0.0251246784, 0.0020335352, 0.0376088470, -0.0207433496, 0.0391753986, 0.0087280357, -0.0098010181, -0.0052875169, 0.0110946633, 0.0240750276, -0.0100766495, -0.0037235613, 0.0060548629, 0.0240663271, -0.0311575793, 0.0449896418, 0.0123641612, -0.0042848741, 0.0010083487, -0.0243565962, -0.0138247209, -0.0041653160, 0.0092260363, -0.0089525422, -0.0015138937, 0.0021397956, -0.0359184109, 0.0100821741, -0.0043233824, 0.0292171407, 0.0087811612, -0.0017196054, -0.0013329352, 0.0023821078, 0.0016306378, 0.0195007939, -0.0035599235, -0.0129449880, -0.0355366804, 0.0038523916, -0.0275002830, -0.0202521943, -0.0020443713, 0.0018760479, 0.0336429588, 0.0454588681, 0.0317475833, -0.0313685834, -0.0100081041, -0.0008775906, -0.0284607802, 0.0114624556, 0.0180188343, 0.0176660400, 0.0037943935, 0.0368600674, 0.0276648775, -0.0047292053, -0.0243149921, 0.0086627696, 0.0389675535, -0.0146910194, -0.0120833302, 0.0338980258, 0.0090084290, 0.0222026203, 0.0204454623, -0.0114961946, -0.0097573800, -0.0040388643, -0.0065114605, 0.0360586792, 0.0042538927, 0.0015790518, -0.0075880573, 0.0055890554, -0.0175935663, -0.0172755904, 0.0024299941, -0.0181913227, -0.0017358391, -0.0000356651, 0.0165299531, 0.0010028122, 0.0144597245, -0.0201298464, 0.0225078482, 0.0357645638, -0.0267782547, 0.0229564663, 0.0200332422, -0.0071707843, -0.0018013504, 0.0345126577, 0.0337965041, -0.0040264660, 0.0099734701, -0.0221381560, -0.0067311618, -0.0025499836, -0.0158808697, 0.0329767391, -0.0203965902, 0.0008563364, 0.0316417404, 0.0271142423, 0.0001399098, -0.0096168732, 0.0355998315, 0.0158837326, -0.0207489841, 0.0088011976, -0.0259680189, -0.0185668282, 0.0127012637, 0.0007648926, -0.0057810415, 0.0101738814, -0.0073736678, -0.0113183577, 0.0064426740, 0.0179487448, 0.0193399750, -0.0179137308, -0.0175635088, 0.0269097146, -0.0127091957, 0.0151995607, 0.0217658747, 0.0139511526, 0.0302300751, 0.0080266707, 0.0127624264, 0.0195488650, -0.0138383685, 0.0255199950, -0.0010558033, -0.0157733038, 0.0379792824, -0.0250261985, 0.0109850634, -0.0176525526, 0.0222645458, 0.0369594172, -0.0071809534, 0.0225098729, -0.0223003794, -0.0007297688, 0.0107021555, -0.0026815240, -0.0069494494, -0.0073293350, 0.0013962925, 0.0148632461, -0.0016197140, 0.0141361896, 0.0266059823, 0.0307913050, 0.0265360679, 0.0114416862, 0.0019119895, 0.0010504421, -0.0095517151, 0.0253780540, -0.0174111594, 0.0279938783, -0.0135074342, -0.0123106018, 0.0394424573, 0.0183852222, -0.0141566610, -0.0343466140, 0.0086863050, -0.0244604722, 0.0162187293, 0.0132419821, -0.0130564487, 0.0034666096, 0.0155854281, 0.0414955094, 0.0213077366, -0.0034747079, 0.0082828812, -0.0080320621, -0.0027973230, -0.0117299147, -0.0086955233, 0.0085285660, 0.0246036854, 0.0199721027, 0.0139895007, -0.0191933997, 0.0091438992, -0.0085676545, 0.0170620196, 0.0062595089, -0.0360065401, 0.0407929868, 0.0140899001, 0.0124718733, 0.0122230854, 0.0126293153, 0.0042301686, -0.0046592685, -0.0013784789, 0.0249166321, -0.0031696311, -0.0019984010, -0.0081491144, -0.0149477869, -0.0163605250, 0.0011436972, 0.0145093948, 0.0233415347, -0.0089819627, 0.0044217492, -0.0130522242, 0.0089934571, 0.0123027461, -0.0198595319, 0.0312397908, -0.0151428031, 0.0220115986, 0.0249609705, -0.0393025875, 0.0042828973, -0.0004169316, -0.0021341471, 0.0101225656, -0.0058344859, 0.0098339319, 0.0244438481, -0.0001727123, 0.0171769876, 0.0113329263, -0.0004350381, -0.0265389662, -0.0055899913, 0.0148470579, 0.0333897881, -0.0284089725, 0.0052379807, 0.0454221778, -0.0128850760, -0.0046330630, -0.0073042656, 0.0193399061, 0.0105264885, 0.0185643658, 0.0093844077, 0.0278932322, 0.0290731415, 0.0205618478, 0.0091316709, 0.0153769534, 0.0319071971, -0.0034643114, -0.0073522921, 0.0213306528, 0.0316446051, 0.0152575439, 0.0083482824, -0.0218711216, -0.0227819346, 0.0128978873, -0.0116988542, -0.0175367910, -0.0198135059, 0.0124539286, -0.0173069201, -0.0012038606, 0.0041524693, 0.0123689631, -0.0016758733, -0.0063500442, -0.0123406043, 0.0214167647, 0.0242764074, -0.0207991414, 0.0189265460, 0.0034051735, 0.0250417832, -0.0358724557, 0.0411432013, -0.0078092921, -0.0179368947, 0.0273029935, 0.0035445082, 0.0027168589, 0.0064895591, -0.0502591915, -0.0219722129, -0.0035593030, 0.0161631275, -0.0310964137, 0.0033321325, -0.0185746830, -0.0218500942, 0.0235060323, -0.0194177590, 0.0199023206, 0.0236017685, 0.0106186206, -0.0026513315, 0.0117469337, -0.0123825222, 0.0166733302, -0.0329263844, 0.0315071568, -0.0293888841, 0.0112230638, 0.0073623853, -0.0210013725, -0.0202938914, -0.0104077905, 0.0226001702, 0.0135477567, -0.0001614224, -0.0096850451, 0.0225033239, 0.0065283473, -0.0424359739, -0.0047942935, 0.0190157555, 0.0263578799, -0.0030252784, -0.0250248238, 0.0093390383, -0.0367604271, -0.0214383546, 0.0207170676, -0.0173152965, 0.0108313002, -0.0039230757, -0.0081096366, -0.0064566974, 0.0336588509, -0.0382684730, 0.0334933437, 0.0017403029, 0.0289429519, 0.0113037610, 0.0005821948, -0.0569909997, -0.0201270282, 0.0075468621, 0.0024025647, 0.0183241144, 0.0017490573, 0.0156079726, 0.0273614489, 0.0168017149, -0.0133403484, 0.0145451492, -0.0105760433, -0.0005136716, -0.0067341817, 0.0269071404, -0.0326114818, 0.0012183762, 0.0192621518, 0.0141913407, 0.0003004175, -0.0338135287, 0.0196740422, 0.0094453692, -0.0385110006, -0.0020485704, -0.0052797995, -0.0042087515, -0.0087869912, -0.0111348527, 0.0016798882, 0.0281041097, -0.0021421500, 0.0053490880, 0.0256113149, 0.0185056981, 0.0121549349, 0.0277404804, 0.0024092258, 0.0204024650, 0.0012923956, 0.0218098219, -0.0030774870, 0.0078712106, 0.0149207711, 0.0408646800, -0.0227723811, 0.0328644738, 0.0338628404, -0.0009044508, 0.0191092975, 0.0154954167, -0.0062605245, -0.0115365954, -0.0133182323, 0.0134427762, 0.0101755625, 0.0059022466, 0.0131921396, 0.0285974666, -0.0185254831, 0.0297762249, 0.0020740416, 0.0033257008, 0.0337811038, 0.0047131623, 0.0182050858, 0.0098982872, -0.0126964906, 0.0131349862, 0.0266649686, -0.0031631901, 0.0166596174, 0.0244727675, 0.0247491710, 0.0188090149, -0.0127194254, 0.0344386324, -0.0115280403, 0.0114129232, -0.0216057692, -0.0043181386, -0.0118718361, 0.0121579384, 0.0416614413, -0.0230583604, 0.0333123803, -0.0220442601, 0.0256749205, 0.0126590151, 0.0076187938, 0.0259177834, 0.0103102447, 0.0165704452, 0.0013557456, -0.0099582439, 0.0223275218, 0.0028671380, 0.0110613815, -0.0277612135, 0.0069766487, 0.0237885844, -0.0091936011, -0.0031719019, 0.0169674084, 0.0098639708, -0.0083001712, 0.0202492215, 0.0073097195, 0.0322129130, -0.0084016630, -0.0091278423, -0.0130672902, 0.0118727852, 0.0019011736, 0.0031940383, 0.0112669664, -0.0331930220, -0.0055081421, 0.0189925954, -0.0086496836, -0.0178169236, -0.0400155857, -0.0237783156, -0.0200778637, -0.0069772066, -0.0106816674, 0.0390965492, 0.0143588576, -0.0247365944, 0.0132650295, -0.0100717684, -0.0093494086, -0.0187854841, 0.0089369649, -0.0008968604, 0.0245777108, -0.0011451792, -0.0056393165, 0.0059286635, 0.0134918112, 0.0017267934, 0.0115098096, 0.0083646048, 0.0545960069, 0.0339212865, 0.0019561965, -0.0026002112, -0.0039040954, 0.0326046236, -0.0134842237, -0.0255873129, 0.0213968121, -0.0026513420, -0.0278273933, 0.0384266376, 0.0285545886, 0.0009898412, 0.0128618702, 0.0153556475, -0.0010563860, 0.0238958616, 0.0242100339, 0.0217316896, 0.0272412114, 0.0298869591, 0.0360631943, 0.0130092399, 0.0079133734, -0.0026968659, 0.0345474705, -0.0066455705, 0.0202599019, -0.0026134991, 0.0117000770, -0.0083992202, -0.0215373281, 0.0086749727, 0.0180119928, 0.0054990528, -0.0082374113, -0.0035644644, 0.0175549183, -0.0001084104, 0.0047980128, -0.0229731239, 0.0103554968, 0.0025927802, 0.0223462433, -0.0115182577, 0.0134497071, 0.0166168362, -0.0135824466, -0.0188188367, -0.0082801441, -0.0153113799, -0.0077178446, 0.0277375914, -0.0489599742, 0.0012570021, 0.0075390609, -0.0015963971, 0.0039021606, 0.0118688894, -0.0233388543, -0.0183742493, -0.0107650459, 0.0067040562, -0.0234309398, -0.0048839124, -0.0174267292, 0.0099260416, 0.0124480184, -0.0315975621, 0.0020567770, 0.0447388813, 0.0191757400, -0.0065670279, 0.0027831788, -0.0325197205, -0.0102073345, -0.0244477224, 0.0219120700, -0.0270486604, 0.0237407554, -0.0174801722, 0.0092934314, -0.0259342678, -0.0287678055, 0.0155926263, 0.0064700902, 0.0187993627, -0.0044870423, 0.0148786707, -0.0163920764, -0.0339974090, 0.0362850428, -0.0174228493, 0.0062862802, -0.0116113704, -0.0220233761, 0.0054975213, -0.0060911332, 0.0135698318, 0.0160061438, 0.0236700438, -0.0086877523, 0.0340929218, -0.0112604909, 0.0128118293, -0.0068584993, 0.0213325117, -0.0173406228, 0.0104789371, -0.0444566645, -0.0571957752, -0.0045945728, -0.0231504533, -0.0264557432, -0.0043750247, -0.0366877690, 0.0070402855, 0.0099779656, 0.0271487609, 0.0360655822, -0.0008349621, 0.0000711345, 0.0005676950, 0.0507433191, -0.0139221139, -0.0203169324, 0.0123539325, 0.0128416242, 0.0140615283, 0.0070563564, -0.0013674360, -0.0122626964, -0.0026697260, -0.0055913301, -0.0199883487, -0.0008287427, 0.0270920359, -0.0180613454, 0.0046999599, -0.0085866535, 0.0155048231, 0.0068722577, 0.0023519027, -0.0300845858, -0.0245260280, 0.0062567205, -0.0056312853, 0.0135841276, -0.0000181804, -0.0141435657, -0.0422561318, 0.0161488093, -0.0332420096, -0.0031310318, -0.0265727900, -0.0172520299, -0.0295690373, -0.0065900115, 0.0220536813, -0.0732925013, -0.0086753601, 0.0099257268, -0.0296092797, -0.0234031267, -0.0014221850, -0.0233335402, 0.0036017559, -0.0169751830, 0.0001063841, 0.0081894835, -0.0207347497, 0.0313126594, 0.0403332599, -0.0212557428, -0.0240357574, -0.0071005453, -0.0108032497, 0.0112100067, -0.0098657273, -0.0040739994, -0.0012260736, -0.0438354723, 0.0162677728, 0.0105523095, -0.0058881589, 0.0005833507, -0.0072819190, -0.0206045713, -0.0040491284, -0.0174983572, -0.0145001635, -0.0199426748, -0.0301579647, 0.0059737689, -0.0081994105, 0.0391356125, -0.0173760206, 0.0079220943, -0.0007454060, 0.0407569632, 0.0259797852, -0.0172189288, 0.0259841196, -0.0059548160, -0.0013852661, 0.0197929461, 0.0050905873, -0.0237492751, -0.0151584558, -0.0107816933, -0.0180684701, -0.0220376439, -0.0046993019, -0.0272595324, 0.0142450668, 0.0068623759, -0.0145536419, -0.0462056510, -0.0142806545, 0.0212538633, -0.0082089687, -0.0307013467, 0.0141765587, -0.0227867737, -0.0040273857, -0.0223022364, -0.0386678390, 0.0043711583, -0.0063075512, 0.0032436822, 0.0280265864, -0.0269651096, 0.0046397182, -0.0367568098, 0.0041175145, -0.0473124459, -0.0342001356, 0.0246815942, 0.0224603955, 0.0280046314, -0.0120121306, -0.0092594121, -0.0265390724, -0.0123231998, -0.0238384455, 0.0246869940, -0.0380882919, 0.0156060904, 0.0350094810, -0.0193847958, -0.0267346501, -0.0153348707, -0.0147819743, 0.0162487570, -0.0007581241, 0.0068028802, 0.0196856745, -0.0315721557, -0.0045772004, -0.0090983100, 0.0165650416, 0.0326160640, -0.0355965644, 0.0019977267, 0.0028254660, -0.0216985419, -0.0266917218, -0.0116164461, -0.0454907268, -0.0006916118, 0.0198529735, 0.0520585515, -0.0236854944, -0.0071085328, 0.0106562125, 0.0226446856, 0.0198274348, -0.0014345197, -0.0014095224, -0.0378641449, 0.0132211456, -0.0113599040, 0.0003901873, -0.0053843544, -0.0345710814, 0.0066910824, -0.0379167795, -0.0157955345, 0.0040038978, 0.0130420830, 0.0286800899, -0.0277879722, -0.0220940448, -0.0222260859, 0.0234506112, -0.0238453448, 0.0101957629, 0.0186057072, 0.0160300154, 0.0037899353, -0.0121367294, 0.0325276032, -0.0427665412, -0.0110133300, -0.0164909437, -0.0264874641, -0.0094161993, -0.0072147627, 0.0261995364, -0.0136576919, 0.0079803243, -0.0510068350, -0.0808583051, 0.0194918402, -0.0162061993, 0.0084013278, -0.0261645522, 0.0174941216, 0.0164929237, -0.0241511296, -0.0026812630, -0.0110168019, -0.0137446076, -0.0042131953, -0.0529977940, 0.0091305394, 0.0310212094, 0.0013259952, -0.0402991511, -0.0655163229, -0.0561180152, 0.0180553161, 0.0112299742, -0.0107777370, 0.0836416781, 0.0068083736, 0.0166444723, -0.0301827118, -0.0200670771, -0.0001232438, -0.0048547806, -0.0299308971, 0.0172726735, -0.0355373882, 0.0130614815, 0.0071462104, -0.0415919051, -0.0176401362, 0.0392173827, -0.0281255338, -0.0247378852, -0.0215697717, 0.0060780430, -0.0081762718, 0.0123215830, -0.0164180789, 0.0174892973, -0.0185332075, -0.0302793942, -0.0684565976, -0.0271393470, -0.0937484801, 0.0481369905, -0.1155337393, -0.0688971654, 0.0090647079, -0.0131552815, -0.0342872590, 0.0152266389, 0.0229661856, 0.0154868402, -0.0443698503, -0.0277280472, -0.0033081772, 0.0199064761, 0.0173839871, 0.0291985795, -0.0487545915, -0.0280747581, 0.0223253183, -0.0195466559, -0.0167294815, -0.0478219949, -0.0122503890, 0.0218184665, -0.0828061625, -0.0575935766, 0.0226313025, -0.0056789522, -0.0707774609, -0.0767321438, -0.0091308216, 0.0208521988, -0.0004181814, 0.0271543860, -0.0115195550, 0.0189768933, 0.0200338960, -0.0261588991, 0.0029225356, -0.0296247546, -0.0432754010, -0.0140421595, -0.0288375728, 0.0311748106, 0.0309385546, -0.0569533631, -0.0046016811, -0.0450087041, -0.0195561703, -0.0590307675, 0.0387088060, -0.0539461039, -0.0209205635, -0.0035197129, -0.0313790478, -0.0900970399, -0.0376625545, -0.0607500561, 0.0079804212, 0.0850206539, -0.0419907980, -0.0355249420, -0.0418482833, -0.0443366952, -0.0152637726, 0.0082111005, -0.0605644472, -0.0321584903, -0.0589655340, 0.0177237373, -0.0536383763, -0.0007773812, 0.0214381255, -0.0639660805, 0.0371388681, -0.0319436640, -0.0965818614, -0.0143047161, -0.0541677997, -0.0489174314, -0.0041807410, -0.0064334748, 0.0300825331, -0.0482383557, 0.0005804239, 0.0012233276, -0.0116525143, 0.0228725616, -0.0323340073, -0.0517748557, -0.0323922932, 0.0024559593, -0.0135965925, -0.0281491801, -0.0482076779, -0.0420553088, -0.0643898994, 0.0405345559, -0.0280986764, -0.0749952793, -0.0885823742, 0.0088013792, -0.0058917897, -0.0083780130, 0.0272864942, -0.0483331010, -0.0168927684, -0.0571472421, 0.0003256992, 0.0059984080, -0.0014769492, -0.0528040603, -0.0549859963, -0.0032203251, -0.1043110639, -0.0632894859, 0.0436336435, -0.0496269912, 0.0005548006, -0.0619853623, -0.0268988423, -0.0281747971, -0.0547092669, -0.0341081880, -0.0314833447, 0.0045074499, -0.0142217260, 0.0710877627, 0.0127734672, -0.0138278855, -0.0666347966, -0.0026473664, -0.0333650783, -0.0081002479, -0.0077112149, 0.0052481582, -0.0249087587, -0.0805550665, -0.0603738129, 0.0060288189, -0.0218017958, -0.0042387187, 0.0324911587, -0.0215637833, 0.0056108283, -0.0667125732, -0.0691140741, -0.0395113826, -0.0574517101, -0.0548809879, 0.0430410169, -0.0173224546, -0.0307956785, -0.0129509084, -0.0232726876, -0.0209580474, -0.0259592086, -0.0824007839, -0.0370208882, 0.0073712082, -0.0246056560, 0.0076638521, 0.0064332946, 0.0004126796, 0.0026778532, -0.0576429740, 0.0310811158, -0.0597984046, 0.0175080560, -0.0007563331, -0.0211319905, -0.0060603935, -0.0014086750, -0.0054640686, -0.0106414128, -0.0246629696, 0.0044163722, -0.0342854634, 0.0071288594, -0.0228579398, 0.0151850367, -0.0397402197, 0.0435331799, -0.0888655409, -0.0257777441, -0.0097855078, -0.0130290948, -0.0550953522, 0.0097685624, 0.0466207489, -0.0282196421, -0.0270580389, 0.0334580131, 0.0487640277, -0.0007863473, -0.0082602482, -0.0238304418, -0.0335861668, -0.0390760414, -0.0093827983, 0.0011804673, -0.0208430272, 0.0237040315, -0.0318027698, 0.0526167825, -0.0560980663, -0.0027916706, -0.0221735053, -0.0350793339, 0.0358053483, -0.0066281715, 0.0005789910, 0.0054977229, 0.0158917215, 0.0316390842, -0.0035618835, -0.0135572152, 0.0530375578, -0.0258810483, 0.0175593998, -0.0044947630, 0.0171334445, -0.0403636061, -0.0059238174, -0.0279292166, -0.0333099216, 0.0038689892, 0.0365261957, -0.0564018637, 0.0030301651, -0.0037808479, 0.0031699564, -0.0034434467, -0.0096699027, -0.0395236835, -0.0671341643, -0.0588099770, -0.0381266624, 0.0010014542, -0.0055514718, -0.0822037533, 0.0213886183, -0.0212466121, 0.0158216152, 0.0449814536, -0.0029617476, 0.0077424040, -0.0093773585, 0.0301631838, -0.0001181014, 0.0347470045, -0.0132621340, -0.0409998819, 0.0207411796, -0.0031351121, -0.0299806446, 0.0031329223, -0.0431290902, -0.0091933114, -0.0113384267, 0.0379790328, -0.0227714200, 0.0089367274, -0.0450005531, -0.0586938709, 0.0195333101, -0.0194911659, 0.0096891699, 0.0009675889, 0.0015762420, 0.0004599031, 0.0300516281, 0.0009152458, 0.0006338614, -0.0092198718, -0.0533382110, -0.0233773533, 0.0042189402, -0.0348429605, -0.0352077074, 0.0239833426, -0.0003849295, -0.0136670843, -0.0180718824, 0.0141193643, 0.0209642183, -0.0124592986, -0.0218947250, -0.0001188300, -0.0081469025, 0.0016908523, 0.0038140670, -0.0327079929, 0.0085513014, 0.0076450761, -0.0176917724, -0.0390465818, 0.0276345666, 0.0351136141, 0.0397861227, 0.0001194667, 0.0588064678, 0.0138593158, -0.0087423632, 0.0180865861, 0.0072778254, -0.0105935642, 0.0104714623, -0.0126617774, -0.0126807708, 0.0007811291, 0.0102710817, 0.0050737206, -0.0189649612, 0.0187914483, 0.0307773370, -0.0214727521, 0.0153048979, 0.0078554228, 0.0545751974, 0.0158783365, 0.0057893512, -0.0024707944, 0.0002992888, 0.0106433807, 0.0183808729, 0.0092546223, 0.0150809307, 0.0062916297, 0.0329423994, 0.0135815646, -0.0298174825, -0.0103844348, -0.0243104156, 0.0065466561, 0.0222386569, -0.0194818191, 0.0018253444, 0.0071428763, 0.0038284953, -0.0232900307, 0.0107951565, 0.0426029004, -0.0567605458, 0.0167081803, 0.0151127614, -0.0245285686, -0.0228175800, 0.0193502456, -0.0236862972, -0.0084273238, 0.0190159772, -0.0120122777, 0.0339690372, -0.0257555805, -0.0162351802, -0.0044363700, -0.0039578644, 0.0275142826, 0.0216052197, -0.0128764557, -0.0406235605, -0.0553205758, -0.0073073753, -0.0188742001, -0.0056998208, -0.0010626996, -0.0162441190, -0.0269887578, -0.0269842111, 0.0083387746, 0.0072556813, -0.0139287505, 0.0219299477, 0.0143909724, -0.0014171413, -0.0315048061, 0.0339478441, 0.0238861758, -0.0279053766, 0.0148889860, 0.0189357623, -0.0366976149, -0.0227511264, -0.0164170489, -0.0045442153, 0.0010032770, -0.0095274039, 0.0107029611, -0.0213378631, 0.0132281492, 0.0158779640, 0.0032629990, -0.0081307143, 0.0407619439, -0.0225882456, 0.0088466145, -0.0213907547, -0.0080511058, 0.0304246675, -0.0174572412, 0.0188850164, 0.0313411765, -0.0235170387, 0.0226085894, -0.0043340377, -0.0152739286, 0.0116888862, -0.0212193280, 0.0046774787, -0.0252355579, -0.0251622926, -0.0022018028, -0.0081691025, 0.0030443110, -0.0245107152, -0.0225926396, -0.0079717170, 0.0234875418, -0.0333055407, 0.0183923654, 0.0173019916, -0.0023133049, 0.0136783803, 0.0034322499, 0.0016892145, -0.0116114579, 0.0045612301, 0.0123787876, 0.0147785060, 0.0088351499, 0.0154211195, 0.0122357616, 0.0281346701, 0.0069926493, 0.0031733841, -0.0145895006, 0.0088572484, 0.0175029449, -0.0247305259, 0.0048009367, 0.0147800911, -0.0091145318, -0.0390560217, 0.0225729123, -0.0104028285, -0.0319312699, -0.0008871856, 0.0000145663, -0.0072240606, 0.0056463294, 0.0239659995, 0.0047610770, -0.0173106566, -0.0113012372, -0.0321478099, -0.0224925280, 0.0114001092, -0.0352957547, 0.0136424601, 0.0176367443, 0.0213898141, 0.0359885544, -0.0038042066, -0.0264875349, 0.0012017067, -0.0024672367, -0.0060835220, -0.0238280874, 0.0147720873, -0.0226293597, -0.0268921871, -0.0119670564, 0.0053058169, 0.0101345442, -0.0205502678, -0.0056226403, -0.0088071162, -0.0065146331, -0.0480709448, -0.0077287178, -0.0082796225, -0.0333537906, -0.0053003598, 0.0155136567, 0.0041326573, 0.0124760475, -0.0103052231, -0.0049459990, -0.0457634479, -0.0055623446, -0.0090039698, -0.0140082873, 0.0152790248, -0.0434149727, -0.0519499779, -0.0117129190, -0.0427992158, 0.0019431384, 0.0084050670, 0.0009442587, -0.0138164675, -0.0191369187, 0.0408244394, 0.0228564963, -0.0330138542, 0.0035744754, -0.0021338090, -0.0097442586, -0.0087935384, -0.0082874559, -0.0459562726, 0.0101112975, -0.0036690882, -0.0008122070, -0.0243809186, -0.0170654804, -0.0171862692, -0.0083570099, -0.0306383763, -0.0401261523, 0.0084106289, -0.0060400371, 0.0022783063, 0.0049770507, 0.0101994565, -0.0085881697, -0.0029489349, 0.0123836389, -0.0285392608, -0.0012327413, -0.0291362796, -0.0385296121, -0.0046832212, -0.0123412851, -0.0131534105, 0.0008592434, -0.0087315384, -0.0116806421, 0.0044813021, 0.0059048855, 0.0002024010, -0.0061342618, -0.0041161519, -0.0391786285, -0.0159708299, 0.0004332209, 0.0019905053, 0.0000764996, -0.0147672053, 0.0023162789, -0.0020763525, 0.0107936822, 0.0007488735, 0.0064218035, -0.0053694570, -0.0048001087, 0.0032134922, -0.0007416274, 0.0006609377, 0.0017293375, -0.0166846421, -0.0155869676, -0.0092958836, -0.0082490388, -0.0045059789, -0.0215888508, 0.0080854008, -0.0013010547, 0.0009748790, -0.0184598025, 0.0131143611, -0.0428873263, 0.0094809504, 0.0057119518, 0.0037005341, 0.0073279175, 0.0055796816, 0.0140060605, -0.0079749711, -0.0135847116, 0.0082511539, 0.0044820979, 0.0008156585, -0.0065800026, 0.0110652670, 0.0027547828, -0.0162232053, -0.0189074986, 0.0068286769, 0.0079032443, 0.0059507387, -0.0173919480, 0.0107639330, 0.0152655849, -0.0004170625, -0.0512164980, -0.0013016082, 0.0051038074, -0.0099986829, -0.0013201028, 0.0004956244, 0.0089677051, 0.0069019292, 0.0100169098, -0.0457728095, 0.0053562154, 0.0060428800, -0.0037491336, 0.0052715936, 0.0074821007, -0.0004944913, -0.0121299308, 0.0033094333, -0.0396030508, -0.0216470435, 0.0139663601, -0.0372695252, -0.0391468592, -0.0050705438, 0.0109890159, -0.0252110977, 0.0223008040, -0.0114385709, -0.0073636547, -0.0418575294, -0.0097153401, -0.0126547124, -0.0209313110, 0.0060893525, 0.0137777552, -0.0119018173, -0.0110759856, 0.0135438712, 0.0043344349, -0.0500618070, 0.0055084815, 0.0021934900, -0.0397128090, -0.0035329575, -0.0270365588, -0.0375458971, -0.0016578556, -0.0045492752, 0.0108167240, 0.0113640036, 0.0098065278, -0.0082333954, -0.0033453533, 0.0021598041, 0.0125018340, -0.0381108858, -0.0161978528, -0.0194412563, -0.0020085864, 0.0036468408, -0.0293716937, 0.0068222317, 0.0066647166, 0.0027362157, 0.0053860163, -0.0055007557, -0.0084285503, -0.0089344895, -0.0211023372, -0.0080902940, 0.0019876736, -0.0076041282, -0.0024831749, -0.0039980016, -0.0259634480, -0.0074268924, -0.0042397836, 0.0015568278, 0.0093012676, -0.0318394192, 0.0098395329, 0.0056325523, -0.0063441233, 0.0020488075, 0.0013132276, 0.0128467297, 0.0132625457, 0.0188444182, 0.0175021123, 0.0026258617, -0.0297056995, -0.0096195498, 0.0115637332, 0.0065484019, -0.0004589954, 0.0047289873, 0.0020284413, -0.0263743382, 0.0027616136, -0.0518191047, -0.0203965884, 0.0011086628, -0.0256239697, -0.0160659980, 0.0064477678, 0.0075730169, -0.0338701569, 0.0043550134, 0.0054069180, -0.0108798603, -0.0073002456, -0.0314430445, -0.0051928847, 0.0129841464, -0.0096737677, 0.0083265407, -0.0332190767, 0.0051501985, -0.0083392179, 0.0084183123, 0.0026647972, -0.0064415974, 0.0105024120, -0.0167648811, 0.0152165703, -0.0106793027, -0.0105926311, -0.0241776574, -0.0260257795, -0.0009614213, -0.0087769963, -0.0372458473, -0.0037650624, 0.0089191878, 0.0011354925, 0.0043458338, 0.0135412775, 0.0093286736, 0.0115185119, -0.0483846329, -0.0025301285, -0.0144274067, -0.0363206714, -0.0024435893, -0.0168088712, 0.0115181319, 0.0289742909, 0.0124685410, -0.0131437527, -0.0319061093, -0.0336603560, 0.0093511157, -0.0110457093, 0.0083034160, -0.0319627300, -0.0128508843, -0.0029349781, -0.0140750241, 0.0062633678, -0.0014978363, -0.0082829194, -0.0184513703, -0.0149137871, 0.0049097468, -0.0091817733, -0.0097891483, 0.0075886035, 0.0135509092, 0.0089535108, -0.0069459607, 0.0413010344, 0.0012062839, 0.0138174146, -0.0125142289, 0.0206597038, -0.0406666473, 0.0207516812, -0.0061614518, 0.0124141797, 0.0162982028, -0.0156647656, 0.0250506382, 0.0267150365, 0.0142909875, 0.0081478925, 0.0018894795, 0.0003507490, 0.0223033540, -0.0005280194, -0.0123518975, 0.0212417115, -0.0113560585, -0.0111751501, 0.0284843352, -0.0148625430, -0.0145114521, 0.0302662104, 0.0275892727, 0.0088816788, 0.0031399233, 0.0145333149, 0.0062823924, -0.0171176065, 0.0200944636, 0.0134309661, -0.0174094178, 0.0001658537, 0.0047439588, -0.0217786338, 0.0218898077, -0.0115841795, -0.0152950371, 0.0038042320, 0.0344642140, 0.0160447769, -0.0048454604, -0.0186378714, 0.0397279263, 0.0017893167, -0.0014395551, 0.0410184339, 0.0107298121, 0.0037240840, 0.0045071328, 0.0198519100, 0.0144273229, 0.0365574956, 0.0004674792, -0.0035449357, -0.0166221373, -0.0084927715, -0.0119586745, 0.0017343953, 0.0146296630, 0.0423251763, 0.0040506939, -0.0012698192, 0.0173206180, 0.0002616753, -0.0109469378, 0.0043884325, -0.0156455431, -0.0081695588, 0.0001372581, 0.0268368609, 0.0157288127, 0.0047432757, -0.0125744743, 0.0158476196, 0.0325291939, -0.0050733336, 0.0189804472, 0.0259116758, 0.0385983586, 0.0134831592, 0.0105448477, 0.0167823620, 0.0298609342, -0.0244232453, 0.0054999283, 0.0103784893, 0.0445609316, 0.0309329964, -0.0351156741, 0.0079938378, -0.0093791280, 0.0343701802, 0.0131858457, 0.0137889413, 0.0231631212, 0.0199671816, 0.0140585341, 0.0021959504, -0.0025873156, -0.0136092277, 0.0122119971, 0.0420258269, 0.0164915118, -0.0043794401, 0.0197777487, 0.0074003534, 0.0077716652, -0.0011431004, -0.0187158156, -0.0188362040, -0.0030299379, 0.0378625579, 0.0123823751, 0.0080999443, 0.0185390469, -0.0215961300, -0.0156622808, 0.0293268319, 0.0127917770, 0.0178894419, 0.0230938103, 0.0152735990, 0.0335779376, -0.0055618454, -0.0236039106, -0.0454953164, -0.0016230050, -0.0143215694, -0.0487836003, 0.0066793161, 0.0046268329, 0.0087418845, -0.0025714436, 0.0099841431, 0.0214042068, 0.0203292556, -0.0080887182, 0.0067606829, -0.0139120463, -0.0074384934, 0.0299128443, -0.0109041920, 0.0147131365, 0.0256391186, -0.0156894363, -0.0087181590, -0.0031795879, 0.0273828264, -0.0008144834, 0.0082758935, -0.0198978055, 0.0180797521, 0.0103610177, 0.0019291652, 0.0200079642, 0.0221725069, 0.0353944674, -0.0229607932, 0.0043783640, 0.0238540769, -0.0003849291, 0.0041175326, 0.0162496250, -0.0110928416, 0.0061924751, 0.0126810027, 0.0079158470, 0.0215191301, 0.0172432978, 0.0196482874, 0.0196487121, -0.0075974874, 0.0226050802, 0.0315263979, 0.0214125887, -0.0137073202, -0.0059393761, 0.0064056767, -0.0087649617, -0.0267546382, -0.0007573328, 0.0167832766, 0.0063660196, -0.0199571084, -0.0049364404, 0.0176985618, 0.0165326670, 0.0027498063, 0.0067618140, 0.0067653460, 0.0050599319, -0.0112662213, 0.0025547727, 0.0253145378, 0.0156596359, 0.0108253481, 0.0123996101, -0.0110552479, -0.0254643224, 0.0023646590, -0.0025994615, -0.0064700157, 0.0229177047, 0.0041660243, 0.0009111239, -0.0149679771, 0.0141815506, -0.0223565344, -0.0087722205, -0.0097590303, 0.0310366172, 0.0087680714, -0.0008504658, -0.0321191736, -0.0032210273, -0.0098330854, -0.0061861803, -0.0136350989, 0.0242771450, 0.0145737147, -0.0119895432, -0.0041526263, -0.0072702821, -0.0039474284, -0.0052574170, 0.0246729702, 0.0177171547, 0.0175660048, 0.0105509777, -0.0045584287, -0.0216973573, -0.0095625771, 0.0326489322, 0.0031084183, 0.0417364053, -0.0181633029, 0.0060538575, 0.0075090439, -0.0236327443, -0.0042440128, -0.0224331766, 0.0123897763, -0.0333741792, -0.0074977493, 0.0000321336, -0.0156072024, -0.0006458993, 0.0282952059, 0.0116598150, -0.0187841170, 0.0039224052, 0.0202213302, -0.0122110192, 0.0308068227, 0.0011810522, 0.0187281258, -0.0307178944, -0.0096692014, -0.0483148731, 0.0471796580, -0.0380088463, -0.0226585027, -0.0038852389, 0.0148675367, 0.0151737938, -0.0118908891, 0.0041853730, 0.0210706666, -0.0042486750, 0.0056199357, -0.0037577804, 0.0000278651, -0.0311668850, -0.0146827884, -0.0240488499, -0.0094220256, 0.0002297929, -0.0094151208, 0.0051645883, -0.0005111202, -0.0119729536, 0.0357231610, 0.0052642343, -0.0081541063, -0.0160359293, -0.0443266593, 0.0390973911, -0.0101139620, -0.0111049553, -0.0049022520, -0.0209933370, 0.0008021138, -0.0149755375, -0.0240178574, -0.0036970901, -0.0128910867, 0.0130283125, -0.0206025001, 0.0120659173, 0.0174197573, 0.0225920491, -0.0038304352, 0.0445700213, -0.0123210382, -0.0341936313, -0.0071008508, 0.0114260800, 0.0294585768, 0.0436795764, 0.0022456488, -0.0346933752, -0.0122195696, 0.0264223907, -0.0368874557, -0.0007701070, -0.0019214366, 0.0147437463, 0.0244892202, 0.0138534773, 0.0278213564, 0.0085875960, 0.0061320071, -0.0104599074, -0.0078011700, 0.0130346995, -0.0013847165, -0.0046856832, 0.0149170356, -0.0276539866, 0.0148621770, 0.0336080715, 0.0288710501, 0.0260842629, -0.0464638509, -0.0407013744, 0.0125712231, -0.0019682099, -0.0223428067, 0.0014278463, 0.0275701378, -0.0175506193, 0.0010266842, 0.0158080645, -0.0032507144, -0.0079509178, 0.0117004942, -0.0214128420, 0.0023695147, 0.0027446288, 0.0054717450, 0.0212090574, -0.0186883081, 0.0030525150, 0.0064692078, 0.0015486039, -0.0308668651, -0.0185441859, -0.0205728896, -0.0262189209, -0.0252545998, -0.0118544744, -0.0127455918, -0.0097934548, -0.0081120431, -0.0403361320, -0.0435276031, -0.0188946165, 0.0101604173, 0.0284528341, -0.0321751535, 0.0139082875, 0.0223677643, -0.0421133935, -0.0201724228, 0.0246263910, -0.0110355215, -0.0469990522, -0.0092086382, -0.0017292275, -0.0441565365, -0.0291102696, -0.0152239213, -0.0263587497, -0.0380925983, -0.0351362042, -0.0255209506, -0.0207600910, 0.0063716192, -0.0241458323, 0.0117258783, 0.0150585193, 0.0312433075, -0.0404889844, -0.0109578045, -0.0141134895, 0.0128661441, -0.0020605412, -0.0228115506, -0.0026710418, 0.0173116773, -0.0040996564, 0.0214966685, -0.0113381250, -0.0208801683, -0.0193022639, -0.0351611152, -0.0048145829, -0.0273664221, 0.0160502587, -0.0157581586, -0.0322663411, -0.0005885604, 0.0057431008, 0.0149960956, -0.0023226542, 0.0232413299, -0.0682919621, 0.0044601993, -0.0034326955, -0.0028381697, 0.0137960808, 0.0158727877, 0.0076597231, 0.0281979293, -0.0094424076, 0.0004859573, 0.0002141709, -0.0210057870, 0.0166444983, 0.0082144085, -0.0029998694, 0.0060908557, -0.0006522876, 0.0010407323, 0.0170340594, 0.0219552424, -0.0205335673, -0.0270169266, -0.0140704615, -0.0481410809, -0.0262570102, 0.0021277601, 0.0157965217, -0.0387337506, -0.0107992934, -0.0093020052, -0.0286758151, -0.0277627390, -0.0396693870, 0.0291085970, 0.0232370757, -0.0036476427, 0.0127359238, -0.0287376344, -0.0078668017, 0.0151152089, -0.0006301755, -0.0351485424, -0.0281236842, 0.0339531861, -0.0369504951, -0.0032332300, -0.0027492337, -0.0065123546, -0.0069742776, -0.0456491113, 0.0134645784, -0.0191507675, -0.0083284294, -0.0045934557, -0.0156499576, -0.0160549004, 0.0002986677, 0.0019823203, -0.0092298426, 0.0211296510, -0.0092430953, 0.0294743907, -0.0393195227, -0.0233159363, -0.0052797869, -0.0122516323, 0.0069855778, -0.0172427744, 0.0257184934, -0.0079250438, -0.0321387164, -0.0448252857, -0.0203702152, -0.0049840515, -0.0181244034, -0.0678759962, 0.0368595049, 0.0036010302, -0.0203263089, -0.0047290828, -0.0280206390, -0.0047606225, -0.0482843108, 0.0115495492, 0.0287517924, 0.0168504640, 0.0076554059, -0.0000408002, -0.0157999471, 0.0054797055, -0.0027268028, -0.0023047912, 0.0070053004, 0.0141652981, 0.0015854874, -0.0163777005, 0.0073396293, -0.0489779338, -0.0004537469, 0.0008541911, 0.0017973153, -0.0227229036, -0.0472243950, 0.0021909755, 0.0230495222, -0.0310010556, -0.0576546304, 0.0277342405, -0.0097809434, 0.0122315967, -0.0166145936, -0.0297347475, 0.0100149810, 0.0058273049, -0.0084438678, 0.0126032438, -0.0009503163, 0.0116991550, 0.0070261220, -0.0122856544, 0.0156024275, 0.0438084416, 0.0009066487, 0.0264833439, -0.0110310074, -0.0191887002, -0.0445161425, -0.0087884832, 0.0096372804, 0.0278806388, 0.0020373845, 0.0008503603, -0.0127156340, -0.0167831294, -0.0400476754, -0.0065376484, 0.0047606826, 0.0174124818, -0.0294911843, -0.0246683247, 0.0059182523, 0.0027586943, 0.0283044465, -0.0404934511, 0.0013189602, -0.0456174016, 0.0013880612, 0.0053115259, -0.0029691532, 0.0177470949, 0.0002065547, -0.0362175070, 0.0047321962, -0.0069643287, -0.0023466786, 0.0168681685, -0.0316239856, 0.0026184348, -0.0436634645, 0.0127038546, -0.0353594311, -0.0046750312, 0.0020554934, -0.0194835495, 0.0023239497, -0.0502771474, -0.0103394296, 0.0111820046, 0.0059543131, 0.0241476092, -0.0302392393, -0.0007674844, 0.0072013075, 0.0166681334, -0.0529980846, 0.0004599308, -0.0112943603, 0.0319474377, -0.0393596143, 0.0011380665, 0.0142314713, -0.0340187736, -0.0034958245, -0.0176797658, 0.0228413846, 0.0199329723, 0.0032169004, -0.0096505210, -0.0543420240, 0.0083945356, -0.0325802527, -0.0172427353, -0.0197740477, 0.0215456467, -0.0496391095, 0.0299597979, -0.0394765958, 0.0234556831, 0.0019991901, -0.0035667827, 0.0079627540, 0.0137622170, -0.0003622004, 0.0046848683, 0.0088771842, -0.0230821315, -0.0046542892, -0.0050488752, 0.0252508614, 0.0269944351, -0.0150922574, 0.0343015268, -0.0091790948, -0.0499763973, 0.0059485943, -0.0193853900, -0.0175159536, 0.0008775436, -0.0283972342, 0.0091001717, 0.0292039774, -0.0014969718, -0.0161748137, 0.0659275278, -0.0050799870, 0.0243934393, -0.0021394177, -0.0439414196, 0.0051845741, -0.0086972173, -0.0033071060, -0.0007140774, -0.0072989254, 0.0290946960, 0.0042644246, -0.0318492502, -0.0430105962, -0.0113347229, 0.0161784142, -0.0065955585, 0.0193468947, 0.0345575549, -0.0117966346, -0.0214584842, -0.0088591566, -0.0036497873, 0.0164503865, -0.0231545549, -0.0398570783, -0.0467232168, -0.0182017740, -0.0104301060, 0.0196823645, 0.0077760443, -0.0283133779, -0.0144966161, 0.0214115772, 0.0027793313, -0.0187943093, -0.0304262135, -0.0059960783, 0.0061377995, -0.0121534765, -0.0025536490, -0.0115214614, -0.0350146666, -0.0037212207, 0.0069379476, -0.0213091653, -0.0060556848, -0.0029706259, -0.0136229657, 0.0391686037, -0.0138674472, 0.0243954156, 0.0245596357, 0.0208502300, -0.0491548665, -0.0136636700, -0.0078228973, -0.0268213507, -0.0393332988, -0.0427422263, -0.0277788658, 0.0241082385, -0.0485685989, -0.0277831387, -0.0168197267, 0.0251765419, -0.0080468999, -0.0100261187, 0.0309833903, 0.0098745851, 0.0325995795, -0.0168557111, 0.0125728026, 0.0230018217, 0.0057279076, -0.0016095993, 0.0027607593, -0.0075654555, -0.0350080021, 0.0090600224, 0.0271314066, 0.0189661868, 0.0304836258, 0.0006786591, 0.0054319031, -0.0008649452, 0.0621299297, 0.0031220622, 0.0028430072, 0.0261942111, -0.0566601679, -0.0510216206, -0.0380669013, 0.0005838341, -0.0013631904, -0.0070692892, 0.0235404484, 0.0025213056, -0.0002230289, -0.0044704769, -0.0214362815, 0.0343498774, 0.0174598489, -0.0011023176, 0.0189190637, 0.0041632135, -0.0161833055, 0.0144060459, 0.0120208291, -0.0553089231, -0.0551952682, 0.0207314137, -0.0086201625, -0.0184232648, -0.0176921859, -0.0071390136, 0.0010105623, -0.0553999208, 0.0075004525, -0.0275750663, -0.0199446306, -0.0381177180, -0.0785593167, 0.1501477063, 0.0499734282, -0.0229477230, -0.0487256274, 0.0136996396, -0.0386185981, -0.0168579910, -0.0723518878, -0.0506420024, 0.0622908026, -0.0524686053, -0.0664274320, 0.0120580085, 0.0142727867, 0.0414070860, 0.0623849630, -0.0013888996, -0.0128580946, -0.0063153110, -0.0163846649, 0.0267954078, 0.0063787894, -0.0573353730, -0.0284878388, -0.0176308863, -0.0380181819, -0.0153409624, -0.0363943912, -0.0058963825, 0.0136476839, 0.0368847959, -0.0519866906, 0.0826431885, 0.0086909793, 0.0984355956, -0.0205538087, 0.0147561384, 0.0759078264, 0.0974234268, -0.0667084381, 0.1677258015, -0.0348016545, -0.0024999005, 0.0774784088, 0.0465512648, 0.0066888523, 0.1698100418, 0.0399449058, 0.0668172389, -0.0679333732, 0.0960271284, 0.2132533938, 0.0662817582, -0.0551130660, -0.1093116552, -0.0454728752, 0.0185315683, 0.0052490276, -0.0051811859, -0.0780397877, 0.0659032837, 0.0216572508, 0.2044909149, -0.1150627360, 0.0889877751, -0.0435507819, 0.0797870308, 0.0188592318, -0.0117851635, 0.0563427433, 0.0328072682, 0.0827039853, 0.0156403892, -0.0150389904, -0.1054878980, 0.0101983240, 0.0061292225, -0.0323529467, 0.0765905380, 0.1537604034, -0.0162443295, -0.0138290664, 0.0083913533, 0.0187985413, -0.0628189519, -0.0842088535, 0.0476909503, 0.0722312480, 0.0158311222, 0.0266901441, -0.0766143352, 0.0074512316, 0.0195197184, -0.1183787137, 0.0235368051, -0.0999814793, -0.0519540459, 0.0308459420, 0.0053032902, -0.0093528228, 0.0686156526, 0.0330948941, 0.0762942433, 0.0432016179, -0.0047375062, 0.0215708520, -0.0973943919, 0.0164555125, -0.0499593094, -0.0324124806, 0.0239988510, -0.0448636524, -0.0172672868, -0.0772213638, 0.0756483451, -0.0346028768, 0.0871167555, -0.0036426389, 0.0110710971, 0.0395152941, 0.0310129393, 0.0319627672, -0.0270409659, -0.0386474133, 0.0718422607, 0.0711326003, -0.0387945995, -0.0554075502, 0.0475044399, 0.0344086178, -0.0674697757, 0.0111358706, -0.0627621710, 0.0271439645, -0.0200147275, 0.0676989928, 0.0620115437, 0.0293220654, -0.1136802807, -0.1010566577, 0.0576034971, 0.0074403011, -0.0139683504, -0.0873969421, 0.0592191592, -0.1065531522, -0.0191082787, -0.0717986301, -0.0086774286, 0.0162340365, 0.0013424458, 0.0190461185, 0.0442141369, -0.0338662155, -0.0059954813, -0.0114886910, -0.0133811599, 0.0417761728, 0.0186095014, 0.0372249819, 0.0759861469, 0.0613208674, -0.0900479034, -0.0160310827, -0.0314092785, 0.1241844147, -0.0713848323, -0.0956266597, 0.0373163186, -0.1298401654, -0.0361057930, 0.1226950213, -0.0463348366, 0.0094919149, -0.0047090552, 0.0923960060, -0.0231245663, 0.1023174152, -0.0064272773, 0.0516675413, -0.1193908677, 0.0309509449, 0.1034200490, 0.0416847765, 0.0888235644, 0.0682078823, -0.0841763616, 0.0054234760, 0.0322520211, 0.0485471338, -0.0015990919, -0.0974778011, -0.0060222377, -0.0248819031, -0.0191250667, -0.0216117706, -0.0116787311, -0.0112623572, -0.0420709737, -0.0125882644, 0.0708517060, 0.0919423327, 0.0455505997, -0.0440888479, 0.0678710639, 0.0399486274, 0.0821026191, 0.0045508309, 0.0833122507, 0.0932270139, 0.0287357122, -0.0078291306, 0.0479295142, -0.0425039902, -0.0042731832, -0.0603968613, 0.0628782213, -0.0396812521, -0.0487241410, -0.0115407128, 0.0693697184, 0.0785129964, -0.0139946379, -0.0618996806, 0.0171007030, 0.0230448972, -0.0647572801, 0.0317414217, -0.0068618599, -0.0536303669, -0.1321817487, 0.0160119981, 0.0012260668, 0.0296044610, 0.0634198934, 0.0498118289, 0.0532454066, -0.0850208253, 0.0232278351, 0.0026447773, 0.0115662627, -0.0982237682, -0.0234451983, 0.0652590171, -0.0956906602, 0.0115376897, 0.1494508684, -0.0498202927, -0.0334992781, -0.0159525480, -0.0461367778, -0.0170152988, -0.0154339597, -0.0540513210, 0.0704127848, -0.0405974016, 0.0343681015, 0.0206469614, -0.0137387337, -0.0033685404, 0.0126241092, -0.0097638825, -0.0496570282, 0.0348217748, -0.0228920523, -0.0003723834, 0.0153483711, -0.0192038417, 0.0279171988, 0.0115443440, 0.0114250379, -0.0029508551, 0.0203796364, 0.0239030160, -0.0266606621, 0.0082460716, 0.0219242051, 0.0225304645, -0.0449210592, -0.0340983979, 0.0068996442, -0.0407176651, -0.0219585225, 0.0257425476, 0.0293696690, -0.0004096782, 0.0051731966, 0.0245385170, -0.0056671039, -0.0036259627, -0.0273357201, -0.0490055941, 0.0274187140, 0.0087054698, 0.0296044052, 0.0216173586, 0.0065375124, -0.0067725899, -0.0284919105, 0.0092504239, 0.0056104218, 0.0106348237, 0.0522072650, -0.0073126643, 0.0085506458, 0.0191127732, 0.0025014891, -0.0158717260, 0.0474727415, 0.0138931619, 0.0045501054, 0.0235046111, -0.0026602747, -0.0030217972, 0.0336808339, 0.0136995111, 0.0187643580, 0.0127013968, -0.0183657240, -0.0625254437, 0.0076838657, 0.0055243392, 0.0089808842, -0.0173661467, -0.0011905631, 0.0271020364, -0.0067711612, 0.0154043855, 0.0195798874, 0.0308170095, 0.0221604705, -0.0041231127, 0.0070379497, 0.0221512318, 0.0037917295, -0.0097945975, 0.0242929999, 0.0186791606, 0.0181508996, 0.0201388113, -0.0276816618, 0.0050669317, -0.0075421534, -0.0117821218, 0.0346693210, 0.0158419088, -0.0508754738, -0.0099347308, -0.0047203004, -0.0069161416, -0.0196163096, 0.0166180395, -0.0322389379, 0.0135241412, 0.0149358325, 0.0281748213, 0.0190619621, 0.0147607150, 0.0374502875, -0.0195161738, 0.0118190628, -0.0182796922, 0.0140835810, 0.0257919785, -0.0530171245, -0.0087685240, 0.0239313208, 0.0348950997, -0.0152726294, 0.0144605106, -0.0108227488, -0.0242227651, -0.0102996426, 0.0024135732, 0.0315015838, -0.0033739447, 0.0097931456, 0.0245314389, -0.0103687095, -0.0097979987, 0.0065732421, 0.0119079892, -0.0393866748, 0.0049264804, 0.0316951685, -0.0346745066, 0.0207906496, -0.0541933328, -0.0051767519, 0.0004518681, -0.0198694877, 0.0161957275, 0.0055202772, -0.0380600803, -0.0248656254, 0.0124317799, -0.0271858610, 0.0261179246, -0.0323384926, -0.0039956779, -0.0412123427, 0.0027576010, 0.0142056523, -0.0290817730, 0.0090571353, 0.0018153115, 0.0254234355, -0.0164929368, -0.0063951332, -0.0081108129, 0.0161847323, -0.0371565223, 0.0095990160, -0.0124622136, 0.0021637718, 0.0144998301, 0.0067356694, 0.0323130004, -0.0100747710, -0.0241936091, 0.0115550039, 0.0076191821, -0.0195486508, 0.0033516849, 0.0045114839, 0.0024402379, 0.0234940927, -0.0172563549, 0.0192437079, -0.0029543922, -0.0063225897, 0.0200247094, -0.0290125217, -0.0145591553, -0.0214073248, 0.0109160161, -0.0196566768, -0.0015669821, 0.0107924724, 0.0286388006, 0.0318463407, 0.0058966610, -0.0081055863, 0.0128991297, 0.0197426900, -0.0321290642, -0.0218656249, 0.0142701706, -0.0090993820, -0.0122763338, 0.0087386034, -0.0234053060, 0.0119417692, 0.0112142693, -0.0209287982, 0.0197908208, 0.0122492639, 0.0191013850, 0.0256107785, -0.0538955331, 0.0306782201, -0.0186778437, -0.0261780769, 0.0022261066, -0.0018730926, 0.0080643268, 0.0019686916, 0.0019541529, 0.0009213269, -0.0249831751, -0.0262377001, -0.0451245271, -0.0191946942, -0.0022572477, -0.0250137877, -0.0281053092, -0.0239354763, 0.0092432136, 0.0000651498, -0.0279751848, -0.0121826716, -0.0059891944, -0.0455299988, -0.0042299856, -0.0260074735, -0.0266436413, -0.0137548679, 0.0075315586, 0.0055679735, 0.0221795682, 0.0029689092, 0.0155345807, -0.0295135174, -0.0353780799, 0.0281786118, 0.0046810280, 0.0068886983, -0.0092760911, -0.0116596222, 0.0146613484, -0.0337896869, 0.0068918024, 0.0125686638, -0.0184880085, -0.0149288103, -0.0187989045, -0.0089756390, 0.0243256688, -0.0055871527, 0.0100014852, 0.0246712454, -0.0195296984, -0.0220936183, 0.0692711622, 0.0261773188, 0.0562708080, -0.0219606385, 0.0773538798, -0.0166744944, 0.0282862000, 0.0367761813, 0.0045799403, 0.0438834801, 0.0255946424, -0.0025822781, -0.0025083297, -0.0115083549, 0.0222885404, 0.0386460423, -0.0288899336, 0.0344326273, 0.0272488073, -0.0604228750, 0.0051234211, -0.0032216592, 0.0268556122, 0.0015708295, 0.0239602476, 0.0208949801, 0.0972560644, 0.1160431132, 0.0183736105, -0.0091835679, 0.0705894157, 0.0663385615, -0.0641291738, -0.0266778097, 0.0024544715, 0.0180089194, 0.0036537803, -0.0585893393, -0.0088598365, 0.0446855277, 0.0168713946, 0.0088323252, -0.0104029756, 0.0042894725, -0.0081019066, -0.0264872499, -0.0265876744, 0.0400379300, 0.0235187151, 0.0448725373, -0.0175210983, 0.0729316026, 0.0187898446, 0.0840837881, -0.0287534874, -0.0120196566, 0.0623266213, -0.0372636057, 0.0156535506, -0.0151542900, 0.0066590817, -0.0069052675, -0.0077339308, 0.1267393827, 0.0366399549, 0.0262551475, 0.0006754100, -0.0438899808, 0.0040665586, 0.0366943106, -0.0564761087, -0.0487142242, 0.0396601260, -0.0162182562, 0.0489544570, 0.0174984112, 0.0285731945, 0.0439996794, -0.0361855291, 0.0209776592, -0.0050272355, 0.0395604447, 0.0053041247, 0.0074478989, -0.0536770932, 0.0136140063, 0.0153822256, 0.0459109098, 0.0098704444, 0.0100303758, 0.0125389043, 0.0591957234, -0.0130203720, -0.0419837609, 0.0387001336, -0.0141681451, -0.0034118150, -0.0028804226, -0.0248987582, 0.0025141044, 0.0131631671, 0.0188189764, 0.0769557506, -0.0132079795, 0.0481374040, 0.0253390465, -0.0198234692, -0.0328769609, -0.0211719796, 0.0410218090, -0.0345398597, 0.0299623683, -0.0173721425, 0.0166496579, 0.0107279941, 0.0080316588, 0.0906934142, 0.0682553425, 0.0023205590, 0.0331796333, -0.0202138908, 0.0574126355, 0.0423574075, -0.0458393022, 0.0106810592, 0.0386098735, -0.0342437588, 0.0261358432, 0.0012064320, -0.0122827720, 0.0310748164, -0.0165614299, 0.0055175754, 0.0052693705, 0.0137046371, 0.0004562053, 0.0009205997, -0.0638293847, 0.0248087831, 0.0659269243, 0.0496132858, 0.0004390272, 0.0412743762, -0.0006150273, -0.0290675219, 0.0073088240, -0.0216690172, 0.0259619169, 0.0113920020, -0.0043598986, -0.0686110929, 0.0606161207, -0.0005858324, -0.0263820123, 0.0191499572, -0.0193409584, 0.0070301327, 0.0048426082, -0.0674359053, -0.0319876000, 0.0165238325, -0.0164390374, -0.0060349405, 0.0128374491, 0.0058191628, 0.0080403956, 0.0125776911, -0.0105519807, -0.0122849699, 0.0524945185, -0.0203437451, 0.0437987261, -0.0296064932, 0.0058716359, 0.0236440245, 0.0334590301, 0.0160042755, -0.0059853424, -0.0120242955, 0.0219630916, 0.0048572309, 0.0636206791, 0.0170639791, -0.0630651340, -0.0505466200, 0.0181123074, -0.0320236832, 0.0273650587, -0.0117183188, 0.0475712381, -0.0162497014, 0.0677703097, 0.0029094415, -0.0281721205, -0.0266257226, 0.0029236623, 0.0042304317, -0.0219391920, 0.0730343759, 0.0544473231, 0.0442113765, -0.0185290501, -0.0429320410, 0.0393259935, -0.0015360271, 0.0303533245, 0.0097621121, -0.0459441692, 0.0674000680, 0.0054681110, 0.0017793576, 0.0298356861, 0.0176725239, -0.0002089435, 0.0524019934, 0.0135507779, -0.0095677404, 0.0334997140, -0.0781226829, -0.0111265453, 0.0124188019, -0.0146504175, -0.0371179655, -0.0080306055, -0.0033750515, 0.0235559512, -0.0107192518, -0.0557916351, -0.0318262130, 0.0404604040, 0.0759598315, 0.0345969088, 0.0146491770, -0.0192660447, -0.0263735466, 0.0269044675, -0.0066901143, 0.0255612675, 0.0535812527, 0.0156632196, 0.0129691586, 0.0250351876, 0.0182899106, -0.0187631920, 0.0298682917, 0.0214941315, -0.0399092622, 0.0189609472, 0.0134623246, 0.0090252170, -0.0368216671, -0.0357720591, 0.0375612713, 0.0304448642, 0.0109767672, -0.0249380153, 0.0507289618, -0.0033618424, 0.0703503639, -0.0023813553, 0.0903375074, -0.0044653355, -0.0334613286, 0.0298000500, 0.0021014293, 0.0203517228, 0.0194086712, 0.0464105904, 0.0326740742, -0.0074950559, 0.0158221554, 0.0353066921, 0.0048585641, 0.0159489568, 0.0049701123, 0.0441289172, 0.0236726739, 0.0297597628, -0.0386950932, 0.0068778279, 0.0109918499, 0.0191063490, 0.0553108901, 0.0788402110, 0.0235334542, 0.0001983689, 0.0489861630, 0.0475139953, -0.0389305018, 0.0095866937, 0.0397605710, -0.0006653264, -0.0662749931, -0.0167109072, -0.0538285114, 0.0189444311, 0.0107740341, 0.0145130595, -0.0204125419, 0.0204466283, 0.0184117574, -0.0246394165, -0.0043664691, 0.0463418476, -0.0514190644, 0.0198524334, 0.0444109440, 0.0230847728, 0.0332131758, 0.0600265265, -0.0123739699, -0.0113162845, 0.0523988903, -0.0178369842, -0.0368956067, -0.0092944931, 0.0057736128, -0.0580381751, -0.0450130925, 0.1015699059, 0.0022466022, 0.0456691049, -0.0012659807, -0.0302409194, 0.0131862685, 0.0160934590, -0.0289851148, -0.0149493525, 0.0259231851, 0.0055334945, 0.0189926792, 0.0361636579, 0.0458417088, 0.0336116627, -0.0024253542, -0.0032520124, 0.0492458083, 0.0238262825, 0.0408311337, 0.0891613513, -0.0194796789, 0.0177923143, -0.0022656703, 0.0616592243, -0.0106954072, 0.0442350656, 0.0379637107, 0.0919506922, 0.0150301047, -0.0123285251, -0.0022370049, 0.0000257274, -0.0079511590, 0.0092586670, 0.0857495293, 0.0636951029, 0.0718919486, 0.0221543740, 0.0398338400, -0.0555974431, 0.0106504103, 0.0541917905, -0.0177838691, -0.0181914922, 0.0130409552, 0.0545831956, -0.0485307351, -0.0178276822, -0.0052126730, -0.0292106830, -0.0040834998, -0.0287466701, 0.0871934965, 0.1373459548, -0.0405798927, 0.0278371964, -0.0274377167, -0.0308081247, 0.0137076313, -0.0594074205, -0.0050349068, 0.0119728623, -0.0456536077, 0.0046156310, 0.0206254721, 0.0136544872, 0.0179649945, -0.0094997045, 0.0775114149, 0.0205019303, -0.0900033861, -0.0192151293, -0.0163186602, 0.0103308531, -0.0194705296, 0.0138581209, 0.0272675268, 0.0480361655, 0.0342728421, -0.0127840452, -0.0139104761, 0.0265926644, 0.0005056837, 0.0199007280, 0.0366148986, -0.0197810158, -0.0384041741, 0.0648536310, -0.0182719883, -0.0037179845, -0.0119800139, 0.0085962862, 0.0277936906, 0.0587677583, 0.0652719587, -0.0443704203, 0.0449654721, -0.0312208850, -0.0181650855, 0.0185826737, 0.0435307361, 0.0059897033, -0.0138053959, -0.0114765828, -0.0193417314, 0.0684697330, -0.0534873083, -0.0430662483, -0.0087494645, 0.0169691499, -0.0122993914, 0.0130825220, -0.0058711669, 0.0302744396, 0.0137033332, -0.0125069171, 0.0058351844, -0.0034470512, -0.0056183832, 0.0046890462, -0.0410269946, 0.0583848469, -0.0034975756, -0.0059422539, -0.0118613364, 0.0278376862, 0.0360198356, 0.0072536375, -0.0456592813, -0.0129510155, 0.0312515944, -0.0028744894, 0.0205788556, 0.0278763957, 0.1263972968, 0.0349644497, 0.0475604087, -0.0240578707, 0.0556795783, -0.0228729453, 0.0247701444, 0.1002778038, -0.0275637917, -0.0008324626, 0.0572001189, 0.0073080966, -0.0237719882, 0.0190168004, -0.0177847929, -0.0933053344, -0.0178642422, -0.0073545841, -0.0066136699, 0.0556650460, -0.0275373198, -0.0368344113, 0.0597885735, 0.0057118949, 0.0259484835, 0.0445547625, 0.0305685159, -0.0020062923, 0.0147602865, -0.0313343555, -0.0229205787, -0.0062408145, 0.0766438246, -0.0375032499, 0.0240218863, 0.0306099262, 0.0068957242, -0.0026403926, -0.0237967037, -0.0227586813, 0.0919408053, 0.0092903906, 0.0086761415, -0.0004255166, 0.0166327227, 0.0036735241, -0.0406783633, 0.0087639382, 0.0851820782, 0.0563661233, -0.0017993106, -0.0085031185, 0.0090058474, -0.0812313333, 0.0161485150, -0.0047541745, -0.0156737641, 0.0037940235, 0.0055926130, 0.0060141082, -0.0079526771, -0.0137490928, -0.0369200557, -0.0076302411, 0.0298400503, 0.0044217343, -0.0025788385, 0.0043166908, -0.0184318163, 0.0334383361, 0.0284736138, 0.0187501367, 0.0055423263, 0.0293605980, -0.0112269185, 0.0025260095, -0.0117980335, -0.0029853899, -0.0280089378, -0.0167423803, -0.0077535952, 0.0182660520, -0.0265994798, -0.0225061942, -0.0105471443, -0.0130984886, -0.0240533687, -0.0186075084, 0.0105345231, 0.0150597477, -0.0111349989, 0.0179070532, -0.0332587995, 0.0077324365, 0.0160422903, 0.0249386933, -0.0051396037, 0.0211418048, -0.0167678855, -0.0027260389, 0.0092986645, 0.0496826880, -0.0025533140, -0.0072828089, 0.0009949914, -0.0020390693, 0.0447454751, 0.0035519127, 0.0179348309, -0.0139853014, 0.0282876585, -0.0064845155, 0.0230985153, 0.0054321992, 0.0155040845, 0.0336560905, 0.0364574641, 0.0041411733, -0.0036973921, -0.0110664014, -0.0268748999, 0.0076742927, 0.0076405979, -0.0001378821, -0.0132625559, 0.0345061198, 0.0248190034, 0.0253829192, 0.0258977823, -0.0087895980, 0.0419429280, 0.0126642268, 0.0228200890, 0.0187686011, 0.0120344749, 0.0177915245, 0.0135798007, 0.0249094069, -0.0220930111, 0.0203454662, -0.0004948361, 0.0066284379, 0.0118928850, 0.0286017675, 0.0052595101, 0.0265591703, 0.0086244848, -0.0071504568, 0.0407245010, -0.0003920330, 0.0482994318, -0.0336297639, 0.0294294506, -0.0282404851, 0.0208598003, 0.0136835761, 0.0390143991, 0.0290539674, 0.0121384813, 0.0097128553, -0.0272512268, 0.0338158682, -0.0020132659, 0.0249049123, 0.0463009253, -0.0077187051, -0.0388885960, 0.0193077363, -0.0022608850, 0.0387405269, -0.0225910787, -0.0146445083, -0.0351529159, -0.0295300912, 0.0229870342, 0.0042266739, -0.0114180809, 0.0150812017, 0.0391888767, 0.0024622155, 0.0228165016, 0.0078365728, 0.0361694358, 0.0015268235, 0.0235726256, 0.0222171545, -0.0005839199, -0.0031949694, -0.0029536337, -0.0162173454, 0.0019089906, 0.0036038808, -0.0243073627, 0.0275430493, 0.0241817851, -0.0009336222, 0.0302963126, 0.0176666193, 0.0308623556, 0.0092479223, 0.0342345089, 0.0054627936, 0.0078295749, 0.0073653203, -0.0060646054, -0.0070738439, -0.0052330936, 0.0103569170, 0.0022828602, 0.0343871601, 0.0022674489, 0.0398810990, -0.0004728430, 0.0107504018, 0.0058261398, 0.0198554136, -0.0013191843, -0.0189974271, 0.0117636090, 0.0278560612, -0.0184409283, 0.0658449605, 0.0100264987, -0.0315213874, -0.0013227356, -0.0153830182, -0.0055163065, 0.0380188785, 0.0177308116, 0.0324321017, 0.0083444156, 0.0662735328, 0.0003456820, 0.0363928564, 0.0125886519, 0.0296996068, 0.0136932964, 0.0246706773, 0.0353969336, 0.0216383450, 0.0512610525, -0.0055135228, -0.0062533878, -0.0030994795, 0.0436599664, 0.0168185532, 0.0135419443, 0.0159990732, 0.0348060504, 0.0048931162, -0.0125528779, 0.0183009189, 0.0239558853, 0.0052601583, 0.0154974433, 0.0132994205, -0.0126186153, -0.0199215878, 0.0003386778, 0.0034893239, 0.0064680418, 0.0114637529, -0.0189947709, 0.0109259943, 0.0209934488, 0.0080638248, 0.0115657365, -0.0287840553, -0.0148928417, 0.0511805825, 0.0009980340, 0.0194353666, 0.0062047346, -0.0062858770, -0.0271747690, -0.0175342374, -0.0115305800, 0.0070989183, -0.0030139736, -0.0240186602, 0.0546793677, 0.0237006675, 0.0422810726, -0.0018581983, -0.0152104273, -0.0252310559, -0.0200817566, -0.0094425231, 0.0234768949, 0.0128657101, 0.0487030633, 0.0051455353, 0.0214178935, 0.0032164785, -0.0060474942, 0.0234985780, 0.0056708641, -0.0041709230, -0.0177607257, 0.0230028611, 0.0319960751, 0.0124734249, 0.0156471450, 0.0002546514, 0.0039239423, -0.0192588866, 0.0135864979, 0.0103043588, 0.0328892097, 0.0260317605, 0.0227341503, 0.0069393991, -0.0055761444, 0.0108950632, 0.0233566593, 0.0119773736, -0.0104126465, -0.0295522436, 0.0250608455, -0.0047856309, 0.0068115620, -0.0186376125, 0.0194887761, -0.0011692755, -0.0030801045, 0.0529164113, 0.0181691013, 0.0147538790, 0.0040910705, -0.0035653906, 0.0331305154, 0.0054062265, 0.0030401410, 0.0360966884, -0.0264464486, 0.0118453708, -0.0077605308, 0.0143928099, 0.0118354829, -0.0300471112, 0.0118465507, 0.0125734787, 0.0011143886, -0.0039289705, 0.0228166133, 0.0316763595, -0.0596254207, 0.0176778436, -0.0082022157, -0.0124560511, 0.0205854904, 0.0246593263, -0.0332143717, -0.0029953874, 0.0140859038, -0.0128194857, 0.0466332175, -0.0075525139, 0.0193261635, 0.0247220192, -0.0122582903, 0.0284286588, -0.0211548600, 0.0217857715, -0.0199176595, 0.0123097701, 0.0028495437, 0.0022005253, 0.0295590404, -0.0021448846, -0.0090307174, 0.0300380122, 0.0034913581, 0.0068515483, 0.0062917029, -0.0012495085, -0.0039129746, -0.0036434797, 0.0060171685, 0.0256079566, -0.0041653784, 0.0248804092, -0.0027380397, 0.0043520457, 0.0065247654, -0.0023915258, 0.0404373370, 0.0049978080, 0.0106992200, 0.0050502396, 0.0325606391, 0.0146638677, 0.0093774730, 0.0322332755, 0.0037390038, 0.0232103653, 0.0039582769, 0.0284867678, -0.0150774447, 0.0039025021, 0.0051143975, 0.0271880534, 0.0064645684, -0.0144698909, 0.0021210432, 0.0303534139, -0.0197891165, -0.0095720170, -0.0060047409, 0.0138652734, 0.0567869321, -0.0026259650, 0.0114802551, 0.0348259360, 0.0163815506, -0.0033796171, -0.0090623060, 0.0120755099, -0.0195340440, 0.0035793737, 0.0323460624, -0.0359948315, -0.0113546513, -0.0217193626, 0.0148580447, 0.0076797758, -0.0067933048, -0.0242741406, -0.0021650358, 0.0005036170, 0.0257833563, -0.0013419499, -0.0253112782, -0.0043429974, -0.0402329005, 0.0045326878, -0.0006214292, -0.0044572232, 0.0121762874, -0.0175548065, 0.0080603566, 0.0226921421, 0.0012725641, -0.0159191135, -0.0006428679, -0.0228878744, -0.0202234443, -0.0316427648, 0.0250420291, 0.0216868520, 0.0290181655, -0.0150508517, 0.0144041954, 0.0199725218, 0.0072946479, -0.0185058694, -0.0343184285, -0.0159250926, -0.0169906337, 0.0152266193, -0.0013279298, 0.0071422583, -0.0008137653, -0.0142951328, 0.0103525966, 0.0407932848, 0.0405353643, -0.0070444024, -0.0061957110, 0.0035924956, 0.0239845533, 0.0157892834, -0.0061365333, -0.0042402288, 0.0078568310, 0.0087401560, -0.0056049572, 0.0372832119, 0.0164282620, 0.0007763274, 0.0214614496, 0.0084339697, 0.0100650107, 0.0296897478, 0.0176271088, 0.0206140280, 0.0154275857, 0.0108365286, 0.0093582328, 0.0080042556, -0.0290135294, 0.0342119895, 0.0069977278, -0.0031659203, 0.0235041510, 0.0168967638, 0.0061379010, -0.0169958565, -0.0436419174, -0.0059649404, 0.0244068559, 0.0165295862, -0.0188378245, -0.0125432722, -0.0008829780, -0.0202930961, -0.0263847131, -0.0012502534, 0.0198244043, 0.0142055433, -0.0009118494, -0.0169453193, 0.0248561930, 0.0093175042, -0.0105234524, 0.0079307845, -0.0082524242, -0.0096397242, -0.0216439217, 0.0021243964, -0.0023421028, 0.0196555648, 0.0462847315, -0.0156860165, 0.0085001104, 0.0297331177, -0.0134889400, -0.0205477551, 0.0119293686, 0.0129910074, -0.0017800432, -0.0004260266, -0.0179111734, -0.0156174349, 0.0293170530, 0.0168295689, 0.0111981817, -0.0052064443, 0.0054230522, -0.0023111149, 0.0093515553, -0.0198632106, -0.0095616607, -0.0213730503, 0.0253869817, -0.0159068126, 0.0083606597, -0.0027671033, -0.0130658019, -0.0196822863, -0.0040477370, 0.0132528292, -0.0026909644, 0.0203474723, -0.0129024908, -0.0024570443, 0.0063111009, -0.0260078162, 0.0109458743, 0.0145039530, 0.0247153826, -0.0188370775, -0.0060848640, 0.0194680337, -0.0038452807, 0.0076958635, 0.0273024775, 0.0316115543, -0.0086810365, -0.0507049151, 0.0413275659, -0.0016527217, -0.0641196892, 0.0222373512, 0.0274517965, 0.0127199218, -0.0543095358, -0.0801385120, -0.0274708103, 0.0094690155, -0.0813490897, -0.0328083821, -0.0373721346, -0.0610682853, -0.0775637031, -0.0856949463, 0.0184273496, 0.0031527788, 0.1990810186, 0.0425186232, 0.0312919021, -0.0692370981, -0.1090298221, 0.0369271822, -0.0002358230, 0.0351375267, -0.0949790329, 0.0074416213, 0.0619492792, 0.0380039252, 0.0202614907, 0.0351484045, -0.1198190823, -0.0003212097, -0.0574790873, 0.0496766455, 0.0806087479, 0.0059682112, -0.0377563424, 0.0071459375, -0.1445711553, -0.0498093851, 0.1919291764, -0.0516171344, 0.0599812567, 0.0381417312, -0.0660939664, -0.0141703542, -0.0274779536, -0.0450376645, 0.0276229940, 0.0970747396, 0.0717911720, -0.0033948764, 0.0218415651, 0.0412076600, 0.0997407362, 0.0690309405, 0.0394507907, 0.0200954452, 0.0263812561, -0.0701149628, -0.0041763466, 0.0383652858, 0.0260885321, 0.0389707051, 0.0758661479, -0.0602660999, 0.2228854895, -0.0393597223, -0.0579512492, -0.1935605109, 0.0542007424, -0.0727896392, 0.0777055398, 0.0980800316, 0.0148474807, -0.0819807202, -0.1490496099, 0.0459782854, -0.0245108996, -0.1053374335, -0.0475668162, -0.0421841368, -0.1335457563, -0.0660087317, -0.1028273925, -0.0417207107, -0.0996895134, -0.0482368134, 0.0490003638, 0.0822468549, -0.0249703340, -0.0884501785, 0.0054427339, 0.0442794450, -0.0054886630, 0.0279128496, 0.1370585114, -0.0301013552, 0.0380259976, 0.0138177630, 0.0661245510, -0.0624063760, -0.0113189202, -0.1047047153, 0.0572815090, -0.0506503023, -0.0589666665, 0.0379509479, -0.0229053050, -0.0155628007, -0.0810954943, -0.0086062420, -0.0631488785, 0.0266440306, -0.0106538767, -0.0035504310, -0.0711762905, -0.0310386810, -0.0301350001, 0.0432600044, 0.0180631578, 0.0609704331, -0.0069106589, -0.0310261361, 0.0197634622, 0.0066197403, -0.0056713205, -0.1438280344, 0.0605704226, 0.0607804656, -0.1116773859, -0.0481046401, -0.0123618878, 0.0312465951, 0.0686640665, 0.0900672153, -0.0123204421, -0.0013259338, -0.0542324670, -0.0292123910, 0.0346237794, 0.0963673964, 0.0692426339, 0.0449016318, -0.0552440286, -0.0057361145, 0.0497402176, -0.0157165080, 0.1327587664, -0.0073191156, -0.0368832946, 0.0109089687, -0.0419995859, 0.0823582411, -0.0916082188, 0.0170883127, -0.0376157425, -0.1181421503, -0.0402974449, -0.0430476442, 0.0273257289, -0.0334313251, 0.0820257589, -0.0406999812, 0.0704948828, 0.0502303503, -0.1246144548, 0.0274276305, 0.0705929846, -0.0094395541, -0.1051490009, 0.0305128228, 0.0716868639, -0.1430092752, -0.0828889087, -0.0161196161, -0.0452975668, 0.0334511697, -0.0269147810, 0.0302142184, -0.0448095836, -0.0501986369, 0.0735084116, -0.0764463618, -0.1107396781, -0.0794301480, -0.0545818172, 0.0382870957, -0.0494162962, -0.0052068527, -0.0420689844, 0.0370020792, -0.0661115572, -0.0176521242, 0.0360353291, 0.0114430655, 0.0821910948, -0.0051377313, -0.0254963469, -0.0344379470, 0.0024570774, -0.0733335465, 0.0490332842, -0.0211069845, -0.0552296676, 0.1167917103, -0.0665134266, -0.0806774721, -0.0583812818, -0.0451598614, 0.0683195889, -0.0794077292, 0.0065954067, 0.0132166659, 0.0411590189, -0.0201325286, -0.0149042616, -0.0309480652, 0.0115663745, -0.0433730334, 0.0028568967, 0.0473804325, -0.0378670171, 0.0141831068, -0.0773214176, -0.0496346727, 0.0600527562, 0.0007675934, 0.0867665783, -0.0009117113, 0.0221468657, 0.0199730285, -0.0106919445, 0.0471380092, -0.0066677565, -0.0696435645, 0.0561107136, -0.0099500204, 0.0457202718, 0.0201019868, -0.0270892438, -0.0559269600, -0.0792863443, 0.0192150287, -0.0176821630, 0.0661727265, -0.0979495719, -0.0883485749, -0.0831693113, 0.0602314994, 0.0278299991, 0.0677441955, -0.0241445154, 0.0881451145, 0.0276986901, -0.0774725825, 0.0414892547, -0.0114308083, 0.0596875474, 0.0472496375, 0.0533620156, -0.0210322347, 0.0503243841, -0.0050533013, -0.0166947041, 0.0159828328, -0.0275260713, -0.0198981371, -0.0301759746, -0.0117096519, 0.0431787223, 0.0007224860, -0.0084913615, -0.0288847052, -0.0400116891, -0.0283545889, -0.0391142517, 0.0032731155, -0.0090492368, -0.0002922913, 0.0410786904, 0.0080795176, -0.0792347714, -0.0644397289, 0.0001053623, 0.0039128694, 0.0213526711, 0.0085877944, -0.0214398317, -0.0596707799, -0.0165088959, 0.0555908456, -0.0048286337, 0.0673758164, 0.0531388521, 0.0577931553, -0.0698801354, -0.0078044250, -0.0303766634, 0.0137590552, -0.0254412070, 0.0177308600, 0.0494761169, 0.0135808736, 0.0603614748, -0.0021922975, 0.0031744298, 0.0090507912, 0.0483923890, -0.0002221730, 0.0775389299, 0.0043095085, -0.0132073462, 0.1008513421, -0.0933723748, 0.0192981325, 0.0354783460, 0.0296436027, 0.0527663454, 0.0161295068, -0.0969967991, -0.0006430452, -0.0255594905, 0.0051435251, 0.0544790253, 0.0192941539, -0.0306369066, -0.0000275845, 0.0120113725, -0.0176933948, -0.0097793266, 0.0211990736, 0.0478742681, -0.0431545936, -0.0179238655, 0.0986871198, 0.0403294675, 0.0057624779, 0.0155162206, -0.0565949902, -0.0148270605, 0.0037229308, 0.0431737043, -0.0160665940, -0.0163448453, 0.1059554145, -0.0103445062, 0.0114190448, 0.0231686439, -0.0414638668, -0.0296936743, 0.0575504079, -0.0085342461, -0.0461200029, 0.0600937083, 0.0298749078, 0.0605944395, -0.0247650370, 0.0572327301, -0.0598390140, -0.0418191031, 0.0164558068, 0.0547887757, 0.0873299986, 0.0511318408, 0.0275136624, 0.0843003616, 0.0385764278, -0.0154476250, -0.0002348930, -0.0280037001, 0.0462729409, -0.0077607753, 0.0254276358, 0.0611082204, -0.0371680371, 0.0076913652, 0.0579393581, -0.0708785057, 0.0161384325, -0.0238113068, 0.0206485819, -0.0962630138, -0.0088029513, -0.0806630179, 0.0055904514, 0.0131587600, 0.0159212630, 0.0732511878, 0.0085645150, 0.0102453278, -0.0876232162, -0.0300055053, -0.0349732302, 0.0846164227, -0.0290913247, -0.0321683399, 0.0251105186, -0.0165510383, -0.0168371405, 0.0000390563, -0.0776531845, 0.0024290418, -0.0045167916, 0.0421969481, 0.0191685203, -0.0519978292, -0.0128542101, -0.0131102270, -0.0049350648, -0.0076246830, 0.0013158368, -0.0197685286, 0.0448116213, -0.0134048341, -0.0442939773, 0.0116611179, 0.0348945148, -0.0298773367, 0.0090380358, 0.0009529022, -0.0820561796, 0.0000703675, 0.0844386220, -0.0402291343, -0.0202159584, 0.0027739012, -0.0016459360, -0.0134513117, -0.0398725644, 0.0150792086, -0.0114462962, -0.0170562137, 0.0087988190, 0.0187076479, 0.0695615262, 0.0054231440, 0.0706888437, 0.0196938850, 0.0207987465, -0.1024059206, 0.0028084146, -0.0242289677, -0.0427736118, -0.0467289500, -0.0531023964, 0.0231012721, 0.0257572066, -0.1182454824, 0.0335711017, 0.0144739673, -0.0081490641, 0.0541591160, 0.0564269498, 0.0873721838, 0.0717928484, 0.0531863198, 0.0169520788, 0.0077037257, 0.0098510478, 0.0515452549, 0.0644196197, 0.1027250662, -0.0382119901, 0.0128836706, 0.0363518372, -0.0665942505, 0.0006380153, 0.0330104008, 0.0526902825, 0.0128486408, -0.0308422968, 0.0234498680, 0.0454097874, 0.0069589531, -0.0161146447, 0.0089361779, -0.0665863901, 0.0357656628, 0.0237472896, 0.0243730564, 0.0252021905, -0.0090842033, 0.0219300743, 0.0533512682, -0.0726530626, 0.0111267297, -0.0075657791, 0.0261786599, -0.0197681785, -0.0084301597, 0.0125755556, -0.0172363166, 0.0410395302, -0.0306874644, -0.0391990989, -0.0055744629, 0.0330924913, 0.0320605114, -0.0354503877, 0.0038540098, -0.0106684174, 0.0372858793, 0.0888712257, -0.0204287916, 0.0112012085, 0.0025645765, 0.0471918844, -0.0101916399, 0.0087620346, 0.0008715775, 0.0131601235, 0.0064704800, -0.0126182968, 0.0311190411, -0.0181837864, 0.0089442572, 0.0071412888, 0.0099498453, -0.0145746721, -0.0177350789, -0.0054714466, 0.0086434316, -0.0033081200, 0.0281098988, 0.0036963187, 0.0117845172, 0.0096207727, 0.0193595663, -0.0000741800, -0.0213536303, 0.0055338731, -0.0319698304, 0.0031055680, 0.0058079553, -0.0464062765, 0.0250406265, 0.0099621620, -0.0033039392, 0.0293467436, 0.0062404484, 0.0103853224, -0.0240524039, 0.0116563719, 0.0419882610, -0.0065004448, 0.0065111755, -0.0089660566, -0.0236201454, 0.0386394411, 0.0057764007, -0.0377127044, -0.0077542146, -0.0141086308, -0.0173113905, -0.0051540383, -0.0250203349, 0.0257246941, 0.0272262543, 0.0245355628, 0.0132054733, -0.0011335589, 0.0457387529, 0.0183106810, 0.0257958956, -0.0036215154, 0.0179241020, 0.0330543891, 0.0153108705, -0.0261459164, -0.0050371159, -0.0232107081, 0.0065595773, 0.0258599985, 0.0155302584, 0.0021058300, -0.0100661386, 0.0617504604, 0.0513009913, 0.0132970940, -0.0022140269, 0.0178367309, 0.0050813193, 0.0244192965, 0.0222309679, -0.0065027066, 0.0325521752, -0.0125334309, -0.0072278716, 0.0108711785, 0.0003312972, 0.0030123575, -0.0096135614, 0.0087337494, -0.0106437178, 0.0257162619, -0.0088993618, -0.0090406230, -0.0218528155, -0.0027811977, 0.0064618895, 0.0106125968, 0.0090889409, -0.0371425599, 0.0162054393, -0.0170680229, 0.0215057544, 0.0160261672, 0.0211968571, 0.0160798747, 0.0302577708, 0.0278268158, -0.0008368263, 0.0057145949, 0.0057939338, 0.0028320304, 0.0119858021, -0.0247655194, -0.0017924412, 0.0119220074, -0.0037975544, 0.0119974324, 0.0004996922, -0.0187992416, -0.0301325880, -0.0122976312, 0.0140552260, 0.0118217794, 0.0060847942, 0.0052777971, -0.0138958981, 0.0150901573, 0.0218376312, 0.0074241729, 0.0280037280, -0.0190511886, -0.0055203331, -0.0007016295, -0.0088365180, -0.0153235905, 0.0032671776, 0.0132400552, -0.0133104837, -0.0353561230, 0.0257662963, 0.0088692913, 0.0121860700, -0.0204788670, 0.0017163762, 0.0214384925, 0.0123747867, -0.0169513058, -0.0085130278, -0.0215598717, 0.0021366205, 0.0460900292, -0.0102108717, 0.0304763466, -0.0097471476, 0.0295201745, 0.0143899843, 0.0131897582, -0.0018080503, 0.0188473407, -0.0126477536, 0.0322951898, -0.0062029501, -0.0015122151, -0.0218386706, -0.0054153488, 0.0149901165, 0.0045186849, -0.0248208288, 0.0064287116, 0.0182078891, -0.0000608786, -0.0183181446, 0.0220868643, 0.0252741911, 0.0249809437, 0.0100896908, -0.0160307121, 0.0039302986, 0.0313353054, 0.0260710660, 0.0173213221, -0.0019295047, 0.0227949265, -0.0069797342, -0.0127262333, 0.0367036127, 0.0189397354, 0.0262127463, -0.0006579759, -0.0187421255, 0.0286608394, 0.0223759469, 0.0173704047, -0.0213130284, 0.0014771725, 0.0053902790, -0.0049704919, -0.0206291042, 0.0052868067, 0.0144170728, 0.0327243693, 0.0012837059, -0.0315293707, 0.0119985510, 0.0177753698, -0.0012193408, -0.0096939607, -0.0141019579, 0.0210473072, -0.0078496421, 0.0277999863, -0.0222976878, 0.0108849742, 0.0084047494, 0.0120366439, -0.0169457495, 0.0106065180, -0.0483371168, -0.0140846698, -0.0140784960, 0.0011110192, -0.0080299051, -0.0029566097, -0.0112905996, 0.0325091928, 0.0221559424, -0.0161697119, 0.0159956254, 0.0230174623, 0.0440032445, -0.0360905863, 0.0080477800, -0.0021459381, -0.0136005254, -0.0325480327, 0.0058855927, -0.0060800700, 0.0223004594, -0.0012202747, 0.0007252929, -0.0055155321, -0.0214193594, -0.0062926258, 0.0195905380, 0.0098248282, 0.0068208775, 0.0060496116, 0.0246055163, -0.0226764455, -0.0054886504, 0.0094186524, 0.0090600019, -0.0340602584, 0.0002540336, 0.0072138580, 0.0010027740, -0.0147364847, 0.0311205406, 0.0197805241, -0.0486062132, -0.0310660787, 0.0855166614, 0.0229982045, 0.0657022893, -0.0396690518, 0.0269857887, -0.0177833010, 0.0159346983, 0.0848981440, -0.0162634570, 0.0177568961, 0.0260704476, 0.0285202581, 0.0588106364, -0.0144494437, 0.0339432359, 0.0452162437, 0.0232842024, 0.0538504273, 0.0485142767, -0.0295716692, -0.0162257794, -0.0418763980, -0.0286732186, 0.0336203910, -0.0014619089, -0.0308520086, 0.0893599018, 0.0820335001, 0.0497495607, 0.0274514779, 0.0432726219, 0.1248341203, -0.0223075114, 0.0127887940, 0.0187971517, 0.0158569757, 0.0233962890, 0.0081995130, -0.0224198923, 0.0313057825, 0.0148683535, 0.0308596008, 0.0414509811, 0.0472457968, 0.0102954647, -0.0268913321, -0.0009475258, 0.0375162736, 0.0056083114, 0.0654685274, -0.0450263657, 0.0097081149, 0.0097837057, 0.0830279961, -0.0124799339, 0.0498212241, 0.0614894591, 0.0000024163, 0.0114487875, -0.0199245736, 0.0063779233, 0.0102375392, 0.0457050651, 0.0420072228, -0.0301220100, -0.0134637756, -0.0722145811, -0.0696527138, 0.0328054950, -0.0047009191, 0.0073376764, -0.0412398875, 0.0048842747, 0.0384715833, 0.0345698558, 0.0210509244, -0.0298906993, 0.0336541496, -0.0020970579, -0.0107044270, 0.0067260526, 0.0465805233, 0.0600679219, 0.0367045440, -0.0624896325, 0.0471539572, 0.0664799809, 0.0686637834, -0.0276229829, -0.0123801846, 0.0272678304, 0.0736406744, 0.0196684953, 0.0085759573, 0.0080707064, -0.0531927906, 0.0175765119, 0.0072008581, 0.0398494080, 0.0338616557, -0.0210486539, 0.0385871716, 0.0187069848, 0.0228227098, -0.0020861726, -0.0403297544, 0.0142107271, 0.0330505744, 0.0000900590, 0.0565190651, -0.0177027527, -0.0208701547, 0.0104886731, -0.0378563292, 0.0066551110, 0.0629925653, 0.0856811255, 0.1203602403, -0.0165299084, 0.0414570011, -0.0554682612, 0.0272540264, -0.0088220835, -0.0063812174, -0.0003391221, -0.0211348217, 0.0158578213, -0.0092878724, 0.0170940384, 0.0065655666, 0.0135633992, -0.0113130156, 0.0052719722, 0.0264940225, -0.0103932554, -0.0405359715, -0.0217810888, -0.0175893791, 0.0051761298, 0.0276383087, 0.0383804478, -0.0467085764, 0.0298616663, 0.0347898379, -0.0030175706, 0.0749557614, 0.0007471204, -0.0069216420, 0.0982989222, 0.0025740452, -0.0023557809, 0.0067140795, -0.0084630046, -0.0435528159, -0.0061870110, 0.0019778102, -0.0064864755, 0.0340321064, -0.0263775494, -0.0309036318, 0.0260598976, 0.0667102933, -0.0154735632, -0.0241203588, 0.0606031083, -0.0255102050, -0.0042984271, 0.0346579291, -0.0119692627, 0.0952856094, -0.0165445078, 0.0288483445, -0.0018496725, 0.0201777779, 0.0025367371, 0.0124623589, -0.0732875094, 0.0298740864, 0.0034325216, -0.0066231657, 0.0278292540, -0.0123464456, -0.0289911460, -0.0336550549, 0.0041313404, 0.0526153855, 0.0437233225, 0.0319529809, 0.0031291842, 0.0340267494, 0.0201087762, 0.0064945486, -0.0064149038, -0.0347831547, -0.0124365455, -0.0018838340, 0.0088950666, -0.0169770867, 0.0488709435, 0.0083797900, -0.0077654026, -0.0039751721, 0.0466002300, 0.0360708348, -0.0010708511, 0.0298615675, 0.0083459197, 0.0167314038, 0.1085513905, -0.0074994713, -0.0193772800, -0.0231518894, -0.0110722119, -0.0276913811, -0.0189975332, -0.0474731028, -0.0038415382, -0.0218224749, -0.0132152000, 0.0004777857, 0.0586551502, -0.0001488530, -0.0321359150, 0.0479051881, 0.0630865321, -0.0270082112, -0.0125759831, -0.0334564671, 0.0411603637, 0.0326969065, 0.0133723607, -0.0515033379, -0.0087076062, 0.0065265116, -0.0491153523, -0.0053461064, -0.0019976739, -0.0611590110, 0.1181507856, 0.0476980284, -0.0183777995, 0.0294966493, 0.0261803381, -0.0085134301, 0.0023033991, 0.0479520783, 0.0070025502, 0.0261421148, -0.0066442699, 0.0357701667, -0.0048451312, -0.0141768977, 0.0285179894, 0.0390025191, -0.0078885555, -0.0069662374, 0.0105586853, -0.0255548805, -0.0280758385, -0.0209006444, -0.0284427013, -0.0638589785, -0.0010757539, -0.0294601005, -0.0065925298, -0.0129709402, -0.0187352691, 0.0194343030, -0.0086908266, -0.0134165818, 0.0318286642, 0.0055689425, 0.0219238177, -0.0135058090, -0.0058499682, 0.0100059528, 0.0243779775, -0.0490933061, -0.0191348065, 0.0205374807, -0.0768232346, -0.0095372805, -0.0025132098, 0.0104152756, -0.0078718159, -0.0104514007, -0.0318500400, -0.0092690531, -0.0420562960, 0.0188611858, -0.0013467146, 0.0202044789, 0.0162002295, -0.0035120039, 0.0062024533, 0.0032018605, -0.0209074784, -0.0222551525, 0.0357944630, -0.0042810622, -0.0226826053, 0.0063611842, -0.0517554171, -0.0255693775, 0.0119804312, -0.0239415225, -0.0015809292, 0.0161632989, -0.0099399695, -0.0150744580, -0.0125574823, -0.0277700126, -0.0191368759, 0.0092045851, -0.0158398803, -0.0196402688, 0.0241439771, -0.0037362550, -0.0246790778, -0.0220808797, -0.0090331966, -0.0225522295, 0.0171172004, -0.0013142875, 0.0010523762, 0.0005698958, -0.0019661139, -0.0163612030, -0.0034349398, 0.0072272713, 0.0245207157, 0.0124061648, -0.0200899933, 0.0024134305, -0.0161229223, 0.0140731577, 0.0218645968, -0.0204026438, -0.0418508314, -0.0012982576, -0.0349165201, -0.0009374270, -0.0112816142, -0.0073835314, -0.0101421000, -0.0197348725, 0.0105287554, -0.0132451281, 0.0173926130, -0.0113835931, 0.0322005264, 0.0039510909, 0.0312322751, 0.0210392736, -0.0065521724, -0.0082086362, 0.0050866366, -0.0357453190, -0.0100777280, 0.0036412354, -0.0133274775, -0.0199595615, 0.0012903955, -0.0251852665, -0.0289861038, -0.0067772632, -0.0323484279, -0.0105955666, -0.0091228420, 0.0180855859, 0.0017598252, -0.0225089304, 0.0175934341, -0.0086229108, -0.0358617082, -0.0256369468, 0.0165596679, -0.0454940572, 0.0241902228, -0.0359108187, -0.0186373442, -0.0217809360, 0.0184506699, -0.0072430130, -0.0156349558, -0.0081481989, -0.0058582230, -0.0302641392, -0.0098427897, -0.0237193480, 0.0173459444, 0.0005130408, 0.0068552941, 0.0188402906, 0.0079675326, 0.0084502576, -0.0093355021, -0.0040768255, -0.0041806605, -0.0182795860, 0.0096328761, 0.0004122870, -0.0338527746, 0.0069376901, 0.0083119068, 0.0110663651, -0.0002854431, -0.0500102267, 0.0009325859, -0.0126357386, -0.0142691340, -0.0157618448, -0.0366484188, 0.0000527255, 0.0054457444, -0.0233078487, 0.0083869854, -0.0599264018, -0.0278972462, 0.0139656169, 0.0063913367, -0.0188947562, 0.0088697588, 0.0060813092, 0.0320843086, -0.0055987751, 0.0164361838, -0.0023117678, 0.0229402799, -0.0066497144, -0.0200273283, 0.0262720883, -0.0272275321, 0.0186090283, -0.0055539072, 0.0286635030, 0.0005559594, 0.0085447421, 0.0064558070, -0.0118566165, -0.0325068794, -0.0287518278, -0.0096417805, 0.0343184508, -0.0282633975, 0.0125987874, 0.0016869550, 0.0116705596, -0.0084105702, 0.0137819275, 0.0271972716, 0.0194141548, -0.0121460874, -0.0290650316, -0.0114611434, -0.0128102610, 0.0280916933, -0.0056446269, -0.0010762411, -0.0023507436, -0.0491262302, 0.0020059487, -0.0415878370, 0.0008116923, -0.0073910286, -0.0152938431, -0.0262866318, -0.0194276683, -0.0140689211, -0.0276115946, -0.0214771982, -0.0017415602, 0.0037564645, -0.0223552473, -0.0291798320, -0.0124693345, -0.0123859635, -0.0536164232, 0.0217808839, 0.0420391001, -0.0023776342, -0.0195532832, 0.0064079869, -0.0381316543, 0.0052819825, -0.0045649502, -0.0075563439, 0.0253737755, -0.0066571482, 0.0221311003, -0.0600516163, -0.0273104683, -0.0198487286, -0.0313663036, -0.0221001320, 0.0130400499, -0.0443627723, -0.0057402765, 0.0037488602, -0.0116114672, -0.0055293930, 0.0080174515, 0.0156529192, -0.0353291035, -0.0231882818, -0.0129912877, -0.0322610885, 0.0038662432, 0.0390850082, 0.0229074284, -0.0558889881, 0.0092769321, 0.0142659256, -0.0470985398, 0.0144942682, -0.0343022570, 0.0150799081, -0.0041078590, -0.0152163450, -0.0236318093, 0.0131969359, -0.0255529024, -0.0417142250, -0.0004066860, -0.0003962943, 0.0118833343, 0.0107341399, 0.0007485713, -0.0020022439, -0.0030192446, 0.0013049326, -0.0117825093, 0.0202484690, -0.0243691150, -0.0407314673, 0.0097455103, -0.0175887495, -0.0064779022, -0.0095932046, -0.0061978875, -0.0094258515, 0.0136436233, -0.0067152032, 0.0089212749, -0.0167788658, 0.0208276697, -0.0442662165, 0.0108600752, 0.0032468669, 0.0089700501, -0.0095166285, 0.0093087032, -0.0189235192, -0.0295000747, 0.0120690390, -0.0039277677, -0.0083984295, -0.0020084018, 0.0001589389, -0.0126545234, 0.0150880264, 0.0222338531, -0.0001514785, 0.0277721360, 0.0011318327, -0.0169157684, -0.0006377645, 0.0195763912, 0.0119763389, 0.0045930073, 0.0010349569, 0.0200044643, 0.0102491444, 0.0055402997, -0.0279011894, 0.0098290378, -0.0181916431, 0.0059475605, 0.0072377664, 0.0143436622, 0.0041374178, -0.0098756999, -0.0102783442, -0.0218149759, 0.0069239796, 0.0231989268, 0.0206128359, -0.0087380717, -0.0061066090, -0.0036346808, -0.0149727613, -0.0003637230, -0.0013415838, 0.0158473141, -0.0162599813, 0.0066331006, 0.0293139536, -0.0144370394, -0.0129411463, -0.0120365573, 0.0268836729, -0.0278018676, 0.0037038538, 0.0085437465, -0.0089498078, 0.0071125752, 0.0473897308, -0.0389752388, -0.0014991572, 0.0091899103, 0.0007157623, 0.0270582475, -0.0132889086, 0.0165968575, -0.0067476030, 0.0084834164, 0.0085039176, 0.0066733956, 0.0117129683, -0.0122278435, -0.0165426712, 0.0103192730, 0.0349328779, 0.0059372280, 0.0210215468, -0.0023449862, -0.0270956382, -0.0371538214, 0.0164115336, 0.0140762171, -0.0157225877, -0.0006169422, 0.0119889555, 0.0195471197, 0.0133753875, 0.0065980614, -0.0033677206, -0.0104284007, -0.0016151930, -0.0104752937, -0.0505077355, -0.0100485757, -0.0358436480, -0.0396657214, 0.0167948306, -0.0200945865, 0.0068364982, 0.0041885013, 0.0060463580, 0.0331308991, -0.0225600041, 0.0233278908, -0.0235595983, -0.0042343047, 0.0074115349, -0.0314175449, -0.0186071806, -0.0005003899, -0.0310582779, -0.0132626696, 0.0079310462, -0.0088537186, 0.0030802872, 0.0065453700, -0.0122245355, 0.0141541595, -0.0157816671, 0.0169463567, -0.0158434380, -0.0082318923, 0.0233702920, -0.0230984036, 0.0187147874, 0.0072767418, -0.0328039750, -0.0040774005, 0.0140456911, -0.0239911396, -0.0031717808, 0.0205166712, 0.0115239881, 0.0207626875, 0.0133472430, 0.0104447640, 0.0061668456, 0.0231850799, 0.0094913142, 0.0173791535, -0.0178910792, 0.0177565943, 0.0141199166, 0.0052569821, 0.0071193310, 0.0294986758, -0.0109214131, -0.0040025786, 0.0217253305, -0.0232597850, 0.0408236124, 0.0163369905, -0.0214803014, -0.0109305019, -0.0023161259, -0.0098023769, -0.0218778513, -0.0138779506, 0.0246403702, 0.0127291642, -0.0214948561, -0.0398333855, 0.0030894885, 0.0085281525, 0.0113647878, 0.0315144397, -0.0502009541, -0.0105983727, -0.0434915200, -0.0163238831, -0.0129052009, -0.0006852809, 0.0054940265, -0.0419759750, 0.0179632213, 0.0107646398, -0.0048391679, -0.0026756907, -0.0318609551, -0.0116250375, -0.0248894636, -0.0086969463, -0.0265303850, -0.0043110107, -0.0113563854, 0.0145012252, -0.0072518187, 0.0271268655, -0.0032501342, -0.0281689540, 0.0058328034, -0.0236717276, -0.0399879739, 0.0035828685, 0.0058606439, 0.0199553743, 0.0223244168, 0.0128002474, 0.0083359722, -0.0391677469, -0.0177034494, -0.0113267312, -0.0094388500, -0.0112144090, -0.0248387661, -0.0121153258, -0.0121092880, -0.0304478537, -0.0048953658, 0.0100768358, -0.0030378085, -0.0367060937, -0.0320855789, 0.0237575769, 0.0202624202, -0.0113847209, 0.0048775449, 0.0055209966, -0.0111654503, 0.0004582988, 0.0341284536, -0.0024281798, 0.0011974394, -0.0116666164, -0.0060672136, 0.0177311469, 0.0137943281, -0.0027783529, 0.0305071827, -0.0043702647, -0.0037583383, 0.0152556803, 0.0361420661, -0.0083545595, 0.0006516277, 0.0402752981, 0.0346393511, 0.0406935774, 0.0012846636, 0.0239678845, -0.0010764572, 0.0073330724, -0.0022818276, 0.0042624539, -0.0256641712, -0.0478438213, 0.0118410857, -0.0342305861, 0.0015878115, -0.0088137733, 0.0410679691, 0.0195956640, -0.0084983427, 0.0023999144, -0.0010700978, -0.0140103418, 0.0145933721, 0.0305886976, -0.0093415566, 0.0122116413, 0.0104274657, -0.0011270527, -0.0035676381, 0.0235518571, 0.0053500226, 0.0372883417, -0.0239366069, 0.0386932641, 0.0103932051, 0.0250752587, 0.0073762247, 0.0346656032, 0.0226376448, 0.0144159626, 0.0036231608, -0.0096773421, 0.0259392597, 0.0114025734, -0.0034088169, 0.0059449845, 0.0284195393, 0.0183348227, -0.0722410232, 0.0116492938, 0.0024198350, 0.0046186368, -0.0392172933, 0.0088348361, -0.0201370958, 0.0030872289, -0.0096952012, 0.0012491146, -0.0003301601, -0.0016702350, -0.0108569190, 0.0357307419, -0.0005197175, 0.0160238817, -0.0184059031, 0.0579621121, -0.0390353464, 0.0025703248, 0.0047041229, 0.0489477441, -0.0092680324, 0.0216400344, -0.0029827962, 0.0074344180, -0.0017588158, -0.0007548914, 0.0231732409, -0.0002149920, -0.0041987291, -0.0139651261, 0.0012106647, -0.0462620705, 0.0147502916, 0.0414699093, 0.0306971911, 0.0270819031, 0.0240153559, 0.0417654291, 0.0070741922, 0.0495625101, 0.0167219900, 0.0117734680, 0.0197058842, 0.0051618875, 0.0036435816, 0.0190755948, -0.0006999717, 0.0172644015, -0.0100586126, 0.0080770385, -0.0122756520, -0.0245583858, 0.0229788702, 0.0192323551, -0.0235898048, -0.0172181651, -0.0491237901, 0.0087866057, 0.0117114568, -0.0158797726, 0.0176064167, 0.0043917680, 0.0278252196, 0.0173541699, -0.0108668003, -0.0220352914, 0.0009335073, -0.0044178558, -0.0162974335, -0.0257214345, -0.0020571605, 0.0356911644, 0.0170513354, -0.0145737864, 0.0296767429, 0.0150917675, 0.0085260198, 0.0012330072, 0.0009011994, -0.0044590831, -0.0116675301, 0.0105788689, -0.0198919978, 0.0103885075, -0.0105532696, 0.0038278697, 0.0165864136, -0.0005175343, 0.0261592101, 0.0274755862, 0.0032311713, 0.0281505734, 0.0203846190, 0.0255516972, 0.0202644113, -0.0032165095, 0.0016893633, 0.0089688506, -0.0045434553, -0.0054671983, 0.0338001549, -0.0336776599, -0.0044084331, 0.0429312438, 0.0026870812, 0.0180546790, 0.0341666155, 0.0156467743, 0.0159650445, 0.0131011950, 0.0128550241, 0.0079699308, -0.0309997052, -0.0045611570, -0.0139221186, 0.0316712372, -0.0195997693, 0.0024535810, 0.0084757535, -0.0152198086, -0.0224626958, -0.0100928117, 0.0335021988, 0.0036946249, -0.0446195081, 0.0103257783, -0.0045604296, 0.0256980862, 0.0002862141, 0.0162837822, -0.0135850227, 0.0141164241, -0.0063265525, -0.0173904579, 0.0105676837, 0.0147960875, 0.0225116927, -0.0263012629, -0.0209694095, 0.0197864231, -0.0213554278, 0.0337428004, 0.0079358462, 0.0042287703, 0.0076902816, 0.0033878619, -0.0070707253, 0.0199283455, -0.0274102669, -0.0178881772, -0.0189451445, 0.0264599454, -0.0017646832, 0.0195538513, -0.0022564242, 0.0071154744, 0.0246898625, -0.0353457779, 0.0031037249, 0.0427418984, 0.0322751328, -0.0104794325, 0.0234261286, -0.0135403303, 0.0046353089, -0.0403454900, 0.0148164006, -0.0112381121, 0.0372444987, 0.0047513563, -0.0019780763, -0.0387615189, 0.0120119723, 0.0126556307, 0.0048759859, -0.0020194745, -0.0224231407, 0.0206342470, 0.0056346976, -0.0118883234, 0.0109856157, -0.0068854121, 0.0009027998, 0.0062972857, -0.0074660508, 0.0147786960, -0.0241413284, -0.0184199922, 0.0253987592, 0.0141659798, -0.0264498033, -0.0069988333, 0.0230239760, 0.0205491465, -0.0091838650, -0.0052675060, 0.0144162234, 0.0062955455, 0.0350052379, -0.0198891778, -0.0032123160, -0.0354323722, -0.0111205876, 0.0150492592, 0.0164103527, 0.0002779712, 0.0211716499, 0.0178192351, 0.0364709049, 0.0193737522, 0.0198775269, 0.0026464199, -0.0136725232, -0.0243839156, -0.0343238749, 0.0145815779, -0.0173189566, -0.0041573001, -0.0186061822, 0.0129511608, 0.0194414929, 0.0292739552, 0.0154176550, 0.0032912686, -0.0117726820, 0.0135136666, -0.0152449207, 0.0157352872, 0.0052137990, -0.0107195331, -0.0235619340, 0.0124166086, -0.0216591060, -0.0128747197, 0.0147677129, 0.0143710645, -0.0224666316, 0.0063332226, -0.0147734694, 0.0048079952, 0.0124387937, -0.0116360197, 0.0160769466, 0.0188375041, -0.0067932643, -0.0047106207, 0.0082411040, -0.0012840317, 0.0052981018, -0.0019825683, 0.0082916701, 0.0275694691, 0.0435982160, 0.0283929426, -0.0157593433, -0.0004918894, 0.0241960511, 0.0014730811, -0.0257094745, 0.0074299504, 0.0191373583, 0.0223669950, -0.0082798274, 0.0023262319, 0.0182987284, 0.0434347279, 0.0066063046, 0.0230599437, -0.0023274294, 0.0062803095, -0.0152448611, 0.0209751036, 0.0071747135, 0.0112689706, 0.0108184367, 0.0182835367, 0.0137217231, 0.0187851116, -0.0179847255, 0.0436895974, 0.0007487342, -0.0091645624, 0.0193422399, 0.0190907940, -0.0013034913, -0.0382281579, 0.0217011850, -0.0259867124, 0.0047796988, 0.0257571414, -0.0021482513, 0.0056721969, 0.0170856006, 0.0278557763, -0.0235347692, 0.0360283256, -0.0089055877, 0.0237674005, 0.0254533719, 0.0088567119, -0.0272026453, 0.0033253259, -0.0263900962, 0.0172435716, 0.0285688359, -0.0132282395, -0.0081155328, -0.0066036857, 0.0435213558, 0.0113448072, 0.0120524522, 0.0408441238, 0.0242793430, -0.0159570277, 0.0115018832, 0.0149299894, 0.0216395371, -0.0395911373, 0.0098465038, 0.0169681646, -0.0244485885, -0.0233088508, -0.0085848812, -0.0420965552, -0.0092606694, -0.0084927641, 0.0101681119, 0.0113460058, 0.0276764631, 0.0092266491, 0.0041424758, -0.0022778225, -0.0069213114, -0.0320287570, 0.0134245809, -0.0112942699, 0.0151471850, 0.0239001326, -0.0118692322, 0.0274099112, -0.0090217767, 0.0187508576, 0.0249004848, 0.0347564630, 0.0171202905, 0.0176272541, -0.0153058311, 0.0095174806, 0.0184212700, -0.0037055113, 0.0170464274, -0.0194214489, -0.0053469921, 0.0166057646, -0.0204085298, 0.0250214022, -0.0182384439, -0.0109494831, 0.0244945455, 0.0014440694, 0.0329755917, 0.0031951047, 0.0224804431, 0.0158308558, 0.0153461574, 0.0174643919, 0.0124286991, 0.0163096525, 0.0066321078, 0.0284770597, 0.0330561474, 0.0069610714, -0.0130915204, -0.0096109267, 0.0032502736, 0.0200014543, 0.0120986095, -0.0220496356, -0.0065328926, 0.0022899196, -0.0306794830, -0.0047587911, 0.0105636343, 0.0143963508, -0.0111092450, 0.0142975366, 0.0159304012, 0.0254796371, 0.0158603229, -0.0349767320, 0.0056206272, -0.0022005520, 0.0118658766, -0.0068017035, -0.0025580258, 0.0146396225, -0.0223421529, 0.0072399573, 0.0060825725, 0.0254102163, -0.0200163350, -0.0102949375, 0.0163907707, 0.0410724729, -0.0348062813, -0.0142396009, 0.0131479362, -0.0016571854, -0.0440720133, -0.0107559431, -0.0146035841, 0.0069491030, 0.0133985151, -0.0332359709, 0.0079739420, 0.0057641901, 0.0052421880, -0.0165042318, 0.0078260722, -0.0111009357, -0.0404778942, 0.0037691982, 0.0094030825, 0.0044516786, -0.0026422765, 0.0126536116, -0.0083734524, -0.0338051803, -0.0184594877, 0.0097529674, -0.0061190622, -0.0020378542, -0.0353683494, -0.0017259110, 0.0138973417, -0.0331231579, 0.0146817928, 0.0045717703, -0.0055784080, -0.0282240212, -0.0037263348, 0.0011740652, 0.0095322076, 0.0088765081, -0.0047672135, 0.0037549601, -0.0194756296, -0.0160787385, 0.0569656938, -0.0341083892, 0.0437746570, -0.0623592697, 0.1042595804, 0.0128839100, 0.0288070124, -0.0383793153, -0.0176875386, -0.0237695854, 0.0188134853, 0.0229712371, -0.0191992000, 0.0140793286, -0.0323492549, 0.0472197868, 0.0269909259, -0.0135049392, -0.0391651839, -0.0457031205, -0.0115322992, -0.0028324572, -0.0133598596, 0.0434929095, -0.0343459025, -0.0198130552, 0.0658847615, 0.0659926459, 0.0931769460, -0.0092321467, 0.0783457905, 0.0948667973, 0.0174109302, 0.0112406677, 0.0553754978, -0.0071088606, 0.0102958195, -0.0428630635, 0.0303282868, 0.0628468320, -0.0557297952, -0.0176608525, 0.0089617064, 0.0132310586, -0.0146899018, -0.0060112895, 0.0099674286, 0.0225951355, 0.0251575392, 0.0855013132, 0.0312628709, 0.0293808375, 0.0009359011, 0.0902749896, 0.0354073830, 0.0379134901, 0.0773491785, -0.0263926685, -0.0481855907, -0.0345286764, 0.0117587056, -0.0465372242, 0.0004733585, 0.0026952375, -0.0262611248, 0.0289772525, 0.0047070547, -0.0133988122, 0.0245077536, -0.0209555980, -0.0464941040, 0.0058002640, 0.0258303154, -0.0255483519, 0.0110476138, 0.0368160307, 0.0180531181, 0.0733519420, -0.0139312800, 0.0039307228, -0.0391024016, -0.0182258245, 0.0501000062, 0.0081280740, -0.0748613328, -0.0195809957, -0.0100042643, 0.0201328881, -0.0365364105, 0.0187393501, -0.0157623589, 0.0842576548, -0.0240400545, 0.0037405095, -0.0098081678, 0.0090724966, 0.0322235972, 0.0071823737, 0.0693015158, 0.0115455054, 0.0288205668, 0.0027314546, 0.0188307706, 0.0448088609, 0.0137652336, 0.0217032339, -0.0487198643, 0.0132713402, 0.0389234349, 0.0531037748, -0.0290105268, -0.0082619740, -0.0083997501, -0.0027364714, -0.0634911060, 0.0327753574, 0.0622342974, 0.0699236616, -0.0274453815, 0.0260257218, -0.0227799714, 0.0070556165, 0.0138742477, 0.0247403421, 0.0390180424, 0.0063533620, 0.0333147831, 0.0503106490, -0.0048898929, -0.0103226425, -0.0053807483, -0.0135213938, 0.0348933339, 0.0484243110, 0.0021212036, -0.0423395261, -0.0191962607, -0.0046935268, 0.0426753350, 0.0264078826, 0.0554006696, -0.0078716371, 0.0378526896, 0.0360917971, -0.0003909076, 0.0234697480, 0.0049990276, 0.0246638320, 0.0696455464, 0.0282197110, -0.0428208485, 0.0318195857, 0.0239662118, -0.0055962401, 0.0235839598, -0.0699028969, 0.0340356454, 0.0256653801, 0.0091276569, -0.0712853968, -0.0026673530, -0.0038165427, -0.0167175476, 0.0236883909, 0.0416414998, -0.0354700759, -0.0533758961, 0.0077950433, 0.0238469969, 0.0735170022, -0.0568768494, 0.0187039301, -0.0315022543, 0.0089494810, 0.0130244950, 0.0191752966, -0.0263164788, 0.0179871526, -0.0342550129, 0.0235524457, -0.0211689584, 0.0103012994, -0.0028310474, -0.0261230897, -0.0387850478, -0.0025484462, 0.0079501383, 0.0073666964, -0.0027732470, -0.0414058752, 0.0319367573, -0.0022551650, -0.0695237219, -0.0129966354, 0.0644426942, 0.0413738154, -0.0031582578, -0.0111166034, 0.0555600375, 0.0624438226, 0.0187417530, 0.0089109046, 0.0066322717, -0.0093038697, 0.0190040749, 0.0960154980, -0.0114712566, -0.0232240483, 0.0904444009, 0.0283701140, 0.0008438993, 0.0212548096, -0.0483464748, 0.0280252919, 0.0502741151, -0.0240254141, 0.0222416874, 0.0156980678, -0.0400459915, -0.0108789885, 0.0664436817, 0.0051397774, 0.0091698933, 0.0160923153, 0.0242747050, 0.0545792542, 0.0163001996, -0.0435712114, 0.0096921949, 0.0054088305, 0.0307292081, 0.0288478527, 0.0219089892, -0.0397211425, -0.0073508164, 0.0214657336, 0.0485999361, -0.0223991275, 0.0690810382, 0.0591893867, 0.0563712977, 0.0311362520, 0.0429343283, -0.0217798762, -0.0030515338, -0.0332913175, -0.0193454754, -0.0263064858, 0.0063730706, -0.0107627129, -0.0324564390, -0.0626678094, -0.0201603584, 0.0110327834, -0.0276459884, 0.0256105997, -0.0011133667, 0.0502442755, 0.0093951831, 0.0039187623, -0.0145277232, 0.0175577812, 0.0065177595, 0.0291762557, 0.0367630683, -0.0068319286, -0.0469908603, 0.0094159627, 0.0278907102, -0.0100486511, -0.0251409225, 0.0024006905, -0.0583699271, 0.0356505550, 0.0773499012, 0.0964545831, 0.0364143737, -0.0015317189, -0.0656197146, -0.0041127186, 0.0271306038, -0.0136851193, -0.0420656353, 0.0333289839, 0.0582701303, 0.0967935696, 0.0103416350, 0.0193424281, -0.0241348147, -0.0296836793, 0.0035334667, 0.0523844101, 0.0334418714, 0.0154510206, -0.0229728911, 0.0147245219, -0.0690487474, 0.0393930301, 0.1100083888, 0.0358970761, 0.0441615656, 0.0543310307, 0.0643954724, -0.0369271487, -0.0009333296, 0.0151014952, -0.0293753482, 0.1386475712, -0.0162165649, 0.0611142442, 0.0190496836, -0.0589126423, 0.0339007340, -0.0005098042, -0.0308334064, -0.0827396289, 0.0090877945, -0.0694076344, 0.0231855959, 0.0113052456, 0.0000758019, 0.0563836433, 0.0314171910, -0.0043681241, 0.0736057609, 0.0310434550, -0.0564867817, -0.0001094712, -0.0348930471, -0.0400934145, 0.0183941517, -0.0310003385, -0.0467867106, 0.0329595618, -0.0117260767, 0.0089620464, 0.0795004666, -0.0196199734, 0.0536555685, 0.0473087095, -0.0708574280, -0.0104028089, 0.0321873538, 0.0090836408, -0.0406282432, 0.0248019118, 0.0285461973, 0.0317760222, 0.0662997663, -0.0248033106, -0.0536204241, 0.0190933142, 0.0221603382, -0.0044789189, 0.0805069208, -0.0071238256, -0.0032236329, -0.0366642326, 0.0488664173, 0.0367342755, 0.0498187207, 0.0257216450, -0.0555130728, 0.0776592419, 0.0433133915, 0.0701264143, -0.0332158282, -0.0052196304, -0.0236741472, 0.0016859585, -0.0044939048, 0.0312983170, 0.0109601337, -0.0210212730, -0.0254160035, -0.0167775527, -0.0063146753, 0.0287718754, 0.0232065506, -0.0941755325, 0.0411047824, 0.0220900085, -0.0272485670, 0.0371084474, 0.0095863631, 0.0200231764, 0.0222982131, -0.0002837102, 0.0288308114, -0.0228067935, 0.0568711609, 0.0589522645, -0.0069832099, 0.0773101822, 0.0484303869, 0.0476535559, 0.0224785693, 0.0801725611, 0.0307704378, -0.0288189109, 0.0047716033, -0.0005834035, 0.0113795316, 0.0267486293, -0.0145642823, 0.0760046840, -0.0514580421, 0.0049128039, 0.0381267667, -0.0024939133, 0.0477707349, 0.0123337079, 0.0280666742, -0.0395478979, 0.0242266487, -0.1018551290, 0.0854683742, -0.0183152501, 0.0729786977, 0.0238628779, 0.0097534554, -0.0371698104, 0.0047286786, 0.0006407273, 0.0182026699, -0.0085958587, -0.0109331300, 0.0089300731, -0.0258265901, 0.0152281905, 0.0439592190, -0.0072294124, 0.0401144549, 0.0045348876, 0.0443326645, -0.0284840092, -0.0059138429, 0.0581267029, -0.0072285826, -0.0358540118, 0.0010237789, -0.0368087031, -0.0212043207, 0.0248277355, 0.0014312783, 0.0511266626, -0.0200263150, 0.0345875695, -0.0000709970, 0.0235431790, 0.0426779315, -0.0205937587, 0.0424280278, -0.0208114050, 0.0513815098, 0.0198246259, 0.0203159582, -0.0406354256, 0.0142758088, -0.0086539900, -0.0131560052, 0.0490369722, 0.0773693025, -0.0197137017, 0.0054172096, 0.0611611269, -0.0530888662, -0.0024596800, 0.0174759626, -0.0214314926, 0.0150415348, -0.0515568182, 0.0014873612, 0.0146655440, 0.0089110183, 0.0128762238, 0.0684680119, 0.0243801437, -0.0212929826, 0.0621511228, -0.0159227252, -0.0176244248, -0.0522526130, -0.0368926041, 0.0288026575, -0.0014313654, -0.0421835817, -0.0443892926, -0.0224261172, -0.0157930497, -0.0038676250, 