//Numpy array shape [3, 3, 16, 32]
//Min -0.345708429813
//Max 0.401837021112
//Number of zeros 0

#ifndef W9_H_
#define W9_H_

#ifndef __SYNTHESIS__
model_default_t w9[4608];
#else
model_default_t w9[4608] = {-0.0271965973, 0.0040653623, 0.0610876344, 0.0256624203, -0.1587894857, -0.0920076519, -0.2157652676, 0.3382740021, 0.1892470866, -0.0133548612, -0.0903993994, 0.2822044790, -0.1073764786, -0.1948291212, -0.2174351364, -0.0707152635, 0.1075215042, -0.0880957171, -0.0212595165, -0.1775134206, -0.0216547828, -0.1765572876, -0.0265642740, 0.2134284526, 0.1767771989, -0.0487229489, 0.0198438261, -0.0682663694, 0.1071098149, -0.1702274978, 0.0140069611, 0.4103676975, -0.0004495505, -0.1327731907, -0.1880293041, 0.0705195516, 0.0138381179, 0.0499808900, -0.0612154528, -0.0240066983, 0.2643870711, 0.0656237304, -0.0693125278, -0.0544731505, -0.0638372377, 0.0559581742, -0.0730294585, -0.0074806078, -0.0498845130, -0.0808128417, 0.1275671571, 0.0472026281, -0.0143577000, 0.0587966964, 0.0522805452, 0.1907681227, -0.1788446307, -0.0721993372, -0.0075386348, -0.0064891991, 0.2974886596, -0.0835975856, 0.1345845014, 0.2521173060, -0.1216109693, 0.0251976755, -0.1373664737, 0.0882811993, 0.3900752664, -0.0253448002, 0.0243223049, 0.0620867684, -0.1707366556, -0.0346147865, -0.0055896710, -0.1155397668, 0.0260438602, 0.0172605347, 0.0108925588, 0.2139205188, 0.0011766837, -0.0769243166, -0.1129013374, 0.0559502393, 0.2108514607, -0.2544459403, 0.0542861745, 0.0766770020, 0.0143979304, -0.0635862276, 0.1983630210, -0.0540475585, -0.0054004402, 0.0737247318, -0.3472280204, 0.1734952331, -0.2335946411, -0.1352166831, -0.0676446855, -0.2024400532, -0.0028359178, -0.0678514317, 0.0732564554, 0.0571566187, -0.0287202690, -0.2118269205, -0.2439288199, 0.0654231310, 0.1410380304, -0.0556628928, -0.1541866660, -0.1785040349, 0.0876620933, -0.0133056026, -0.0452513732, -0.0230067633, 0.3063440919, -0.0146115897, -0.1756378263, 0.2307078242, 0.0797111243, -0.0266237166, 0.0050882054, 0.0272182375, -0.0606067404, -0.0009416408, 0.0426126532, 0.0127674080, -0.0638137162, -0.4040500820, -0.1289240569, -0.0830438808, 0.2089733183, -0.1254679114, 0.1661556065, -0.2138021588, -0.0353554748, -0.0803180784, 0.0571411140, 0.0914198756, 0.0046648197, 0.0651613623, 0.0591882206, -0.0370356254, 0.0873742849, 0.1524760425, -0.1573799253, 0.0948178843, -0.2457814366, -0.1812034845, -0.3790302873, 0.0272373389, 0.0394301340, 0.0430257022, 0.2666461468, -0.0352493823, 0.0629853457, -0.2128805220, 0.0674668476, -0.0570047870, -0.0135619836, 0.1052768454, 0.1073716283, -0.1230282262, -0.3147751391, 0.0267378222, 0.0521649569, -0.1522966772, -0.1484428942, -0.1164569780, 0.1747258753, -0.0683318675, 0.2004762441, -0.0287523363, 0.0728005394, -0.5508041978, 0.0542590879, -0.0402669646, -0.2011723518, 0.1413606554, -0.2609529495, -0.0376606993, -0.2093328536, -0.0879671648, -0.1100835353, -0.2489962578, -0.1041533872, -0.0111640133, 0.1329829693, -0.4066498280, -0.0241314843, 0.0017949556, -0.0384323522, 0.2604462802, -0.0335050821, -0.2127659321, 0.0328549594, -0.2280926853, -0.1781112403, -0.1364975572, 0.1169914082, 0.1388638169, 0.1424979419, 0.0269352775, -0.0796363577, 0.1306162179, -0.0418540053, 0.0615448616, -0.1316088438, -0.1081008762, -0.0812811330, 0.0287507717, 0.1196347624, 0.1811034232, -0.2675637305, 0.0080307173, -0.1304906607, -0.2309485227, -0.0464628823, 0.0823109224, -0.1546959728, 0.3403254449, 0.5109986663, -0.1288863868, -0.1894848198, -0.1390129030, -0.2432822287, -0.0389299281, -0.4818240106, -0.2845808268, -0.1297598332, 0.1848626882, -0.2433021218, -0.1232981980, -0.2293789238, 0.0531053357, 0.0054450515, 0.0139532657, 0.1621082723, -0.0681582317, 0.0211844947, 0.1942100376, 0.0466238782, 0.1508579701, -0.1102456748, -0.3051145375, 0.0063959472, -0.0890178233, 0.2459709197, -0.3610857725, -0.1051027253, -0.0254779868, 0.0142963687, 0.0802865624, 0.2169310600, -0.1481628269, -0.0756542459, -0.0931543186, 0.0949587896, -0.5778045058, -0.2682350874, -0.3024197817, 0.1624193490, -0.0900191888, 0.1362915039, -0.0788736790, -0.0855216086, -0.0977402553, -0.0234876163, 0.2492775917, 0.0544914529, 0.1257814914, -0.1840917319, -0.3803893030, 0.0689162835, -0.1912232041, 0.0261292513, -0.0895097703, 0.1849407256, -0.0753380954, 0.1491499245, -0.2979723811, -0.0739770904, -0.1041602269, -0.1663818806, 0.0267665628, 0.2971701324, -0.2202207446, -0.0239257533, -0.0103748301, -0.0625057966, 0.1054264009, -0.0840209126, 0.0786448196, 0.1105005518, 0.0976182744, -0.0396359749, 0.0814795196, -0.0179072339, 0.0475646928, 0.0853756145, -0.0678034499, -0.0344139412, -0.0804471597, -0.0727874860, -0.0037219073, -0.0237222742, 0.0227557346, -0.0240470245, -0.0161339622, 0.0880324617, -0.1062151343, 0.0044317162, 0.0153187951, -0.0618253089, 0.0197409075, 0.0184525289, -0.1109107435, 0.0666913018, -0.0568855144, -0.0056531341, 0.0540623404, -0.0140369674, -0.0118764192, -0.0208737459, 0.0768728107, 0.0081359614, -0.0963627920, 0.0401942134, 0.0477186255, -0.1474254727, -0.0602581538, 0.1209891886, 0.0562000163, -0.0277645625, -0.0593866892, -0.0415991060, 0.0008973366, -0.0458879657, 0.1254959702, -0.1443605870, -0.0030575034, 0.0047442927, 0.0108912773, -0.0474455394, 0.0158113353, -0.0420772023, -0.0268026218, 0.0842580944, -0.0755996406, 0.0116887623, -0.0481590219, -0.0132702943, 0.0540913902, 0.0904717073, 0.0376811326, 0.0255742222, 0.0066082194, 0.0634561628, 0.0209217761, 0.0000795346, 0.0770592168, -0.1159369349, -0.0043503377, -0.1116728932, -0.0324846506, 0.0911127925, -0.1464143544, 0.0160700809, 0.0117494771, 0.0589969940, 0.0824027956, 0.0057757786, 0.0121174203, 0.0217146389, -0.0428289883, -0.0473702475, 0.0618384778, -0.1365417838, 0.0093974052, 0.0350213349, -0.2266466618, 0.1212078854, -0.1440459341, -0.0018246239, 0.0557988472, 0.1709810644, -0.0662443191, 0.0308639426, -0.0303137228, 0.0415277928, 0.0932776332, -0.0148658184, 0.0304753873, -0.0392306596, -0.1134752855, 0.0253720246, 0.0457960740, 0.0714668334, -0.1257648915, -0.0117443753, 0.1228542700, 0.0879586563, 0.0022503629, -0.0813632980, 0.0061045606, 0.1003984585, -0.0609609596, -0.0471453108, 0.0781867951, -0.0573855974, 0.0152769638, -0.0608892143, -0.0414046198, 0.0380081087, -0.0218113344, 0.0229630992, 0.0605275407, 0.0033143230, -0.0252012871, 0.1539080739, 0.0472161993, -0.0585972741, 0.0883603320, 0.0822696462, 0.0154545065, -0.0582487918, -0.0175330155, 0.0083357813, -0.0623983741, -0.0958253741, -0.1797634959, 0.0353072174, 0.0166651458, -0.1380607784, -0.1173759699, 0.0613191985, -0.0034509616, -0.0563924387, 0.0571079776, -0.1020554826, -0.1441730559, -0.1284862310, 0.0004487798, -0.0762762055, -0.1495620459, -0.0012466738, 0.1553438902, -0.0757118613, -0.0598875619, 0.1263600290, -0.0324027017, -0.0454136580, -0.0005150054, 0.0230420809, -0.1271491945, 0.1601899862, 0.0600389987, -0.0352059714, -0.0119188661, -0.0662695542, 0.0312868953, -0.0681629777, 0.1898854822, -0.0050495393, -0.1456643790, -0.0013721942, 0.0183600690, -0.0441234075, 0.0157269835, -0.0569865964, -0.0793901458, -0.0410245955, 0.0570625067, -0.0149673605, -0.0836927071, -0.0294584725, -0.0087572504, -0.1914320886, 0.0712027475, -0.1046655104, -0.2401541024, -0.0176717080, -0.1291303188, 0.0173942596, 0.0511980243, -0.1186652258, 0.0624785423, -0.0644505620, -0.0018482854, -0.0347441882, -0.1024326161, -0.0832413211, -0.0644216835, -0.2133376151, 0.1450469792, -0.1667511910, 0.0746327341, -0.0633944720, 0.0626152232, 0.1184377670, 0.0792886913, -0.0603525341, 0.0066226535, -0.0415909700, 0.0398781039, 0.0537989289, -0.1440796256, -0.2065503895, 0.0220443811, -0.0559687763, -0.0425897427, 0.0162151661, -0.1030813530, 0.0511609912, 0.0463332757, 0.0298655797, 0.0254555568, 0.0811806545, -0.0913967639, -0.1279527098, 0.1046998203, -0.0212069731, -0.3286741674, -0.0155528160, -0.0705498159, 0.0602355078, 0.1464874595, -0.0036661718, -0.0848018751, -0.0006209756, -0.0318255723, -0.0670892894, -0.0042454312, 0.0923428088, 0.0419541188, -0.0701265708, -0.0805721357, -0.0191378053, 0.1818633080, -0.0401095599, -0.0671772957, -0.0043009827, -0.0840769261, -0.1256840527, -0.1108889878, 0.0927477404, -0.0747404322, -0.1611336321, -0.1951257437, 0.0906475857, 0.0241669472, -0.0689300597, -0.2410372943, 0.0117295412, -0.0350612253, -0.0904747099, 0.0901057720, 0.1330745965, -0.0493715927, 0.0152267264, 0.0918666050, -0.1005671769, 0.0556558929, -0.0695741773, -0.0690440685, 0.0934151858, 0.0111783361, 0.0364630520, 0.0293809474, 0.0739877373, 0.0270750429, 0.0681102201, 0.0258309431, -0.0709860921, -0.1414980292, -0.0870720595, 0.0720621049, 0.0822209492, -0.2235250324, -0.0733924136, -0.0501576103, 0.0688953772, -0.0067733414, -0.0735661089, 0.1674999148, -0.0692567155, 0.1189975813, 0.4304869473, 0.0779743642, 0.1076592430, -0.0604605228, 0.0732136965, 0.0806072950, 0.2096581757, -0.1763715297, 0.0017554205, 0.1149543896, 0.0485162400, 0.1261422485, -0.1800198704, 0.0843580887, -0.0293930136, 0.1303961277, 0.0582285263, 0.0495902523, -0.0670335144, 0.0154396249, -0.0836391225, -0.1427139044, 0.0895954743, 0.2882239223, -0.2456742525, -0.0360997245, -0.1140610948, -0.0846975967, -0.1394153386, -0.0871826038, -0.2284747213, -0.2460965514, 0.2595114708, -0.4338174462, 0.0403964333, -0.2214424163, -0.0936832950, -0.0364797562, -0.0128198443, 0.1610038728, -0.3233006001, 0.1379862875, -0.3816357553, 0.0610518456, -0.3424594998, 0.0505053289, -0.1961201429, -0.0932013988, -0.0399843678, 0.0290643424, -0.0531985089, -0.0477928706, -0.1299017072, 0.1734394729, -0.0153046064, 0.1062965095, -0.1779328138, -0.0694984198, -0.0096406629, -0.2713162601, -0.2703959942, -0.1549419910, -0.2305019796, 0.0761100426, -0.3048149943, -0.2422260046, 0.0396250933, -0.2565532327, -0.2702436745, 0.1856987923, -0.0625624284, -0.0549811907, 0.0490682237, -0.1099042892, -0.0708919093, -0.1357620507, -0.0139935566, -0.1628925949, -0.1472957581, -0.0168066081, -0.0572927222, -0.1268075556, 0.1420594454, -0.1528172791, 0.1470563412, 0.0070920493, -0.0248156115, 0.1271131635, -0.0152013665, -0.0809923336, -0.0622685291, -0.2355198562, -0.2665417194, 0.1762246192, -0.0208370630, 0.1764663607, -0.0645871684, -0.1134240925, -0.1619161516, -0.0970402211, -0.1881292015, 0.2202747762, -0.0681949481, 0.0045305383, -0.0631385148, -0.0470713079, -0.0786624029, 0.3123986423, -0.3321762085, -0.1214203089, -0.2665825784, 0.0608993061, 0.1157293171, -0.1031801403, -0.2503846884, -0.0977200717, -0.0938132480, -0.1366616338, 0.0936086699, -0.0176526345, -0.0282791071, 0.0937728882, -0.0487197004, 0.3234811723, -0.2198893577, -0.1754861027, -0.2639531195, -0.1129555777, 0.0355280042, -0.1270736903, 0.1767926663, -0.1632179618, 0.0318298563, -0.0434204489, 0.1207863912, -0.0714941993, 0.0342833176, -0.1970079392, 0.0611704700, -0.1154480502, 0.0605996586, 0.0194838457, 0.0100763841, 0.1566353738, 0.0230253674, 0.0604838617, -0.0912515447, 0.0333229676, -0.0216828659, -0.0533362851, 0.0030853932, -0.0614023618, -0.0183595289, -0.0446999632, -0.0775575489, -0.1915209293, -0.0070750159, 0.1087030023, -0.0762766674, 0.0080944533, -0.1077405140, 0.0588437803, 0.0583923869, -0.1106683910, 0.0486462452, -0.0024775281, 0.0081621194, -0.0185841937, 0.0521522611, -0.1007053852, -0.0745021552, -0.0837065801, 0.0363459550, -0.0224272776, -0.0819777399, -0.0443292595, -0.0018916372, 0.1067267880, 0.0082158241, -0.0216987003, -0.1143467203, 0.0505167693, -0.0642625168, -0.0994092450, 0.0120025594, 0.0668471605, 0.0322222561, -0.0465608984, 0.0029728876, -0.1084300280, -0.1175991595, -0.0249983426, -0.0443892404, 0.0250257216, 0.0751828626, 0.0105034150, -0.0837746039, 0.0772502124, 0.0726939663, -0.0203137528, 0.0218186416, 0.0589739792, 0.1035829782, -0.0094152810, 0.0243048072, -0.0090203201, -0.0682906210, -0.1282339990, 0.0246557482, 0.0444020107, 0.0284235999, 0.0398087353, -0.0490030646, 0.0678664818, -0.0569100343, -0.1631753594, -0.1349242777, -0.0218776036, -0.0039343620, -0.2184098363, -0.1396491677, -0.0785951689, 0.1032911316, -0.0855121389, -0.0574790537, 0.0730786771, -0.0139993709, 0.0055929814, -0.0882735550, 0.1182164773, 0.0471066087, -0.1425987482, -0.0426910967, -0.0024135089, 0.0389723517, 0.0684446618, 0.0192800499, -0.0149048166, -0.0115415510, -0.0872671381, 0.1285288334, 0.0584353581, -0.1067032665, -0.1752714664, -0.0407935046, 0.0994216204, -0.0234421510, 0.0704021081, -0.1234245971, -0.0388662517, 0.0015137994, 0.0001123170, 0.0379510373, -0.0536327213, -0.0911105350, -0.2311408520, -0.0071881232, 0.0277020000, -0.0757716969, -0.1459254175, -0.1027759984, 0.0084654884, -0.0373016447, -0.0720430538, -0.1631895453, 0.0099394144, -0.0708727092, 0.0935012028, -0.0325107165, -0.0459655486, -0.0305131413, -0.0848453641, -0.0164428111, -0.0608480461, -0.0884485394, -0.1295235306, -0.0955631584, -0.0850030854, -0.0307340045, -0.0745033026, 0.0057428046, -0.0712898523, 0.0006115522, -0.1868664771, -0.2989401817, -0.2479131520, -0.0874284878, -0.0717702657, 0.1594920456, -0.1486114264, -0.0853328183, -0.0205101818, 0.1276351064, 0.0390324481, -0.0731394812, -0.1898574680, -0.2174944580, -0.0694922134, 0.0140242530, -0.1838851869, 0.0550655238, 0.0970702842, -0.1210652068, 0.0566399954, 0.1443553120, -0.0035966947, -0.2254794091, 0.0457824208, 0.0578802638, -0.0096683735, -0.1762648821, 0.1034268960, 0.0781800449, 0.1312581301, 0.2428700477, 0.1461384147, 0.0894118324, -0.1936499923, -0.1650349796, -0.0874914005, 0.0091855582, 0.0589320324, 0.1578342766, -0.0764851645, 0.0387920327, -0.0267221089, -0.2004983723, 0.0030320270, -0.3694358766, -0.0593856387, -0.0146172093, 0.0002553533, 0.0968403146, -0.0814270303, -0.0217610952, -0.1474855095, -0.1478281319, 0.0529437400, -0.2256159931, -0.0846767277, -0.0250352435, -0.0318149142, -0.0687276646, -0.1467376798, -0.1207457557, -0.0653855875, -0.0352842659, 0.1126078963, -0.0910079479, -0.0757476538, -0.1022332832, -0.1011025906, 0.0658747330, -0.0888204947, 0.0503598563, 0.0409474149, 0.0477675870, -0.0481145009, 0.0457858630, -0.1070064604, -0.0113914516, 0.2705349028, -0.0260799993, 0.1558572799, -0.0304763541, -0.0480091646, 0.0713837892, -0.0545981154, -0.0517950468, -0.0485821441, 0.0370164812, -0.0741539001, -0.0469842404, 0.0412326157, -0.0992994010, 0.0341989100, 0.0205122493, 0.0367189683, 0.1207645535, -0.0431472212, -0.0121428110, 0.0439251140, -0.0248146486, 0.3934160769, 0.1666317880, -0.0128309652, -0.0595434569, 0.0151615003, 0.0091437483, 0.0903671682, -0.1456500143, -0.1975573599, -0.0689214766, 0.0426996090, -0.0217466690, -0.0073216120, 0.0269461144, 0.0097461762, -0.1054364815, 0.1395322680, -0.0885344595, -0.0487416461, -0.2395496666, 0.0402050503, -0.1931818873, -0.0633168966, -0.1279110461, -0.1286562681, -0.0226823278, -0.0924687982, 0.0109341126, -0.2290326655, -0.1668076068, -0.0674775168, -0.0226660743, 0.3524000347, -0.0366475955, 0.0566049963, -0.2217038721, -0.0932992920, -0.0469407514, 0.0021926467, -0.0714466497, -0.0650509298, 0.1531984955, 0.0112976702, -0.0730295926, -0.0355033912, -0.0861786306, -0.1049181744, -0.0787351057, -0.1043030992, -0.0083768051, 0.0016413813, 0.0790299028, 0.1754884720, -0.0188137982, -0.0743235499, -0.0711024031, -0.0727465078, 0.1006384790, 0.0286966860, -0.1225587949, -0.1450882256, 0.0707261711, -0.0567883961, 0.1881568730, -0.0494433567, -0.1383464783, -0.1333791018, -0.3118726909, 0.2642264664, 0.0304499455, -0.2051744163, 0.0311264489, -0.0094637834, 0.2175360024, -0.0486507565, -0.1143107489, -0.0799137726, -0.0520797037, 0.0014234324, -0.0543415137, 0.0536842793, 0.0845273137, -0.0490772426, -0.1453521550, 0.3200663030, -0.1986572593, 0.0804506540, -0.1986013204, -0.0281835087, -0.0095933108, 0.0058581992, 0.0889145285, -0.1608397961, 0.0795781091, 0.1099377126, 0.0201841313, 0.0254741553, -0.2340535074, -0.1414898038, 0.1038560495, 0.0516445301, -0.1314229369, -0.1666488349, -0.1964332908, 0.0085445428, 0.2424349785, 0.1019873023, -0.0572311692, -0.0884239897, 0.0662969947, 0.0749107152, 0.0021871845, 0.0516392328, 0.0579724573, -0.0443942621, 0.0369845331, 0.0838388205, -0.0481048524, -0.0907239765, -0.1434026957, 0.0030084639, 0.2368191183, -0.2768658698, -0.0350846499, 0.0998781547, -0.0066612992, 0.1546096355, 0.0732375756, -0.0233803671, -0.1061120853, -0.0362270810, 0.0067704394, 0.1257193685, -0.1454341859, 0.0973444209, 0.0714290068, -0.0976716354, 0.0565959327, 0.0632259324, 0.0577612035, -0.1510889381, -0.0550143011, 0.1354996264, -0.1327490658, -0.1543438435, -0.1095117033, -0.2531735897, -0.0193938445, -0.1387527585, 0.0937899053, -0.1576348096, 0.1315031797, 0.0320069268, -0.0171332154, -0.0332764387, 0.0797538385, -0.1304647774, 0.0127716875, -0.0019076436, 0.0917915851, 0.1618237346, -0.0095987832, -0.0210336745, 0.0176558997, -0.2164387405, -0.0992525294, -0.0936887488, 0.0431057699, -0.0449736118, 0.1287104636, -0.0636567026, 0.0943298042, -0.1565929502, -0.1369787753, 0.1023624539, 0.0931879655, -0.0815318152, -0.0292284433, -0.0112077780, -0.0928818509, -0.2270054966, -0.0719558224, 0.0440814234, 0.0575920418, -0.0201208647, -0.0753116310, 0.1998559088, 0.2212161720, 0.0417354666, -0.2013160884, 0.0282019041, -0.0114754522, -0.1154326424, -0.3705027699, -0.0181627739, 0.0459242724, -0.1244925261, 0.0049396157, 0.2138856649, -0.0111021819, -0.0366257578, 0.0913167000, 0.1855910569, -0.0957640558, -0.0927064344, 0.1072391346, -0.0742558613, 0.0241128244, -0.0401510522, 0.0260477085, 0.1396802068, -0.0459249318, -0.0272747595, 0.1260563731, 0.2097146362, 0.0599697866, 0.1007926762, -0.1969346851, 0.0077268388, 0.0738053545, 0.2082158625, -0.1619293094, -0.1811591089, -0.2450059205, 0.0021462967, -0.0703507140, -0.0416049138, -0.0277849268, -0.0826069340, -0.2039269656, 0.0510677248, 0.0007669292, 0.0131695988, -0.1176503599, -0.0746722668, -0.1689837873, 0.1624225080, -0.2374935597, 0.2185634524, 0.1155164242, -0.2106642276, -0.1060400158, 0.1546311975, -0.0152023695, 0.0620196983, -0.1469921470, 0.2875197232, 0.1766542196, -0.0718560293, 0.1235793903, -0.1471791714, 0.0263608154, -0.2643106580, 0.0738860369, -0.0667370856, 0.1255774945, -0.2473449558, 0.0284736156, 0.2398917675, -0.1699717641, -0.1063397974, -0.0062369686, 0.0743048117, 0.1164315492, -0.0606185645, -0.1094793156, -0.0098137986, 0.1924237013, 0.0021137381, 0.2179712653, -0.2401649654, -0.0021645220, 0.1122155264, 0.1168754175, 0.0921095461, 0.0804007575, 0.1406961828, -0.0679866299, 0.0394957438, 0.2132467479, -0.0450643897, -0.1133225635, -0.0528884493, -0.1593647897, -0.0484836400, 0.1469812244, 0.1611854732, 0.1655128896, -0.0242487136, -0.2214816511, -0.1090793833, 0.0906329900, 0.1461864114, 0.0411414914, -0.0872735754, -0.0624415986, 0.0374428518, -0.0543296412, -0.0281598587, -0.0080127595, -0.0895935223, 0.1388313919, 0.1369201392, 0.2092059553, -0.0044890032, -0.1254577786, 0.0157681685, 0.0767868757, 0.0354051031, -0.0897686929, -0.1246284023, -0.3610419035, -0.0803720728, -0.0706746057, -0.0895675272, -0.0886779726, -0.0349619724, 0.2612318397, 0.0672246814, -0.0880841538, -0.1332469434, -0.1634591818, 0.0010832332, -0.0193089396, -0.0756784454, -0.1897761524, 0.2744150460, -0.2852578461, -0.1479423940, -0.0300094299, -0.1212688088, -0.1959516704, -0.0949579328, 0.1537462473, 0.1366423219, 0.2259072959, -0.2852703035, -0.0733954608, 0.2918205857, -0.3411523402, -0.0652840137, 0.1149165034, -0.0921210051, -0.2153814137, 0.1621012837, -0.0690422952, 0.0510366224, -0.1632985920, -0.1356101483, 0.0377588719, 0.3102251589, 0.1260697693, 0.1075182632, 0.0367044210, 0.1416617036, 0.2200202346, 0.1925683618, -0.1566672623, -0.2904059589, -0.1851357371, -0.0242999848, 0.1880437881, -0.1566083580, 0.0069942693, 0.1222418994, -0.0839434862, -0.1437026560, 0.1504316181, -0.0999043658, -0.3208925426, 0.1650099605, -0.1337725967, -0.0528659895, 0.1116123199, -0.3533177078, -0.3025958538, 0.0100353481, 0.0694597140, -0.3134969771, 0.0661095455, -0.0933132619, 0.3277062178, -0.2399378121, 0.1140262559, 0.2779917717, 0.0489793457, 0.1338149160, 0.1776145101, -0.1022716910, 0.0144453179, 0.2214699537, -0.3057371974, -0.0297478698, -0.0881160125, -0.1814797670, -0.2742455006, 0.1743346304, -0.0998695493, -0.2109245211, 0.0243048370, 0.2777450383, 0.0625980347, 0.2332678884, 0.1020584926, -0.2667048275, 0.0123624252, 0.1203337833, -0.2997973263, -0.3386369348, 0.1670387238, -0.1761106253, -0.0557260811, -0.2621911466, -0.2291825414, -0.4811542332, 0.1504853517, 0.1218970120, -0.0489079691, 0.1545000821, 0.3155184388, 0.1127306819, -0.0535824262, 0.0501613989, -0.1280213594, 0.1179093048, -0.2004761994, -0.2465816140, 0.0207341183, 0.0787850246, -0.0523909256, -0.0688596144, -0.4701513648, -0.1822681576, 0.0257873982, -0.2011131942, -0.0750299394, -0.1557234824, -0.0463911928, -0.1152948514, -0.0458544642, -0.0623505972, -0.0863853693, -0.0274503939, -0.1085738540, -0.0839025527, -0.0168462209, 0.2040594816, 0.0745461658, -0.1454998106, -0.0338223316, 0.1171553805, -0.0931495130, -0.3229181170, 0.0888039544, 0.1906541437, -0.3108187616, -0.1500578225, 0.6130868793, -0.1180609092, 0.0854732916, 0.1548615098, 0.0742891803, -0.3879113197, 0.2623830736, -0.0433126055, 0.3161332905, -0.1205357686, 0.0643094182, 0.2101411223, 0.1223169789, -0.0411628559, -0.0092019886, 0.0222261027, -0.0030496451, 0.0450886749, 0.0099504096, -0.1061479747, 0.0145825259, -0.0106230639, -0.0476896837, -0.0946421623, 0.1422713995, -0.0247077588, 0.1156600267, 0.0723213106, 0.0350613482, 0.1268740743, -0.0527534857, 0.0412028730, 0.0501011200, -0.1109402329, -0.0009924431, 0.0162862111, -0.0477527939, 0.0826532617, -0.0256267190, 0.0228818823, 0.1075576544, -0.0660015568, 0.0203623474, -0.0007576462, -0.0323699676, -0.0074828416, -0.0309925489, -0.0466798283, -0.0388259515, 0.0784452409, 0.0314752199, -0.0079551740, -0.0825187564, -0.0235373806, -0.1354274005, -0.0091649294, 0.0299606714, 0.0277020279, 0.0301554482, -0.1929500699, 0.0987062827, -0.0672741979, 0.0181103032, 0.0829472542, 0.0312938802, 0.0175852235, 0.1337531060, -0.0393636003, -0.0259593017, -0.0207403470, -0.1266551018, -0.1046536714, 0.0678520575, -0.1267346740, 0.0623136796, -0.0356614292, -0.0519638993, 0.0630538538, 0.0565477014, 0.0217044353, 0.0271946788, 0.0257887468, -0.0322881863, -0.0783405676, -0.0971265733, 0.0700756311, -0.1004763618, -0.0043581957, 0.0622225441, -0.0076576290, 0.0354912840, -0.1200487614, 0.0514710099, 0.0366034098, -0.0788373426, 0.0573212989, 0.0082234265, 0.0287033878, 0.1250920147, -0.0676641986, -0.0528913029, 0.0097438544, -0.1924940199, -0.0156891383, 0.0704286844, -0.0362924561, -0.0015978930, -0.0388331190, -0.0143797137, 0.0463032648, 0.0922224596, 0.0305636786, -0.0757378712, 0.0594123751, 0.0133924754, -0.0895588920, 0.0135700637, -0.0795798972, 0.0067786947, -0.0740865469, 0.0538765192, -0.0079376446, 0.0119695421, -0.0277450718, 0.0771032125, 0.0239935853, 0.0471193008, 0.0044609457, 0.1159402877, -0.0134196924, -0.0723771229, -0.1071394682, 0.0635946542, -0.0244125929, -0.0913892090, -0.0277292375, 0.0373794734, -0.0673316941, 0.0203447826, -0.0314760208, 0.0078900158, 0.0269775596, 0.0627715811, -0.0055944244, -0.1135654971, 0.0774934813, 0.1137723848, 0.0517893285, 0.0154416543, 0.0490004234, -0.0548691452, -0.0252858903, 0.0257692020, -0.0499615967, 0.0531192683, -0.0798959658, -0.0570695736, 0.2315047234, 0.1224844903, 0.0260225702, -0.0818250701, 0.2397538275, -0.1462523639, 0.0467383824, -0.2640955746, -0.3225907981, 0.0225464404, 0.1463612020, 0.2847685814, 0.0891704932, -0.0794406012, -0.1421373338, 0.1236109734, 0.0377002396, 0.1296399385, -0.0191689488, -0.0025514408, -0.0804486573, 0.0270129628, -0.0375398099, -0.0495878235, -0.1355366558, -0.0009332611, -0.0326910540, 0.1703147888, -0.0770513490, -0.0630960986, -0.0378881060, 0.0837650672, 0.1902252734, -0.0022928263, -0.0127550447, 0.0201777145, 0.0004368808, -0.0517057404, -0.0652572215, -0.2069347650, -0.2343076617, 0.0418575145, 0.1871318072, 0.1492380947, 0.0321769789, -0.0511991493, -0.1113450155, 0.0352864154, 0.1229700819, 0.1284161806, 0.0857112706, 0.2278405130, 0.0210947543, -0.1512980908, 0.5447909832, 0.1264557093, -0.0716152042, 0.0568042845, 0.0151346149, -0.0403575897, -0.2301435173, 0.0454836972, 0.0033073162, 0.1076825634, 0.1424041390, -0.2222089469, -0.0964496210, 0.0733685195, -0.1909507513, -0.0638917908, 0.0613747984, -0.0041153114, -0.0794096887, -0.0545308255, 0.1849475056, 0.2128724009, 0.0225838702, -0.1956144273, 0.1265991330, -0.0117963236, 0.1533233374, 0.0086317314, 0.0797553137, 0.1177117303, -0.0693343356, 0.0971945301, -0.0277576447, -0.2128340751, -0.0890529379, 0.1375447810, 0.0659844726, -0.0242829584, -0.0934117362, 0.0345550328, 0.1075057536, 0.1776629835, -0.0957305431, 0.2041467279, 0.0374596603, 0.0581794716, -0.0324602537, 0.0029265627, 0.0988617092, -0.1141996160, -0.2331981957, 0.1793864071, 0.1755558550, -0.0910232216, 0.0204669926, 0.2212199271, 0.0218358207, 0.2360120118, 0.0562650636, 0.0619782694, -0.0447164550, -0.0256845616, 0.0056781704, 0.3669709861, 0.1646239161, 0.1400710344, 0.1082737148, -0.0149875842, 0.0429128334, 0.0489418767, -0.1255846769, 0.0163392052, 0.0085687488, -0.1147500277, 0.0127827851, -0.0625429973, 0.0085052652, -0.0553866923, 0.2424503863, 0.1295590848, 0.0737415627, -0.0289938301, -0.0655104667, -0.0055205692, 0.0616612062, -0.1428878903, 0.0218078066, -0.0150670735, 0.1127690449, 0.2632158697, -0.2307547927, -0.0764804408, -0.2711404264, 0.0483032204, 0.1162454039, 0.0315711834, 0.1215203181, 0.1122485027, 0.0883625150, 0.0026459489, -0.0628400519, 0.1658214629, -0.1162244752, -0.1090504229, 0.4423401356, -0.0254344996, -0.0540105961, -0.0242713187, 0.1115849763, 0.1172394231, 0.0806344375, 0.0790614933, -0.0963977650, 0.0043074605, 0.1314602047, -0.1964613050, -0.1555612832, 0.0826575682, 0.1512206644, -0.1546723992, 0.1550677568, 0.1179280505, 0.1043067575, 0.0505821593, 0.2854262590, 0.0330980308, 0.0953075662, 0.1211651117, -0.1327162087, 0.2122885287, 0.1297083646, 0.1936537921, 0.1769959927, -0.1305160522, 0.1317416579, -0.1121971235, 0.1881747395, 0.2166669667, -0.0972447693, 0.1578878909, 0.0176711213, 0.1359515190, 0.1313908100, 0.1131101996, -0.1053052917, -0.2621833086, -0.0713646859, -0.1032417864, -0.0494392961, 0.0631943494, -0.2210447937, 0.0234827530, -0.2684283257, -0.1251513362, 0.1160472408, 0.2645417750, 0.0589660853, -0.1862535179, 0.1053895503, 0.0693484396, 0.0988879055, 0.1829778999, 0.1416619867, -0.0885279328, -0.1014164686, 0.2532185912, 0.2903413177, 0.1763420850, -0.2555972636, 0.0468208306, 0.0153338667, 0.1769665182, 0.0874089003, 0.0571057573, -0.0780043527, 0.0349515714, 0.2592407763, -0.0657621846, 0.2313618809, -0.0304712038, 0.0760196373, -0.1301933676, 0.1547079533, 0.1449798793, -0.0217146873, 0.0700255632, 0.0171674099, 0.0866851062, -0.1130898371, 0.2706142366, 0.1767849624, 0.0555068702, 0.0750288814, 0.1200507283, -0.0135985631, -0.1941113472, -0.0150819654, 0.2033612132, -0.4779221117, -0.0835797042, 0.0044946065, -0.0503748953, 0.1173780560, 0.2152379155, -0.1415804625, 0.1810350418, 0.2251805067, 0.0613104813, -0.1790192276, 0.0955869630, -0.0454525873, 0.0171975326, -0.2808476686, 0.0640110299, -0.1227183342, -0.0687210932, -0.3248663247, -0.2506534159, 0.0628404096, -0.0182512812, 0.0741388872, -0.0696313307, 0.1224952862, 0.0246942192, -0.1235085800, 0.0807091892, -0.2268048376, -0.2950076759, 0.1704797745, -0.3557591736, 0.0991512462, 0.0198305435, -0.0461091697, -0.2586208582, -0.0314628035, -0.5245963931, 0.0281572100, -0.3770977855, -0.3082851768, -0.2647286654, -0.2467073351, 0.0035700153, -0.0065988977, -0.6346192360, -0.0847377926, 0.0858337879, 0.0491224565, -0.1881641895, -0.3964768946, 0.0312883817, -0.0977073014, 0.3185584247, -0.2224484384, -0.1533959806, 0.0633904338, -0.0543060265, -0.0220384132, -0.2987543941, -0.1182498261, -0.1143474653, -0.2363445014, -0.0704714134, 0.2532499433, -0.1330154538, -0.1700710058, -0.0685435459, -0.0917413160, 0.0939964056, -0.0310832076, -0.4300843477, 0.1241596565, 0.0658111125, -0.2257174551, -0.2252753228, 0.0252132080, -0.0926071554, 0.0062233885, 0.3104190230, -0.2256325930, 0.2445538044, -0.3849021196, -0.2303561121, -0.0734057277, -0.3496701121, -0.4548857510, -0.2612186670, -0.0023630408, 0.0559963249, 0.4146983027, 0.3179212213, -0.1839135289, -0.2616793513, 0.1127420589, -0.2781754434, -0.1772995144, -0.1609494984, -0.2130954862, 0.1740150005, -0.1431550980, -0.2441124320, 0.1290302873, 0.1265795380, -0.0869227275, 0.3318361342, -0.3469071984, 0.7263407111, 0.1092030704, 0.3805055022, 0.0666774958, -0.3622507453, 0.4081663191, -0.3029856384, -0.1693475842, 0.1725244522, 0.3965025842, -0.3007397652, 0.0591511615, -0.4602871537, 0.1838569045, -0.0020739220, 0.0914306939, 0.8415068984, -0.0284282081, -0.1085133627, 0.1379703879, -0.2142642289, -0.1636987031, 0.2882689238, -0.0549860299, -0.3175699711, 0.1313992888, 0.2635168731, 0.1480561644, 0.1251792312, 0.1802242696, 0.1572320163, 0.3072178662, -0.0388244167, 0.0081241084, -0.4478411674, 0.1722398996, -0.3965600431, 0.0239089243, 0.2027377486, -0.0985353366, -0.0710835978, -0.2386219949, 0.3031836450, 0.0589314774, 0.0760643110, 0.0351575054, -0.0275253523, -0.0702029467, 0.3469647169, -0.0496316664, -0.1713693738, -0.3887485266, -0.0241788197, 0.3323397934, 0.1269921362, -0.1290395409, -0.1090160608, -0.0083666602, -0.0601329543, -0.1477885246, 0.2126917541, 0.0708202869, 0.1324756294, -0.5730798841, 0.3778343201, 0.3757601380, -0.0907198116, 0.0525592528, 0.0984857008, -0.0179920122, 0.3407695889, 0.1348598599, 0.3727700710, -0.0456059724, 0.2445634753, 0.2205730379, -0.0920957252, 0.0411062166, 0.3330624402, -0.0791156292, 0.2650733888, 0.1677194983, 0.2911396623, -0.3721975684, 0.0992824733, 0.2218159139, -0.1668984294, -0.2448578477, -0.0657339469, 0.1407397389, 0.2565624118, -0.1879964173, -0.1130184159, -0.1400916874, 0.2606112361, -0.2697074413, 0.2660739422, 0.2288923115, 0.0449900962, 0.0247668885, -0.5240044594, 0.0109396707, 0.1120008230, -0.1216712072, 0.1589384973, 0.5336905718, 0.2756804228, 0.1424511075, -0.1547582895, -0.0873258859, -0.0133138392, 0.3450435102, 0.2092179358, 0.1245406717, -0.0989434049, 0.0735445619, 0.0927810147, -0.2714662254, -0.1141657084, 0.1374402046, 0.0877435207, -0.2895762324, -0.0508388691, -0.3420728445, -0.2201045603, 0.0352103673, -0.0145520754, -0.1640793085, 0.0216075871, -0.1488520503, 0.2221886218, 0.0074371994, 0.0973758176, -0.2325081676, -0.1086490452, -0.0667124465, -0.2617908120, 0.1855415404, 0.0369996615, -0.0352992713, -0.1373434663, 0.0413166359, 0.0456517749, -0.2534432709, -0.1808822006, 0.1425351501, 0.0559767000, 0.2188163698, 0.0466368720, -0.2655501366, 0.1390467435, 0.1335597336, -0.1194295213, 0.1393516362, 0.2214155346, -0.0529745780, -0.1868614852, 0.0617566630, 0.1361235529, -0.2265625596, 0.2011738718, 0.1448684335, -0.0469171144, 0.2526616156, -0.2653473616, -0.1746406406, 0.0394723117, -0.0854769945, -0.0443149470, -0.1080002412, -0.0287845284, -0.1782743633, -0.0132081481, -0.0220130272, -0.0495799854, 0.1673105657, -0.2758392990, -0.0475641973, -0.1371964067, -0.2622388601, -0.2709322572, -0.0255774576, -0.1901954263, -0.0568599664, 0.2563747764, -0.0694580972, -0.3540750444, -0.0974343568, 0.0717065707, -0.0923219696, -0.0849585757, -0.1675868034, -0.5316244960, -0.0540793426, -0.1009464785, -0.1468176544, -0.1870466769, -0.1275823265, 0.0526150689, 0.0941678956, 0.1542619616, -0.1179428026, 0.2601543665, -0.0945497751, -0.0902661234, 0.0531737730, 0.2079380453, -0.1642360985, -0.0721917376, -0.0499406047, 0.0865983814, -0.1261835992, -0.2099695504, -0.2179088593, -0.1434254199, -0.0011634335, 0.0760593042, -0.0364371613, 0.1118304953, -0.0211094283, 0.0648187995, -0.0682236776, -0.2068005949, 0.0519030243, -0.0007201085, 0.0069726636, -0.0799769610, -0.0479300655, 0.0664534122, -0.0218446702, 0.2081234902, -0.1522605717, 0.0839896500, 0.0162802711, -0.1861541420, 0.1353524625, 0.1577388793, -0.0360891670, -0.0048945323, -0.0207735803, 0.1684742421, -0.1754479408, 0.0539895445, 0.0487568453, 0.0921249539, 0.0672448575, -0.1007884070, -0.2786260545, -0.0830492377, -0.1425478756, -0.0655950829, -0.1265340298, 0.1588312238, -0.1230771467, -0.0562813357, -0.0289394837, 0.2129651606, -0.0864063203, -0.0142475553, -0.0436624959, -0.0165868849, 0.1739548445, -0.0721631348, -0.0308149718, 0.0298194904, -0.0594319068, -0.0673683286, -0.0028583941, 0.0913522914, 0.0055729900, -0.1182026044, 0.0196815617, 0.1051870286, -0.1077782810, -0.0557874702, 0.0069683855, 0.1212012917, -0.1735849082, 0.0845137239, 0.2380422354, 0.1039056405, -0.0467008464, -0.0171958506, -0.0963503942, 0.1788513809, -0.0422649980, 0.0193046480, 0.0117042260, -0.1053041667, 0.0465532579, 0.2248526365, 0.0900444165, 0.1121748835, 0.0118400929, 0.1782848835, 0.1696611792, -0.0594503470, 0.0085140811, -0.1462891251, -0.0097934837, 0.0654273331, 0.1134113371, -0.0852502435, -0.1018577367, -0.0179254953, 0.0020241435, -0.0105028171, -0.1461372823, 0.1024869680, -0.0533406623, 0.0963676944, 0.0580352098, -0.0780854374, -0.0578047000, -0.0251510739, 0.2420178801, 0.3049611449, 0.0352911316, 0.0185450651, -0.1217690781, 0.0255756602, -0.0998662934, -0.0291995052, 0.0906978026, 0.2719850242, -0.0935663804, -0.2468799353, 0.1632088572, -0.2561475337, 0.2232757509, 0.1479220688, 0.0663052052, 0.2977775633, -0.0993856266, 0.1183753014, -0.2805687189, -0.3076212108, -0.0651411787, -0.0300168507, 0.0660697669, 0.2138663530, -0.1406755447, 0.0420060158, 0.0998593569, -0.0756770149, -0.1390738487, -0.0890492275, -0.1364283115, 0.2832540274, -0.0796044618, 0.0030376455, -0.3409302235, 0.1489114761, 0.0462747291, -0.0581123754, -0.1368219703, 0.0675412789, 0.0064556696, -0.1885182858, 0.0555454157, -0.2197907716, -0.3201457262, 0.1104118079, -0.0485386848, 0.5789213777, 0.3631536961, -0.1235616133, -0.2140692919, 0.4736328721, 0.2169964015, 0.2497785687, -0.1466701031, 0.0024353049, 0.0348851420, -0.0438416004, 0.0325652063, 0.3007968068, -0.3520485163, 0.1757442504, -0.2050517499, 0.0930710956, 0.0069483300, -0.0112194112, 0.1097440049, 0.1291034967, -0.1160605401, 0.1812867969, 0.0850986317, 0.2779687047, -0.0449163653, 0.1465310901, 0.0938912407, 0.3250427544, 0.0483494252, 0.3193747401, 0.1484926641, 0.0155496579, -0.3177094758, 0.1533876210, 0.1014585793, 0.4437240660, -0.0126868403, -0.1249742955, -0.2050208449, 0.2528944612, -0.1020243540, -0.1755741835, -0.1025928035, -0.0624415353, 0.1670340598, 0.2352898419, -0.2824561894, 0.0266998652, 0.0065578017, 0.0944229439, -0.0453496911, 0.1787695289, 0.1828761250, -0.0388811789, -0.0102649778, 0.1143643484, 0.3544879854, 0.2562181950, 0.2644638419, -0.1606594324, 0.0758705586, -0.1245140359, -0.0185599048, 0.0189801510, 0.0497634895, 0.2274623960, 0.0152144749, 0.4988732338, -0.1826786250, -0.1139490604, -0.0709950626, 0.1955879480, 0.0284184664, 0.0690666437, 0.1831261665, 0.2741671801, 0.1389653832, 0.0726247802, 0.0169972517, 0.1518593580, -0.0708520040, 0.4838273525, -0.0869889036, 0.0025857822, -0.0020718293, 0.2724691927, -0.2035916150, 0.3066019416, -0.3532386422, 0.2259787023, -0.1153162047, 0.0894966349, 0.0607697852, 0.1412429214, -0.0761400685, -0.0259408075, 0.1762794405, 0.1595909148, -0.2753473520, 0.0511609726, 0.0913437679, -0.1529836059, 0.1241690889, -0.1489677280, 0.0742334723, 0.4618869424, 0.1010984704, 0.0236953702, 0.4856454432, 0.0498879999, -0.1550746709, 0.2241401672, 0.1948927343, 0.1336428523, -0.1973956823, -0.3484575748, -0.1326196939, 0.1710325629, -0.0755388215, -0.1901379526, 0.1086279154, 0.0879936218, -0.0882358328, 0.1739976406, 0.5295740366, 0.4741161466, -0.1033392623, -0.0992091373, -0.0300177950, 0.2679496109, -0.2033312172, 0.1786106825, -0.1214562654, -0.1006232649, -0.1799455583, 0.2180491835, 0.0350424722, -0.1354544610, 0.1417474598, 0.2539791763, 0.1813742518, 0.1211335361, 0.0380777791, -0.0113093369, -0.1027449518, -0.0096543133, 0.1508481503, -0.0633583516, 0.0718338192, 0.1568331122, 0.1565342098, -0.1789667755, -0.1363829523, 0.1212168038, -0.0046823444, -0.0935366079, 0.0882802904, -0.0426828414, -0.1187615469, -0.0780906975, -0.1676834077, 0.2507574260, -0.0360365659, 0.1635176092, 0.2117258757, 0.2565961480, -0.1415967196, -0.3003394306, 0.2299980670, 0.2510215342, 0.0865294859, -0.0301920604, 0.1952203959, 0.2304992527, -0.0020268380, 0.0540111996, -0.0684101358, 0.0194891207, 0.0224671941, 0.1782279760, -0.2119727284, -0.1313970089, -0.0444133356, -0.0222544838, -0.2383920997, 0.2447994798, 0.0870643035, 0.1805333942, 0.1542731971, 0.2649585009, 0.1161812246, 0.1226076111, 0.0108704735, 0.1219024807, 0.0645941868, 0.0197757855, -0.0276871026, 0.1649565548, -0.0505046993, -0.1877777725, -0.1098093987, -0.1268445551, -0.0247016381, 0.2020357996, 0.1502863318, -0.1215308309, 0.0614452735, 0.0801245645, -0.0153736370, -0.0280143879, 0.1406941116, 0.1685896814, 0.0824826509, 0.0182728935, -0.0639360696, -0.1613804698, -0.0146143502, 0.0063617434, 0.0412094481, 0.0661838502, 0.0628558621, 0.1144223288, 0.0779627115, 0.1269081980, -0.1575892121, 0.2208465934, 0.1297443360, 0.2751113474, -0.1065099537, -0.0178228710, 0.1552099735, -0.1020147577, 0.0847484469, -0.0222686473, -0.1608747244, 0.0898701698, 0.0683013275, 0.2825252414, 0.0708104074, -0.0086742081, 0.0587650537, 0.2826896906, -0.1571405381, 0.1634374559, 0.1740881205, 0.0093520246, 0.2813556492, 0.1542096436, 0.2721293867, 0.0344098434, 0.0200421531, -0.0654022098, 0.2510558069, 0.2786108255, 0.1178633273, -0.0697028041, -0.0417566858, 0.2543770075, -0.1807553470, 0.0903986692, 0.0901963040, 0.1333626211, -0.1072741821, -0.0885309055, 0.0901837423, 0.0924583599, 0.0218961611, 0.1685084254, 0.1216232404, 0.0685843527, 0.1398563683, -0.0200388823, -0.1039961353, 0.1102124453, -0.0844301060, 0.0731151327, -0.1109909788, 0.0603860132, -0.0706283897, 0.0465856679, 0.2001395822, 0.0237169694, 0.1411519200, 0.0678995997, -0.0608314686, 0.0608367957, 0.1224850938, 0.1396717578, -0.0549738556, 0.0047654002, 0.1733270884, 0.0229169987, -0.0775960609, -0.0582176708, 0.1342595667, -0.0516422726, 0.1851116121, -0.1773482263, 0.0915996507, -0.1606799215, -0.0004604564, 0.0097431485, 0.1550012380, 0.0513158254, 0.1571368426, -0.0234320387, 0.1187333167, 0.0727677047, -0.0362741314, -0.0160818063, 0.1450284570, -0.0163849872, 0.2081238031, 0.0542680733, -0.1111239344, -0.0387418903, -0.1102933288, -0.1007713228, 0.0737468004, 0.0663717687, 0.0719112158, -0.1750807613, 0.0292971339, 0.2661373913, -0.1940383315, -0.0542137995, -0.1195388064, 0.1659031957, -0.1037795767, -0.0875616744, 0.2566823065, -0.0254471637, -0.1470989138, -0.0831255242, 0.1005412042, 0.2199939340, -0.2153618634, 0.1269412041, -0.1783884317, 0.0590207651, 0.0338894613, 0.0479617193, -0.0300402455, -0.0517618097, -0.0764289871, 0.0987564549, 0.1392803192, -0.0799837634, -0.0986154005, 0.1143246219, -0.0626279637, 0.3649215996, -0.1689351052, 0.2809491158, -0.0657712519, 0.1745098531, 0.0882255360, 0.0782677904, 0.0858974755, 0.0467027426, 0.1035700887, -0.0351667702, 0.0079770191, -0.0860683993, -0.1171359271, -0.0822180435, 0.1235187501, 0.2244293243, 0.0204383750, 0.1078724936, -0.1110156775, 0.1613783240, 0.2631849945, 0.0199974068, -0.3774383962, -0.0790309384, -0.1622026861, 0.0191426817, 0.0907728970, -0.0956372470, -0.1148931384, 0.1700913161, 0.0706255212, 0.0146848531, -0.0867401958, 0.0776113123, 0.0762337595, 0.0000990957, -0.0497461781, 0.0557985120, 0.1068545803, 0.0584846996, -0.0527523793, 0.0281975456, 0.1154915020, 0.2418497652, 0.0657834560, 0.0780693367, 0.0523911454, 0.3282065392, -0.0292201601, 0.2493535131, 0.2021799982, 0.0567817688, 0.0740566999, 0.2825161219, -0.0162774101, 0.0445822626, 0.2760835886, -0.1144400537, 0.0185375735, -0.1502570212, -0.1382741630, 0.0502132326, 0.0688206926, 0.0277624745, -0.0699753761, -0.0044563864, 0.0176931545, -0.0214724708, -0.1538214982, -0.0028335024, -0.1011959016, -0.1150970683, -0.0310415290, 0.0770899206, 0.2314167619, 0.0407362282, 0.0411243290, -0.0696714371, 0.0882590637, -0.0948510319, -0.1488944441, -0.0002287922, -0.0331787504, -0.1096669286, 0.0282184109, -0.0109246681, -0.2085466832, -0.0163383484, 0.0158159267, 0.0057621123, -0.1321193725, 0.1265831739, -0.0543043613, -0.0478418581, -0.0197607707, -0.1895831078, 0.0870143250, 0.1521649808, 0.2022733837, -0.0800258890, 0.0133785307, -0.0952438712, 0.0177289341, 0.0164261274, -0.0084369443, 0.1099419296, 0.0670563802, 0.1572527587, -0.0570104308, 0.2091262192, -0.0599376373, 0.0766662210, 0.0036397909, -0.1067433879, 0.1910793036, -0.1176373437, -0.0031539716, -0.0881188810, 0.0339206718, 0.0589449666, -0.1160152256, -0.0459300727, 0.0759850815, -0.1234061718, -0.0277107786, -0.0786215439, 0.0046133152, -0.0021193444, 0.0792774186, 0.0499715917, 0.0126427794, -0.1056367382, -0.1305775493, 0.1579301953, -0.0929813161, -0.0191522501, 0.0458965972, -0.1087843776, -0.1270460933, -0.1452995837, 0.0381177776, 0.0894324780, 0.0017554000, 0.1285279542, -0.0108704790, 0.0981512591, -0.0497861765, -0.0943520218, -0.0098315058, 0.0488268323, -0.1749600917, -0.0950185359, 0.1420719028, -0.1926483661, 0.1633808315, 0.0001089068, 0.1152355745, 0.1315254122, -0.0439234674, -0.0812330842, -0.0409446582, 0.1966310889, -0.0844363123, 0.0708209947, -0.0392914899, 0.0426098369, -0.0881823525, 0.1267416924, -0.0763207972, -0.2542747557, -0.0254446398, 0.1951529086, 0.0906211808, -0.0187683888, 0.0490807220, 0.0761831701, 0.1596233547, -0.1250539273, 0.0627736822, -0.0713165626, 0.1348148882, 0.1609321088, 0.0319745541, -0.0686782748, -0.0881734192, 0.1488534510, -0.0149729224, 0.0299940258, 0.1673236191, 0.1977731138, -0.1617719680, 0.0694151446, 0.0200358182, -0.0472530425, -0.0176474545, 0.1226925850, 0.0944095477, 0.1314438730, -0.0544422492, -0.0106923617, 0.0686803013, 0.0146632865, 0.0427968130, -0.0829349458, 0.0462389514, 0.1940324754, -0.1372645497, 0.0156420562, 0.0391520038, 0.1463483274, 0.1357740015, 0.1675018519, -0.0731384009, -0.1673566103, -0.0744955912, -0.2376808822, 0.0747111365, -0.1759968251, 0.0185319893, -0.1973873228, 0.3065984249, -0.4490698874, -0.2756496072, -0.2073298246, 0.1461431682, 0.0283938777, 0.0514389612, -0.2646312714, -0.1774465591, -0.1170267016, 0.0688526034, 0.2385245562, -0.1533090621, 0.1811826229, -0.0977768600, 0.0894193575, 0.1472906023, -0.2184375226, 0.0038249353, -0.1476247609, 0.0093023842, -0.0999243632, -0.2690459788, -0.2252081931, 0.1181710362, -0.0419782549, 0.1033014581, 0.0292534325, 0.1271168739, -0.0686583966, -0.0852370039, 0.1439677179, 0.0832463279, -0.0685704276, 0.1403498948, -0.2749278545, 0.1973412931, 0.3419874310, 0.3791237772, -0.3898457885, -0.1549143642, 0.0223003309, -0.2207927555, 0.2190028429, -0.1780476421, -0.2169929147, 0.1860182285, -0.0070740543, 0.1107924730, 0.1085458770, -0.0281834211, 0.2075937092, -0.0207513589, -0.0461680554, 0.2600109875, 0.0731185526, 0.0639301166, 0.0208993442, 0.1124630645, 0.0330133252, 0.1858733296, -0.1418278962, 0.0233933236, -0.1746119857, 0.2555061579, 0.2513478696, 0.0517187230, -0.0300363079, -0.1469352394, 0.2136498243, 0.1791902781, 0.1589535475, -0.2078222930, 0.0522669591, -0.0557357557, -0.0267324373, 0.0194436628, 0.0287316218, 0.3875221312, -0.1302074641, -0.1024635211, -0.0405353941, 0.2993721962, 0.1182074845, 0.1396165490, 0.2801350057, -0.0666876659, 0.0103934733, 0.1470199823, -0.1231098846, -0.0966743976, 0.1305972040, -0.1979777068, -0.3519374728, 0.1779946834, -0.3766298294, 0.0391921885, -0.0395787507, -0.2029457688, 0.1174824759, 0.0113009596, 0.0104883146, -0.2073372453, -0.1535583138, 0.0675175339, -0.2545464337, -0.0958876163, 0.2824082077, -0.2041655034, 0.2036728710, -0.0771020427, 0.0703404546, 0.1491600275, -0.0961575210, -0.0201156139, -0.0502987169, 0.1012053788, 0.0303060953, -0.1059205756, 0.0967295915, -0.3537653089, 0.0537655056, 0.0618260242, 0.1562991589, 0.1740201712, 0.0341608748, 0.0928767100, 0.1823804677, 0.0157804899, 0.2693758905, -0.2124473602, 0.0754809976, -0.0877855569, -0.0117860306, -0.0245647710, 0.1993076801, 0.2135010660, 0.1579119265, -0.3140037060, -0.3503994644, -0.2371388227, 0.0364215486, 0.2970797122, 0.1010108441, -0.0218917970, 0.0419993512, -0.1230330616, 0.1316492409, -0.0786917210, -0.0017311691, -0.0391877778, 0.1131231114, -0.0289645623, -0.0110659292, 0.0155882118, 0.0155456206, -0.0760171786, 0.0633623376, -0.0028405136, 0.1454174370, 0.0412322134, 0.0491346568, -0.1480810642, -0.0105420658, -0.0278383568, 0.0692913309, -0.0170172956, -0.0415856540, 0.0028142910, 0.0698260739, 0.1441321671, -0.0909098685, -0.2082848698, 0.1340920180, -0.1757612675, 0.0063619600, -0.0186129082, 0.0644074082, -0.0145062786, -0.2585417628, -0.1388418525, 0.1143602580, -0.0665249825, -0.0115643004, -0.0511907712, 0.0847077519, -0.0194142647, -0.1568792462, -0.0568370931, -0.0469278134, -0.0559141636, -0.0100442534, 0.0058281063, 0.0261284877, -0.0030253197, -0.2707254291, -0.0789086744, -0.0188892670, -0.1214446351, -0.2232673168, -0.1485127062, 0.1782212853, -0.0539836660, -0.0709772334, -0.1948758662, -0.0438483395, -0.0847674087, 0.0075166053, -0.0490534492, 0.0379670933, -0.0742686167, -0.0978281796, -0.0870843157, 0.0341389105, -0.0479546897, 0.0249188133, 0.0511573479, 0.0409894027, -0.1074812934, 0.0354062282, 0.0122666210, -0.2216728777, 0.0130616324, -0.1807122827, 0.1176993251, 0.0575841516, -0.0348222069, 0.0726718381, -0.0714073181, -0.0303234737, 0.0166611727, -0.1534977108, -0.1745324880, 0.0700659007, 0.0434191823, -0.1099614874, -0.0601793900, -0.0981374606, -0.1454915553, -0.0234790500, -0.1066642180, -0.1545683891, -0.0764767155, -0.0973016024, -0.0745063126, -0.0629528761, 0.1369479597, 0.1482162625, -0.0437921770, 0.0432487056, 0.0014214137, 0.1398695111, -0.0849230736, -0.0478073135, -0.0061636651, -0.0206586327, 0.0920252800, 0.2274898440, -0.0215011556, -0.1467197984, -0.2212974727, -0.0424630567, -0.0647679195, 0.1591829956, 0.1350917518, 0.1192360818, 0.0163996425, 0.0520590954, 0.0171294119, 0.0972146317, 0.1537865996, -0.0028633098, 0.1446265280, 0.0317149907, 0.0500820279, -0.0720638484, 0.1612503678, 0.0397479013, -0.1403013915, 0.0902364701, 0.0581786595, -0.0039358987, -0.0467671975, 0.0918594599, 0.0274986010, -0.0395878442, -0.0661101416, 0.1865528822, 0.0050198017, -0.1316555142, -0.1428128481, 0.1070324704, 0.0523018166, 0.0624245368, 0.0983529910, 0.1409604549, -0.0899300277, -0.0406823941, 0.0608514510, 0.0628139228, -0.1604364216, -0.2117280513, 0.0889474228, -0.1746573895, -0.0493429229, -0.0136904307, -0.1356041431, 0.1236570328, 0.0194033831, -0.1493529677, 0.1778824180, -0.0090848692, -0.0943247080, -0.1017801762, -0.0273950435, 0.0352449082, 0.1010089964, -0.2172003090, 0.0051286616, 0.0347558372, -0.0684164613, -0.1885203272, 0.0396006182, 0.1352811903, 0.0523418300, 0.0138066933, 0.0493844226, 0.3184218109, -0.0481221043, 0.0789265931, 0.0374780782, 0.0185364913, -0.0731973350, -0.0188447386, -0.0442684814, -0.0443459414, -0.1151027307, -0.1383749843, 0.0348349065, 0.2656296492, -0.2786624432, -0.0491018035, -0.1236106977, -0.0330077820, 0.0071668075, 0.1447262466, 0.1548585594, 0.2942728102, -0.0817734450, -0.1546913534, 0.1080310866, -0.0060777757, 0.0251025558, 0.0835374221, 0.1391192079, 0.2679288983, 0.0288200136, -0.2120648623, -0.0973333940, 0.1090084761, 0.2242046148, 0.1981417835, -0.1116893888, -0.0361497477, 0.2009243667, -0.0128865503, 0.5100198388, -0.1601727009, 0.0202408209, -0.3139548302, 0.1199893728, 0.0964130759, -0.1155793667, 0.1279336065, 0.0472073629, -0.0460552014, -0.0779978260, 0.1250866503, 0.0093646273, 0.0243734308, 0.1723445058, 0.0994868502, 0.0122634219, -0.2360069305, -0.0013824723, 0.1315160543, 0.0966023654, 0.0501730740, -0.1299958825, 0.0158164110, -0.0348428600, -0.1294050366, 0.1876388341, 0.0529886857, 0.0782419741, -0.0305860285, -0.0127895279, 0.1894009709, 0.0594128929, -0.0092901336, 0.1173737645, 0.0494501293, -0.0972032249, 0.0548794344, 0.0694765449, 0.1288373321, 0.0312691033, -0.0368469097, -0.1168819889, 0.0440088622, -0.1316490918, 0.0229335837, -0.1465432644, 0.0106093539, 0.0145890620, -0.1299495101, 0.0157012735, 0.0700337738, -0.1163500473, 0.0188273005, -0.0714828521, 0.1310238093, -0.0052979426, -0.1031583846, 0.0717933252, 0.1049248949, 0.0483747199, 0.1685786098, -0.1704728454, -0.1685793549, 0.0834138915, -0.0672286078, 0.0708161071, 0.1007953733, -0.0294750892, 0.0009621715, 0.1296442598, 0.0695453212, 0.0681748912, -0.1648650467, 0.0699351653, -0.0994713753, -0.1316533536, 0.0171386749, -0.1312437207, -0.0773203522, -0.0448042080, 0.0685779974, -0.0134601062, 0.1547035426, -0.0650943667, -0.0343743376, 0.0396588296, 0.0047768396, -0.0178616568, -0.0607571937, -0.0050599356, -0.0677340776, -0.0531073771, 0.0039902474, -0.1468574256, 0.0424659289, -0.0836365670, 0.0284025315, -0.0331337862, 0.0064530433, -0.1876239777, -0.0252563301, -0.0165638756, 0.1049567610, -0.0632652119, -0.0190582015, -0.1219051629, -0.1563106179, -0.0297569167, -0.0131596271, -0.0689010024, 0.2553218007, -0.0562636852, 0.0271070525, 0.0374150947, 0.0422005877, 0.0681382492, 0.0076559377, 0.1006481573, -0.0246296450, 0.0799315572, -0.1876697391, 0.0041968916, -0.0710949004, -0.0620407090, -0.1607911736, -0.0769627541, 0.0968233645, -0.0676496625, -0.0316103995, 0.1464731246, -0.0041446891, 0.0260665324, -0.0624526888, -0.0245950948, -0.0856187940, 0.0323631167, -0.0896667466, 0.1992329508, 0.0422148481, 0.0858939961, 0.0438648984, -0.0079947971, -0.0508673973, -0.0042110314, 0.0267111268, -0.0462750345, 0.0066611273, -0.0085278954, -0.1767819673, 0.0407130904, 0.0221795887, -0.0019294426, -0.1088091806, -0.0128928674, -0.1855210811, -0.1730036885, -0.0068517509, 0.0110146096, 0.0911128893, -0.1498577297, 0.0311188437, 0.0389714204, -0.0557721369, -0.0895913094, -0.0960466042, -0.0774014741, -0.0437857322, 0.1189618856, -0.0718506351, 0.1528944373, -0.1723281741, -0.1591756493, -0.0602777749, 0.0061824983, -0.0319261663, 0.0414782353, 0.0038579539, 0.0418013185, 0.0353818648, -0.0236260314, -0.1701574326, -0.0324681513, -0.0119745787, -0.0434900448, 0.0482213795, -0.0188619662, -0.0207147654, -0.0406717993, -0.0129888104, 0.0930452868, 0.0257926397, -0.0672700927, 0.1691797674, -0.0644650832, 0.0888901502, -0.0117803449, -0.1719836146, 0.0617041476, -0.0579477474, 0.0324455500, 0.0260223523, 0.0235826261, -0.1015494615, 0.0558208153, -0.0428194925, 0.1274439096, 0.0555242561, -0.0054641552, -0.0747943372, 0.0103498120, 0.0209968872, 0.0871906653, 0.0053843823, -0.0972540975, -0.0708694607, -0.0207752958, 0.0739580765, -0.1149856150, 0.1105884016, 0.0700734481, -0.0343656205, 0.1642540395, 0.1394054294, 0.1046041623, -0.0694853216, -0.1367094070, 0.0161371902, -0.0877112150, 0.1392184794, -0.0523350164, -0.0520424098, -0.1176860183, -0.1115135700, -0.0506497324, 0.1663758159, 0.2101947069, 0.1361418217, -0.0261987988, 0.0896050632, -0.0139564369, 0.0187866334, 0.0054337713, 0.0477999635, 0.0765167624, -0.0521036349, 0.0010272946, 0.1070060581, -0.1890506297, -0.0753359050, 0.1176606491, -0.0129864225, 0.0531209260, 0.0035880443, -0.1238737404, 0.0042181616, -0.1967403144, 0.0918570831, 0.0751924291, -0.0159506053, -0.0952138603, 0.0677254125, -0.1284721643, -0.0189964455, -0.0726239085, -0.0915663838, -0.0987544432, 0.0472778641, -0.0709687993, -0.0427319445, -0.0386554487, -0.0011635233, -0.1609055847, 0.0737785473, 0.1056862921, -0.0105722845, -0.1898109317, -0.0693899021, 0.0145873949, -0.0167363752, -0.1071703210, -0.2663227618, -0.0024564997, -0.0959772468, -0.1170857698, -0.1093506068, 0.0065349624, -0.0140350247, 0.0495997518, -0.0365507603, 0.1537577659, 0.1701566875, -0.1278756410, -0.0924486145, -0.0798710659, -0.0099753710, 0.0124685373, 0.0417470261, -0.0709575713, -0.1201531366, -0.2881263494, 0.0169007182, -0.1219378635, -0.0244259313, -0.0606168173, -0.0138669051, -0.0089314003, -0.0113163050, -0.1402009279, -0.1780677587, -0.0411264971, 0.1052730456, 0.0592933111, -0.0684743524, 0.0854693651, 0.0790342093, -0.0021449369, 0.0483892672, 0.0179417673, -0.1147124991, -0.0422184244, 0.1837577522, -0.0506896824, -0.1177608743, -0.0820426792, -0.0406046994, 0.0539535843, 0.0110028842, 0.0299924761, -0.0944489092, -0.0082308091, -0.0066797831, 0.1034197807, -0.0193335284, -0.0295048356, -0.0941658467, 0.1028102338, -0.0060179303, 0.0739811063, 0.0724191964, -0.0729295313, 0.0386932530, -0.0324964114, -0.0813051313, -0.0188766960, 0.1760583818, 0.0082278717, -0.0844755769, 0.0304460116, 0.0207552984, 0.2429784685, -0.2693381011, 0.0975575373, 0.1415877789, 0.0167994387, 0.1345934868, -0.1790466458, 0.0499385074, 0.0173306130, 0.1951000839, 0.0239191875, 0.1661711186, 0.2038702220, -0.0165614560, 0.0822975263, -0.0269666575, 0.0105980458, -0.0067320112, -0.0324851982, 0.0555033386, 0.2505132854, 0.1710956097, -0.1253459603, -0.0143309813, 0.1585028470, 0.1351626217, -0.1286586076, -0.0407521091, 0.0012400334, 0.0563275963, -0.0969521180, 0.2847546339, 0.1915999651, -0.1153063700, 0.1803939342, -0.1220080182, 0.1372492313, 0.3522464037, -0.1646692157, -0.0278468244, 0.0296555255, 0.1604038030, -0.0306840595, -0.0126764867, 0.0122989789, 0.0007554773, 0.0393508859, -0.0362077430, -0.0260365233, 0.0126144467, 0.0483147241, -0.0803914592, 0.0333949439, 0.0462707616, -0.0166515410, -0.0491720103, 0.0312906168, 0.0732538402, -0.0331522934, 0.0609256364, -0.1505485177, 0.2334233224, 0.0270986930, 0.1183623597, 0.0084089218, -0.0577630736, 0.1536165774, 0.1590374857, 0.1546222121, 0.0035914853, -0.1404785365, -0.0878682956, 0.1070093438, 0.2040213794, 0.0956871063, 0.0740532726, 0.0275148600, 0.1405058652, 0.0462805033, 0.1674388796, 0.0019707498, -0.0443029217, 0.0211016275, -0.0594423711, 0.0094143609, 0.3111619651, -0.0011847828, 0.0090635326, 0.1202567071, -0.0339523777, 0.0094580613, -0.1006747335, -0.0105302688, 0.1073126867, 0.0358601809, 0.0275677126, -0.0511750653, 0.0500857607, -0.1755713224, 0.2171752751, 0.1026386693, 0.2578376234, 0.0313641019, -0.1383467019, -0.1610523760, -0.1324113011, -0.0867929161, -0.0216877665, -0.0237399060, 0.1922776550, -0.0054560066, 0.0149630848, 0.0330847614, -0.0163641628, 0.0067667770, 0.2356888503, 0.1788672954, 0.1301692575, 0.0204312261, 0.0969342068, -0.0695216954, -0.0952368602, -0.0282163881, 0.1427591294, -0.0815651193, 0.0972455963, 0.0114685493, 0.0833385512, 0.0620317012, 0.0325047709, -0.0481501259, 0.0638611913, -0.0112664904, -0.0953858644, -0.2348696440, -0.0149262333, -0.0759559497, -0.0169268101, 0.0138174593, 0.2062391937, 0.0799907446, 0.1619407982, 0.1541716605, -0.0433991402, 0.0864241272, -0.0529086180, 0.0758984312, -0.0223979522, 0.0564014651, 0.0914758369, -0.0178431850, -0.0153171625, -0.0561650842, 0.0913090035, -0.1370720863, 0.0918390229, 0.0815863460, -0.0568000674, 0.0629345402, -0.0279814489, -0.0320977196, 0.0237522665, -0.0004289647, -0.0685778186, -0.0195141863, 0.0608158596, -0.1258050054, -0.0563832074, -0.1096536517, 0.0859676450, 0.0216695108, -0.0301392991, 0.0377952345, 0.0251902454, -0.0539335050, -0.0072901244, 0.0593898408, -0.0151474429, -0.0094811041, -0.0299271401, 0.0201188698, 0.2183285803, -0.0820172578, 0.0162421782, -0.1013175920, 0.0446887277, 0.0301418975, 0.0694735944, -0.0097193904, 0.0260621980, 0.0591242909, 0.0557542294, 0.1620562077, 0.1232207045, -0.0279701091, -0.1114676371, -0.0188067947, -0.0684070662, 0.0520910434, 0.0261231903, -0.0472296365, -0.0220767446, 0.0194440912, -0.0505823791, -0.0785693005, -0.0321358554, 0.0273409635, -0.0361943543, 0.0493125990, -0.0993249267, -0.0772351921, 0.0114253722, 0.0441353656, 0.2431446910, -0.2304009795, -0.0163766928, -0.0679580867, -0.0358071104, -0.0988601893, -0.0143199293, -0.0270079337, 0.0437275842, -0.0319687985, -0.0092443014, 0.1116825864, 0.1072294936, -0.0429543257, -0.0360762291, 0.0448733233, 0.1165934652, -0.0777494237, -0.0015948394, -0.0685510039, 0.0557014346, 0.0539770648, -0.0106699001, -0.0728125796, 0.0352683924, -0.0989394784, 0.0143615538, 0.1019967720, -0.0454438813, -0.0325245522, 0.0059416485, -0.0473771095, 0.0278848521, -0.0792177245, 0.1366247684, 0.0322370194, 0.0215209257, -0.0038650678, 0.1368893683, -0.1257665455, 0.0662282333, -0.0141180046, -0.0411972925, 0.0446083620, 0.0860033706, -0.0029091297, 0.0105496943, -0.0591987930, -0.0567477532, 0.0005595809, -0.0841977969, -0.0990790278, -0.0168492738, 0.0093994047, 0.0590076298, 0.0516199134, 0.1842874289, 0.1333558261, -0.0594640300, 0.0575844869, -0.0489286147, -0.0772361532, 0.1304002404, 0.0775464848, 0.1261032671, -0.0278949123, 0.0252104271, 0.0401591323, 0.0450527668, 0.0802835375, 0.0804950744, -0.0543525293, 0.0589062944, 0.0294184517, 0.0777882412, 0.0945938602, 0.0557913743, -0.0212478414, 0.0325593539, -0.2230231166, -0.0091900267, 0.2012244463, -0.1699797362, 0.1575283408, -0.0980425850, -0.0685143173, 0.0616650954, -0.0895440951, -0.0474268794, -0.0086412160, -0.1897461563, 0.0265130512, -0.1551920176, 0.0685860887, -0.1517244726, 0.1863007694, 0.0594749004, -0.2124884427, -0.0720354319, 0.0757969543, 0.0590175018, -0.1187436953, -0.0239184815, -0.0560502373, -0.0742090493, -0.1745001376, 0.0931918919, -0.0040970063, -0.0890941471, -0.0311836582, 0.0759531558, -0.2247937173, -0.0813789591, -0.0671752244, -0.0245712660, 0.2453520894, 0.0481391586, -0.0916459709, -0.1111638919, -0.2317951322, -0.0135268494, 0.1161385253, -0.1704811752, -0.0139314309, -0.1074412763, -0.0628879145, -0.0485836715, -0.1733476371, -0.1235785335, 0.0295197070, -0.0010568773, 0.1917087734, -0.0576200746, 0.0226669312, -0.0179046616, 0.2631814480, -0.1044649109, 0.2064707577, -0.1378169805, 0.0955629870, -0.0823826939, -0.0750168562, -0.0620370619, -0.2313956618, -0.0707282051, 0.2793814242, -0.1292846352, -0.1651608944, 0.0279438663, -0.0432444736, 0.1026988998, 0.0189979840, -0.2267935574, -0.0151711926, -0.1303379238, -0.2276699245, -0.0111994436, 0.1318293214, -0.1223506778, -0.1202757582, 0.0959959328, -0.0221487656, -0.0911989138, 0.2537214160, -0.0850504264, -0.1301714182, -0.0322801918, 0.0282751340, -0.3313733041, -0.0374331549, -0.0630069599, 0.0492990837, -0.0931502879, 0.0044877515, -0.0930893496, -0.3711344898, -0.2042740285, 0.1220376939, -0.0083415890, 0.0625417009, -0.2331933230, -0.0706573948, -0.0353794061, -0.0609959364, -0.1919145882, 0.0303259920, -0.1364051998, -0.2978137136, -0.1728640646, -0.0531431027, 0.0164565723, -0.0128313722, -0.1990353167, 0.1185105741, -0.1767442077, 0.1447403580, -0.1942222565, -0.0544334352, -0.1726229489, 0.1088555381, -0.1712252647, -0.1002800614, -0.0765855610, -0.1954655647, 0.0068027526, -0.1251728684, -0.0358864106, -0.1328431964, 0.0169853847, 0.2149295509, 0.0763259307, 0.0683591813, 0.0948477909, 0.0519921370, -0.0977427810, 0.0293861032, -0.3291366696, -0.0099763805, 0.1737424880, 0.0634405911, -0.1443626285, -0.1747366488, -0.0288899466, 0.0622529052, -0.0568046197, -0.1068664119, 0.0114479251, 0.0428244919, -0.0491989292, -0.0112016192, 0.1298427582, 0.0843432918, 0.0129194595, -0.0664134398, -0.0534755178, 0.0233785175, 0.0943077281, 0.0366277695, 0.0526030995, -0.0278680138, -0.0079367189, 0.0493825302, -0.0691769868, -0.0957225487, 0.0349408500, 0.0061887759, 0.1570690870, -0.0262695756, -0.0529871471, 0.0513358042, -0.1042627171, 0.1331005692, 0.1843505353, 0.0062884511, -0.0391707718, -0.0483827069, -0.0604315624, -0.0747060329, -0.1284679770, 0.0122314990, -0.0358864740, -0.0825035945, 0.0899347663, -0.0064876075, 0.0199270230, 0.0385426432, 0.0014091325, -0.0059432560, 0.0619138069, -0.0023506668, 0.0363193825, 0.1048417762, -0.0402937084, -0.0180583727, -0.1695669144, -0.0219266359, 0.1030869037, 0.1103316247, -0.0045391717, 0.0095636500, -0.0790508315, 0.0789968744, -0.0532342643, 0.0213134084, 0.0178088378, -0.0329235122, 0.1856003553, 0.0418682173, -0.0330165550, 0.0170440264, -0.0062725721, 0.0168938264, 0.1098313481, 0.0331716277, -0.0766483322, 0.0094965296, -0.0114519624, 0.0738980025, 0.0864807144, 0.0563413166, 0.1291834116, 0.0035819127, -0.0440404192, 0.0191434622, -0.0194105133, -0.0115288068, -0.0742119923, -0.0036520136, -0.0928741693, 0.0171047375, 0.0647695661, -0.0545669235, 0.0105607212, -0.1082041189, -0.0304644275, 0.1168100908, 0.0305122286, 0.0586548522, 0.0248587895, -0.0483217873, 0.0846888348, -0.0200160425, -0.0098304451, -0.0601069927, -0.0534061976, 0.1013483256, -0.0319806784, 0.0395396538, 0.0370509028, 0.0374881215, -0.0667903125, 0.0413076580, 0.2540209591, -0.0935879499, 0.0087301899, 0.0455563068, -0.0602233261, 0.0650442988, 0.0267273355, -0.0103206644, -0.0475826599, 0.1287234873, 0.0296750870, 0.0056257257, -0.0382144861, 0.0596444272, -0.0761939734, 0.1258738786, 0.0154424971, 0.0480096638, -0.0727081522, 0.0457629301, -0.0326408632, -0.0076260460, -0.0660279468, 0.0124474661, 0.0277638193, -0.0052769198, -0.0073708766, 0.0130034564, 0.0793391094, -0.0086319968, 0.0746367946, 0.1503155529, 0.0206430238, -0.0471057072, -0.0274613798, -0.0513488464, -0.2115163356, -0.2440885007, -0.2216784060, -0.0494413972, -0.1094204634, -0.0274945609, 0.1586421728, 0.0379365981, -0.3209590912, -0.1190589592, 0.2611799240, -0.2689268589, -0.1517483890, -0.1810042858, -0.1834194511, -0.3272621334, -0.0247095916, 0.0154325133, -0.2218525410, -0.1232171133, 0.0778522342, -0.1317744106, -0.1963424981, -0.0377553143, 0.1771695465, -0.1931696683, -0.1021241620, -0.4207547009, -0.2023681849, 0.0251690205, 0.0032328290, 0.2623541951, 0.1395812780, -0.1905844957, -0.0964942649, -0.0360825434, 0.0741090849, -0.0856708884, 0.0199891180, -0.0910624340, 0.0762143433, -0.0875773281, 0.1415631622, 0.0063324496, 0.0012305730, 0.1190881804, 0.0835604593, -0.0887824073, 0.1095294058, 0.0184581857, 0.0504834987, 0.0053346273, -0.2173533887, -0.4554975927, -0.0069554774, 0.2512699068, -0.0077056601, 0.1469816267, 0.0868381038, -0.1901394725, 0.2372359186, -0.3529440165, -0.0116436528, -0.0602786429, -0.1216568127, 0.1475147158, 0.4101505280, -0.2117489129, -0.1045495942, -0.0246583577, -0.3048726618, -0.2358725518, 0.0811305195, -0.0346639678, -0.1742716879, 0.0595839508, -0.1835775673, 0.0736948773, -0.0477721766, -0.1160970703, -0.2755147815, -0.0038760034, 0.2351594567, 0.1124517843, -0.1345897168, -0.2021998167, -0.1122539490, -0.0578858554, 0.2508411109, 0.0050810729, -0.1417462379, 0.0304517131, 0.1294769347, 0.1938068122, -0.0433941111, -0.0601013973, 0.1759577543, 0.0001395027, -0.3277364075, 0.1420925260, -0.0254171342, -0.2204280496, -0.0787647441, -0.1333876550, -0.0661456287, 0.0274728350, 0.1136353314, -0.0285038166, 0.0442981422, -0.2086175829, -0.1331352144, -0.2895689011, -0.0564622730, 0.2360964268, -0.1003070921, 0.1608177572, 0.1045072675, -0.0170089193, -0.1391609907, 0.1214552522, -0.0772453547, -0.1455307305, -0.4686022699, 0.0366224796, -0.0467814058, 0.1929736435, 0.0359996594, -0.0101344669, -0.0886258259, -0.0176765956, -0.0396671817, -0.1676082909, 0.1110609695, 0.0901890472, 0.0692674890, -0.1144409627, -0.0987751931, 0.1232608333, -0.2332988679, 0.1275519133, -0.1881044060, -0.2019800991, -0.0603025444, -0.0570712462, -0.0371681266, 0.0316402353, -0.0436376072, -0.1589151323, 0.0780937895, -0.0602543280, 0.1382763833, 0.1022819653, 0.0396182351, -0.1387365460, 0.1481015533, 0.0759406760, 0.0435313545, 0.0121633662, 0.0144992908, 0.1348510832, -0.0024520971, -0.1670219302, 0.0086869439, 0.0610268265, 0.2016776502, -0.2120950371, -0.3208028376, 0.1331760734, -0.0039779176, -0.0556757599, -0.0213831216, -0.0471970849, 0.0283773001, -0.0615714230, -0.0998094901, -0.0659432039, 0.1096096858, -0.0235803854, -0.0494915582, -0.0901351944, 0.1713202745, -0.0591335557, 0.0984320715, 0.0380330384, -0.0951010212, -0.1947475821, -0.2449916452, 0.2208778411, 0.2950488925, 0.0849788040, -0.0594108626, 0.0475736186, 0.1345263869, -0.0899050385, -0.1199970245, -0.1861063838, 0.0338034518, 0.0163673013, 0.2723182440, -0.0331602246, 0.0576499514, -0.3416052163, 0.1691104919, 0.0854674727, 0.0197874475, -0.0353933722, -0.1214001700, 0.1413825154, 0.0940677673, -0.0954861715, 0.0260692984, 0.0355917178, 0.2364614457, -0.1400523484, 0.0725475773, -0.0080651538, 0.0353207439, 0.0186232198, 0.1826275140, -0.1164103821, -0.0038013989, -0.0803068280, -0.1273440570, 0.0098568620, 0.2352728993, -0.1166343540, 0.0047171102, -0.3087257743, 0.1222180575, 0.1172375679, 0.1282800138, -0.1372727752, -0.0133750653, -0.1062155813, 0.1029131338, 0.0304022357, -0.0682446361, 0.1632779837, -0.0467444696, 0.0455274321, -0.0152875911, -0.0927078798, -0.0341552608, -0.1743800491, -0.0429006591, 0.0660470054, 0.1148942485, 0.0008832652, 0.4010431767, -0.0245143156, 0.0060891979, 0.0633848533, 0.0731149316, 0.0686572269, 0.1444321573, 0.0117179332, 0.1898899376, -0.0152932080, -0.1751271784, -0.0252318699, 0.1970807910, -0.0304701533, 0.0528824665, -0.0072954441, 0.1813314706, -0.1087576821, -0.0837947130, -0.1447175592, 0.1193549037, -0.1239994392, -0.0035684304, 0.0762596801, 0.1422875971, -0.0406154096, -0.0582936332, -0.0457558297, -0.0242210031, 0.0023522903, -0.0218989961, 0.2790282071, 0.0276714899, -0.0093785003, -0.0306009687, 0.0541241877, -0.0054542655, 0.1021638736, 0.0194980539, -0.0793972015, -0.0422946885, 0.0665603429, -0.0615225434, -0.0284794457, 0.0137923621, 0.0137727279, -0.0548151620, 0.1596980393, -0.0572701171, 0.0104763685, -0.0283518732, 0.0517568327, 0.0665559396, -0.0066668689, -0.1896458864, -0.0099104680, -0.0286760349, 0.0612645745, -0.0826870203, -0.0212862864, 0.0327814557, 0.1624123752, 0.0280606374, 0.0766572952, 0.0820327327, -0.1175007671, 0.0589649044, -0.0564838275, 0.0794116780, -0.1680204272, -0.0010306736, -0.0272773840, 0.0273818281, 0.0770044997, -0.0858797058, -0.0003577552, 0.0255635772, -0.0105139986, -0.1014484763, 0.0660605431, -0.0603615902, 0.0461387262, 0.2242532372, -0.1793500483, 0.0160407778, 0.0321167782, -0.1182793379, 0.0870394707, 0.0717776418, -0.0400847346, -0.0893326551, 0.0241660979, 0.0178124532, 0.0431226827, 0.0681264251, -0.0259305928, -0.0609332286, 0.1454848796, -0.0284092166, 0.0266550891, 0.2060462832, -0.0269454177, -0.1578946561, 0.1087395027, 0.0231741983, -0.1402008981, -0.2019333839, -0.1009167284, -0.0372885801, -0.1175885946, -0.0218198877, 0.0372506082, -0.0402993187, 0.0284819268, -0.0250414498, 0.0167755634, 0.1664018929, -0.0770985559, 0.0148368692, -0.0453072339, -0.0058105723, -0.0344633944, -0.1345087141, 0.0686190948, -0.0501143858, -0.0067501315, -0.1094288602, -0.0148113547, -0.0230679642, -0.0147547955, 0.0268783178, -0.1480555683, 0.1391259283, -0.1229553297, -0.0512182675, -0.0125893336, -0.0066716312, 0.0227996055, -0.0126466071, -0.0254278630, 0.1621808112, 0.0654407516, -0.1377297491, -0.0325932093, 0.0167665314, -0.1251548082, 0.0379920006, 0.0092424229, -0.1202752069, -0.0055346587, -0.1428749561, -0.0114056375, 0.1106670946, 0.0211354084, -0.0259955581, 0.0203268025, 0.0172556676, 0.0172112789, 0.0706469119, -0.0256798547, -0.0404006019, -0.0313588753, -0.1178348586, -0.1188480556, -0.0592333488, -0.0379303731, -0.0825559720, -0.0180041716, -0.1014905721, 0.0048040054, -0.1041804552, -0.1106130928, 0.1818650663, 0.0770760104, -0.0863182098, 0.0451384969, -0.0703648329, -0.0171231534, -0.0469240174, -0.0700164288, -0.0259919856, 0.0047279345};
#endif

#endif
